100 128
1 0.264971 0.229666 0.106237 0.278196 -0.149826 0.767004 0.409923 0.130489 -0.099022 -0.138534 -0.535891 0.234615 -0.153723 -0.157959 -0.004652 0.225255 0.623033 0.223119 -0.588728 -0.773779 -0.357085 -0.357300 0.280715 -0.063523 0.568503 0.509152 -0.018066 -0.390629 -0.233254 0.066865 0.082217 0.178899 0.211392 0.346174 -0.082307 0.962897 -0.173273 -0.344372 0.667012 0.149927 0.168060 0.041693 -0.207741 0.305425 -0.079705 0.202743 0.074021 -0.553305 -0.848660 -0.333344 0.021011 0.770025 -0.132558 1.029727 -0.375584 0.168508 -0.423956 0.631726 -0.259003 -0.154064 -0.122460 0.021101 -0.289501 -0.052261 -0.571400 -0.137129 -0.220483 -0.299072 -0.218054 -0.022175 -0.289798 -0.063441 0.341958 -0.885821 -0.129503 -0.247264 0.107613 -0.059702 0.266019 0.137224 -0.346856 0.173577 -0.776289 0.136179 -0.698339 -0.243649 -0.258456 0.199396 -0.131591 -0.287950 -0.629207 -0.104727 0.481904 0.053322 -0.243630 -0.654968 -0.196833 0.349315 -0.053613 -0.635130 -0.285149 0.173379 -0.300204 -0.112863 0.206334 0.187984 0.414887 0.389871 -0.064465 0.477709 -0.196254 -0.067678 0.114221 0.168375 0.004038 0.472138 -0.266795 -0.139859 -0.588376 -0.302836 0.110516 0.017854 -0.484447 -0.417515 -0.561700 0.102942 -0.137354 -0.044023 
92 0.449300 0.095630 0.454375 0.296465 -0.065869 0.349373 0.676518 -0.426204 0.253964 -0.172064 0.283055 0.262874 0.119610 0.494762 -0.014030 -0.349038 0.490486 -0.361961 -0.075499 0.159426 -0.141734 -0.559044 0.288053 0.193809 -0.123446 -0.060187 0.052517 -0.010344 0.502441 -0.534428 -0.681643 0.121698 -0.111005 -0.269026 0.335214 0.521726 -0.219093 -0.960587 0.043847 0.033762 -0.196557 -0.197368 -0.073004 0.000081 -0.674544 -0.028773 0.077912 -0.241921 -0.540313 0.002269 -0.305805 0.461633 -0.557485 -0.405634 -0.487672 0.142237 0.055686 0.129498 0.809831 -0.210195 0.135710 -0.159479 0.203695 -0.176561 -0.494006 -0.772257 -0.059664 -0.244362 0.708055 -0.332277 0.650504 0.208097 0.126917 -0.907017 -0.365160 -0.225764 -0.676859 -0.212606 0.088108 0.677398 -0.511073 0.160551 0.319215 -0.022535 0.659770 0.186113 -0.212143 0.319782 -0.615664 0.104298 0.189654 -0.720702 0.479513 -0.042471 0.087207 -0.039998 -0.345079 -0.525080 0.241100 -0.461623 -0.244181 -0.221139 -0.414711 0.101695 0.091565 0.378693 -0.439323 0.338390 -0.486927 -0.066673 0.275470 0.136797 -0.205570 0.547216 0.189973 -0.034646 -0.451113 -0.239843 0.194430 0.241565 0.284744 -0.264159 0.273399 -0.206109 -0.095881 0.152665 0.072383 0.089428 
94 0.123826 0.666946 1.059741 0.526938 0.156334 0.243382 -0.736956 -0.431490 0.274378 0.070654 0.417365 -0.326582 0.312981 -0.244388 -0.055383 -0.137229 0.114707 -0.429279 -0.065570 0.196147 -0.572177 -0.288466 0.500709 0.113835 -0.266687 -0.383277 -0.271402 -0.573903 -0.051696 0.193721 -0.232121 1.243453 0.161262 -0.555563 -0.073780 0.862918 -0.241709 -0.299839 0.518075 -0.132840 -0.302349 -0.041293 -0.448528 -0.124989 -0.194101 0.396765 0.239765 -0.022201 -0.654150 0.681662 0.185850 0.306566 0.072347 -0.323649 0.165879 0.151048 0.331054 0.187860 -0.211670 -0.306209 -0.132420 0.666048 0.377679 0.112461 -0.311204 -0.023372 -0.033600 0.042320 0.164251 0.469348 0.492177 -0.210184 -0.357603 -0.371051 0.346277 0.007948 0.235680 -0.047034 0.215003 0.357239 -0.145720 0.069091 -0.362669 -0.154029 0.467367 -0.802819 -0.623588 -0.432539 0.223394 0.272153 0.327688 0.006884 -0.036693 -0.032715 -0.170966 0.807970 -0.144645 -0.121622 0.177501 -0.135361 -0.056469 -0.192836 0.124600 0.442100 0.658879 0.274938 0.514974 -0.391973 0.188369 -0.113084 -0.132303 0.236916 0.044680 -0.883844 0.155188 0.019273 0.256162 -0.435398 -0.112979 -0.321601 -0.474929 0.124770 0.352665 0.273487 0.041629 -0.007734 0.978237 -0.061328 
99 0.239785 0.411545 0.638966 0.880534 -0.119568 -0.017006 0.269735 -0.512579 -0.145001 -0.402950 -0.033142 0.741451 0.207098 0.339340 -0.183208 0.011354 -0.204220 -0.401055 0.056043 -0.416967 -0.541394 -0.398425 0.135636 -0.146950 -0.479903 -0.208768 -0.577605 -0.388553 0.310897 0.416932 -0.278940 0.350649 0.235250 0.052556 0.492579 0.574264 -0.625787 -0.310336 0.014811 -0.243158 -0.022507 0.244844 0.261212 0.008661 -0.003988 -0.145443 -0.331259 -0.419611 -0.368044 0.041669 -0.292334 -0.048164 -0.570637 -0.036702 -0.490867 -0.060145 -0.232013 0.312954 0.605159 0.227069 0.769916 0.288526 -0.387755 -0.309318 -0.604797 0.070781 0.398322 0.172940 0.519197 0.493204 0.409161 0.205044 0.273226 -0.730062 0.202051 -0.150561 0.205434 -0.646317 0.701737 0.761934 -0.176369 -0.120184 -0.269441 0.033370 0.723798 0.226574 -0.396131 -0.257997 -0.156982 -0.038956 -0.083672 -0.153182 0.083524 0.433770 -0.143115 0.457512 -0.294790 -0.056790 0.222818 -0.741810 -0.078282 0.485647 -0.230266 -0.084790 0.255736 0.361831 -0.041852 -0.296568 0.133142 -0.093274 -0.164060 -0.183572 0.124828 -0.192745 0.331706 -0.153277 -0.505573 -0.209763 -0.343458 0.365312 0.244315 -0.105497 0.305246 -0.485403 -0.067531 -0.463751 -0.159078 0.208896 
100 0.433302 -0.016775 0.421845 0.328887 0.050984 -0.066647 0.349094 0.042897 -0.187578 -0.030472 -0.159542 0.007974 0.177983 0.592131 -0.414629 0.045107 -0.100606 -0.276643 -0.309409 0.043994 -0.390415 -0.462067 0.157575 -0.329440 0.082382 -0.080934 -0.273368 -0.102158 -0.141091 0.367071 -0.389698 -0.133841 0.043722 0.121086 -0.039108 0.322653 -0.545266 -0.775754 0.023311 -0.257238 -0.121868 -0.269921 0.109797 0.197482 -0.664710 -0.494247 -0.296827 -0.414325 -0.413792 0.291915 -0.216931 0.733825 -0.289623 0.003965 -0.164586 0.234927 -0.778699 0.537874 0.789892 -0.464045 0.229975 0.045553 0.553101 -0.166960 -0.091501 -0.247036 0.063968 -0.180833 0.418993 -0.415296 0.746977 0.135741 0.719063 -0.732744 0.104468 0.125602 0.165563 -0.610459 0.680106 1.021048 -0.423566 0.564381 0.110572 0.126572 0.355880 -0.026245 -0.114337 -0.011331 -0.059647 -0.436746 -0.138428 -0.433922 -0.199789 0.343156 -0.104163 -0.180166 0.182235 -0.226425 0.287775 -0.613316 -0.147830 -0.473509 -0.423243 0.474138 -0.332114 0.090461 -0.096140 0.361803 0.181625 0.219749 0.062925 -0.461826 -0.297001 0.120750 -0.181892 0.079294 -0.123768 -0.188074 0.094420 0.302858 0.133855 -0.309425 0.236278 -0.464538 0.158959 -0.589943 0.196034 -0.104450 
2 -0.084479 0.998028 0.791762 0.697011 -0.174687 0.505458 0.061917 -0.783436 -0.073759 -0.536696 -0.339287 0.439275 0.180350 0.090400 0.368338 -0.348864 0.488177 -0.254569 0.074676 -0.709635 -0.200237 -0.390034 1.098200 0.305916 -0.188767 -0.519025 -0.304880 -0.490225 0.184807 0.316908 -0.396084 0.846990 0.261775 -0.344539 0.286525 0.746104 -0.457363 -0.680302 0.730169 -0.299563 -0.074228 -0.139683 -0.488989 0.141878 -0.109533 0.323631 -0.104865 -0.136008 -0.411784 0.195164 -0.203825 0.404121 0.038562 0.336384 -0.366037 0.395362 0.219991 0.246038 -0.116975 -0.620376 -0.344638 0.448721 -0.032389 -0.521825 -0.506436 -0.355164 0.042635 -0.367953 -0.089118 0.752183 0.399493 0.245396 -0.174683 -0.526477 -0.024872 -0.747305 0.104348 0.066880 0.489024 0.113986 -0.050326 -0.346628 -0.631415 -0.216950 0.378990 -0.181179 -0.729545 -0.307366 -0.417054 0.384614 0.586412 -0.302710 0.182634 0.032592 -0.146763 -0.168085 -0.586475 -0.097367 0.420927 -0.630127 -0.342344 0.351610 -0.370444 0.471772 0.439236 0.207373 0.039314 -0.170984 0.028842 0.050218 -0.514186 0.658521 0.481883 -0.252438 0.721327 -0.051141 -0.446484 -0.519942 0.158353 -0.089757 0.237098 -0.049935 -0.178260 -0.012078 -0.447557 -0.424247 0.069339 0.213415 
46 0.224479 0.017666 0.282944 -0.354504 0.001330 0.514631 0.073857 -0.665252 -0.598241 -0.183067 -0.781555 -0.365681 -0.268675 0.302750 -0.015899 0.443160 0.567827 -0.675319 -0.656251 -0.327158 0.405451 -0.242796 0.179488 -0.234955 0.317067 0.169217 -0.208330 -0.528506 -0.179310 0.370904 0.003683 -0.093760 -0.054126 -0.287642 0.362617 0.699071 -0.143113 -0.737194 0.258312 -0.120541 -0.378522 -0.366929 -0.118433 0.129781 -0.339602 0.374965 -0.008748 -1.131666 -0.521494 0.648795 -0.027672 0.295737 -0.087134 0.103083 -0.524935 0.798484 -0.440904 0.770621 0.549203 -0.354385 -0.584306 -0.293471 -0.077653 -0.042557 -0.196727 -0.333098 0.264406 -0.190937 0.825090 -0.280683 0.668046 0.281238 0.882786 -1.041313 -0.683564 0.059440 0.035524 0.154813 0.717692 0.468479 -0.498987 0.104514 -0.393655 -0.252776 -0.175473 -0.143675 -0.590792 0.253226 -0.446950 -0.577616 0.249845 0.113817 0.049010 0.261788 0.031180 -0.761272 -0.173811 0.248239 0.071693 -0.732673 0.497739 -0.286633 0.034633 0.379634 0.044484 -0.240215 0.298206 0.247656 0.165734 0.238552 -0.260750 -0.087125 -0.032286 0.436004 -0.011626 0.114106 -0.235125 0.024989 -0.411290 0.297865 0.193156 -0.169604 -0.187799 -1.020660 -0.126998 -0.024197 0.338874 0.599839 
71 0.185404 -0.148945 0.922427 -0.301087 0.315377 0.502638 -0.938921 -0.495607 -0.160574 0.124134 -0.476470 -0.505276 0.235767 -0.011443 0.064468 0.871116 0.370872 -0.301087 -0.865238 0.275453 -0.677334 -0.619177 0.116222 -0.313351 0.469691 0.335418 0.191530 -0.502030 -0.573023 -0.156140 0.074465 0.833536 -0.171649 -0.390936 -0.181140 0.801278 -0.263633 -0.046400 0.490966 -0.038123 -0.430898 0.213243 -0.317432 -0.106190 -0.332664 0.538315 0.501803 -0.445113 -0.787577 0.468489 0.546529 0.276255 -0.086811 0.093129 0.210528 0.648915 -0.007867 0.503142 0.171958 0.010752 -0.653608 0.219134 0.172990 0.165838 -0.293868 0.053559 0.027680 -0.199134 0.481794 -0.217518 0.096533 -0.118996 0.260226 -0.752523 -0.459449 0.461412 0.029424 0.266383 0.343206 0.670530 -0.362237 0.552193 -0.432167 0.045037 -0.251511 -0.830473 -0.445826 -0.136871 0.167003 -0.418593 -0.013618 0.405895 -0.226524 0.083250 -0.286433 0.119483 0.382785 0.353055 -0.139016 -0.362855 0.257223 -0.482878 0.144486 0.312845 0.457394 -0.042003 0.875902 -0.141604 0.379832 0.281951 -0.123706 -0.167486 -0.168020 -0.595157 -0.260846 0.620955 0.436489 0.110382 -0.883225 -0.141642 -0.561485 0.257802 -0.033500 -0.470668 0.019286 0.040469 1.020677 -0.104753 
95 -0.011992 0.210307 0.362655 0.743858 -0.138145 0.457800 0.034122 -0.415157 -0.172948 -0.006176 0.061738 0.441757 0.028094 0.107205 -0.097296 0.274044 0.118166 -0.174248 -0.600705 -0.276558 -0.843335 -0.476201 -0.313479 0.287547 -0.231936 0.095511 0.148323 -0.467427 0.127040 0.034632 -0.090826 0.340298 0.060153 0.448714 0.082105 0.286462 -0.631522 -0.510078 0.317099 0.136121 -0.232896 0.349328 -0.626877 -0.233586 -0.631059 0.329488 -0.501905 -0.201976 -0.262667 -0.260034 -0.130660 0.311924 -0.773540 0.059997 -0.162818 0.508871 0.181584 0.556223 0.271531 -0.450371 -0.300394 0.392098 -0.067752 -0.111251 -0.520470 -0.174249 0.283060 0.127947 0.374007 -0.080857 0.181622 0.131275 0.682688 -0.860359 0.062352 -0.173280 -0.359797 -0.856820 -0.206890 0.908304 -0.705160 0.358283 -0.332994 -0.109002 0.788065 0.260426 -0.353560 -0.313837 -0.106902 -0.553061 -0.551569 -0.291570 0.317428 -0.058065 -0.371747 -0.048248 -0.018519 -0.224211 -0.276975 -0.110964 0.169362 0.341344 -0.211951 0.005606 0.134781 0.561112 -0.030605 0.277378 0.275093 0.351602 0.249325 -0.323002 -0.452758 0.527418 0.139222 0.265528 -0.247604 -0.029485 -0.502526 0.257287 0.568765 -0.038621 -0.129476 -0.508860 -0.356553 0.251084 -0.505978 -0.020491 
3 1.030993 0.368152 -0.196623 -0.349117 -0.324313 0.797355 0.316766 -0.546698 0.192147 0.528945 0.073108 -0.530485 -0.483402 0.054793 -0.348711 0.079542 0.324029 -0.298591 -0.381262 -0.183985 0.495129 -0.455850 -0.249941 -0.643833 0.311635 0.308036 -0.084786 -0.122227 -0.402346 0.736525 0.035868 -0.098338 -0.158291 -0.246856 0.219656 0.303846 0.448361 -0.535281 0.193235 0.229277 -0.539245 -0.298104 -0.260145 0.343892 -0.110216 0.309605 0.397464 -1.046946 -0.832180 0.554580 -0.011571 0.471246 0.046252 -0.001072 -0.510868 0.576351 -0.348589 -0.039206 0.365260 -0.052030 -0.031891 -0.156467 -0.153671 -0.194001 -0.439356 -0.416643 -0.365005 0.141553 0.841965 0.261588 -0.156745 0.226682 0.360675 -1.132854 -0.394891 0.163261 0.490530 -0.398104 0.235923 0.635292 0.588932 0.302813 -0.186780 -0.045181 -0.210859 -0.337782 -0.257233 0.126166 -0.212530 -0.433219 -0.414827 -0.171856 -0.017972 0.444827 0.258340 -0.256396 -0.123166 0.201378 0.163713 -0.408384 -0.080882 -0.211243 -0.093853 0.291027 0.345693 0.496500 0.484916 0.461844 -0.088153 0.092527 0.042385 -0.120488 -0.329013 0.230663 -0.031495 -0.535139 -0.628712 -0.046262 -0.037575 -0.592865 -0.793952 0.182293 -0.501346 -0.342769 -0.104663 -0.245195 -0.055262 0.399779 
59 0.088790 1.063175 0.133630 0.597390 -0.029476 0.290281 0.187119 -0.506772 -0.259873 0.124423 -0.165555 -0.001838 0.473946 -0.190572 0.055301 -0.399589 0.423866 -0.262088 -0.028219 -1.087426 -0.266718 -0.225990 0.590977 0.217036 -0.244951 0.038794 0.196637 -0.143389 -0.684751 0.423080 0.194629 -0.200417 -0.095931 0.435208 0.115442 0.512733 -0.278576 -0.315544 0.431628 0.031396 -0.111635 -0.946151 -0.532444 0.266837 -0.138317 0.491417 -0.119028 -1.065869 -0.730467 -0.091311 -0.480999 0.790342 -0.394246 0.308784 -0.278102 -0.121038 0.350508 0.339624 0.363500 -0.203795 -0.241343 0.216923 0.013936 -0.331102 -0.591884 -0.557537 -0.413894 0.174560 -0.053533 0.179085 0.545527 -0.145657 0.265802 -0.964048 -0.093342 -0.075707 -0.079202 -0.196459 0.075071 0.856362 -0.185653 -0.012760 -0.406358 -0.287675 0.338325 0.119792 -0.833959 -0.689471 -0.063052 0.027776 -0.196191 0.276865 -0.031022 -0.217964 -0.082680 -0.028619 0.043471 -0.279139 -0.052130 -0.348163 -0.710338 0.195857 -0.139657 0.179204 0.172088 0.681161 -0.466614 -0.074875 -0.136082 0.044061 0.636448 0.569901 -0.633475 0.107391 0.577879 -0.008924 -0.177494 -0.884869 -0.052086 -0.187389 -0.096268 0.182155 -0.104028 -0.253529 0.042361 0.114102 -0.534666 0.618708 
78 0.756780 -0.254422 -0.281354 0.446789 -0.160358 0.458971 0.198651 -0.084849 0.973668 -0.715645 0.293742 0.312280 0.288873 -0.490331 -0.212277 -0.000928 -0.176704 0.372184 0.054685 -0.724394 -0.159292 -0.533738 0.139830 -0.267759 0.023183 -0.118781 0.649444 0.185387 -0.925940 0.598217 0.327382 0.182723 -0.602383 -0.197555 -0.447037 0.252877 0.126172 0.381350 -0.329801 -0.335996 -0.274273 -0.421356 -0.280758 0.770536 0.282958 -0.014374 0.630513 -0.865775 -0.541758 -0.639436 -0.213437 0.455760 0.186264 0.531587 -0.751621 -0.313484 0.095655 -0.247704 0.580656 0.634282 0.209015 -0.072607 -0.450266 0.071633 -0.379448 -0.338663 -0.240901 0.317528 0.016559 0.397700 -0.161609 -0.384378 0.936579 -0.357972 -0.335001 0.044698 -0.114901 0.683947 -0.075936 0.164732 0.875283 0.319725 -0.080310 0.038719 -0.487052 -0.037482 -0.394342 -0.160100 -0.007448 0.229160 -0.127498 0.490605 0.115450 0.565338 -0.310436 0.218462 -0.241517 0.052715 0.422252 -0.551693 -0.822006 0.702555 -0.212104 0.125276 0.272126 0.008851 -0.040080 -0.221101 -0.546864 -0.111308 0.192438 0.023193 -0.179442 -0.665609 0.195659 -0.060984 -0.016417 -0.278842 -0.649146 -0.555540 -0.306636 0.563147 -0.444517 -0.144578 0.147440 0.196026 -0.129182 0.516406 
96 0.431106 -0.224009 0.020909 -0.072543 0.017484 0.103550 -0.540080 0.428482 0.648869 0.239259 -0.176061 -0.109677 0.212201 0.160271 0.321068 0.386604 -0.181247 0.111845 0.272890 -0.729722 -0.342329 -0.520682 0.059033 -0.256918 -0.220809 0.442726 0.128518 0.541390 -0.669489 0.439189 -0.292189 -0.209731 -0.683406 -0.460625 -0.340140 -0.204789 -0.170325 0.521033 -0.520343 -0.104744 -0.127582 -0.339759 0.314925 0.891121 0.172896 -0.316529 -0.081922 -0.331286 -0.666924 -0.028649 -0.585285 0.261444 0.029100 0.321305 0.021556 -0.271022 0.051694 -0.162607 0.840760 -0.185442 0.306209 0.131505 0.027965 -0.559981 -0.204184 -0.807925 0.109629 -0.284526 0.040745 -0.066507 -0.369240 -0.471813 0.519887 -0.599454 0.187235 0.142798 0.147351 0.010205 -0.423239 0.734424 0.723474 0.848369 0.177041 0.163590 0.384109 -0.511684 -0.461519 -0.291472 0.063217 -0.157269 0.392410 0.438118 -0.167766 0.433840 -0.154692 0.595543 0.114864 -0.021344 0.608079 0.162664 -0.496466 0.204552 -0.760219 0.092986 -0.210126 0.212128 0.194471 -0.117333 -0.073230 -0.409820 0.540669 0.073645 -0.095661 -0.200331 0.541953 0.339876 0.390809 -0.334096 0.185635 -0.510934 -0.353580 0.352815 0.365737 -0.004409 0.055477 -0.942454 0.132287 -0.146789 
4 0.979314 -0.055141 0.285505 -0.347771 -0.188859 0.673073 0.132461 -0.101440 0.522739 0.573248 0.581167 -0.082264 -0.076527 0.270967 0.011751 0.007932 0.024629 -0.303689 0.089634 -0.285499 0.120569 -0.538597 0.223412 -0.511276 0.018793 0.279328 -0.236865 0.205630 0.088182 0.141596 -0.425805 0.278203 -0.407617 -0.527993 0.526053 -0.105117 -0.052261 -0.242472 0.003906 0.468131 -0.532028 -0.307869 0.364620 0.490496 0.204251 0.470141 0.252706 -0.455428 -0.942021 -0.095749 -0.399742 0.069430 -0.082864 -0.180725 -0.451884 0.086277 0.151197 -0.312311 0.514378 0.246601 0.548264 -0.190293 -0.430394 -0.678343 -0.371956 -0.744417 -0.798419 -0.037410 0.726761 0.151077 -0.413985 -0.035153 0.405748 -0.989937 -0.194008 0.200783 0.145782 -0.394689 -0.394125 0.749411 0.677872 0.490372 0.100956 0.289865 0.493145 -0.811417 -0.113692 -0.021358 0.053323 -0.152879 -0.352525 -0.192363 0.433892 0.397347 -0.007018 -0.158785 -0.139434 -0.210491 0.061394 0.059931 -0.346481 -0.066691 -0.581333 0.050495 0.147339 0.732703 0.328152 0.332099 -0.349893 -0.530181 0.306675 0.332248 -0.140100 0.181349 0.499187 -0.103864 -0.237639 -0.050370 0.030558 -0.894234 -0.620512 0.209509 -0.179198 -0.348825 -0.376305 -0.743977 0.000582 -0.167291 
42 1.109407 -0.677542 0.182564 -0.026568 -0.291479 0.566260 0.358465 0.103851 0.931141 -0.388861 0.078063 0.373392 0.009396 0.454669 0.355061 -0.108740 -0.191602 0.368751 -0.041181 -0.438377 0.077344 -0.679550 0.067638 0.220399 -0.050999 0.507633 0.660303 0.250577 -0.574592 0.429154 -0.698816 0.196843 -0.456078 -0.602454 -0.224741 0.023543 -0.012229 0.291154 -0.571997 -0.305942 -0.523312 -0.331037 -0.121121 1.009710 -0.283580 -0.153125 0.444634 -0.221757 -0.575353 -0.715760 -0.295668 0.665218 -0.278101 0.435731 -0.351339 0.293159 0.319203 -0.423624 0.774587 0.042715 0.066006 -0.045957 -0.157048 0.202356 -0.296894 -0.821389 -0.269408 -0.559488 0.372521 -0.087273 -0.231410 0.017410 0.757880 -0.896360 -0.533925 -0.129401 -0.605532 0.161775 -0.196029 0.492693 0.660883 0.600925 -0.030911 0.407518 0.150373 0.133781 -0.168165 -0.061297 -0.391152 -0.021062 0.148245 -0.637623 0.510905 0.464579 0.074299 -0.288651 -0.229580 -0.263520 0.847702 -0.118781 -0.519367 0.024746 -0.709848 0.302954 -0.559398 0.214785 0.200112 0.408616 -0.613737 -0.174580 0.070123 -0.051351 -0.239522 -0.152041 0.316451 0.176335 -0.247802 0.313240 -0.194659 -0.703695 0.098725 0.114787 -0.523685 -0.369283 -0.428688 -0.329803 -0.350492 -0.151122 
82 0.600863 -0.607725 0.020324 -0.112779 -0.071093 0.655874 -0.229171 0.696054 0.221311 -0.010067 -0.022265 0.239728 -0.059308 0.243517 -0.126750 0.381053 -0.416474 0.390192 -0.344311 -0.501950 -0.273567 -0.261939 0.034298 -0.054927 0.445820 1.018251 0.013826 0.068823 -0.770436 0.690390 -0.589979 0.108208 -0.047808 0.114677 -0.247266 -0.473480 -0.268167 0.785631 -0.518899 -0.234720 -0.307448 -0.242890 0.244681 0.835183 0.322407 0.227739 0.365203 -0.213666 -0.873032 -0.685408 -0.305747 0.289791 -0.350385 0.985300 0.101031 0.251863 -0.219073 0.041593 0.349256 -0.187688 0.307479 -0.252188 -0.196795 -0.296728 -0.257276 -0.235393 -0.398976 -0.241204 0.094972 0.107133 -0.572951 0.050345 0.847776 -0.665131 -0.114244 0.007635 -0.135147 -0.374507 -0.077829 0.685682 0.250813 0.795018 -0.338745 0.620138 -0.133940 -0.094164 -0.039079 -0.479302 0.209090 -0.678347 -0.243915 -0.059582 0.294468 0.120210 -0.200067 -0.553782 0.011920 0.499843 0.279572 0.144222 -0.551461 -0.006690 -0.037709 -0.141716 -0.752955 0.326403 0.015373 0.199353 -0.100802 -0.115509 0.052086 -0.052975 -0.047158 -0.063998 0.293356 0.259089 -0.095210 0.231313 -0.376655 -0.562549 0.031149 -0.064723 -0.182529 -0.345790 -0.386503 -0.696195 -0.396170 -0.225330 
5 -0.244504 -0.186500 -0.145864 0.400409 -0.668460 0.837642 -0.296711 0.095173 -0.250534 -0.042723 -0.536200 -0.114654 0.670700 -0.856336 -0.415804 0.453655 0.430809 0.928182 0.289903 -0.143726 -0.823103 -0.454610 0.017096 -0.320162 -0.342596 0.383406 -0.493623 -0.624162 -0.537474 -0.257377 -0.069568 0.618826 -0.073375 -0.613328 -0.015029 -0.092132 -0.123610 -0.113621 -0.031039 -0.266578 -0.108852 0.311456 -0.020089 -0.007397 0.023074 -0.229530 0.078530 0.281004 -0.194921 -0.066282 0.206262 0.573078 0.209441 0.391614 -0.232068 0.307335 -0.134726 -0.321548 0.076265 0.021141 -0.672674 0.362893 0.474677 -0.117411 -0.126568 0.048232 0.574719 -0.055927 0.075976 0.435727 0.287549 0.287008 0.680246 -0.118690 -0.111573 -0.427157 -0.004466 0.022053 0.670464 0.377789 -0.563324 0.576155 -0.222822 0.578764 0.025241 -0.400890 0.004005 0.121810 0.047810 -0.394213 0.140276 0.289774 -0.002001 0.503758 -0.472486 -0.105446 -0.213777 0.139688 -0.116451 -0.444922 -0.647738 0.393149 -0.305201 -0.706106 0.567011 0.209269 -0.237990 -0.512900 0.817022 0.205921 -0.810764 0.364007 0.061247 -0.332497 0.004668 0.467774 -0.248042 -0.052510 -0.497785 0.189336 -0.038351 0.403434 -0.150604 0.343357 -0.015693 -0.035094 0.464812 0.177595 
22 0.490690 -0.022609 -0.070969 -0.033508 -0.460811 1.145258 0.199454 -0.081779 -0.392230 0.222614 0.152084 0.014219 0.275150 -0.340656 -0.598260 0.175497 0.422850 0.096968 0.506388 0.163841 0.065730 -0.310074 0.342552 0.470210 -0.245180 0.640320 -0.225094 -0.336420 -0.224340 -0.462627 -0.651211 0.546511 0.250599 -0.909698 0.262794 -0.062960 -0.026295 -0.515250 0.481965 -0.224505 -0.586460 -0.244314 -0.214567 -0.095784 -0.650485 0.364098 0.683574 0.276934 -0.621112 0.050045 0.804192 0.217910 -0.198103 -0.245078 0.126199 0.628356 0.143916 -0.073354 0.267106 0.311749 -0.660922 -0.169765 0.166661 -0.139117 -0.375264 -0.012160 0.041723 -0.608787 0.803836 -0.089078 0.336827 0.352682 0.550627 -0.337874 -0.961448 -0.313189 -0.579423 -0.054574 0.230293 0.462738 -0.743802 0.067322 0.246216 0.228941 0.065194 0.291621 -0.098885 0.025593 -0.864838 -0.517610 0.403886 -0.362497 0.392684 0.215398 0.010397 -0.333529 -0.629262 0.057955 -0.119137 -0.199061 -0.460308 -0.464647 0.022257 -0.286879 -0.087527 0.587022 -0.474582 -0.385804 0.073218 0.006782 -0.379071 0.903872 -0.453883 0.390872 -0.582862 0.032113 -0.554750 0.154821 0.362854 0.601670 0.107723 0.136821 0.728180 0.422535 -0.049390 0.329224 0.320199 0.760163 
44 0.424726 0.001166 -0.385122 0.308575 -0.266805 1.129800 0.241859 0.133677 0.136184 -0.194121 0.202604 -0.338996 0.043642 -0.543744 -0.691647 0.765509 0.487575 0.002184 0.097136 0.152034 0.077328 -0.472639 -0.257093 -0.376374 0.020162 0.617456 -0.057477 -0.114664 -0.131788 0.453737 -0.306707 0.054598 0.282172 -0.945081 -0.510967 0.209382 0.269358 -0.390929 0.770365 -0.523142 -0.601437 -0.142737 -0.135564 -0.061302 -0.146156 -0.534102 0.744622 0.152238 -0.399222 -0.022775 0.851394 -0.166859 0.134479 0.482771 0.071708 0.193760 -0.127379 -0.068520 -0.260748 0.264367 -0.338597 0.081841 -0.443051 -0.590011 -0.370547 -0.275374 -0.052091 -0.596100 0.230108 0.313080 -0.021523 -0.129270 0.794821 -0.276035 -0.787417 -0.313476 0.563626 -0.063021 0.001014 0.277956 -0.258793 -0.143747 0.055966 0.219461 -0.309939 0.375687 -0.140184 0.442153 -0.687968 -0.448984 0.279899 -0.077270 0.185211 0.543399 -0.410897 -0.061634 -0.586280 0.452778 -0.014824 -0.032048 -0.380436 -0.357048 -0.483922 -0.007183 0.444884 0.063410 0.380310 -0.046245 0.799649 0.158158 -0.860155 0.639664 0.155482 0.316488 -0.536767 -0.048826 -0.278323 -0.162517 0.143515 0.061871 -0.098425 0.455535 0.417304 0.476023 -0.017128 0.124979 0.393187 0.729542 
65 0.371462 0.028605 0.056498 0.222599 -0.294478 1.041397 0.140104 0.372552 -0.136864 -0.140873 0.496178 -0.094751 -0.025522 -0.571312 -0.790375 0.540480 -0.345000 -0.087020 0.240616 0.073904 -0.008437 -0.151841 -0.285683 0.095426 0.016886 1.176248 0.079018 -0.262586 -0.479506 0.525731 -0.597008 0.200037 0.462798 -0.682393 -0.522565 0.041775 -0.042165 0.069991 0.233193 -0.544229 -0.397705 -0.209402 -0.103285 0.065249 -0.037547 -0.120360 0.635639 -0.171583 -0.790864 -0.208422 0.787543 0.042057 -0.269953 0.473672 0.595139 0.294593 -0.272475 0.010865 -0.117382 0.327994 -0.194845 -0.297348 -0.003044 -0.284952 -0.098181 -0.273143 -0.162246 -0.728152 0.362349 0.048068 0.148271 -0.025079 0.906881 -0.397312 -0.615434 -0.334052 0.204685 -0.617682 0.362508 0.464447 -0.348628 0.342118 -0.156752 0.357946 -0.434803 0.515353 -0.160864 -0.284523 -0.651364 -0.646142 0.037987 0.115544 0.400863 0.376887 -0.366814 -0.155603 0.013479 0.452326 -0.017102 0.060974 -0.551174 -0.379505 -0.150314 -0.265728 0.005299 0.484666 0.045739 -0.466969 0.638493 0.064368 -0.572328 0.669284 -0.035408 0.343048 -0.441345 0.246339 -0.057828 0.120830 0.014593 0.371298 -0.119644 -0.072536 0.542899 0.543784 0.010539 0.058367 -0.167009 0.703050 
80 -0.053215 0.119257 -0.247357 0.246570 -0.330155 0.714826 0.084511 0.270108 -0.154944 0.324372 -0.037398 -0.502017 0.362308 -0.794095 -0.128465 0.802166 -0.168803 -0.027880 0.862939 -0.517229 -0.221416 -0.439147 0.274379 -0.207210 -0.690854 0.725706 -0.289740 -0.236363 -0.153295 -0.211102 -0.334845 0.206035 -0.049767 -1.199695 -0.525811 0.315916 -0.440035 -0.516715 0.438375 -0.166775 -0.235141 -0.154725 0.023734 0.128067 0.108592 -0.633256 -0.289585 -0.208522 -0.184466 0.200618 0.603398 0.251573 0.009900 0.144124 0.456906 0.149182 -0.083333 0.001072 -0.148557 0.185117 -0.396829 0.050526 0.397623 -0.359105 0.332184 -0.344897 0.314106 -0.592221 0.298989 0.022959 0.331127 0.017625 0.565732 -0.120501 -0.699456 -0.317076 0.159947 -0.299482 0.636660 0.344495 -0.326799 0.342202 0.172845 0.033370 0.058739 -0.271031 -0.100290 -0.086151 -0.548693 -0.094384 0.515318 0.561403 0.216736 0.918728 -0.346038 0.428933 0.171638 0.022966 0.163802 -0.283775 -0.552982 0.355255 -0.869482 -0.443207 0.526939 0.442844 0.064330 -0.923983 0.866411 -0.014088 -0.444662 0.676887 -0.095643 0.394608 -0.097386 0.564690 0.231865 -0.016724 0.091485 0.350131 -0.146382 0.300970 0.199791 0.722508 -0.266175 -0.313071 -0.001057 0.694578 
6 0.405720 0.278809 0.321716 -0.050874 -0.322352 0.703353 0.154342 -0.577203 0.366307 0.222548 -0.161413 0.435116 0.371607 0.213199 0.671385 -0.156727 0.339143 -0.100087 0.092112 -0.498521 -0.007043 -0.831915 0.661759 0.066013 -0.080519 0.154662 0.158840 -0.031378 -0.043921 -0.321747 -0.078596 0.377023 -0.502893 -0.690092 0.470390 0.199943 0.253843 -0.123105 0.137330 0.136382 -0.015706 -0.099553 -0.341363 0.662198 0.060571 0.713063 0.275511 -0.234973 -0.746471 0.023979 -0.341005 0.256373 0.140207 0.464750 -0.857258 0.260142 0.784079 -0.300249 0.465189 0.077151 0.116662 0.130423 -0.229825 -0.496784 -0.521626 -0.597560 -0.553718 -0.399169 0.164257 0.382710 -0.289289 0.190588 -0.197733 -0.818895 -0.324515 -0.156980 -0.308425 0.296933 -0.508855 0.319556 0.670224 0.076716 -0.192186 0.272566 -0.073639 -0.503385 -0.164888 0.069694 -0.783422 0.476999 0.191787 -0.288319 0.197365 0.154085 -0.261580 -0.338863 -0.394034 -0.358923 0.471037 -0.235821 -0.660981 0.017385 -0.911091 0.041816 0.358407 0.417136 0.244376 0.224287 -0.565991 -0.223179 -0.010316 0.543849 0.197793 -0.030618 0.764646 -0.230710 -0.382609 -0.314744 -0.061276 -0.848795 -0.546159 0.389395 -0.592542 -0.479519 -0.503964 -0.276893 -0.265945 -0.061686 
33 0.212741 -0.404348 0.089443 -0.252131 0.293766 0.834532 -0.567335 -0.044186 0.236926 -0.262667 0.557298 0.078289 0.234353 0.191908 -0.526145 0.427512 -0.516396 -0.333253 -0.715285 -0.125562 -0.011811 -0.512798 -0.037874 0.137057 0.307453 0.352571 0.194278 -0.069171 -0.879141 1.018705 -0.242535 0.413171 -0.511878 -0.256911 0.002216 -0.502988 0.063763 0.033295 -0.390700 -0.492017 -0.795286 -0.284230 -0.330630 0.635472 0.302839 0.416300 0.638863 -0.373344 -0.489374 0.354253 -0.211005 0.277083 0.230600 0.469750 -0.282859 0.417613 -0.435458 0.328000 0.242114 -0.380360 -0.324962 -0.111402 -0.413881 -0.304265 0.070920 0.030210 -0.646042 0.339183 0.384191 0.366501 0.409302 -0.169785 1.506831 -0.500753 -0.297575 0.485792 -0.478863 -0.320543 -0.594187 0.731149 0.428773 0.359137 -0.170104 0.024013 -0.193598 -0.354420 -0.307543 -0.340842 -0.200478 -0.675552 0.108078 0.486802 0.034749 0.357839 -0.678200 -0.630097 -0.195101 0.347035 0.237474 0.113938 -0.165606 -0.206492 -0.027815 0.746636 -0.605483 -0.302780 0.337049 0.104838 -0.067845 0.027483 0.268429 -0.425772 -0.050037 -0.002187 0.276906 -0.578384 -0.222243 -0.139592 -0.539569 -0.383203 -0.130622 0.157434 -0.435097 -0.665136 -0.029856 -0.170574 -0.100959 0.569052 
7 -0.069189 -0.199834 0.031240 0.329231 -0.831669 0.758936 0.162477 0.219331 -0.012538 0.058183 -0.590222 0.145768 0.631533 -0.676940 -0.246920 0.378375 0.243881 0.590664 0.157019 -0.145252 -0.187861 -0.696161 -0.247511 -0.207962 -0.350959 0.469392 -0.359957 -0.483299 -0.225567 -0.134438 -0.089694 0.320070 -0.011407 -1.007694 -0.161621 -0.170828 0.098023 -0.178654 0.089574 -0.371454 -0.158738 0.167315 0.172837 0.165767 0.020621 -0.629669 0.173946 0.442096 -0.285657 -0.135241 0.254491 0.329877 0.343675 0.492088 -0.385999 0.210518 0.147453 -0.504372 0.051353 0.272769 -0.486384 0.528124 0.229142 -0.208034 -0.308009 -0.420400 0.242886 -0.531533 0.145211 0.331335 0.252202 0.155317 0.806297 -0.546241 -0.259790 -0.430040 0.204930 -0.127124 0.585032 0.217716 -0.294851 0.503975 -0.348157 0.803986 0.017481 -0.231529 0.023535 0.400916 -0.542511 -0.247988 0.046980 0.082474 0.240905 0.671301 -0.647015 -0.447384 -0.322790 -0.097373 -0.015101 -0.401588 -0.653738 -0.075192 -0.898690 -0.325398 0.652630 0.035341 0.234296 -0.068168 1.188915 0.105865 -1.124309 0.571667 0.090951 0.119926 0.180426 0.401285 -0.284460 0.093953 -0.392361 -0.049337 0.109813 0.601398 -0.166061 -0.024517 -0.242053 -0.219883 0.254305 0.044999 
39 0.324818 0.296972 -0.460044 -0.055374 -0.527475 1.258577 -0.230373 0.260590 -0.522760 0.301980 -0.239007 -0.253034 0.550422 -0.597780 -0.361393 0.592735 0.376668 0.929221 0.547979 -0.300892 -0.368882 -0.047590 0.238061 -0.128021 -0.166084 1.032302 -0.218283 -0.133089 -0.699963 -0.211716 -0.502433 -0.029530 0.120954 -0.663720 -0.033829 -0.246519 -0.340352 0.077768 -0.403024 -0.181989 -0.313735 -0.035893 0.044031 0.616099 -0.197379 0.322383 0.255025 0.077817 -0.845905 -0.112765 0.204828 0.550230 -0.133751 0.362262 -0.126963 0.259327 -0.127253 -0.356342 0.311898 -0.088949 -0.633102 -0.396993 0.437497 -0.194950 0.178518 0.041384 0.248814 -0.496417 0.042721 0.174318 0.434264 0.509143 0.403602 -0.342187 -0.441857 -0.365453 -0.408329 -0.232329 -0.122718 0.623473 -0.200812 0.298985 0.154545 0.517505 -0.072041 -0.558805 0.377271 -0.133168 -0.352965 -0.560572 0.451981 -0.029258 0.226301 0.517796 -0.130025 0.036920 -0.048649 0.092593 0.076894 -0.163283 -0.490511 0.240295 -0.216617 -0.742293 -0.199005 0.602639 -0.434365 -0.484874 0.095942 -0.325425 -0.220642 0.702978 0.155242 -0.811818 -0.039171 0.514697 -0.178844 0.033945 0.055109 0.127265 -0.411534 0.294791 0.382058 0.786357 -0.281928 -0.411481 0.243020 0.301423 
8 0.363986 -0.256585 0.372722 0.029091 0.020764 0.323360 -0.501810 0.162976 -0.059893 -0.728945 0.327228 -0.465839 -0.096306 -0.256806 -0.578194 0.493512 -0.137930 -0.191249 -0.102322 0.004062 -0.463030 0.095549 0.444819 -0.162358 0.643770 0.076067 -0.342660 -0.651512 -0.066086 0.627119 -0.121386 0.865106 0.337970 -0.453807 0.485164 0.866420 -0.216723 -0.767657 0.491167 -0.068918 0.205790 -0.283776 -0.240609 0.313638 -0.079009 0.290013 -0.318402 -0.595210 -0.278196 0.318236 0.275764 0.302675 0.247807 0.572007 -0.463130 0.229331 -0.764031 0.363820 -0.006577 -0.480680 -0.138241 -0.234440 -0.202252 -0.013782 0.356231 0.103457 0.272495 -0.080390 -0.005445 0.121249 0.634674 -0.430058 1.157528 -0.083835 0.207288 -0.212851 0.173674 0.801860 -0.171885 0.202301 -0.804572 0.176536 0.386704 -0.128334 -0.660295 -0.602579 -0.387331 0.234043 0.064739 -0.111303 0.228642 0.100271 0.116534 0.265398 -0.796174 -0.761481 -0.233466 -0.075812 0.098395 -0.244882 0.209046 -0.255917 -0.502452 -0.141015 0.075641 -0.122407 0.042010 -0.085291 -0.417225 0.235517 -0.377699 -0.215585 0.579343 0.000692 -0.484405 -0.046965 0.482633 -0.549286 -0.131060 -0.052616 0.424692 -0.228013 0.033095 -0.170626 -0.045134 0.432782 0.649058 0.538369 
67 -0.331481 -0.009701 0.892590 -0.319922 0.345747 0.526433 -0.982612 0.127270 -0.450447 0.367856 0.020590 -0.482092 0.267136 -0.275385 0.230226 0.458124 0.005733 -0.016878 0.283090 -0.105643 -0.847813 -0.145464 0.601107 0.081040 -0.692514 0.078797 -0.517045 -0.387823 -0.797414 0.182905 -0.336120 1.353935 -0.540982 -0.567894 -0.005001 0.648672 0.088639 0.231279 0.313431 -0.007039 -0.150374 0.167663 -0.117807 0.110807 -0.274983 0.645743 0.194329 -0.179957 -0.357941 0.743357 0.210783 0.273474 0.504311 0.059629 0.695027 0.290169 -0.046446 0.506511 0.183642 -0.300817 -0.487342 0.387338 0.416401 0.151331 0.060488 0.383299 -0.215615 -0.352010 -0.125277 -0.065367 0.213693 -0.338237 0.667840 0.149420 0.310392 0.295241 -0.005988 -0.456692 0.345621 0.244621 -0.463524 0.439990 -0.554240 0.000331 0.357840 -1.007458 -0.760315 -0.705720 0.227297 -0.234089 0.268220 0.314280 0.381185 0.294428 -0.170160 0.453947 0.067511 -0.018955 0.052276 -0.088629 0.120721 -0.369582 0.183522 0.380893 -0.284038 0.272094 1.051159 -0.911969 0.161052 0.099276 -0.123808 -0.060071 0.205723 -0.226746 -0.408918 0.690482 0.331233 -0.508127 -0.172835 -0.303025 -0.519060 -0.205050 0.253030 0.039749 0.209755 -0.375537 0.774015 -0.027364 
88 -0.454007 0.348314 -0.212654 0.225907 -0.068888 0.714769 -0.023554 -0.116902 0.172089 0.454359 0.111441 0.411195 0.028478 -0.716018 0.032617 -0.424027 0.658896 0.675670 0.471574 -0.274167 -0.284445 -0.152821 0.720458 0.123569 -0.143879 0.267487 0.016337 -0.216561 -0.213348 -0.289861 -0.486524 0.848936 0.093068 -0.296914 0.247980 0.657190 0.067443 0.028361 0.713248 0.026272 0.473466 0.546512 -0.235370 -0.494013 -0.190499 0.709979 0.612178 0.070819 -0.435920 0.398649 -0.293647 0.844217 0.378724 0.724039 -0.321711 0.044214 0.075447 -0.111801 0.224569 0.075007 -0.473214 0.501909 -0.256563 -0.400000 -0.449302 0.428710 -0.616464 -0.342150 -0.218499 0.565400 -0.074998 -0.595722 0.384432 0.144891 0.495087 -0.049319 -0.425368 -0.120933 -0.247486 0.051110 0.013823 0.085153 -0.386322 0.178496 -0.264411 0.100636 -0.429298 -0.339172 -0.718500 -0.126611 -0.074204 -0.220901 -0.065761 -0.140855 -0.537915 -0.021543 -0.089469 -0.731499 0.271802 0.363690 -0.052916 0.035599 -0.653998 -0.071443 -0.097922 0.848750 0.644721 -0.061312 -0.746912 0.717561 -0.083736 0.510762 0.261916 -0.148185 0.093052 0.053177 -0.156598 -0.152658 0.030609 -0.193305 -0.550125 -0.336051 0.000976 -0.213928 -0.550298 0.405100 -0.157949 0.319944 
91 0.416967 0.307895 0.151466 -0.021459 -0.099242 0.812340 -0.788771 -0.068533 0.254400 0.022372 0.246786 -0.101129 -0.141183 -0.388702 -0.043218 0.712897 0.683617 0.310128 -0.662866 -0.148989 -0.130562 0.037560 -0.148869 0.215793 -0.345756 0.316851 -0.251301 -0.167296 0.268062 -0.197751 0.279523 0.963334 -0.081504 -0.439171 0.235529 1.119830 0.159740 -0.795991 0.649805 0.329556 -0.293850 0.736068 -0.454513 -0.209087 -0.216128 0.211556 0.264683 -0.335173 -0.583497 0.650541 -0.088549 0.156695 0.071802 -0.006504 -0.266013 -0.221570 0.466701 0.139446 -0.029757 0.239771 -0.160009 0.519483 -0.599722 0.429222 -0.785200 0.318395 0.368027 0.123570 -0.084753 0.012171 0.442317 -0.287281 0.613344 -0.314529 -0.085004 0.116866 -0.298933 0.402690 -0.931701 -0.223237 -0.529622 -0.218124 -0.264472 -0.049566 0.106434 -0.520672 -0.334467 0.209429 -0.230305 -0.068128 0.080907 0.232134 0.396941 0.171536 -0.418122 0.413077 -0.434808 -0.116911 -0.061064 -0.215258 0.403504 0.641743 0.110938 -0.117561 0.524605 -0.302279 0.865734 0.006199 -0.436686 -0.041295 -0.086588 -0.047198 0.124151 -0.279413 -0.369748 0.652086 0.074427 -0.427119 -0.348638 -0.198592 0.451092 0.502614 0.164222 -0.043295 -0.316444 0.958798 0.669431 0.100274 
9 0.304698 0.150515 0.265477 0.372203 0.017357 0.332714 0.060576 0.118743 0.139341 0.246173 0.548570 -0.144771 0.069695 -0.317224 -0.216387 -0.069761 0.373796 0.271028 0.344730 -0.172407 -0.334673 0.088230 0.493214 -0.049216 0.207010 0.026042 -0.242116 -0.429089 -0.525390 0.225874 -0.723412 0.413324 0.052943 -0.618267 0.042518 0.608083 -0.620402 -0.593949 0.491976 -0.162401 0.111341 0.017163 -0.495980 -0.098686 -0.372541 0.320164 0.103715 0.038927 -0.685103 0.336980 0.161155 0.991897 0.103365 0.390511 0.282521 0.186771 -0.948954 0.566613 -0.005635 0.018453 -0.607108 0.369432 -0.149288 -0.315982 0.114320 0.320636 -0.044224 -0.277682 0.313099 0.176029 0.340548 -0.629747 0.478880 0.028358 0.499373 0.036549 -0.083346 0.135725 0.069937 0.373382 -0.412894 0.323109 0.138693 0.342235 -0.276486 -0.420317 -0.770759 -0.176592 -0.379246 -0.437016 0.228733 0.335301 -0.507325 0.053647 -0.733638 0.124594 0.095932 -0.560840 0.373753 0.545842 0.123173 -0.257361 -0.865299 0.134901 -0.054198 0.588714 0.080866 0.177600 -1.051576 0.297885 0.087092 0.048089 0.242397 -0.348349 -0.020390 -0.304292 0.340850 -0.494297 0.431336 0.258379 -0.376287 -0.389547 0.523023 -0.119961 -0.212916 -0.218838 0.252036 0.664976 
27 -0.213913 -0.380296 0.409964 0.683899 -0.026849 0.207737 -0.202248 -0.120237 0.373819 -0.135039 0.008341 0.039755 0.366887 -0.646993 -0.242797 -0.261362 0.124720 0.425046 -0.091353 0.318403 -0.534870 -0.399809 0.365050 -0.484578 0.275941 -0.032144 -0.198449 -0.681112 -0.044508 0.209345 -0.119274 0.477496 0.101972 -0.622619 0.300739 0.523697 -0.299754 0.001036 0.561632 -0.474287 0.549313 0.229613 -0.040843 -0.079288 -0.142251 0.154221 0.315506 0.154035 -0.383481 0.667847 -0.101306 0.971242 0.356926 0.254978 -0.857529 0.190861 -0.526359 -0.008482 0.149596 -0.474428 -0.272596 0.495096 0.185011 -0.221399 -0.235481 0.258480 -0.034984 -0.117314 0.268608 0.641038 0.463900 -0.823118 0.845283 -0.163980 0.479716 -0.263167 0.159943 0.322044 0.282290 0.584269 -0.053800 0.519428 0.173916 0.237222 -0.545074 -0.664813 -0.551706 -0.145140 -0.173290 -0.202571 0.012350 -0.102533 -0.293805 0.173602 -1.193269 -0.133358 -0.231269 -0.810260 0.312562 0.055554 -0.145083 -0.337625 -1.173290 0.447285 0.275693 0.057582 0.397710 0.338062 -0.370902 0.673640 -0.079928 -0.045500 0.070467 -0.205973 0.066330 -0.237137 0.210338 -0.148210 -0.328339 -0.174931 -0.718534 0.016454 0.054016 -0.545399 -0.315676 0.198167 0.785019 0.436376 
61 0.127439 -0.404785 0.064161 0.064831 0.233224 0.602361 0.329220 0.146649 -0.141474 -0.309594 0.040463 0.251742 -0.071653 -0.582401 -0.185869 -0.010274 0.783106 0.474269 -0.051864 -0.205982 -0.113038 -0.069911 0.459234 -0.120130 0.499610 0.211192 0.104694 -0.382442 -0.414630 -0.054960 -0.360273 0.218503 0.015207 -0.276563 0.224845 0.887777 -0.197924 -0.258673 0.549141 -0.044487 0.577737 0.226327 -0.044158 -0.174519 -0.017407 0.328959 0.496569 -0.059072 -0.409500 0.214462 0.172499 1.006954 0.353528 0.531237 -0.318964 -0.026556 -1.057048 0.474423 0.038249 0.177724 -0.642532 -0.179037 -0.559082 -0.211348 0.063575 0.482470 -0.270650 -0.518854 0.090927 0.168231 -0.052192 -0.904939 1.086372 -0.065468 -0.041481 -0.107117 -0.304500 0.069983 0.055279 0.063406 -0.499869 0.322554 -0.153210 0.150456 -1.039725 -0.071523 -0.531333 0.070186 -0.339682 -0.588829 -0.049792 0.196631 0.074893 0.019156 -0.911918 -0.751137 -0.076016 -0.328243 -0.079194 0.144391 0.231615 -0.429232 -0.891685 0.087943 -0.147373 0.009624 0.581070 0.062727 -0.801439 0.662764 0.038605 0.058916 0.395050 0.249876 -0.249520 0.035665 0.118647 -0.205045 -0.161729 0.233773 -0.522852 -0.248880 0.033990 -0.564252 -0.399512 0.368420 0.251841 0.746603 
68 -0.381428 -0.416163 -0.411702 0.528778 -0.090139 0.099068 0.054139 0.267698 0.480170 -0.234993 0.042296 0.273669 0.240466 -0.985713 -0.361251 -0.387071 0.431602 0.833581 0.779132 -0.163037 -0.310735 0.054785 0.618646 -0.144443 -0.328948 -0.105898 -0.050351 -0.213483 0.026494 0.068418 -0.344608 1.164638 0.018478 -0.794226 0.064622 0.523984 -0.007700 -0.285465 0.624700 -0.165829 0.421708 0.558575 0.077589 -0.480289 -0.512485 -0.128683 0.392387 0.177498 0.209692 0.287242 -0.308494 0.582567 0.601923 0.781188 -0.980605 0.210018 -0.139488 -0.297298 0.783854 -0.171621 -0.355236 0.753074 0.101796 -0.385651 -0.292042 0.057626 -0.056297 0.025246 0.025700 0.257392 0.271837 -0.787224 1.156063 0.157036 0.756127 -0.451231 -0.164141 0.502983 0.066247 0.147234 0.124901 0.268648 0.284964 -0.035308 -0.145846 0.107964 -0.213917 0.199673 -0.224087 -0.265270 0.260163 -0.339753 -0.488274 0.461576 -0.483153 -0.227480 -0.351464 -0.702126 0.528257 0.184383 0.110887 -0.233753 -1.021503 -0.039738 -0.108785 0.448107 0.474587 -0.173832 0.078600 0.918416 -0.425216 0.217625 0.196847 -0.168511 -0.067745 -0.110970 0.267744 0.107730 -0.246762 -0.463123 0.060503 -0.243880 0.270877 -0.130873 -0.539116 0.399653 0.305880 0.098043 
10 0.134290 -0.085730 1.034418 0.023337 0.308578 0.178952 0.079316 0.044057 -0.642954 -0.309106 -0.361847 -0.265227 0.522727 -0.191849 -0.112102 0.291086 0.189448 -0.108646 0.138871 -0.316989 -0.613627 -0.108595 0.734868 -0.054013 0.365233 0.214350 -0.774988 -0.745603 -0.685957 0.302489 0.000610 1.011346 -0.040037 -0.315108 0.544732 1.013223 -0.093799 0.105229 0.697486 0.021701 0.312442 -0.226123 0.164198 0.373103 0.035073 0.571817 0.117758 -0.636601 -0.382203 0.209761 0.536154 0.382915 0.398092 0.531042 -0.250651 0.130703 -0.696469 0.688506 0.065913 0.192065 -0.052316 -0.102759 -0.125725 0.053859 0.017752 0.582318 -0.224622 -0.161442 0.018768 0.129101 0.183416 -0.220184 0.377876 -0.195459 0.048810 -0.153256 0.232456 0.300670 1.052688 0.291898 -0.798310 -0.012460 -0.531916 0.116432 -0.609203 -0.736352 -0.544623 0.023686 0.191734 0.022145 -0.016828 0.190645 0.180707 0.370267 -0.319461 -0.626758 -0.120353 0.238807 -0.126647 -0.723943 -0.098029 -0.714111 -0.198963 0.078319 -0.061417 0.085042 0.471846 -0.749931 0.148705 0.383692 -0.537183 -0.113377 0.604958 0.000714 -0.479466 0.219111 0.154063 -0.631088 -0.612865 -0.276327 -0.395904 -0.158250 0.018251 -0.464955 0.114882 -0.073066 0.589556 0.229596 
32 0.125266 0.347197 0.605149 0.246973 0.174926 0.469584 -0.911579 -0.059883 0.162687 -0.579676 0.099768 -0.077261 0.046612 0.161823 -0.168290 0.574503 0.529270 -0.305173 -0.717968 0.028979 -0.604482 -0.393999 0.251123 0.092581 0.391455 0.060534 0.377212 -0.090493 -0.038885 -0.185618 -0.056087 0.552305 -0.066666 -0.188552 -0.135385 1.250113 -0.172502 -1.055321 0.416776 -0.341251 -0.238298 -0.455513 -0.704109 0.264071 -0.199719 0.137233 0.047617 -0.064173 -1.017409 0.856697 -0.022288 0.602634 -0.068088 0.377635 0.012700 -0.081049 -0.310716 0.206323 -0.116820 -0.443399 -0.400891 0.094381 0.085588 -0.170367 -0.409217 -0.285306 0.258358 -0.555820 -0.351016 -0.087404 0.759261 -0.576711 0.846064 -0.431047 -0.299938 -0.235638 0.281582 0.185041 -0.735062 0.329681 -0.222820 -0.081239 -0.276588 0.003002 -0.465106 -0.579669 -0.522786 0.015615 -0.071420 0.000935 0.506012 0.015659 0.170670 0.227711 -0.905684 -0.140517 -0.351412 0.146556 0.187440 -0.514013 -0.089622 -0.013692 -0.579077 0.322254 0.248073 -0.345816 0.350301 0.329192 -0.152061 -0.132898 -0.108105 0.052040 0.343864 -0.574033 -0.068837 0.680277 0.069551 -0.574553 0.308708 0.114783 0.213009 0.314037 0.147409 0.490216 -0.220519 0.264634 1.109231 0.369588 
40 0.304716 0.667517 0.149570 0.640469 -0.144745 0.408945 0.315670 -0.181974 0.430195 -0.394541 0.606921 0.176451 -0.107909 -0.000306 -0.431600 -0.437616 0.688040 0.193099 -0.744878 0.171733 -0.770660 -0.415044 -0.095504 0.086628 0.336795 -0.123835 0.321532 -0.344592 0.259652 -0.405581 -0.012405 0.432838 -0.107956 0.419469 -0.105456 1.138866 0.099611 -1.206939 0.578355 0.032774 -0.161825 -0.094071 -0.885865 -0.288001 -0.602573 -0.063532 0.144878 -0.077176 -0.904745 0.208526 -0.309464 1.174844 -0.452456 0.292391 -0.062447 0.044883 -0.229465 -0.013510 0.103206 -0.255712 -0.081744 0.263846 0.282999 -0.246261 -0.970182 -0.699017 -0.216567 0.083610 0.028975 -0.115495 0.331294 -0.438696 0.247890 -0.846312 -0.193215 -0.397886 0.045297 -0.708514 -0.151290 0.597457 -0.332681 0.182651 -0.256817 0.066560 -0.136647 0.249079 -0.294997 -0.022504 -0.093115 -0.221882 -0.361180 -0.471789 0.097710 -0.038795 -0.408403 -0.006808 -0.078839 -0.181201 0.102798 -0.698576 -0.431722 -0.209329 -0.358997 -0.071394 0.758878 0.752480 -0.026094 0.481762 -0.156645 0.291750 0.193946 -0.124697 -0.239148 0.401389 0.002611 -0.026156 -0.344127 -0.796623 0.248462 -0.118180 0.053065 -0.029161 0.002485 0.424844 -0.266629 0.585852 -0.138080 0.264412 
11 -0.146114 -0.447717 -0.158031 -0.267450 -0.071901 0.968181 -0.913500 -0.012255 -0.290238 -0.164818 0.167420 -0.168888 0.525279 -0.345680 -0.304897 0.322200 0.455430 0.176850 -0.086422 -0.258395 -0.104876 -0.041764 -0.080841 0.263392 -0.537349 -0.202290 -0.657092 -0.319135 -0.528875 0.217251 -0.064736 0.897053 -0.783986 -0.646061 0.198648 -0.506453 0.233169 -0.139825 0.295313 -0.033643 -0.759556 0.732353 -0.165553 -0.086348 -0.367980 0.095818 0.707191 0.332947 0.285260 0.445743 -0.209936 0.086577 0.410073 0.328083 -0.218295 0.579376 0.486503 0.557157 0.423334 -0.091363 -0.911290 0.347221 -0.184335 -0.386149 -0.246584 0.089957 0.315710 0.362287 0.447241 0.038760 0.192084 -0.442746 1.263699 0.080304 -0.402689 0.185671 -0.679695 0.169918 -0.730780 0.552860 -0.052669 -0.033330 -0.090732 0.054616 0.574372 0.031012 -0.898172 -0.173141 -0.043886 -0.532697 0.458797 0.635654 -0.138104 0.413100 -0.379982 -0.069495 -0.464074 -0.076906 0.131911 0.426390 -0.033687 0.104910 0.327360 0.306984 -0.401194 -0.544741 0.356181 -0.596728 0.075509 0.462157 -0.332493 0.030373 0.028316 0.636646 -0.226476 -0.101185 -0.173741 -0.477202 -0.200293 -0.125709 0.517476 0.188810 0.312824 -0.258853 0.091539 0.101262 0.238271 0.198219 
41 0.447709 -0.374469 0.107900 -0.334136 -0.137235 0.540422 -0.609529 -0.006907 -0.286755 -0.045085 -0.427583 -0.047343 0.160368 -0.140551 0.300729 0.750313 0.371516 -0.199143 0.219429 -0.455393 -0.066798 -0.224889 0.794315 -0.183947 -0.028541 -0.311247 -0.381213 -0.408484 0.014579 0.098974 -0.378251 0.590409 -0.783469 -1.085415 0.191524 -0.294075 0.283783 -0.388637 -0.053983 0.125509 -0.029703 -0.149968 -0.504509 0.741746 0.104345 0.649044 -0.240970 -0.011458 0.067411 0.304434 -0.247468 -0.538991 0.785498 0.361232 -0.558011 0.895885 0.504798 0.065759 0.759400 -0.645284 -0.380496 -0.102411 0.121506 -0.840080 0.170560 -0.292153 0.455552 -0.466548 0.065424 0.167256 -0.672316 0.269633 0.448299 0.098910 -0.335773 -0.152287 0.230293 0.807202 -0.736354 0.192559 0.022972 0.505538 0.329713 -0.031001 0.120952 -0.246049 -0.389573 0.196645 -0.223905 0.073475 1.046929 0.098414 -0.322734 0.225354 -0.481332 -0.678786 -0.592887 0.041715 0.386906 0.055020 -0.099122 0.017520 -0.570629 -0.193515 0.111717 -0.102328 0.088984 -0.326490 -0.301435 -0.065453 -0.374610 0.766395 0.713732 0.410254 0.211930 -0.511467 0.205195 -0.556452 0.540253 -0.388551 0.031506 0.242496 -0.037818 -0.323336 -0.078014 -0.462582 0.135513 0.252191 
56 0.457225 -0.659917 0.104083 -0.320462 -0.158353 0.375089 -0.731405 0.162990 -0.181309 -0.741668 -0.040183 -0.147127 -0.035478 -0.210793 0.002511 0.624854 0.210052 0.214374 0.000247 -0.015397 -0.117850 0.110630 0.638744 0.121760 0.333341 -0.146557 -0.193219 -0.424064 0.079220 0.234215 -0.452513 0.932531 -0.304585 -0.949880 0.267272 -0.149084 0.209724 -0.340531 0.175672 -0.129359 -0.394305 -0.406115 -0.488104 0.593822 0.055301 0.489266 -0.024050 0.206098 0.111652 -0.111714 -0.035368 -0.249093 0.311119 0.570565 -0.511358 0.859737 0.323777 -0.257493 0.372555 -0.398993 -0.514988 -0.190258 -0.317812 -0.498055 0.066800 -0.094156 0.365564 -0.413561 0.035096 0.318197 -0.299762 0.011876 0.923584 0.166262 -0.576502 -0.425502 -0.008242 1.221636 -0.799129 -0.163330 -0.244060 0.120931 0.390058 -0.030945 -0.191916 -0.060358 -0.275827 0.248634 0.043161 0.027840 1.022097 -0.168213 -0.056546 0.222780 -0.495948 -1.234039 -0.682411 0.045132 0.423468 -0.070753 0.111123 -0.090584 -0.437920 -0.204681 -0.073535 -0.209451 -0.125994 -0.234283 -0.264528 0.032902 -0.829516 0.544052 0.866074 0.106760 -0.008931 -0.297377 0.165947 -0.364792 0.453716 -0.318295 0.658794 0.070438 -0.174299 -0.100050 -0.404247 0.079522 0.278525 0.334440 
64 0.260720 -0.010414 -0.245899 -0.343388 0.217947 0.670154 -0.247424 -0.044229 -0.153301 -0.115821 0.451283 -0.270997 -0.027111 -0.502248 -0.268442 0.709795 -0.108779 0.131846 -0.174609 -0.399458 -0.485803 -0.054647 0.028080 0.353118 -0.403164 0.130560 -0.173521 -0.390783 -0.316434 0.162062 -0.094492 0.974840 -0.930901 -0.391560 0.150694 -0.326584 0.159945 -0.465562 0.136040 0.580134 -0.851294 0.705498 -1.153903 0.036668 -0.134716 0.711233 0.224998 0.201939 0.333806 0.276065 0.254636 0.047640 0.397421 0.048980 0.339716 1.085350 0.087949 0.284285 -0.243780 -0.522895 -0.981793 0.214349 -0.052246 -0.141891 0.338251 0.126358 0.010581 0.453145 0.358802 -0.064842 -0.440139 0.169663 1.089286 0.167714 -0.511910 0.014165 -0.357776 -0.144791 -0.588242 0.396009 -0.498022 0.196009 0.263311 -0.118847 0.363847 -0.275566 -0.294153 -0.234387 0.044236 -0.454059 0.242044 0.621222 -0.079510 0.430501 -0.296809 -0.568757 -0.511856 0.133462 0.118165 0.380700 0.224435 0.268474 -0.001138 -0.097834 0.366261 0.462387 0.298128 -0.150922 -0.451134 0.539652 0.214460 -0.002478 -0.069589 0.718350 -0.019591 -0.675609 0.070893 -0.338905 0.201068 -0.083893 0.334162 0.064927 -0.557257 0.004687 -0.206769 0.037651 -0.564905 0.361189 
85 0.258679 -0.422158 0.505776 -0.116147 -0.051626 0.460653 -0.155638 0.127918 -0.430938 -0.360258 -0.058329 -0.219673 -0.193655 0.014732 0.142418 0.338950 -0.119821 -0.091265 0.352951 -0.223259 -0.154082 0.124078 0.734596 0.362556 -0.088445 -0.089677 -0.590663 -0.698063 -0.016500 0.755064 -0.748818 0.830862 -0.187271 -0.763621 0.480888 -0.223143 0.031205 -0.065816 0.029731 -0.055823 -0.280202 -0.330197 -0.283147 0.652576 -0.124793 0.582206 -0.594072 -0.244666 0.344750 -0.209857 -0.027196 -0.347401 0.285148 0.057829 -0.202402 0.966377 0.007169 0.237333 0.411484 -1.010407 -0.397815 -0.163473 -0.108758 -0.192696 0.360776 -0.144559 0.291330 -0.278867 0.103107 0.353574 -0.225068 0.370302 0.618213 0.132765 -0.012191 -0.496468 0.051517 0.329355 0.201249 0.040801 -0.640449 0.410292 0.080573 -0.291562 0.348280 -0.101379 -0.515377 -0.045428 -0.102272 -0.075778 0.821446 -0.385765 0.340611 0.309685 -0.034224 -0.690768 -0.552864 0.146655 0.341529 -0.062345 0.283536 -0.147999 -0.095400 0.078303 -0.298388 0.084515 0.020390 -0.576804 0.162318 -0.008480 -0.481005 0.152230 0.647050 0.618688 0.054547 -0.296814 0.125671 -0.332848 0.286666 -0.109493 0.454952 -0.565889 -0.109057 -0.364529 -0.248812 -0.256430 -0.191396 0.205140 
12 0.381278 0.256367 0.184147 -0.146198 -0.107494 0.475850 0.259662 -0.204557 -0.506789 -0.204493 -0.170974 -0.459392 -0.045287 0.162181 -0.017098 -0.185102 0.667779 -0.286631 -0.354184 -0.437574 0.221023 -0.049802 0.650909 0.135556 0.021545 -0.078172 -0.382759 -0.210720 -0.226314 0.228035 -0.310229 -0.002906 -0.074918 0.050150 0.323621 0.238907 -0.198479 -0.981610 0.411712 0.140865 -0.502030 -0.784302 -0.294388 0.168750 -0.518836 0.195493 -0.119681 -0.835143 -0.426920 0.079453 -0.347128 0.689146 -0.401052 0.019384 -0.264092 0.525806 0.000731 0.564199 0.507477 -0.574433 -0.360155 -0.227006 0.305858 -0.329590 -0.171016 -0.713078 -0.087270 -0.148122 0.521174 -0.397224 0.793542 0.295624 0.769388 -0.920660 -0.601526 -0.278323 -0.221866 0.083686 0.486629 0.464920 -0.881205 0.166388 -0.136746 -0.207197 0.431847 0.035080 -0.532895 -0.039533 -0.064440 -0.213363 0.336865 -0.095770 0.152610 -0.038159 0.206593 -0.927409 -0.143802 -0.033996 0.044339 -0.548553 -0.264272 -0.350689 0.079008 0.221587 -0.129212 0.062953 -0.552032 0.113477 0.051541 0.178753 -0.051516 0.373472 -0.175583 0.898252 0.138396 0.102946 -0.264913 -0.710686 0.283839 0.028966 0.477234 -0.273439 -0.086461 -0.480225 -0.082131 -0.071483 -0.026174 0.262931 
83 -0.305419 -0.195603 0.525175 -0.056701 -0.138836 -0.118373 0.363321 -0.275861 -0.401709 -0.062162 -0.669103 0.601537 -0.228987 0.184889 0.278384 -0.006741 0.146980 0.346874 -0.372906 -0.357216 0.044202 0.036648 0.456378 -0.188659 -0.608825 0.269053 -0.667918 -0.141124 0.042635 0.070803 -0.027426 0.793501 -0.235939 -0.155679 0.285923 0.409681 -0.284807 0.043380 0.235229 -0.151472 -0.332826 0.684518 -0.007762 -0.215954 -0.605458 0.526442 0.504785 -0.551174 -0.377472 0.359873 0.027345 0.447385 -0.190231 0.598490 -0.032547 0.419736 -0.201976 0.363890 0.788360 0.477761 0.084458 0.536848 -0.016946 -0.249636 -1.100463 0.158386 0.139954 -0.008379 0.611504 -0.032756 0.155644 0.557726 0.461791 -0.853721 -0.080474 -0.218335 -0.151417 -0.400012 1.241578 -0.129772 -0.009050 -0.180477 -0.904073 0.444421 0.388561 -0.194491 -0.272314 -0.199447 -0.266763 -0.383544 -0.038379 0.177159 0.164519 0.576091 0.513801 -0.427256 -0.207062 0.183687 0.336699 -0.933785 0.067874 -0.040839 0.267782 0.369414 -0.115136 0.108218 0.298409 -0.174246 -0.033753 0.319615 -0.694374 -0.238783 0.209869 0.101367 0.443417 0.377173 -0.495609 0.178850 -0.296620 -0.167785 0.199198 -0.263841 -0.072625 -0.749033 -0.536305 -0.869837 -0.144225 -0.459730 
90 0.667798 0.572871 0.009337 0.184125 -0.322551 0.175450 0.229322 -0.593488 -0.072644 -0.425588 -0.406485 0.218924 -0.528136 0.204171 0.335302 0.060359 0.089267 0.216243 -0.551744 -0.541889 -0.255247 -0.271462 0.105742 -0.066354 0.077284 -0.214097 0.009287 -0.532547 0.099709 0.518730 -0.315709 0.416021 0.058270 -0.022583 -0.310018 0.717320 -0.248051 -0.724903 0.117229 -0.143936 -0.009396 0.027468 -0.704221 0.235797 -0.254352 -0.398334 -0.187754 -0.103899 -0.080389 0.082469 0.009532 0.776376 -0.102993 0.491857 0.306484 0.948453 -0.217512 -0.192316 -0.086794 -0.548779 -0.403661 0.412683 0.375604 -0.030329 -0.433749 -0.332615 0.044236 -0.309417 0.309608 0.332674 -0.071875 0.555534 -0.158512 -1.098980 -0.371594 -0.336675 -0.025475 -0.555208 0.562083 0.163784 -0.067645 0.323413 -0.315776 -0.119928 0.328560 0.088723 0.033541 -0.195902 0.077200 -0.340971 0.153764 -0.406714 -0.132088 -0.085048 0.171869 -0.519895 -0.151694 -0.173935 0.591537 -0.878925 0.099363 0.089455 -0.399521 -0.038129 0.452197 0.817777 0.230949 0.232558 -0.010108 0.206477 -0.235659 -0.012248 0.056692 0.040174 0.206635 -0.677099 -0.453122 -0.090378 0.086351 -0.479278 0.404762 0.319191 -0.596531 0.025493 -0.513091 -0.595788 -0.767298 0.345664 
13 -0.026036 -0.422842 0.072680 -0.021323 -0.038800 0.694938 -0.535510 -0.164531 0.416068 0.189108 0.049700 0.106346 0.296879 -0.334046 -0.286250 0.184178 0.027112 0.221631 -0.279765 0.062211 -0.270674 -0.874332 0.102142 -0.471436 0.543922 0.546191 0.144402 -0.151101 -0.555418 0.042618 0.013716 0.233112 -0.337257 -0.340857 0.422020 -0.263525 0.075292 0.546833 -0.008366 -0.293180 0.092632 -0.058386 0.057136 0.287430 0.382366 0.594318 0.728117 -0.255835 -0.685222 0.390305 -0.198161 0.337940 0.261912 0.453337 -0.695477 -0.048830 0.003144 -0.409879 0.345720 -0.023124 -0.205818 -0.053941 -0.382019 -0.627083 -0.205852 0.101488 -0.528155 -0.039317 0.184246 0.767433 -0.245154 -0.465843 1.120077 -0.210953 -0.240652 0.165696 -0.145223 0.132056 -0.326628 0.847952 0.281339 0.640165 -0.083871 0.621858 -0.526471 -0.473598 -0.383610 -0.364673 -0.432988 -0.128748 -0.129573 0.294490 0.092936 0.063422 -1.167127 -0.481550 -0.175723 -0.312013 0.006896 0.089079 -0.630442 -0.137228 -0.731082 0.145249 0.248299 0.232802 0.328147 0.309758 -0.398038 0.209822 0.063416 0.262018 -0.075957 0.112502 0.336767 -0.159340 -0.116368 -0.186811 -0.395854 -0.177994 -0.880688 0.343598 -0.423561 -0.704174 -0.177905 0.163420 0.150504 0.545599 
34 0.036516 0.011292 0.018755 0.235492 -0.131610 0.313134 -0.104779 -0.075591 0.282503 0.166877 0.286311 -0.078931 0.128239 -0.369582 0.187436 0.126564 0.229013 0.182979 0.626545 -0.335611 -0.084382 -0.020979 0.373619 -0.100078 -0.114625 0.221576 0.045120 -0.257102 -0.715119 0.734266 -0.689031 0.330968 -0.059828 -1.133890 -0.141172 0.508166 -0.250344 -0.407025 0.240982 -0.464756 0.071311 -0.208101 -0.493664 0.222357 -0.361600 0.176225 -0.108779 0.069635 -0.657126 0.610717 -0.284472 0.721049 0.262780 0.716511 -0.276295 0.430788 -0.780475 0.362261 0.357635 -0.251148 -0.724588 0.513376 -0.094968 -0.332700 -0.023396 -0.198928 -0.161983 -0.535016 0.151255 0.231035 0.728747 -0.669458 0.778788 -0.198924 0.786981 -0.062833 -0.101565 0.339336 -0.317091 0.135231 0.513301 0.266833 0.235142 -0.055239 -0.300164 -0.527446 -0.676704 -0.032231 -0.764364 -0.502784 0.709698 0.049804 -0.562407 0.437098 -0.619036 0.287080 0.039548 -0.532351 0.835679 0.645677 0.369845 -0.192453 -1.337674 0.401704 -0.578918 0.524655 0.297481 0.146994 -0.520108 0.279954 0.117686 -0.107108 0.573946 -0.741236 0.266572 -0.272778 0.359759 -0.039767 0.138307 -0.376474 -0.281550 -0.256635 0.392387 -0.087463 -0.287018 -0.382974 0.153445 0.555587 
79 0.586901 -0.035634 -0.424111 -0.230666 -0.316016 0.979292 -0.198678 -0.062447 0.432029 0.150782 0.655200 -0.291633 0.006358 -0.408538 -0.204329 0.302951 0.162286 0.073006 0.421851 -0.000834 0.504229 -0.138241 -0.068583 -0.327328 -0.022133 0.425580 0.297798 0.258211 -0.934704 1.084038 -0.490336 0.281761 -0.104407 -1.049086 -0.339929 -0.222296 0.491027 0.136967 0.003998 -0.412539 -0.545375 -0.457106 -0.130181 0.435515 0.113243 0.178223 0.642047 -0.327325 -0.659344 0.273575 -0.222184 0.011804 0.307393 0.464817 -0.472623 0.192405 -0.120539 -0.220707 0.547809 0.275886 -0.283956 -0.097004 -0.521922 -0.475296 -0.206971 -0.357849 -0.503071 -0.172867 0.249738 0.628958 0.121876 -0.341417 0.786414 -0.439380 0.203932 0.229179 0.115952 0.134289 -0.649616 0.130950 1.269982 0.148571 0.155976 -0.196970 -0.336508 -0.055623 -0.300114 0.044137 -0.419726 -0.447676 0.481395 0.052764 -0.213367 0.622614 -0.111330 0.301833 -0.058769 0.298358 0.308972 0.448689 -0.070621 -0.020140 -0.419820 0.371748 -0.573334 0.278506 0.421711 -0.440746 0.203672 -0.113864 0.146920 0.108527 0.393376 -0.491441 0.119374 -0.525916 -0.204605 0.021029 -0.131154 -0.991999 -0.778104 0.302883 0.224913 0.419517 -0.050303 -0.213386 0.088516 0.499530 
89 0.669609 0.123111 -0.257169 -0.381640 -0.011287 0.557384 -0.137706 -0.199859 0.455513 -0.027182 0.036787 -0.123716 0.114730 -0.074294 0.601454 0.673576 -0.349628 0.064595 0.439390 -0.985624 0.095704 -0.539891 0.412481 0.071089 -0.177965 0.350943 0.520556 0.256006 -0.580067 0.011802 -0.070050 0.006643 -0.856715 -0.923490 -0.132959 -0.098385 -0.141576 -0.093303 -0.400118 0.192536 -0.215142 -0.149899 -0.590371 1.076316 0.375080 0.125519 -0.019267 -0.372605 -0.374388 0.099956 -0.081315 0.260424 0.337826 0.309471 -0.015287 0.434387 0.037796 -0.484773 0.185064 0.038421 -0.522882 -0.126449 -0.085731 -0.021538 0.442652 -0.358509 -0.337728 -0.258652 0.261631 0.019776 0.012492 0.044747 0.565809 -0.255868 -0.746103 -0.051908 -0.415015 0.390208 -0.420810 0.237041 0.634944 0.438862 0.450803 -0.031802 -0.163793 -0.817227 0.017745 -0.154624 -0.604423 0.034677 0.789919 0.524893 0.158576 0.438729 -0.357552 -0.220668 -0.254010 -0.274840 0.714762 -0.079532 -0.348831 0.585237 -1.149346 -0.054447 0.201127 0.460437 0.188778 0.018541 -0.760839 -0.455641 0.492846 0.267541 0.057779 -0.379691 0.512222 -0.246040 0.168866 -0.233804 0.135428 -0.467462 -0.231218 0.517896 -0.512754 0.079316 -0.489305 -0.457107 -0.457501 0.645588 
14 0.114432 0.127345 -0.445627 0.181502 -0.553315 1.221089 -0.294992 -0.052622 -0.229572 0.031839 -0.078090 -0.421720 0.644855 -0.901438 -0.479048 0.505019 0.699762 0.912772 0.496889 0.139313 -0.400132 -0.181153 0.015383 -0.463361 -0.300598 0.563327 -0.180553 -0.184093 -0.656825 -0.023849 -0.324878 0.313097 -0.017202 -1.032634 -0.175720 0.027209 -0.013464 -0.047230 -0.011765 -0.406054 -0.362439 0.104997 -0.020329 0.159178 -0.301624 -0.003678 0.476382 0.094543 -0.462658 0.146073 0.234619 0.558033 0.208702 0.316369 -0.452147 0.089742 -0.007705 -0.329009 0.323204 0.102800 -0.777985 -0.056638 0.224073 -0.235457 0.013647 0.049638 0.341882 -0.273597 -0.011492 0.480161 0.538489 0.186639 0.524663 -0.193528 -0.203991 -0.247157 -0.190982 0.120762 -0.089118 0.367812 -0.054293 0.111492 0.043038 0.325828 -0.136847 -0.481453 0.093733 0.239010 -0.279585 -0.312960 0.484271 0.051710 -0.021707 0.647471 -0.296676 0.344273 -0.126917 0.067647 0.005515 -0.169967 -0.364925 0.220479 -0.328021 -0.455198 0.194729 0.264633 -0.017871 -0.727026 0.497176 -0.019915 -0.522845 0.516624 0.378836 -0.874419 -0.151222 0.383474 -0.194422 -0.155031 -0.239080 -0.101026 -0.630774 0.439129 0.254577 0.799230 -0.043606 0.035982 0.650792 0.346063 
50 0.300745 -0.008324 -0.034245 0.433827 -0.435591 0.832636 -0.203660 -0.160013 0.314037 -0.063612 -0.202078 -0.180448 0.664078 -0.775635 -0.711098 0.468828 0.041266 0.269791 0.352615 0.065528 -0.563477 -0.990504 -0.163574 -0.588695 -0.119848 0.554450 -0.054215 -0.137229 -0.371939 -0.315826 0.086940 -0.015184 -0.275304 -0.846278 -0.058631 0.027769 -0.008996 0.258075 0.091503 -0.391883 0.040548 0.059371 0.173323 0.224642 0.021682 -0.322677 0.555894 -0.265788 -0.428175 0.022709 0.727896 0.242781 0.382052 0.227589 -0.297406 -0.254933 0.206440 -0.548438 0.162887 0.327962 -0.209581 -0.066058 0.167804 -0.252434 0.044380 -0.089862 0.131443 -0.471691 0.220088 0.426667 0.176728 0.089221 0.671167 -0.073845 -0.684556 -0.206476 0.038018 0.311979 0.439528 0.860192 -0.515956 0.521400 0.023097 0.713202 -0.341788 -0.428546 -0.193843 0.143820 -0.709248 0.331019 -0.001811 0.481487 0.204614 0.339109 -0.977098 0.151184 -0.351535 -0.209673 0.004145 -0.382501 -1.007437 -0.017776 -0.740335 -0.432225 1.180737 0.218499 0.029649 -0.205567 0.304380 -0.043798 -0.638040 0.826002 -0.161728 -0.182201 -0.194357 0.469565 0.025578 -0.300077 -0.118002 0.537597 -0.617809 0.538394 -0.069071 0.117528 0.365808 0.260393 0.464264 0.572468 
15 1.191739 -0.312299 0.274675 -0.083900 -0.044728 0.639603 0.334365 0.124138 0.092803 -0.075235 1.027249 0.143317 0.152732 -0.008150 -0.636144 -0.462966 -0.006269 -0.028926 0.018542 0.137732 0.227139 0.023287 0.371266 0.243281 0.253777 0.429181 -0.094680 -0.089217 -0.520922 0.236755 -0.528448 0.764822 0.018386 -0.239613 0.288061 -0.254149 0.180962 -0.078578 0.261618 0.209700 -0.582782 -0.265570 -0.105161 0.160553 -0.043489 0.642233 1.020834 -0.393192 -0.816891 -0.438166 0.221386 0.267850 -0.311470 0.241397 -0.309303 0.143108 0.089954 -0.055237 0.540184 0.758434 0.193639 -0.413299 -0.554258 -0.075358 -0.393672 0.143841 -0.618544 0.203138 0.759094 0.156335 -0.270873 0.119945 0.580619 -0.421859 -0.415655 -0.103913 -0.454153 0.100568 -0.005407 0.563214 -0.053069 0.128032 0.046729 0.467557 -0.200652 0.241117 -0.178180 -0.252029 -0.065542 -0.254134 -0.224054 -0.157017 0.283804 -0.028329 0.031347 -0.740164 -0.432839 0.150604 0.037061 0.212447 -0.731207 -0.482810 0.268532 -0.071492 -0.325024 0.406843 -0.291903 -0.177517 -0.637914 0.004026 -0.083495 0.273808 -0.220191 0.144413 -0.183956 -0.379178 -0.423231 -0.204156 0.023290 -0.462865 -0.244372 -0.134740 0.131681 -0.126439 -0.159306 0.204425 -0.176307 0.112335 
86 0.471410 -0.049546 0.039387 -0.027507 -0.336217 -0.007594 0.399825 0.889015 0.695863 -0.652179 0.698967 0.171454 -0.502633 -0.647792 -0.259272 -0.487534 0.158327 1.130491 0.312983 -0.330653 -0.164673 0.455142 -0.356910 0.230449 -0.203377 -0.056947 -0.093432 0.071229 -0.089361 0.117109 -0.013206 0.787114 -0.864963 -0.197005 -0.222627 0.041813 0.092820 -0.262182 0.043663 0.285965 -0.157014 0.723256 -0.263746 0.152604 -0.413073 -0.496888 0.316510 -0.039913 -0.167804 -0.539322 -0.529444 0.835728 0.068108 -0.076110 0.294636 0.264166 -0.547258 -0.250650 0.640311 0.240253 -0.149204 0.366407 0.285502 -0.285885 -0.628827 -0.806558 0.421356 0.330336 0.310687 -0.286313 -0.652371 -0.528885 0.683890 -0.295485 0.430083 -0.846005 0.163254 -0.276997 0.347878 -0.243931 0.361001 0.906988 0.040547 0.336103 0.247303 0.128876 -0.327499 0.007978 0.392528 -0.577519 -0.325375 0.334850 0.230978 0.452590 0.197705 -0.165477 0.133925 -0.215749 0.409407 -0.409463 -0.294824 0.331748 -0.202560 -0.115433 0.383381 0.607820 0.317678 -0.118814 -0.071692 0.448535 -0.209148 -0.174449 0.118502 0.849597 0.025959 0.143279 0.304157 -0.507411 0.286647 -0.206400 0.173612 -0.047876 0.361528 0.289471 -0.112235 -0.189326 -0.571007 -0.190531 
93 0.348891 -0.556016 -0.364541 0.340949 -0.202861 0.033673 0.176618 1.013113 0.411523 -0.351940 0.175296 -0.049285 -0.044977 -0.714119 -0.192628 0.113144 0.255537 0.896655 0.037375 -0.584427 -0.519471 0.171908 0.013547 -0.323313 -0.126658 -0.025300 -0.569409 -0.249528 -0.159959 0.307643 -0.051670 0.764750 -0.267082 -0.106443 -0.488811 -0.013259 -0.126241 -0.165917 0.285078 0.285005 -0.224968 0.315115 0.116881 -0.029304 0.299542 -0.681148 0.099012 0.152448 -0.021733 -0.727273 -0.152856 0.183629 0.036184 0.681486 0.073338 0.121937 -0.352357 -0.006452 -0.075241 0.190345 0.238077 0.474212 -0.167474 -0.472630 -0.389076 -0.311600 0.258630 0.601902 0.126007 0.161261 -0.902419 -0.222531 0.633643 -0.206799 0.293844 -0.439233 0.450975 0.039398 0.535428 -0.122806 -0.133975 0.573946 -0.042814 0.337438 0.200810 -0.136553 -0.075741 0.117868 0.993890 -0.613942 -0.329280 0.454190 -0.093100 0.434238 0.026169 -0.203366 -0.290261 0.492260 0.088183 -0.149648 -0.524102 0.388827 -0.133047 -0.581114 0.493963 0.313686 0.047679 -0.246232 0.583981 0.351892 -0.389987 -0.081171 -0.054406 0.514821 0.137276 -0.140137 0.184445 -0.297235 -0.340004 -0.683076 0.410518 0.344914 -0.027361 0.149290 -0.297799 -0.393354 -0.234324 -0.269712 
97 0.836883 -0.324144 -0.161976 0.123579 -0.286590 -0.034644 0.524998 0.593126 0.341580 -0.026902 0.279656 -0.117270 0.396585 -0.610114 0.077353 -0.536607 0.718506 0.874233 0.396609 -0.239072 0.046405 0.084333 0.360677 -0.128066 -0.652937 -0.401409 -0.559219 0.215929 0.080009 -0.493664 -0.027289 0.549989 -0.655112 -0.575940 -0.088659 -0.147407 -0.021630 -0.375642 0.343880 0.607500 -0.500586 0.223496 0.276327 0.118205 -0.532897 -0.485627 0.395873 0.179103 -0.028088 -0.579868 0.009846 0.503333 0.039485 -0.157970 -0.496800 -0.301420 0.480612 -0.274849 0.499004 0.650914 0.084282 0.423849 0.013867 -0.161909 -0.344136 -0.304206 0.190592 0.284193 0.373071 -0.191604 -0.464520 0.017631 0.116902 -0.316034 -0.093422 -0.414153 -0.161463 0.459667 0.276619 -0.159989 -0.183350 0.061208 0.200253 0.508486 0.763009 -0.611391 0.094483 0.488396 0.471535 0.248237 -0.010383 0.075551 0.142841 0.507397 0.330285 -0.098735 -0.557581 -0.298929 0.150379 -0.171741 -0.527144 -0.153585 -0.360746 -0.283451 0.592459 0.205883 0.025461 -0.205551 0.145206 -0.010572 -0.374568 0.300784 -0.100930 0.072388 0.050082 0.204238 0.045708 -0.498533 0.188172 -0.747895 -0.098459 0.607323 0.151786 0.077011 -0.300364 -0.374366 0.259596 -0.711731 
16 0.418145 -0.171387 0.257138 -0.209538 -0.296365 0.540049 -0.826280 -0.295512 0.105540 -0.232149 -0.216762 0.028758 -0.301429 -0.136813 0.459216 0.570974 0.083601 0.386538 -0.206958 -0.371487 0.114264 -0.106846 0.127416 0.353245 0.005390 -0.042593 -0.106842 -0.387814 0.157417 0.367046 -0.452607 0.980176 -0.148636 -0.974712 0.356667 -0.171398 -0.070625 -0.169169 0.310763 0.112186 -0.666555 0.260499 -0.325514 0.066372 -0.253232 -0.011840 -0.113759 0.359821 0.136431 -0.377054 -0.469365 0.122050 -0.219399 0.196819 -0.140326 0.947730 0.836039 -0.562625 0.339896 -0.268603 -0.794889 0.396797 -0.500490 -0.151822 -0.418562 -0.208768 0.008708 -0.118338 0.298613 0.152846 -0.146153 -0.125364 0.744278 -0.284288 -0.706691 -0.081269 -0.422268 0.608474 -0.451222 -0.106075 -0.217445 0.358251 -0.030008 -0.201054 0.794441 -0.137300 -0.423374 -0.187340 -0.037632 -0.410253 0.787690 -0.467461 0.034394 -0.048942 -0.055795 -0.778726 -0.269471 -0.494935 0.387429 -0.055144 0.371753 0.435424 -0.404583 0.009892 0.131194 0.240617 0.435207 -0.089709 0.117520 0.045247 -0.512460 0.330771 0.172377 -0.118835 0.290609 0.209672 -0.054966 -0.197900 -0.126647 -0.324630 0.988386 -0.021082 -0.188908 -0.451634 -0.873488 0.290973 -0.117221 0.034798 
69 0.054135 -0.302129 0.567527 -0.315527 0.248823 0.338669 -0.611009 0.149006 -0.248418 0.247124 0.038158 -0.054185 -0.251678 -0.279954 0.443967 0.902169 0.377989 0.135375 -0.020441 -0.433001 -0.203239 0.092779 0.388599 0.102244 -0.287449 0.174217 -0.168986 -0.220934 0.206365 -0.311525 -0.578218 0.871856 -0.713856 -0.691209 0.491556 -0.179405 -0.155520 -0.375806 0.005272 0.692352 -0.552909 0.330570 -0.533459 -0.087894 -0.120354 0.793252 -0.344956 0.120141 0.074209 0.121254 -0.187168 -0.552538 -0.077562 -0.372548 0.534850 0.694252 0.213817 -0.257524 0.336642 -0.404533 -0.852278 0.198403 -0.208502 -0.554114 0.141970 -0.071999 0.163349 -0.093788 0.220180 -0.262900 -0.597989 0.027535 0.995382 0.260235 -0.496198 -0.310729 0.013247 -0.218900 -0.213411 0.126696 -0.813148 0.518828 -0.040478 0.277963 0.967787 -0.543285 -0.436690 -0.315788 0.157739 -0.471820 0.597386 0.140874 0.503035 0.076992 -0.402912 -0.639810 -0.328656 0.016197 -0.361020 0.239428 0.261608 0.193615 -0.411006 -0.231455 0.131607 0.558477 0.519668 0.006105 -0.018578 -0.100269 0.145059 0.381239 0.060421 0.741167 0.181420 0.417800 0.156023 -0.412829 0.214040 0.091233 0.262379 -0.046842 -0.086592 -0.185131 -0.563623 -0.007228 -0.115868 0.233462 
77 -0.149983 -0.505160 0.264747 -0.050708 0.215624 0.386929 -0.710925 0.182435 -0.098337 -0.410239 -0.165084 -0.049209 0.034103 0.142127 0.513756 0.654898 0.093897 0.478959 0.016144 -0.739610 -0.478202 -0.038580 0.198826 0.836290 -0.472171 0.517721 0.320835 -0.072373 -0.590611 0.363522 -0.508215 0.610781 -0.622778 -0.401883 0.064469 -0.214212 -0.324950 0.409429 -0.104161 -0.070538 -0.742837 0.091504 -0.630957 0.605915 -0.234936 0.400728 -0.279140 0.133610 0.173363 -0.119647 -0.045655 0.088993 -0.219590 0.301979 0.544583 0.742325 0.170857 0.047274 0.053755 -0.624301 -1.051309 0.305918 -0.428657 0.034565 0.172867 0.022488 0.315776 -0.292068 -0.031039 0.004112 -0.210668 -0.148586 1.198689 -0.030311 -0.514528 -0.459524 -0.545831 -0.001280 -0.485718 0.331191 -0.407455 0.251591 -0.265047 -0.029472 0.369810 -0.145211 -0.685315 -0.425412 -0.001254 -0.446895 0.776929 0.251655 0.500526 0.317708 -0.231669 -0.354187 -0.520774 0.192278 0.372821 0.296539 0.224366 0.325472 -0.469531 0.246803 -0.600674 -0.053129 0.405473 -0.170940 0.029583 -0.007990 0.213904 -0.217729 -0.053285 0.291739 0.279264 0.421939 0.145095 -0.177790 0.032920 -0.010254 0.661869 -0.123384 -0.313085 -0.068316 -0.642180 0.007474 -0.390220 0.308392 
87 -0.586203 -0.689249 0.398814 -0.093382 0.065098 0.421414 -0.857330 0.039951 -0.409408 -0.097555 -0.055053 -0.004340 0.252136 0.067719 0.052437 0.293503 0.335826 0.005786 -0.178136 0.002313 -0.119990 -0.029047 0.163503 0.375543 -0.222366 0.249819 -0.319171 -0.265202 -0.254396 0.308973 -0.475828 0.591223 -0.324516 -0.421370 0.601373 -0.630129 -0.043235 0.398550 0.054649 -0.295977 -0.623198 -0.249266 0.083183 0.069031 -0.160582 0.711650 0.038171 0.050498 0.059763 0.099661 -0.410847 -0.365715 -0.223227 0.138686 -0.262535 0.448784 0.470396 0.174469 0.592212 -0.516091 -0.631339 0.105870 -0.526976 -0.645441 -0.257325 -0.056465 0.076500 0.029437 0.266871 0.325697 0.149789 -0.194734 1.253352 -0.132062 -0.193890 -0.131700 -0.459693 0.074660 -0.430879 0.499209 -0.469825 0.132370 -0.295612 0.065210 0.630630 0.028748 -0.809475 -0.303361 -0.009867 -0.442497 0.579738 0.089315 0.289201 0.033992 -0.425331 -0.576463 -0.413374 0.083638 -0.182595 0.341855 0.181500 -0.229413 0.058252 0.338864 -0.655179 -0.239657 0.058873 -0.291279 0.533837 0.033645 -0.172476 0.124613 0.122292 0.747328 0.369957 0.197957 -0.106087 -0.259619 -0.206701 0.051180 0.436696 -0.206344 0.152840 -0.658232 -0.273606 0.173041 0.096718 0.252282 
17 -0.016891 -0.216670 0.737615 0.184829 0.404289 0.379191 -0.482216 0.136851 -0.186424 -0.500438 -0.405084 0.061461 0.158926 0.151870 0.196834 0.712788 0.807798 -0.396641 -0.304319 -0.546713 -0.354622 -0.348335 0.709072 -0.003244 0.144614 0.004753 0.328269 -0.038819 -0.313974 -0.004149 -0.431650 0.262712 -0.383337 -0.326268 -0.356143 0.702573 -0.365967 -0.489917 0.159961 -0.313310 -0.121643 -0.642068 -0.293251 0.598037 0.089857 0.429258 -0.146967 -0.226599 -0.699327 0.441249 0.138606 -0.060828 0.215905 0.211923 0.029233 0.078927 -0.497350 0.547246 0.139010 -0.540559 -0.610614 -0.196688 -0.113363 -0.556462 0.074938 -0.195247 0.416357 -0.806235 -0.239954 -0.109233 0.001977 -0.236373 0.798604 -0.324319 -0.414187 -0.473980 0.341703 0.121551 -0.174642 0.215622 -0.283042 0.153577 -0.504358 -0.042889 -0.336752 -0.560282 -0.659838 0.071590 0.077075 -0.167702 0.729853 0.359297 0.438878 0.192175 -0.651006 -0.361659 -0.560517 0.653615 -0.078664 -0.310552 -0.062334 -0.084685 -0.624361 0.453010 -0.157644 -0.600638 0.411439 0.036143 0.195119 -0.279203 0.016335 0.335259 0.468176 -0.128552 0.195401 0.673677 0.183021 -0.303094 0.125993 0.178590 -0.183348 0.280902 0.147620 0.024858 -0.157245 -0.377015 0.907332 0.438361 
66 -0.001658 -0.154562 0.535482 -0.411334 0.121651 0.449085 -1.146997 -0.559464 0.038623 -0.194580 -0.078960 -0.226927 0.110679 -0.169971 0.301652 0.431446 -0.088967 0.133099 -0.227731 -0.139404 -0.127759 -0.277074 0.151206 0.381406 0.045594 -0.090301 0.072461 -0.508060 -0.362251 0.331887 -0.365924 1.274744 -0.379135 -0.997885 0.274641 -0.316693 0.000369 0.288810 0.220417 -0.012586 -1.018153 0.280718 -0.409696 -0.037200 -0.127465 0.339716 0.471711 0.573678 0.177524 0.004831 -0.056770 0.212121 0.006748 0.109526 0.230376 1.163832 0.694156 -0.456443 -0.041793 -0.268654 -1.248373 0.515834 -0.301153 -0.165786 -0.085667 -0.023003 -0.366527 0.109024 0.461817 0.254215 -0.152062 -0.304740 0.650554 -0.209787 -0.846403 0.210663 -0.539977 0.473800 -0.297199 0.211217 0.083649 0.264872 -0.164123 -0.149607 0.616985 -0.509804 -0.635345 -0.480166 0.192834 -0.399025 0.761780 0.059855 -0.166652 -0.010765 -0.055542 -0.630848 -0.126434 -0.337816 0.402213 0.119283 0.262598 -0.047407 -0.113678 0.431245 0.158309 0.216572 0.667954 -0.258966 0.225077 0.231700 -0.410744 0.202688 0.016173 -0.398011 0.342953 -0.148290 0.091009 -0.074439 -0.351832 -0.356501 0.367985 0.034180 -0.355863 -0.357221 -0.586648 0.118804 0.180530 0.178955 
81 0.241084 0.333260 0.978108 0.128978 0.067271 0.471161 -0.407336 -0.745200 0.217864 -0.433887 0.085253 0.202899 0.355492 0.121205 0.018787 0.093723 0.269089 -0.416747 -0.582489 -0.025944 -0.398120 -0.548584 0.502767 0.067849 0.602111 0.095580 0.070721 -0.513189 -0.061398 -0.018276 0.257909 1.049014 0.249085 -0.189008 0.507141 0.885991 0.139546 -0.026267 0.506958 -0.028574 -0.355857 -0.259305 -0.355129 0.257767 0.408542 0.996672 0.555059 -0.409684 -0.944428 -0.030870 0.260857 0.002818 -0.157411 0.471063 -0.619941 0.132094 0.423129 -0.059822 -0.399116 0.331544 0.120224 -0.034303 -0.626814 -0.191203 -0.504956 -0.025688 -0.543217 -0.055353 -0.003579 0.592592 -0.056745 0.030020 -0.170130 -0.720043 -0.468820 -0.140690 0.012070 0.576123 -0.314318 0.169673 0.197233 -0.420680 -0.630021 0.107281 -0.581711 -0.663785 -0.289238 -0.054852 -0.022514 0.508985 -0.138605 -0.011151 0.384140 -0.047062 -0.356252 -0.443673 -0.323245 0.308628 -0.091594 -0.510177 -0.410414 -0.082849 -0.046564 0.064453 0.583094 0.062601 0.334259 -0.005516 -0.205507 -0.107939 -0.423657 0.333138 0.427378 -0.646667 0.293956 0.003079 -0.213131 -0.216691 -0.739304 -0.658955 -0.325941 0.338638 -0.635476 -0.349562 -0.237139 0.313829 0.466612 0.105629 
18 1.076143 0.223521 0.007199 -0.348318 -0.099845 0.495285 0.498983 0.541924 -0.173350 0.416234 0.539108 -0.157266 0.180838 -0.295377 -0.288535 -0.247115 0.722941 0.520203 0.569092 -0.364533 0.161486 0.271845 0.666886 0.112831 -0.259895 0.044645 -0.789131 0.106262 -0.099332 -0.460693 -0.438108 0.729341 -0.504394 -0.500301 0.643219 -0.248191 0.069410 -0.755909 0.748173 0.964406 -0.381353 0.312873 0.020951 0.006749 -0.273492 0.167035 0.448610 0.002461 -0.162519 -0.225159 0.026381 0.321123 0.192538 -0.293155 -0.027834 0.168522 -0.043215 -0.083325 0.504373 0.434615 -0.234918 0.025654 -0.285251 -0.347668 -0.237694 0.091784 -0.213900 0.252367 0.556023 -0.065889 -0.548634 0.141760 0.326608 0.007351 -0.144562 -0.358577 -0.156052 0.175064 0.193771 0.393459 -0.645270 0.232123 0.401393 0.523547 0.506926 -0.231937 -0.187209 0.106507 0.148914 -0.163421 -0.020394 0.105165 0.106468 0.172002 0.157334 -0.550799 -0.577531 -0.164370 -0.106648 0.035437 -0.558846 -0.068287 -0.175697 -0.291980 0.136306 0.649728 0.065213 -0.194244 -0.554339 0.240969 0.036947 0.515145 -0.219013 0.826119 -0.299681 -0.236085 -0.274161 -0.713849 0.722528 -0.263048 -0.137910 0.146188 0.330621 0.145539 -0.214762 -0.127196 -0.141333 -0.012785 
84 0.480579 -0.913659 0.090382 0.281922 -0.004814 -0.241244 0.412255 0.488132 0.628010 -0.337173 0.975563 0.107856 0.073208 -0.591064 -0.720116 -0.717032 0.058926 0.619349 0.207552 0.245777 -0.224002 0.346764 -0.043229 0.157204 -0.384812 -0.117379 -0.049786 -0.154681 -0.172909 -0.028188 -0.073255 1.157255 -0.671327 -0.424965 0.008104 -0.151943 0.301441 -0.217437 0.088252 0.349438 -0.693812 0.201944 -0.362230 -0.387166 -0.609291 0.373128 0.567632 -0.214885 -0.271060 -0.334527 -0.255934 0.395468 -0.087390 -0.049680 -0.449549 0.117242 0.009152 -0.094163 1.077328 0.560131 0.116917 0.094519 -0.112906 -0.134185 -0.653899 -0.392955 0.159640 0.969465 0.759644 -0.377560 -0.387458 -0.325072 0.999872 0.006027 0.056255 -0.306437 -0.388666 0.233568 0.184381 0.146261 0.138477 0.478885 0.224463 0.118328 0.117140 0.219035 -0.468499 0.001681 0.223255 -0.517345 -0.270761 -0.000300 0.084634 0.496533 0.342452 -0.179077 -0.303426 -0.038787 0.117350 0.045456 -0.433908 -0.160836 0.273287 -0.063122 0.184908 0.349818 -0.388308 -0.364088 -0.368111 0.353709 0.059447 -0.212070 -0.509149 0.559893 0.094161 -0.069574 0.126815 -0.346853 -0.068413 -0.254464 0.183581 -0.442085 0.353438 -0.028047 -0.058797 0.558483 -0.117399 -0.216212 
98 0.817758 -0.633012 -0.120932 0.141116 -0.394860 0.227030 0.073753 0.570906 0.200187 -0.717372 0.441324 -0.056699 0.066065 -0.299627 -0.202282 -0.647249 0.515372 0.811285 0.334746 0.014486 0.059394 0.332741 0.189790 0.229698 -0.207983 -0.369729 -0.479504 -0.071965 -0.350449 0.491609 -0.308645 0.792905 -0.145629 -0.289406 -0.178920 -0.324505 0.157578 0.211312 0.524898 -0.129099 -0.479362 -0.056489 0.305325 0.216806 -0.369752 -0.515991 0.589024 0.132726 0.095518 -0.941462 -0.032663 0.359388 -0.147187 0.433245 -0.400458 0.148235 0.411240 -0.027263 0.540556 0.477989 0.127170 0.141802 -0.423837 -0.138218 -0.629086 -0.185081 0.268552 0.149872 0.377346 0.331205 -0.547079 -0.214896 0.324091 -0.257139 -0.060434 -0.512079 -0.208628 0.714540 0.158198 -0.151331 0.080108 0.106525 0.017476 0.074838 0.217043 0.474524 -0.426723 0.208366 0.574566 -0.077674 0.182893 -0.155204 -0.021825 0.208332 0.462445 -0.235751 -0.501210 0.132903 0.362305 -0.071809 -0.434732 -0.164197 0.304134 -0.033639 -0.210733 -0.202407 -0.222320 -0.665991 0.263440 0.205300 -0.738640 0.069910 0.211748 0.298041 -0.260325 -0.147390 -0.117626 -0.435015 0.064197 -0.712965 0.426421 0.127619 0.396937 0.127113 -0.122455 -0.054736 0.009511 -0.333284 
19 0.030313 -0.286869 -0.495976 -0.002030 0.100295 0.309105 0.130791 0.392094 0.083922 -0.269614 0.033525 0.288555 -0.052614 -0.437035 -0.688779 0.000316 0.351153 0.598684 0.721341 -0.572172 -0.354334 -0.129539 0.765096 -0.113271 0.115156 0.019277 0.001751 0.045478 -0.135795 -0.303966 -0.389924 0.690264 -0.076744 -0.229058 0.341197 0.461613 -0.422490 -0.651891 0.401570 0.071328 0.480242 0.450018 0.124741 -0.170702 -0.419719 -0.088040 0.233784 -0.380778 0.077848 0.113319 -0.032124 0.760711 0.469059 0.828161 -0.350790 -0.069333 -0.584812 -0.050886 0.770611 -0.026350 -0.334242 -0.037471 -0.218960 -0.582856 0.319577 0.174929 -0.072137 -0.225218 -0.028329 -0.137267 -0.022418 -0.706561 1.633926 0.242812 -0.002355 -0.171269 -0.357190 0.140045 -0.042625 0.648437 -0.649009 0.525810 0.391124 0.173845 -0.365368 0.380864 -0.166883 0.073103 -0.317606 -0.287890 0.152914 0.116925 -0.142672 0.300013 -0.572866 -0.818124 -0.156693 -0.591048 0.241422 -0.137902 -0.046373 -0.128054 -0.879377 -0.407919 -0.136248 0.468771 0.188411 -0.240590 -0.742936 0.659323 -0.293649 0.284369 0.095081 0.454122 -0.345638 -0.046562 0.198891 -0.410002 0.295743 0.512239 0.314971 -0.465294 0.245143 -0.202298 -0.413781 0.292086 -0.130227 0.530380 
23 0.206105 -0.074240 -0.598178 -0.077209 -0.282134 0.706143 -0.067619 0.494940 0.211594 0.234630 0.675513 -0.157976 0.032941 -0.374442 -0.845421 0.088962 -0.039275 0.307456 0.608029 -0.039118 0.122078 0.090609 0.453417 -0.055805 0.291763 0.434017 0.054215 0.170854 -0.564832 0.663261 -1.129575 0.994683 0.142276 -0.573761 -0.040261 0.013463 -0.173395 -0.439267 0.378181 -0.022774 -0.060332 0.221157 -0.079880 -0.230337 -0.699282 0.440454 0.368350 -0.344432 -0.249856 0.236388 -0.224418 0.392620 0.270506 0.759868 -0.262492 0.387331 -0.654540 0.028539 0.991126 0.059759 -0.635425 0.153810 -0.072128 -0.550289 0.069345 0.289613 -0.303567 0.074593 0.220602 0.122608 0.451872 -0.344411 1.211660 0.059553 0.773110 0.165790 -0.350386 0.140396 -0.033211 0.370086 0.064217 0.282662 0.473788 0.185003 0.045159 0.280945 -0.297685 0.063315 -0.668773 -0.655744 -0.053057 -0.130665 -0.477850 0.405950 -0.461545 -0.435311 0.031157 -0.351174 0.191457 0.559277 0.083053 -0.201366 -0.559474 -0.026267 -0.743357 0.916503 0.164772 0.061207 -0.311154 0.667021 0.080995 -0.023646 0.227341 -0.024545 -0.405558 -0.276448 0.103894 0.025128 0.275300 -0.189250 -0.034770 -0.456139 0.524010 0.143293 -0.166294 0.155391 -0.109085 0.388437 
24 0.130965 0.172720 -0.002520 0.477279 -0.174209 0.388174 -0.231216 0.458977 0.274250 0.345434 0.655487 -0.310844 0.259280 -0.464801 -0.773935 -0.215110 -0.020796 0.363047 0.408980 0.154519 -0.415966 0.132737 0.611111 -0.017208 0.220752 0.073162 -0.342393 -0.298717 -0.255981 0.309789 -0.999264 1.204688 0.208732 -0.504571 0.024550 0.278687 -0.591012 -0.494175 0.682600 -0.018448 0.049703 0.372296 -0.242511 -0.431762 -0.715972 0.399942 0.316261 -0.076467 -0.339256 0.326142 0.028252 0.727840 0.170662 0.367116 0.063217 0.385827 -0.537489 0.144298 0.530782 -0.130145 -0.515440 0.623418 0.338637 -0.350650 -0.009959 0.542799 0.029111 0.252197 0.406247 0.202479 0.466440 -0.387713 0.548645 0.134242 0.872114 0.030692 -0.082588 0.204421 0.453775 0.590935 -0.481291 0.368837 0.356049 0.413980 0.295582 -0.154480 -0.554731 -0.200740 -0.236771 -0.433817 -0.118944 0.035704 -0.689063 0.104648 -0.661737 -0.030166 -0.005454 -0.619280 0.197006 0.488414 -0.098967 -0.240228 -0.501911 -0.025664 -0.044896 0.956388 0.057112 0.129587 -0.490828 0.638358 -0.007279 0.111507 -0.045142 -0.221595 -0.308920 -0.282321 0.332382 -0.297783 0.364185 0.033596 -0.219527 -0.414972 0.737074 0.101972 -0.201044 0.064636 0.402727 0.321692 
20 0.830863 -0.350118 0.038941 0.437565 0.379874 0.361939 0.317082 0.467932 0.408608 -0.645506 0.840215 -0.119518 -0.364772 -0.243997 -0.620038 0.804152 0.376480 0.031053 -0.579486 -0.063975 -0.624067 -0.203921 -0.301180 -0.454983 0.128112 0.322946 -0.031310 -0.224615 0.359033 0.126216 -0.523069 0.488691 -0.351178 -0.022570 -0.520756 0.424214 -0.101748 -0.768423 -0.000413 0.272479 -0.710680 0.295019 -0.428175 -0.073182 0.029670 -0.330043 0.464620 -0.006697 -0.463373 -0.264758 0.421595 -0.125132 -0.489756 0.247455 0.546784 0.186505 -0.670896 -0.044735 -0.005760 0.034332 0.048679 0.001367 -0.279580 -0.573962 -0.431108 -0.398700 0.221913 0.280981 0.517222 -0.194464 -0.625155 -0.112480 0.796116 -0.481216 -0.675291 -0.461213 0.452635 -0.737098 0.060933 0.643002 -0.727341 0.235146 0.294079 0.392835 0.529846 0.145855 -0.027890 0.210675 0.524697 -0.748230 0.108963 0.160897 0.347797 0.284608 -0.222848 -0.081748 -0.593786 0.607039 -0.020379 -0.079659 -0.169983 -0.148155 -0.110267 -0.478813 0.737116 0.549734 0.108909 0.304871 0.014305 -0.064937 -0.040942 -0.089833 0.017410 0.477948 -0.219318 -0.257272 -0.057758 -0.417585 0.090201 -0.089607 0.300681 0.195650 0.295629 0.434313 -0.235220 -0.241238 -0.014999 0.364530 
57 0.039026 -0.093085 0.053340 0.218578 -0.227373 0.443053 0.580779 -0.029270 -0.429108 0.106907 -0.961352 -0.061841 0.481399 0.070317 0.252924 -0.289999 0.771727 0.395806 -0.084439 -0.547993 -0.184241 -0.311371 0.658237 -0.141364 0.026104 0.164033 -0.846148 -0.177246 -0.336894 -0.176831 -0.164292 0.088893 -0.120433 0.046783 0.217840 0.405536 -0.253674 0.105688 0.588949 -0.095794 -0.044949 -0.361074 0.488662 0.299155 -0.485332 0.125007 0.166678 -0.583958 -0.448911 -0.373662 -0.198772 0.838225 -0.315472 0.726447 -0.757918 0.299365 0.265105 0.741644 0.405467 -0.225526 0.144254 0.003359 0.131045 -0.195844 -0.620077 -0.198428 -0.295671 -0.043816 0.246750 -0.024182 0.236701 0.291344 -0.073619 -0.856454 -0.426347 -0.181469 -0.425121 0.253063 1.214873 0.370453 -0.617609 -0.123419 -0.717515 -0.029137 -0.001873 -0.341641 -0.435558 0.290893 0.026424 0.178813 -0.159407 -0.362055 0.094641 0.138018 0.309981 -0.449114 -0.389296 0.276817 0.079814 -0.939138 -0.469462 -0.250834 0.091344 -0.026951 -0.052340 0.190582 -0.255196 -0.344505 0.344680 0.409538 -0.362700 0.217189 -0.083818 0.406135 0.130572 0.418332 -0.566287 -0.349724 -0.529958 -0.315516 0.097162 -0.134785 -0.302724 -0.608768 -0.297412 -0.168945 -0.015670 -0.268467 
76 0.761295 -0.588217 -0.024151 0.139675 -0.100991 0.661839 -0.189087 0.145313 0.188799 -0.378447 0.607536 -0.390864 0.260739 -0.782552 -0.319952 -0.046705 0.208036 0.497679 0.356368 0.086133 -0.776694 -0.142645 0.197319 -0.315443 -0.415357 -0.073496 -0.303009 -0.051608 -0.605492 -0.247257 -0.534171 0.855811 -0.730670 -0.188108 -0.195963 -0.104660 -0.225654 0.295354 -0.095378 0.193888 -0.607977 -0.007439 0.142505 -0.006201 -0.197860 0.162560 0.645917 -0.367340 -0.261556 -0.790678 0.315890 0.286190 -0.497210 -0.267500 0.072865 0.248434 0.412694 0.065287 0.507737 0.365897 0.127495 -0.307172 0.305922 -0.042078 -0.096514 -0.186127 0.160178 0.446542 0.832516 0.076369 -0.373825 0.129475 0.306612 -0.144756 -0.642269 -0.092031 -0.500979 0.228423 0.786135 0.442036 -0.603705 0.524560 0.088277 0.000772 0.550467 -0.337314 -0.366729 -0.205073 0.871982 0.099553 -0.032622 0.373378 0.106140 0.222174 0.235184 0.477492 -0.144252 0.491581 -0.157057 -0.289145 -0.599706 0.145498 0.707777 -0.783414 0.537242 0.644726 -0.481869 -1.146186 0.062237 0.054073 0.037357 0.289419 -0.299978 0.021388 -0.299543 0.306955 -0.049213 -0.318202 -0.492412 -0.116852 -0.439985 0.131367 0.016401 0.408814 0.320192 0.114300 0.253705 0.072494 
21 0.480311 -0.171768 -0.158439 -0.223649 -0.129127 0.736089 -0.500745 -0.114771 0.571595 0.468799 0.385860 -0.339029 0.118365 -0.261497 -0.513010 0.284824 0.107247 0.029554 -0.019438 0.033474 -0.032575 -0.723091 -0.128359 -0.681885 0.349484 0.569017 -0.021474 0.132517 -0.638961 0.358463 -0.060688 0.215160 -0.403947 -0.468817 0.366905 -0.466789 0.339554 0.344606 -0.024219 0.005981 -0.297048 -0.137026 0.119480 0.337504 0.396861 0.408650 0.733288 -0.491455 -0.707978 0.442264 -0.076480 -0.033934 0.298805 0.197956 -0.502381 -0.051457 0.000553 -0.507453 0.459686 0.135789 0.016832 -0.096083 -0.420238 -0.734699 -0.217904 -0.135605 -0.449871 0.202501 0.461282 0.732257 -0.421076 -0.237769 0.836798 -0.356342 -0.129804 0.239912 0.215434 0.041628 -0.408446 0.983714 0.564723 0.603512 0.144383 0.503272 -0.222890 -0.479060 -0.339193 -0.177123 -0.182990 -0.183436 -0.116712 0.425642 -0.099509 0.280379 -0.652868 -0.050467 -0.177130 0.042090 -0.009795 0.242510 -0.635014 -0.119459 -0.419653 0.065583 0.329698 0.380900 0.315649 0.138137 -0.137434 -0.043430 0.163041 0.242525 -0.180478 0.152571 0.225089 -0.393238 -0.176226 -0.290094 -0.105795 -0.482571 -1.014447 0.430347 -0.192541 -0.217537 0.084066 -0.117494 0.195896 0.428299 
38 0.098254 -0.232628 -0.319816 0.012801 0.025251 0.322896 -0.181467 0.194761 0.395912 0.140187 0.100934 0.056579 0.155092 -0.320599 -0.685501 0.054821 -0.097463 0.432309 0.411714 -0.301784 -0.489847 -0.639316 0.511207 -0.553108 0.492329 0.269435 0.006106 0.047924 -0.344016 -0.239898 -0.148712 0.274277 -0.241178 -0.129406 0.415901 -0.006965 -0.434003 -0.073227 0.203715 -0.012351 0.553754 0.298025 0.178816 0.157616 -0.037043 0.163909 0.356332 -0.494685 -0.340897 0.390798 -0.091773 0.752291 0.467168 0.565716 -0.438726 -0.223363 -0.534019 -0.334975 0.615380 -0.036692 -0.156531 -0.109334 -0.114293 -0.670634 0.276467 0.272423 -0.244144 0.006142 0.079488 0.323851 -0.168640 -0.649004 1.344200 0.197038 0.003853 0.057300 -0.094349 0.169779 -0.008561 1.088890 -0.226457 0.791546 0.518947 0.554454 -0.495387 -0.219035 -0.222130 -0.236323 -0.399826 -0.060328 -0.156075 0.403880 -0.162830 0.206238 -1.031464 -0.507835 -0.087891 -0.748643 0.211386 -0.070820 -0.604130 0.069043 -1.072373 -0.188624 0.245349 0.548883 0.091723 0.202050 -1.005109 0.474959 0.114209 0.196998 -0.170152 0.301099 -0.112492 -0.232073 0.179632 -0.505559 0.247200 0.399973 -0.495813 -0.049304 0.000730 -0.337911 -0.145286 0.089161 -0.017014 0.633239 
25 0.336261 -0.484418 -0.088467 0.016318 -0.626137 1.082676 -0.299511 -0.137119 0.204984 -0.112220 -0.061193 0.260805 0.406817 -0.228391 -0.436956 -0.010929 0.234116 0.571274 -0.147990 0.320524 -0.053596 -0.589239 -0.248435 -0.067666 0.211103 0.561217 0.086121 -0.175829 -0.844914 0.471693 -0.247427 0.383511 0.023357 -0.508487 0.146381 -0.597822 0.415558 0.686960 -0.220406 -0.679440 -0.511229 -0.263609 0.111221 0.345783 -0.095351 0.372620 0.986277 0.147521 -0.733343 -0.338888 -0.077676 0.218291 -0.017943 0.524278 -0.763157 0.308346 0.391011 -0.446556 0.559656 0.265598 -0.231928 0.015015 -0.288189 -0.250411 -0.683627 -0.190846 -0.296972 -0.207782 0.281443 0.655677 -0.038352 0.079145 0.833357 -0.614983 -0.230380 -0.000065 -0.307006 0.171686 -0.188827 0.498455 0.506668 0.354122 -0.343184 0.564436 -0.252801 0.154912 -0.167729 -0.027701 -0.367003 -0.430402 -0.063344 -0.389220 0.102486 0.204192 -0.320032 -0.428826 -0.385098 0.228013 0.001059 -0.028543 -0.607444 -0.297994 0.028054 0.037275 -0.317233 0.134224 -0.059907 -0.018905 0.366055 -0.007159 -0.518762 0.325255 0.002521 -0.370153 0.106475 -0.095381 -0.639240 0.240652 -0.574221 -0.492297 -0.360928 0.367793 -0.091263 -0.259033 0.003259 0.082580 0.231051 0.134034 
73 0.720534 0.013735 -0.099225 -0.452091 0.083044 0.584002 0.079360 0.171811 0.360143 0.630379 0.481861 -0.307244 0.012454 -0.214544 -0.102932 0.571821 -0.208340 -0.053079 0.264171 -0.612790 -0.117825 -0.485636 0.256165 -0.553062 -0.047132 0.629717 -0.074161 0.273907 -0.046964 -0.403466 -0.147709 0.055568 -0.706758 -0.440484 0.319700 -0.282700 -0.231131 -0.281880 -0.233638 0.752114 -0.476587 -0.107696 0.035057 0.519523 0.541659 0.503814 0.143612 -0.438448 -0.739614 -0.003780 -0.015014 -0.026984 0.012748 -0.228051 0.082845 0.043319 -0.129007 -0.507940 0.149291 0.256733 0.092927 -0.350001 -0.148373 -0.628326 0.222857 -0.454454 -0.575631 0.128272 0.561966 -0.065579 -0.491870 0.092768 0.655138 -0.358055 -0.671072 0.016293 0.103161 -0.409930 -0.237590 0.767654 0.254857 0.577552 0.402644 0.482138 0.297251 -1.045805 0.196044 -0.219955 -0.000993 -0.175907 -0.168692 0.497154 0.451328 0.513665 -0.314047 -0.291084 -0.084751 -0.095446 -0.101769 0.052847 -0.575877 0.274581 -0.713748 -0.430840 0.527959 0.911995 0.086928 0.285750 -0.525349 -0.490143 0.473707 0.516455 -0.279057 0.284525 0.436331 0.053069 0.038950 -0.116346 0.196423 -0.341848 -0.677590 0.395300 -0.363459 0.041494 -0.389354 -0.683807 -0.192197 0.279338 
26 0.799395 -0.089714 0.929993 0.302135 0.280523 0.534996 -0.024111 0.164800 -0.078213 -0.788447 0.756057 -0.066438 -0.256904 -0.220266 -0.698683 0.140799 -0.154902 -0.636230 -0.136031 -0.226828 -0.452669 0.127031 0.264685 0.066903 0.570358 0.490590 -0.181972 -0.696341 -0.411861 0.777090 -0.405933 0.846399 0.438701 0.086095 0.149992 0.918942 -0.180429 -0.053964 0.122539 0.030566 0.060218 -0.309017 -0.054223 0.350315 0.477890 0.650999 0.279944 -0.932302 -0.986699 -0.222381 0.542840 0.104137 -0.255476 0.405701 0.058722 -0.011751 -0.846150 0.596042 -0.124036 0.179969 0.358175 -0.642598 -0.478700 0.021231 0.062112 0.055225 0.018508 -0.024578 0.380664 0.241723 -0.128103 -0.222914 0.564185 -0.630288 0.015985 -0.352350 0.255310 -0.164448 0.444842 0.426786 -0.640044 0.251238 -0.381600 -0.003746 -0.653281 -0.173713 -0.542856 -0.225486 0.410586 -0.300857 -0.154706 0.373927 0.620288 -0.013725 -0.277803 -0.398196 -0.236802 0.757203 -0.174153 -0.172955 -0.261081 -0.215022 0.240833 -0.365697 0.110753 0.203613 0.033911 -0.571405 -0.297165 -0.061496 -0.103997 0.006865 0.467589 -0.026882 -0.249901 -0.051591 0.135929 -0.394172 -0.471960 -0.084189 -0.237489 -0.351899 0.247651 -0.036205 0.096207 0.150570 0.287693 0.493920 
45 0.804914 0.169631 0.089629 0.108480 -0.044964 0.707891 -0.128229 0.170294 0.447258 0.307623 -0.453703 -0.621265 0.083461 -0.377530 -0.018850 0.415638 0.844023 0.036415 -0.742218 -0.434698 -0.043555 -0.577438 0.084700 -0.229373 0.267737 0.193843 0.137575 -0.111137 -0.381278 0.093512 0.457732 0.036519 -0.205712 -0.308414 -0.584724 1.088237 0.171154 -0.582614 0.435982 0.239315 -0.293617 -0.283070 -0.200379 0.543140 -0.430983 -0.200812 0.117092 -0.939545 -1.040451 0.203391 -0.016432 0.745781 0.163738 0.070044 -0.595493 -0.164161 0.103406 0.536111 0.018309 -0.339501 -0.192753 0.195369 0.194731 0.412990 -0.384252 -0.496657 0.048739 -0.227879 -0.225789 -0.468718 0.062030 -0.250144 0.231532 -0.994300 -0.249307 0.202008 0.204986 0.549328 -0.232898 0.091841 -0.168575 0.471617 -0.391977 -0.176962 -0.340303 -1.063492 -0.353838 0.486373 0.006531 0.103679 -0.242718 0.063500 0.290262 0.253846 -0.065264 0.312739 -0.184366 0.108623 0.102387 -0.527352 -0.231408 0.037150 -0.226981 0.278904 0.711497 -0.353242 0.757698 0.362267 0.131835 0.033412 0.216259 0.022769 -0.313439 -0.498254 -0.258791 0.747519 0.309105 -0.333404 -0.512830 -0.594304 -0.367639 0.556168 -0.202290 -0.378318 0.011768 0.314920 0.886601 -0.180699 
28 0.298291 -0.598367 0.480234 -0.359394 -0.199034 0.606282 -0.431113 0.019637 0.265778 0.344334 0.236949 0.261228 0.095556 0.089621 0.093656 0.180848 -0.212185 -0.199500 -0.148296 0.066592 0.161296 -0.550230 0.242133 -0.287369 0.213397 0.199870 -0.283201 -0.097122 0.216461 0.030661 -0.569721 0.545306 -0.394289 -0.819066 0.678036 -0.692692 0.016638 0.138090 -0.247316 0.059001 -0.485398 -0.292411 0.482865 0.291163 0.211652 0.573989 0.246985 0.129078 -0.507636 -0.261332 -0.660654 -0.311290 -0.024199 -0.028149 -0.662892 0.274498 0.593853 -0.514220 0.713971 -0.112226 0.155968 -0.111489 -0.380953 -0.867107 -0.316120 -0.603706 -0.712339 -0.123054 0.489651 0.259311 -0.342530 -0.090402 0.887402 -0.504316 -0.305932 0.251176 -0.197957 -0.053134 -0.469159 0.481673 0.324720 0.640347 -0.005360 0.486907 0.714339 -0.608654 -0.154391 -0.165924 -0.122399 -0.200016 0.025774 -0.395627 0.425085 0.111219 -0.496984 -0.822188 -0.144935 -0.381612 -0.072882 0.152581 -0.247346 -0.253822 -0.482493 0.073711 -0.082383 0.450155 0.247846 0.266661 0.085613 -0.363423 -0.191997 0.553024 0.123000 0.337430 0.643967 0.033342 -0.180001 0.084970 -0.270145 -0.575358 -0.133087 0.123237 -0.210007 -0.888084 -0.477743 -0.403558 0.065553 -0.175638 
29 0.983520 -0.276019 0.155734 -0.444479 -0.025174 1.055115 -0.238651 0.245919 0.087463 -0.471296 0.495343 -0.653609 -0.069700 -0.626906 -0.264416 0.542022 0.393841 0.227172 -0.039768 -0.242704 -0.337069 0.091142 0.306267 -0.166060 0.030085 -0.061823 -0.252239 -0.447506 -0.668906 0.383696 -0.099129 1.079703 -0.488944 -0.612055 -0.167225 0.920139 0.211700 -0.410412 0.539887 0.218750 -0.016812 0.057958 0.051742 0.462753 0.141719 0.098591 0.390902 -0.771237 -0.358403 -0.208218 0.679235 0.260348 0.731497 -0.110212 -0.060313 0.149212 -0.351289 0.479789 0.000465 0.071951 -0.389492 -0.321263 -0.313985 0.543220 0.204151 0.219675 0.042748 0.055961 0.245265 0.016801 -0.046736 -0.198539 0.550332 -0.225596 -0.235362 0.075938 -0.214167 0.688442 0.274138 -0.194671 -0.673043 0.493552 0.010328 -0.372507 -0.575403 -0.857812 -0.440465 0.188859 0.508513 -0.263031 0.035028 0.607969 0.492432 0.230659 -0.107211 0.196053 -0.224865 0.492139 -0.179885 -0.428738 0.131730 0.032684 0.414536 -0.161960 0.418674 -0.230366 0.778660 -0.897859 -0.232931 -0.100225 -0.065680 -0.070366 0.245507 -0.075357 -0.866286 0.228536 0.522303 -0.370820 -0.691079 -0.420398 -0.358854 0.397437 0.022102 0.028004 0.312073 0.457081 0.787800 0.505313 
48 0.538628 -0.478368 0.225031 0.109129 -0.146928 0.474584 -0.911922 0.260946 0.686481 -0.061739 0.492564 -0.856718 0.231244 -0.735941 -0.406520 0.159498 0.091847 0.191409 -0.202989 0.114787 -0.579150 -0.030776 0.358206 -0.183131 -0.123794 -0.061741 -0.509300 -0.598354 -0.375168 0.720386 0.191040 1.451879 -0.088561 -0.859256 0.002983 0.489586 0.331773 -0.051057 0.492469 0.204791 -0.488389 -0.191829 -0.236728 0.063901 0.052928 0.471746 0.038011 -0.739793 -0.463730 0.017214 0.156368 -0.019737 0.456945 0.169434 -0.534512 -0.028475 0.566713 0.077656 0.118730 -0.393309 0.327960 0.139089 -0.253759 0.047003 -0.038855 -0.259474 0.228425 0.686459 -0.007970 0.311033 -0.229410 -0.141469 0.415513 -0.066196 0.293509 0.190342 0.051177 1.076669 -0.356840 -0.048012 -0.364457 0.525823 0.052893 -0.381358 -0.121729 -1.003350 -0.600242 -0.014255 0.568334 -0.001521 0.068203 0.336235 -0.052448 0.243121 -0.011960 0.568390 -0.270207 0.426081 0.040937 0.163799 -0.382741 0.009174 0.446454 -0.208720 0.796929 -0.165436 0.147801 -0.848895 0.122029 -0.092914 -0.056524 0.150474 -0.180679 -0.216002 -0.017609 0.076354 0.727336 -0.652893 -0.635897 -0.892029 -0.130924 0.099216 -0.034616 -0.168397 0.318953 0.599761 0.774386 -0.183332 
55 0.621676 0.066163 0.030597 0.241995 0.076717 0.692882 -0.256812 0.206443 0.592119 -0.792016 0.558819 -0.250022 0.000078 -0.401362 -0.344805 0.475724 0.975245 0.122418 -0.316013 -0.360789 -0.121054 0.016572 0.422288 -0.225938 0.125792 -0.138267 -0.142599 -0.005340 0.123880 0.215477 -0.011809 0.832920 -0.003168 -0.454832 -0.167673 0.922387 0.051158 -0.867559 0.870497 0.065963 -0.343520 -0.065866 -0.279548 0.094938 0.467007 0.016426 0.481570 -0.143816 -0.526337 0.075009 0.449687 -0.072195 0.394909 0.386410 -0.293259 -0.348679 -0.184507 0.048539 -0.486445 0.112270 -0.048740 0.010033 -0.936275 -0.444699 -0.306835 0.005567 0.280024 0.102211 -0.100706 0.401219 -0.151828 -0.301572 0.536910 -0.110930 -0.368533 -0.576654 0.307103 0.780784 -0.550526 -0.319386 -0.303668 -0.459952 -0.044978 -0.108057 -0.443639 -0.472540 -0.378158 0.508048 0.360969 -0.096929 0.382965 0.444516 0.393421 0.158473 -0.354013 -0.086057 -0.901045 0.689198 -0.127905 -0.146839 -0.245164 0.301688 -0.083620 0.028187 0.649076 -0.604604 0.303857 -0.007705 -0.227931 -0.250542 -0.406424 0.424672 0.449280 -0.127873 -0.146225 0.154737 0.114466 -0.605757 -0.041979 -0.331381 0.235569 0.666633 0.161644 0.470018 -0.148634 0.368003 0.945902 0.386597 
75 0.974495 0.269723 0.649347 -0.188140 0.079385 0.794675 -0.992020 0.036647 0.448965 0.249101 0.788386 -0.782629 -0.159942 0.044041 -0.461972 0.650734 0.097641 -0.467586 -0.086357 0.056816 -0.455219 -0.153776 0.057720 -0.410779 -0.103930 0.165978 -0.551074 -0.181798 -0.129208 0.744492 -0.362912 0.962194 -0.036237 -0.612930 0.146499 0.625117 0.050614 -0.401809 0.311711 0.140707 -0.246988 0.082267 0.087158 0.362834 0.344810 0.257153 0.052864 -0.615142 -0.791084 0.645964 0.304776 -0.141464 0.354243 -0.363819 0.240339 -0.045262 -0.220092 0.218904 0.057238 -0.411667 0.369538 -0.011922 -0.310371 -0.181566 -0.015016 -0.065691 0.186162 0.134773 0.391722 0.416424 0.007902 -0.133917 0.144459 -0.570808 0.371534 0.239740 0.430433 -0.155013 -0.380056 0.704096 -0.195300 0.500351 0.143071 -0.277600 0.154017 -1.078686 -0.543230 -0.059082 0.530203 -0.313688 0.210908 0.442358 0.212843 0.172433 -0.137433 0.963039 -0.229107 0.572805 -0.088199 0.128308 0.016368 0.031392 0.197088 0.100919 0.476127 0.019842 0.711103 -0.517122 -0.142260 -0.602537 0.305725 0.050759 0.054960 -0.258303 -0.251960 -0.079453 0.362492 -0.578727 0.008845 -0.420819 -0.554254 0.290425 0.561900 0.341448 0.317867 -0.168724 1.018652 0.104299 
