100 32
23 -0.521558 -1.18845 -0.202349 0.522523 0.0390914 -0.229053 -0.0170882 -0.191525 -0.0998917 -0.221544 0.0237219 0.213191 -0.13322 0.00375917 0.0082013 -0.19347 0.363588 -0.0308476 -0.0504409 -0.00688081 -0.0530233 0.0418654 0.249139 -0.0194817 4.04833 1.68827 -1.02261 -0.431026 0.660215 -1.4914 0.193077 0.548367
19 -0.592956 -1.13411 -0.21962 0.519213 0.0613173 -0.234161 -0.0934122 -0.213675 -0.0910766 -0.19429 -0.0706734 0.197929 -0.21395 -0.00717602 -0.0482986 -0.220251 0.468658 -0.0681146 -0.0756376 -0.0978332 0.0104222 0.0223592 0.266923 -0.0647934 4.06813 1.86876 -1.09623 -0.319571 0.67027 -1.49229 0.201429 0.665722
88 -0.678408 -1.04861 -0.114452 0.441061 0.23195 -0.116171 -0.187919 -0.245445 -0.226819 -0.137579 0.0587565 0.0785781 -0.119605 0.0239563 -0.0549728 -0.127607 0.526221 -0.110893 0.00491843 -0.166986 0.0739597 -0.190695 0.251983 0.00610939 4.07933 1.77119 -1.24312 -0.166465 0.643177 -1.43386 0.200608 0.64706
68 -0.598325 -1.0641 -0.153833 0.387069 -0.0290017 -0.249397 -0.143556 -0.190146 -0.056863 -0.114141 -0.00667404 0.114292 -0.147329 0.0257066 -0.176954 -0.241724 0.40653 -0.0733446 -0.124777 -0.12686 -0.136164 0.0684352 0.172748 0.0754059 4.08643 1.75891 -0.891752 -0.251654 0.61883 -1.60973 0.157285 0.775858
43 -0.258541 -0.538412 -0.0766506 0.342431 0.151379 -0.269878 0.084482 -0.258411 -0.0137887 -0.0947216 -0.0574093 0.305847 -0.15342 -0.00589422 -0.00171188 -0.275713 0.173508 0.0419247 -0.0574718 -0.0290796 -0.0972509 0.208068 0.0985571 -0.0173498 3.37532 1.46478 -0.886702 -0.513398 0.692399 -1.28682 0.136835 0.551223
97 -0.365753 -0.139451 -0.0507891 0.624104 0.510807 -0.378708 -0.194722 -0.0939314 -0.0191482 0.137316 -0.0665412 0.105959 -0.0809891 0.248357 -0.0600166 -0.0360598 0.216058 0.0387364 -0.0211103 0.0903584 0.0150542 0.293294 0.101186 -0.155976 3.70272 1.60189 -0.667545 -0.581661 0.401982 -1.52789 0.0281783 0.644111
62 -0.406926 -0.172388 -0.040467 0.479625 0.368257 -0.208009 -0.0120901 -0.0720467 -0.16158 0.023169 -0.0813959 0.220683 -0.15324 0.0173668 -0.00948983 -0.137412 -0.0664329 -0.161667 0.0375672 -0.0103528 0.0240484 0.0631913 0.036085 0.154243 3.61366 1.57603 -0.611715 -0.717389 0.735961 -1.29161 0.0621689 0.623448
76 -0.530247 0.0650332 -0.185081 0.415922 0.462608 -0.302374 -0.0409652 -0.621965 -0.334134 0.242833 0.112787 0.0856689 -0.132679 -0.0187514 -0.0794395 -0.109978 0.217619 -0.348461 0.0162067 0.0469711 -0.118902 -0.0918672 -0.0462567 -0.228812 3.78318 1.7715 -0.790847 -0.518374 0.622806 -1.45855 0.105164 0.714512
72 -0.646828 -0.250134 0.113748 0.0219507 0.289584 -0.0287718 -0.0851166 -0.175948 -0.0761342 -0.144774 -0.00772366 0.279577 -0.192378 0.0956716 0.166046 -0.0510902 -0.0363136 -0.0968656 -0.0450085 -0.0143131 -0.0300857 0.105701 0.0453024 -0.195919 3.59368 1.34711 -0.653903 -0.728703 0.586428 -1.34539 -0.0806848 0.655712
58 -0.258942 -0.0774706 0.100026 0.304548 0.260477 -0.345747 -0.0673723 -0.0398086 -0.109499 0.0621161 -0.11057 -0.0532715 -0.159868 0.120084 -0.0318166 -0.0987948 0.314661 0.0267448 -0.0444419 0.226181 -0.0892222 0.140624 0.263876 0.285929 3.56607 1.68424 -0.334558 -0.787029 0.925098 -1.32166 0.000355883 0.712361
98 -0.402537 -0.215282 0.104255 0.564111 0.200447 -0.112143 -0.0512081 -0.423946 0.106811 0.0482545 0.0540542 0.0761009 0.0530054 0.248494 0.0897436 -0.0706705 0.272207 -0.0136825 0.164652 0.00817012 -0.0918033 -0.234104 0.0790615 -0.175271 3.59971 1.64995 -0.598944 -0.709856 0.461916 -1.30354 0.287262 0.802655
44 -0.841916 -0.617705 -0.357684 0.270828 0.77251 -0.119304 0.0204967 -0.254861 -0.189188 -0.195119 -0.0861741 -0.268344 -0.0232851 0.148709 -0.00748268 -0.0886979 0.30239 -0.185674 0.196169 0.139547 -0.0272786 0.258545 -0.137017 -0.0734156 4.45969 1.78389 -0.486149 -0.97336 0.785171 -1.69027 0.560303 0.759058
50 -0.953786 -0.770902 -0.355535 0.210381 0.611497 -0.154763 -0.0115807 -0.214167 -0.275523 -0.252545 -0.195089 -0.168775 -0.0696989 0.23246 0.0287526 -0.104404 0.417796 -0.250642 0.138939 0.0630052 -0.0213375 0.161849 -0.019758 -0.0321042 4.42812 1.66215 -0.717688 -0.915334 0.704044 -1.77749 0.506061 0.891913
39 -0.866782 -0.688527 -0.391056 0.353683 0.834967 -0.104907 0.0936428 -0.391758 -0.277931 -0.177572 -0.0606557 -0.205203 -0.0430289 0.0793245 -0.0810747 -0.095724 0.356929 -0.216268 0.278263 0.0406523 -0.167442 0.165705 -0.025052 -0.0227278 4.5605 1.55996 -0.649979 -0.952641 0.733249 -1.81479 0.529791 0.946591
7 -0.761464 -0.801075 -0.463124 0.357957 0.914568 -0.130135 0.0827003 -0.371076 -0.309593 -0.160428 -0.0773552 -0.217645 -0.0607068 0.058093 -0.0861862 -0.117848 0.470447 -0.242452 0.240543 -0.0198598 -0.136667 0.205694 -0.111323 -0.03136 4.55203 1.57497 -0.580902 -0.935458 0.733482 -1.79813 0.592646 0.846252
22 -0.523393 -0.573407 -0.307431 0.364988 0.809413 -0.189016 0.0742118 -0.416966 -0.263404 0.0157062 -0.0581541 0.00769964 -0.0910808 0.0294284 -0.0684328 -0.0452879 0.352621 -0.116272 0.0894696 -0.176071 -0.172779 0.290924 -0.0834069 -0.00348143 4.28074 1.42426 -0.634137 -0.882942 0.704015 -1.52248 0.512275 0.845552
5 -0.66525 -0.583782 -0.37253 0.327693 0.80313 -0.142433 0.0788177 -0.319464 -0.287811 -0.176542 -0.0880106 -0.211926 -0.0986839 0.124901 -0.0859354 -0.118628 0.506479 -0.265479 0.215612 -0.0394561 -0.0669404 0.250502 -0.134314 -0.000991394 4.56222 1.61521 -0.614161 -1.08298 0.789636 -1.75041 0.503684 0.781584
80 -0.843458 -0.823808 -0.393988 0.362632 0.727574 -0.142749 0.0467807 -0.357099 -0.33199 -0.196515 0.026851 -0.262014 0.0344826 0.0767209 -0.108255 0.0250604 0.348113 -0.227797 0.248817 -0.0345314 -0.146514 0.177687 0.032343 0.0676072 4.64054 1.75194 -0.674357 -0.934135 0.804205 -1.7781 0.475048 0.921561
25 -0.713276 -0.572697 -0.303835 0.520962 0.541129 -0.188692 -0.0632753 -0.401073 -0.234054 -0.163525 0.178789 -0.28476 -0.00175846 0.0186662 -0.118237 0.00605847 0.425581 -0.20747 0.24016 0.0750265 -0.158415 0.143273 -0.0374553 0.0717631 3.84157 1.30599 -0.600403 -0.874819 0.700968 -1.45971 0.123698 0.7992
65 -0.788433 -0.724966 -0.382249 -0.0490235 0.635978 -0.0438369 0.136454 -0.460542 -0.222762 -0.210521 -0.0786292 -0.226309 -0.0637607 0.130494 -0.0668805 -0.205133 0.431422 -0.282965 0.199459 -0.00324121 -0.186572 0.12209 0.0191227 0.016844 4.42726 1.64192 -0.776299 -0.881313 0.744594 -1.68919 0.455779 0.804428
93 -0.470457 -0.168498 -0.19545 0.383893 0.344919 -0.123134 0.0377819 -0.0893608 0.126085 -0.294838 0.108149 -0.0827006 -0.133996 0.0143368 -0.0313922 -0.296822 0.131909 -0.0939926 0.00368258 0.158929 0.152541 0.0594384 0.0239904 -0.119012 3.66926 1.67532 -0.616514 -0.60158 0.662837 -1.45194 -0.112579 0.601516
18 -0.371666 -0.333987 -0.0852121 0.391179 0.276343 -0.182225 0.00870731 -0.288353 -0.0178786 -0.0375041 0.0238191 0.284251 -0.136097 -0.0231267 -0.0620072 -0.161391 -0.00385097 0.000400024 0.0551909 -0.0236409 -0.188365 0.252903 0.0429716 0.0119041 3.44483 1.35862 -0.776422 -0.527479 0.560127 -1.27891 0.106585 0.680647
84 -0.385525 -0.265417 -0.00322521 0.140986 0.192341 -0.359778 -0.0138088 -0.496165 0.0235757 0.0330929 -0.286963 0.117789 -0.135891 0.21759 0.10458 -0.0408543 0.250128 0.154796 -0.376215 -0.102719 -0.0990743 -0.0734253 0.155676 0.116145 3.5727 1.62342 -0.757535 -0.51524 0.641636 -1.36709 -0.06566 0.661596
15 -0.157704 -0.496763 -0.19645 0.281509 0.28467 -0.204896 0.217387 -0.276102 -0.0191916 0.0417382 0.292168 -0.0348617 0.110837 0.236752 -0.145873 -0.098444 0.01912 -0.114819 0.0791429 -0.363274 -0.199202 -0.00474124 0.235278 0.112492 3.44125 0.940267 -0.735703 -0.883153 0.662551 -1.20164 -0.146064 0.515012
86 -0.378789 -0.203762 -0.0494184 0.232454 0.0904769 -0.19363 -0.0110935 -0.354033 0.0574246 -0.145389 -0.0179849 0.0669246 -0.271154 0.0535696 -0.0445869 -0.232826 0.0936447 0.00694683 -0.154259 0.0967625 -0.195858 0.107574 0.215748 0.0266713 3.51252 1.62213 -0.755806 -0.509341 0.656979 -1.41929 0.0158023 0.655525
63 -0.420265 -0.183241 0.0484607 0.14683 0.00768589 -0.250123 0.176461 -0.216431 0.172631 -0.191146 0.0562814 0.122482 0.0376204 -0.124707 -0.16248 -0.350829 0.0625035 0.0754284 0.137002 0.0374231 -0.0257364 0.101466 -0.165785 -0.172198 3.54302 1.3029 -0.614895 -0.454944 0.639749 -1.44964 -0.158241 0.889672
99 -0.582859 -0.394758 -0.115444 0.385088 0.265285 -0.0224854 -0.134059 -0.171143 -0.12666 -0.340503 0.0348385 0.0170758 -0.256023 0.030854 -0.0877325 -0.0506596 0.0245483 -0.19011 -0.0726142 -0.177406 -0.0820187 -0.110261 0.0193612 -0.0819786 3.88927 1.38531 -0.805964 -0.514965 0.404602 -1.68469 -0.0889155 0.71489
3 -0.407215 -0.238976 0.108164 0.0545141 0.115681 -0.113654 -0.106143 -0.0464122 -0.137429 -0.386409 0.296701 -0.0950163 -0.119006 0.0170038 0.0162495 -0.0361359 0.416668 -0.0404199 -0.0911697 -0.0485925 0.0595888 0.0202575 0.348443 0.0664016 3.59716 1.20271 -0.625572 -0.83812 0.765988 -1.36 -0.199166 1.00804
78 -0.647544 -0.10701 -0.186862 0.435949 -0.00328163 -0.406375 -0.134421 -0.249568 -0.072777 -0.157173 -0.0185743 -0.152871 0.121474 -0.00336164 -0.119367 0.0646317 0.183791 -0.265266 0.0991563 0.166682 0.0414909 -0.312679 0.557104 -0.179899 3.7246 1.55683 -0.65206 -0.857768 0.593417 -1.26304 -0.115045 0.70403
96 -0.716256 -0.608669 -0.111766 0.229219 0.178641 -0.216539 -0.168796 -0.436327 -0.243154 -0.092378 -0.242979 -0.0509731 -0.031097 -0.271933 0.0254349 0.158183 0.290686 0.0138402 0.0741098 0.0641688 -0.0818567 -0.0592259 -0.0248357 0.0452703 3.86332 1.32981 -0.642913 -0.863046 0.559664 -1.37511 0.116947 0.797895
81 -0.669119 -0.288781 -0.136545 0.793844 0.208733 -0.21156 -0.171049 0.119069 -0.34624 -0.0356966 0.278392 -0.185304 -0.0365705 0.116541 -0.11673 0.0520029 0.192031 -0.343973 -0.116988 -0.000191655 -0.0992024 -0.301316 0.135443 0.231655 3.71443 1.34506 -0.812668 -0.422743 0.543443 -1.38088 -0.0667977 0.588825
100 -0.42276 -0.545771 -0.446217 0.497038 -0.0175416 -0.228394 0.139637 -0.0589721 -0.294081 -0.419167 -0.0782279 0.299852 -0.0790927 -0.252394 -0.00444757 -0.115479 0.314652 -0.237042 0.0468338 -0.107793 -0.0596823 0.147835 0.0599413 0.0791685 3.80005 1.53116 -0.63772 -0.57551 0.215244 -1.71039 0.034779 0.796004
1 -0.171873 -0.52783 -0.0274537 0.517338 0.281708 -0.203886 -0.158247 -0.0721425 -0.247327 -0.189493 -0.000893674 -0.097147 -0.17484 -0.0709463 -0.0846659 -0.0811073 0.397874 -0.157166 -0.0644985 0.161263 -0.149904 -0.0684935 0.00702878 0.116401 3.61671 1.24801 -0.561336 -0.484037 0.752277 -1.60348 -0.065446 0.387637
90 -0.521111 -0.488071 0.163369 0.35218 0.0675915 -0.297042 0.0678344 -0.148815 -0.197679 -0.275793 -0.0793061 0.0208399 0.0525014 0.00504779 -0.0274663 0.000348321 0.395681 0.033783 0.108812 0.0347155 -0.254397 -0.143343 -0.0478551 0.0266357 3.76314 1.25483 -0.575292 -0.394447 0.628478 -1.73513 0.350106 0.757469
59 -0.315247 -0.34461 0.110586 0.223177 0.151564 -0.174707 -0.0435022 -0.071434 -0.199955 -0.348493 0.167611 -0.05295 -0.0226992 -0.096202 -0.0360882 -0.0573621 0.381667 -0.0140605 -0.0589084 -0.205247 0.1923 -0.0690549 0.1624 0.134708 3.93185 1.38108 -0.679428 -0.615732 0.605146 -1.4818 -0.0538408 0.943266
83 -0.235878 -0.467017 -0.00757917 0.369188 0.182974 -0.0375109 -0.0589561 -0.142595 -0.250791 -0.237385 -0.166373 -0.0374195 -0.22514 0.201316 -0.0839095 0.0331325 0.313362 -0.0511651 0.00908996 -0.199381 -0.052237 -0.0242991 0.184915 0.176359 3.81553 1.41236 -0.816918 -0.708396 0.522124 -1.43747 0.0124666 0.48558
57 -0.293825 -0.588781 -0.00878776 0.332144 0.303314 -0.0848888 -0.0191134 -0.17476 -0.179647 -0.462134 -0.0392146 -0.144768 -0.144497 -0.0489181 -0.0835927 -0.0854565 0.268141 -0.106058 0.0392285 -0.0850905 0.0149883 -0.00299547 0.0403737 0.162772 3.72265 1.41565 -0.644411 -0.617533 0.686267 -1.46013 0.0327182 0.625718
95 -0.119754 -0.496932 0.0361531 0.57727 0.193983 -0.196703 -0.0367538 -0.460002 -0.384456 -0.348699 0.116713 0.135375 0.167803 -0.099212 0.0887553 -0.0123568 0.323313 -0.110844 0.135867 0.188936 -0.0472291 -0.106539 0.222012 0.0757457 3.95812 1.37197 -0.693497 -0.391091 0.517492 -1.66519 0.0993728 0.79265
46 -0.27701 -0.384006 -0.0915091 0.433272 0.404161 0.00166193 -0.00214335 -0.0066975 -0.306705 -0.267416 -0.0398699 -0.0291194 -0.243366 0.126451 -0.179923 -0.121824 0.126958 -0.248803 0.0281043 -0.289158 0.0379185 0.0573345 0.199852 0.256524 3.89731 1.44339 -0.847697 -0.529128 0.535989 -1.60262 0.0344729 0.77388
54 -0.273511 -0.520935 -0.055117 0.510021 0.304038 -0.0980171 -0.048901 -0.160931 -0.226356 -0.416187 0.0191658 0.00770946 -0.0616168 -0.108441 -0.0761242 -0.00554559 0.210719 -0.0318965 0.0287598 -0.207886 0.0883929 -0.00471853 0.131077 0.068738 3.79627 1.44198 -0.728345 -0.744605 0.478981 -1.40635 0.026087 0.547969
52 -0.483745 -0.454141 -0.050733 0.187892 0.294915 0.0319734 -0.0187956 0.0809145 -0.125088 -0.428389 -0.171004 0.119952 -0.121716 -0.0378552 -0.0759013 0.10148 0.367492 0.0143103 0.248016 -0.0611871 -0.193541 0.014656 0.495283 -0.00953408 3.66664 1.45516 -0.48276 -0.545443 0.543635 -1.45273 0.0192682 0.544747
92 -0.381723 -0.508721 -0.130728 0.546207 0.205536 -0.313229 -0.00732546 -0.135539 -0.258829 -0.219783 -0.226786 -0.0235677 -0.0454679 -0.092058 -0.129007 0.0791273 0.184481 0.135866 -0.104102 -0.365117 0.0604268 0.116584 0.171717 -0.036183 3.71004 1.2706 -0.598271 -0.524656 0.450246 -1.53777 0.149895 0.903176
77 -0.682806 -0.779371 0.0914234 0.773301 0.246142 -0.0858217 -0.0948894 -0.610225 -0.167784 -0.221821 -0.107322 -0.0350441 0.0486144 0.260052 0.000812578 0.0980016 -0.0997053 -0.152849 0.323407 -0.17078 0.0344869 -0.0695182 0.289655 0.0523089 4.0436 1.55 -0.826625 -0.517357 0.715205 -1.65425 0.136431 0.604109
87 -0.385129 -0.687076 -0.14081 0.542838 0.324986 0.029406 -0.059654 -0.666785 -0.345697 -0.439919 -0.00777423 -0.0243644 -0.00203441 0.168741 -0.0173047 0.0604489 0.00257012 -0.320115 0.372581 -0.128697 0.0905272 0.0972757 0.274175 0.28102 3.90839 1.56913 -0.808892 -0.366717 0.532136 -1.47825 -0.236361 0.799753
85 -0.781882 -0.72075 0.187528 0.365597 0.27503 -0.137262 -0.026008 -0.270728 0.0339351 -0.389354 -0.308906 0.0605363 0.0509592 0.0506684 0.0324246 0.0994465 0.218199 -0.107542 0.255947 -0.00194092 -0.129166 -0.274945 0.229621 0.260163 3.79823 1.73291 -0.774104 -0.426537 0.462807 -1.52172 0.0972021 0.800436
64 -0.695561 -0.703788 -0.0422287 0.421436 0.202845 -0.121676 -0.0803269 -0.423757 -0.0862387 -0.220459 -0.164084 0.168212 -0.165727 0.217437 0.0121521 -0.0664594 0.0658129 -0.107192 0.263077 0.151577 -0.225216 0.0105342 0.0143833 0.204595 3.79331 1.48868 -0.680555 -0.492455 0.630244 -1.60807 -0.0881735 0.579267
11 -0.610409 -0.786119 -0.0528047 0.518206 0.198892 -0.0305266 -0.0291213 -0.385769 -0.190048 -0.287431 -0.123869 0.119804 -0.105806 0.230654 0.0230139 -0.0348073 0.0278895 -0.101665 0.331743 0.0565704 -0.160351 -0.0789039 0.198694 0.271943 3.80281 1.46505 -0.768116 -0.490314 0.692541 -1.65455 -0.080881 0.637588
41 -0.607004 -0.740913 0.0565994 0.71675 0.260807 -0.108192 -0.0994013 -0.427696 -0.168337 -0.252775 -0.0381704 0.0277354 0.0318346 0.177915 0.0187244 0.0261098 0.114877 -0.281914 0.290032 0.144039 -0.211368 -0.215139 0.0553738 0.383664 3.98864 1.52732 -0.916018 -0.659258 0.616266 -1.5484 -0.101488 0.688974
66 -0.586384 -0.827837 -0.132049 0.780199 0.406981 -0.141512 0.0222612 -0.488371 -0.159132 -0.111392 -0.187681 0.0759438 0.0463328 0.178834 0.0539027 -0.00141275 0.110265 -0.243721 0.409818 0.119719 -0.135688 -0.233445 0.170392 0.219981 4.06676 1.46721 -0.698657 -0.440437 0.525426 -1.66237 0.223624 0.86001
56 -0.68691 -0.754376 -0.0284355 0.663071 0.36977 -0.177865 -0.0117983 -0.409937 -0.103773 -0.0944521 -0.120281 0.170903 -0.00936187 0.111312 0.0461265 -0.0335729 0.144514 -0.222784 0.308795 0.135978 -0.18228 -0.172177 0.216526 0.23779 4.02273 1.56922 -0.638446 -0.43304 0.543812 -1.43161 0.0740875 0.793222
67 -0.564242 -0.700701 -0.158118 0.530077 0.22272 -0.189434 -0.0378394 -0.215822 -0.263083 0.121904 0.0972981 0.239788 0.00535877 -0.0644957 0.127243 0.00400521 0.255024 -0.194681 0.260289 -0.0110621 0.138478 -0.240565 0.0289459 0.235699 3.9096 1.61895 -0.443526 -0.508169 0.605976 -1.40824 0.0405181 0.782843
69 -0.652962 -0.822522 0.0412312 0.52511 0.263002 -0.160598 -0.0727838 -0.468138 -0.15205 -0.209347 -0.141254 0.160604 -0.0759229 0.132079 -0.00104508 -0.0812728 0.0672932 -0.105778 0.204965 0.268602 -0.259225 -0.0744495 0.0255067 0.420005 3.84257 1.48546 -0.858808 -0.398482 0.668764 -1.59258 -0.15284 0.764331
16 -0.499588 -0.760039 0.0266527 0.644663 0.187014 -0.155779 -0.0380559 -0.530786 -0.0377214 -0.288948 -0.20257 0.163294 0.0341586 0.239372 0.0676121 0.0144673 0.0653287 -0.0951128 0.348932 0.0530167 -0.0633602 -0.226619 0.179362 0.217114 3.81195 1.4261 -0.780355 -0.549721 0.558157 -1.51119 -0.0584923 0.75592
89 -0.916346 -0.718568 -0.0730309 0.399473 0.258716 -0.313387 -0.082951 -0.102661 -0.17953 -0.26253 -0.213453 -0.144196 0.0994022 0.112025 0.125156 0.0427813 0.254874 -0.041064 -0.0847911 0.178502 -0.0268912 -0.19267 -0.0449908 0.0465595 3.90498 1.41275 -0.891924 -0.82101 0.477592 -1.55767 0.294268 0.897049
36 -0.690379 -0.698669 -0.282529 0.50377 0.427729 -0.226003 -0.0345066 -0.38644 -0.0726252 -0.19207 -0.189944 -0.149901 -0.00798297 -0.147724 -0.110498 -0.0143548 0.345606 -0.0622786 0.180172 0.0860831 -0.0810006 0.101693 0.0568966 -0.0417671 3.9276 1.34014 -0.50394 -0.907855 0.614999 -1.43007 0.0327968 0.748154
79 -0.828836 -0.778932 -0.115347 0.409698 0.0530526 0.0304068 -0.223733 -0.26777 -0.136491 -0.0895912 0.19095 0.0537058 -0.0849513 -0.0784256 0.0571644 0.0959417 0.524131 -0.129746 0.156956 0.179554 -0.145547 0.178031 0.13347 -0.051818 3.89216 1.53168 -0.712025 -0.781043 0.710654 -1.5271 -0.00445772 0.928147
38 -0.736837 -1.06756 -0.194319 0.541801 0.0554858 -0.293066 -0.199417 -0.224852 -0.120968 -0.183863 0.000205654 0.0685511 -0.106689 0.0467028 0.00073726 -0.101023 0.500195 -0.188895 -0.115547 -0.0040653 0.0849624 -0.0566645 0.344893 -0.0864563 3.94485 1.76622 -1.0215 -0.400463 0.612526 -1.35611 0.153752 0.691633
9 -0.55628 -1.0501 -0.175918 0.526645 0.0973601 -0.173562 -0.110622 -0.1865 -0.139359 -0.0780891 0.0356488 0.247827 -0.218234 0.0790648 -0.0470513 -0.244377 0.46611 -0.17369 0.00594982 -0.155914 0.0658445 0.0322324 0.243293 0.049749 4.06738 1.71943 -1.15532 -0.403286 0.762101 -1.45676 0.169688 0.561013
24 -0.559347 -1.0922 -0.201587 0.575446 0.0704476 -0.178392 -0.132131 -0.154031 -0.160639 -0.152034 0.0312934 0.26456 -0.185539 0.00219153 -0.0372594 -0.174146 0.431936 -0.12691 -0.00209096 -0.0735681 0.0111851 0.0139161 0.295396 0.0222653 4.06395 1.72019 -1.11208 -0.360663 0.673788 -1.47522 0.160131 0.53496
61 -0.645856 -1.06787 -0.342036 0.786013 0.251579 -0.312826 -0.0834592 -0.082217 -0.27125 -0.0583136 0.115452 0.150509 -0.252961 0.00607593 -0.0606825 -0.259371 0.476898 -0.290746 -0.092883 -0.0491607 -0.0171232 0.00649197 0.24138 0.0865068 4.19264 1.74721 -0.988125 -0.285245 0.663871 -1.56349 0.167626 0.582943
27 -0.59311 -1.0532 -0.239465 0.553992 0.0750921 -0.207035 -0.158647 -0.115393 -0.145884 -0.213656 0.100334 0.0714865 -0.155903 0.0956341 -0.133407 -0.174076 0.513797 -0.14647 -0.0188878 -0.0968053 -0.0311328 0.0950357 0.249152 0.0186365 4.18344 1.68134 -1.06117 -0.445731 0.714438 -1.57644 0.186642 0.634065
94 -0.641447 -0.593829 -0.239104 0.28207 -0.0070835 -0.00167504 -0.101288 -0.0933551 -0.448403 -0.0099827 0.231344 0.302469 -0.0591685 -0.220204 0.0955636 0.0026641 0.472269 -0.124574 0.217349 -0.103504 -0.0364387 -0.0646174 -0.00642505 0.230354 3.97043 1.79211 -0.839192 -0.556036 0.619783 -1.39774 0.173242 0.703237
82 -0.494047 -0.619169 -0.199055 0.191167 0.0406557 -0.118096 0.087378 -0.296225 -0.0508149 -0.394767 0.117529 -0.167316 0.0938864 -0.258698 -0.113871 -0.0614696 0.501765 -0.189676 0.161276 0.122674 -0.250728 -0.137218 0.0683028 -0.0389442 3.67617 1.37152 -0.613837 -0.919876 0.680513 -1.29746 -0.115253 0.428235
42 -0.592736 -0.513277 -0.24452 0.657924 0.203924 -0.238565 0.0795722 -0.106953 -0.196146 -0.363783 -0.215178 -0.0702028 0.0767861 -0.12135 -0.0791566 0.0728399 0.242443 0.068931 0.0342705 0.154943 -0.2225 0.0197136 0.237991 -0.0334271 3.58956 1.19795 -0.557285 -0.705128 0.375016 -1.3376 0.0594778 0.799658
60 -0.454327 -0.329794 -0.0331109 0.234365 0.0196681 -0.0475213 0.0103732 0.0945039 -0.192144 -0.298269 -0.149342 -0.0951746 -0.193807 0.148277 -0.108833 -0.00651935 0.392472 0.110995 0.086754 0.0512413 -0.332936 0.0589442 0.298608 0.0545221 3.73145 1.23865 -0.671782 -0.52043 0.529737 -1.55129 -0.0308309 0.615464
20 -0.401171 -0.324767 -0.0565815 0.192308 0.293351 -0.176302 -0.00195093 -0.262715 -0.0865361 -0.1154 -0.0932022 -0.133533 -0.12193 0.13864 -0.0494539 -0.194294 0.0928361 -0.127785 -0.000357796 0.0909144 0.0392059 0.0342169 -0.136535 0.214556 3.52021 1.51342 -0.489217 -0.714644 0.860112 -1.27072 -0.080369 0.611117
47 -0.292947 -0.309273 -0.181814 0.35971 0.225475 -0.0455726 0.0419325 -0.0738313 -0.0685008 -0.336963 -0.104811 0.0608163 -0.182562 -0.135374 -0.046183 -0.0521273 0.272667 0.066821 -0.0531824 -0.0433641 -0.17137 0.0214971 0.484914 -0.117319 3.81212 1.17141 -0.600946 -0.497857 0.474756 -1.47502 -0.10263 0.805432
70 -0.403727 -0.440476 0.0972734 0.503376 0.299743 -0.148083 0.0236045 0.0748112 0.0170869 -0.256689 0.0889501 0.180721 -0.169035 -0.0711505 -0.146612 -0.109792 0.21384 0.189622 0.263115 -0.025476 -0.299394 0.134372 0.278745 -0.0238001 3.74328 1.18401 -0.623141 -0.524481 0.727954 -1.43007 0.113193 0.574307
14 -0.863862 -0.727894 -0.381756 0.205199 0.747797 -0.0855204 0.0581331 -0.324378 -0.274641 -0.228925 -0.070604 -0.209472 -0.105199 0.165232 -0.0459034 -0.164409 0.477151 -0.26449 0.21021 0.0226973 -0.108169 0.208398 -0.0918311 -0.0086291 4.60467 1.60004 -0.704753 -0.904938 0.78752 -1.86195 0.520538 0.850251
55 -0.681841 -0.367016 -0.0525652 0.459659 0.202582 -0.0500654 -0.132195 0.329825 -0.275701 0.0501494 -0.0263439 0.0212943 -0.0370257 0.176554 -0.0599583 -0.0159002 0.0461457 -0.247876 -0.0385912 0.0926005 0.0761091 -0.0671323 0.0375916 0.201416 3.73954 1.34363 -0.445018 -0.654938 0.631852 -1.55302 0.142164 0.648996
48 -0.633285 -0.329451 -0.154843 0.339367 0.0488517 -0.104311 -0.12276 0.0717741 -0.300787 0.039878 -0.00370009 0.137894 -0.16668 0.0602296 0.000512156 0.0154216 0.15639 -0.326927 0.0655697 0.0409207 -0.0545181 -0.119739 0.260147 0.158761 3.74528 1.51846 -0.584027 -0.540187 0.699673 -1.32579 -0.0706351 0.610749
4 -0.566086 -0.534022 -0.0967934 0.439888 0.130195 -0.227955 -0.100086 -0.140198 -0.097156 -0.165092 -0.145469 0.03918 0.0271977 -0.0156626 0.0556072 0.0708439 0.164547 0.0170045 -0.0959161 0.162983 -0.0438335 0.0327895 0.187293 0.0318934 3.55019 1.20378 -0.583354 -0.91293 0.541281 -1.40104 -0.217394 0.708835
53 -0.451481 -0.419302 0.0259246 0.335766 0.177438 -0.19987 0.0353873 -0.189301 -0.130174 -0.297236 -0.0541925 0.0547533 -0.0175856 -0.164182 -0.0318952 0.00241673 0.338577 0.148963 0.0527532 -0.0868102 -0.134441 -0.0183146 -0.0461541 0.0260706 3.67853 1.29577 -0.521571 -0.537185 0.613277 -1.49761 0.0548861 0.679765
75 -0.702796 -0.38212 -0.10871 0.327811 0.20697 -0.0547551 -0.214185 -0.0703883 -0.351704 0.0620303 0.133115 0.118497 -0.256642 -0.0733294 0.184256 0.0714272 0.314044 -0.217133 -0.0907556 -0.0461706 0.0679393 -0.118238 0.355286 0.207191 3.81006 1.54357 -0.508499 -0.598954 0.623558 -1.44578 -0.276898 0.893371
91 -0.678199 -0.542419 -0.332844 0.318772 -0.203839 -0.146158 -0.0393242 -0.0876553 -0.391537 -0.0540761 -0.00389205 0.127489 -0.320279 0.0480463 0.00140945 -0.129263 0.28026 -0.365292 0.0148163 0.0683317 -0.423637 -0.218666 0.137199 0.0953867 3.84342 1.4266 -0.784715 -0.356217 0.664611 -1.54746 0.125726 0.761786
40 -0.278328 -0.506489 0.00971783 0.338116 0.221424 -0.172241 -0.114834 -0.16107 -0.0846338 -0.196457 -0.0509962 0.0910994 -0.109346 -0.137173 -0.0174197 -0.0855329 0.214828 0.0358704 -0.109977 -0.0825963 0.0950858 -0.0722365 0.107568 0.165216 3.7678 1.3675 -0.520338 -0.388853 0.617605 -1.54266 -0.151503 0.869818
73 -0.716185 -0.452064 -0.12252 0.422562 0.222268 -0.456149 -0.237543 -0.146019 -0.182565 -0.27112 -0.245 -0.0354964 -0.0872195 0.137362 0.0750103 0.12852 0.167939 -0.000340201 -0.21366 0.286586 -0.0653748 0.227733 0.0255338 0.0145562 3.72257 1.2822 -0.700713 -0.658394 0.511915 -1.51885 -0.169004 0.511686
21 -0.715666 -0.621824 -0.194875 0.105766 -0.13846 -0.12268 -0.148431 -0.113252 -0.0292109 -0.241447 -0.0210629 0.0124778 0.029026 0.0529887 0.100057 0.0845177 0.271102 -0.150404 0.0135341 0.15354 -0.0632056 -0.000436425 0.304336 -0.0678387 3.66748 1.2052 -0.614523 -0.887016 0.519282 -1.34093 -0.217057 0.626382
26 -0.397869 -0.514195 -0.136513 -0.182625 0.30415 0.0318733 0.093898 0.0171539 -0.148907 0.0947208 -0.0989616 0.00357907 -0.0637487 0.116357 -0.146272 -0.221041 0.324107 -0.372448 0.121177 -0.0079364 -0.176625 -0.100512 0.328864 0.24034 3.62764 1.24442 -0.42117 -0.53495 0.738771 -1.55473 -0.178872 0.607166
31 -0.401144 -0.407962 0.0356349 0.0481085 0.332405 -0.230542 0.121367 -0.281035 -0.0892783 -0.0532205 -0.0632505 0.0802946 -0.0813869 0.0770605 -0.0830987 -0.140955 0.141199 0.14371 -0.0423006 -0.171269 -0.135885 0.187466 -0.00463874 0.102322 3.55045 1.33091 -0.656212 -0.566949 0.76013 -1.3586 0.0607297 0.673869
49 -0.279622 -0.322783 -0.0469621 0.149359 0.34896 -0.175332 0.105483 -0.33409 -0.236463 -0.162675 -0.0331671 0.023093 -0.084965 0.192993 -0.0612945 -0.18908 -0.144573 -0.153932 -0.0537394 -0.257197 0.142692 0.215331 -0.0497656 0.281129 3.63471 1.43312 -0.807045 -0.688186 0.631593 -1.17045 -0.0347631 0.733374
32 -0.53946 -0.655502 -0.149395 0.534886 0.38142 -0.115688 -0.0775226 -0.103328 -0.272296 0.174108 0.066958 0.169283 -0.0358961 -0.0815692 0.0397887 -0.0825079 0.301712 -0.237095 0.0540619 -0.0658576 0.120271 -0.152697 -0.0684154 0.284804 4.06312 1.30575 -0.58108 -0.50889 0.597607 -1.65301 0.00170603 0.64428
51 -0.557206 -0.657047 -0.00727631 0.555095 0.180252 -0.0629688 -0.0327913 -0.434273 -0.0945946 -0.443272 -0.24737 0.143957 -0.116101 0.099627 0.00938494 0.0313362 0.22215 -0.0029876 0.349948 -0.0705335 -0.136009 -0.108693 0.145275 0.0911664 3.90278 1.59006 -0.68774 -0.453715 0.586136 -1.5873 0.0319971 0.660025
35 -0.394279 -0.478276 -0.211516 0.406474 0.226353 -0.0398132 -0.00297089 -0.0592009 -0.195547 -0.453016 -0.124663 -0.0289288 -0.151385 -0.0798345 -0.0503578 0.0311976 0.299339 -0.02586 0.0984913 0.00125703 -0.224804 0.0836024 0.247366 -0.0455019 3.65571 1.21524 -0.581213 -0.555181 0.477584 -1.4601 0.0113629 0.680982
2 -0.551326 -0.36096 -0.105865 0.562838 0.284181 0.00674014 -0.155357 -0.0976775 -0.385577 -0.148316 0.00476367 -0.135265 -0.16274 0.115784 -0.100024 0.0859904 0.253801 -0.191241 -0.0148088 -0.188112 0.031595 -0.141805 -0.0747605 0.254859 3.91327 1.17452 -0.714375 -0.532867 0.442762 -1.45373 -0.0126493 0.622758
71 -0.639991 -0.638589 -0.25362 0.491951 0.196858 -0.148025 -0.112937 -0.133165 -0.299606 0.147629 0.19847 -0.0870095 -0.167317 -0.0574009 0.0438261 -0.00325579 0.290708 -0.355706 0.132244 -0.182458 0.056619 -0.245328 -0.181977 0.394598 3.99053 1.56698 -0.519994 -0.531155 0.706031 -1.47724 -0.0999713 0.763142
45 -0.462423 -0.378754 -0.138367 0.180734 0.18572 -0.114443 -0.105478 0.150598 -0.310087 -0.000256688 -0.048997 0.0112881 -0.190884 0.0242343 -0.0517342 -0.110254 0.353663 -0.305446 0.118821 0.0624722 -0.181869 -0.134701 0.344518 0.205481 3.72094 1.31731 -0.537487 -0.624083 0.814215 -1.55184 -0.0945287 0.563747
74 -0.717501 -0.568523 -0.166717 0.405754 0.369802 -0.0951423 -0.112293 -0.00793673 -0.392591 0.0139288 -0.00713396 0.096593 -0.110289 -0.0460917 -0.102427 -0.00759384 0.301529 -0.335387 0.102519 -0.0194212 0.0658981 -0.114053 0.389557 0.12718 3.79453 1.36299 -0.621087 -0.550429 0.647803 -1.5468 0.0652302 0.612254
30 -0.804641 -0.48864 -0.104438 0.155674 -0.11877 -0.064421 -0.351575 -0.0945584 -0.156058 -0.0937315 -0.0771973 -0.0709275 -0.0645462 0.0247378 0.196472 0.218462 0.36599 -0.281498 -0.048796 0.098771 0.0149907 -0.0990975 0.179928 0.113923 3.59378 1.47449 -0.634073 -0.840778 0.580153 -1.28083 -0.225132 0.799685
28 -0.595426 -0.832764 -0.198958 0.625369 0.236322 -0.242875 -0.0168555 -0.34418 -0.069679 -0.218647 -0.111039 0.0374336 0.146114 0.0118543 -0.00697001 0.0679967 0.20546 -0.030918 0.16967 0.198155 -0.250477 -0.0370487 0.0663419 0.189352 3.6821 1.21288 -0.560588 -0.716358 0.454758 -1.36254 -0.192592 0.667245
8 -0.534738 -0.805142 -0.131739 0.360245 0.178944 -0.0867076 -0.0808702 -0.054562 -0.143845 0.0483993 -0.0470076 0.212205 -0.100487 0.0808674 0.0175082 -0.0654541 0.295664 -0.239218 0.166837 0.00950168 0.047705 -0.194154 0.350392 0.0628824 3.69408 1.51075 -0.622438 -0.371939 0.66702 -1.46356 0.00708365 0.549366
17 -0.603658 -0.738262 -0.0962804 0.744472 0.274353 -0.148663 -0.130977 -0.301152 -0.342836 0.178249 0.0525949 0.0423037 -0.0410319 0.0650067 0.0319033 -0.0182485 0.0911946 -0.381949 0.120978 0.0382921 -0.0344164 -0.205563 -0.26451 0.538853 3.73646 1.2685 -0.665792 -0.426556 0.621679 -1.39298 -0.12685 0.503332
10 -0.405084 -0.574242 -0.0349381 0.324813 0.17962 -0.0849467 -0.088152 -0.0406319 -0.0948932 -0.0448569 0.000556593 0.134969 -0.0525014 0.0803137 -0.0508332 -0.096428 0.264014 -0.192316 0.0796075 -0.0140019 0.0439389 -0.177254 0.314174 0.169422 3.81468 1.42162 -0.635419 -0.401943 0.601186 -1.50725 -0.184141 0.651011
33 -0.622895 -0.724586 -0.163467 0.57748 0.0132772 -0.226262 -0.215709 -0.182778 -0.143851 -0.147094 0.112061 -0.18272 0.032306 0.167528 -0.0425833 0.0823403 0.283606 -0.153744 0.13635 0.0869351 -0.0625205 -0.0418787 0.0586927 0.149613 3.70066 1.23905 -0.711826 -0.779576 0.641993 -1.37019 -0.144529 0.667089
6 -0.404079 -0.670827 -0.114927 0.687653 0.108558 -0.345933 -0.21293 -0.247322 -0.0992966 -0.0288269 0.00930397 -0.215017 0.0354066 0.0229032 -0.142349 0.0488394 0.19876 0.0726382 -0.0931386 0.0144015 0.0416782 -0.0717877 -0.0962046 0.0993715 3.50447 1.02781 -0.551298 -0.671992 0.58557 -1.22285 -0.11827 0.556779
37 -0.628733 -0.443456 -0.0151985 0.40382 0.132272 -0.136567 -0.0200132 0.0814687 -0.260258 0.0154862 0.0783039 0.222127 0.22309 -0.0947247 -0.0279703 -0.0467051 0.304969 -0.261883 0.0691124 -0.0115455 0.217185 -0.151875 -0.0478459 0.201689 3.90059 1.40842 -0.632181 -0.390163 0.416876 -1.54709 -0.000795973 0.731457
12 -0.314293 -0.380118 0.0308749 0.304583 0.268175 -0.128535 0.0834457 -0.204863 -0.21932 -0.386637 -0.0936044 0.0177368 -0.0260301 -0.013776 -0.0514906 -0.0400318 0.287431 -0.0373538 0.157055 -0.162503 -0.0106689 -0.000617299 -0.0871788 0.223554 3.78827 1.47905 -0.638013 -0.541098 0.565786 -1.62525 0.0874292 0.993369
34 -0.756614 -1.08573 -0.246069 0.526604 0.0600071 -0.238385 -0.225111 -0.10694 -0.170215 -0.175943 0.206724 -0.0147229 -0.0796669 0.120827 -0.122572 -0.102301 0.534185 -0.231386 0.0416286 -0.0717001 0.000966702 0.0815004 0.263542 0.0936178 4.02766 1.65675 -1.04037 -0.438401 0.689031 -1.62386 0.105946 0.74151
13 -0.73031 -0.77662 -0.222495 0.392383 -0.0244848 -0.260354 -0.187579 -0.22876 -0.115238 -0.242238 0.146797 -0.105924 0.0333277 0.0458751 -0.0742009 0.0615575 0.344659 -0.196277 0.117711 0.0171205 -0.0671803 0.0654402 0.250649 0.0246571 3.65372 1.42333 -0.798955 -0.671363 0.613531 -1.41916 -0.0135339 0.758115
29 -0.709039 -0.456552 -0.212547 0.355133 0.10061 -0.122964 -0.110936 0.021315 -0.328597 0.0959714 0.112627 0.0672342 -0.190754 0.112916 -0.0396821 -0.0483537 0.228387 -0.393597 -0.00818159 0.0614051 -0.154748 -0.191116 0.334453 0.12769 3.72974 1.48562 -0.68443 -0.418262 0.632518 -1.38479 -0.0832494 0.701951
