100 128
1 0.13009003 -0.4605266 0.1266503 0.30390075 -0.32652035 -0.005348293 0.26140702 -0.036518376 0.043984435 -0.12045081 -0.08115947 -0.2849602 -0.24669679 -0.37724102 -0.1458952 -0.10905699 -0.09224577 -0.18334492 0.14621527 -0.051442053 0.2900607 0.31518185 0.11133315 0.10650096 -0.16381657 -0.12887077 -0.018808581 0.08482057 0.2950341 0.16610743 -0.40363023 -0.066121995 -0.14865188 -0.24938507 -0.20074773 -0.25715867 0.09193471 0.22078028 -0.21976699 0.081180304 0.009743899 0.108222105 -0.33484253 0.024224315 0.08523508 -0.35224834 -0.009770759 0.024331281 -0.10120185 0.34666982 0.15406497 -0.12938462 0.057472017 0.25259653 0.050539203 0.31173038 0.13918902 0.4510861 0.08332574 -0.0893017 -0.4522281 0.18230344 -0.09849941 -0.048473295 0.5831732 0.14358748 -0.01338518 0.039424535 0.061423775 -0.23315974 -0.21947226 0.13624333 0.19390404 -0.059953477 -0.031055626 0.00687908 -0.16634454 -0.34083256 0.22974126 0.06296757 0.14112905 0.29055372 -0.052948665 0.093373805 -0.13241443 -0.13513818 -0.050263405 -0.36939657 0.11566629 0.030456746 0.28007138 0.28846988 -0.024028702 0.47162855 -0.17264289 -0.070527755 -0.19998702 -0.14120694 -0.42428568 -0.027652122 -0.37482536 0.062060714 -0.18126836 0.25232545 -0.15879102 0.42642757 0.27094373 0.0127450535 -0.09184731 -0.11493753 -0.2941041 -0.14485793 -0.22737856 -0.2146398 -0.4012678 0.08499157 0.55587775 -0.095167026 0.028555093 -0.32773393 0.26081568 0.06824922 -0.21370122 -0.21963342 -0.3148309 0.025532667 0.047634102 -0.24632747
2 0.3327773 -0.13916275 -0.32606128 0.10722276 -0.20679389 0.01334403 0.2937569 0.29650232 -0.16384472 -0.058375504 0.14498919 -0.52313524 -0.048826564 0.052553486 -0.0400391 -0.3251498 0.23003021 -0.15224613 0.054623123 -0.31685022 -0.03439891 0.2675746 -0.28545162 0.029684823 0.021407753 -0.12263101 0.0131169325 0.028361212 -0.08641071 0.18950993 -0.09788611 0.019481337 0.20253547 -0.10074372 0.19151755 -0.08498242 -0.04847637 0.0079922825 -0.4013952 0.287863 0.13939805 -0.09323275 -0.22464505 -0.12186995 0.02613383 -0.27214545 -0.28297034 0.36576515 0.09857458 0.48397452 0.2055329 0.0938065 -0.14982995 0.21349677 0.08825863 -0.24174343 0.35687843 0.3335189 0.15780273 0.20259778 0.049032614 -0.00728445 -0.18268825 0.15541513 0.5856443 0.3011568 0.27564928 -0.019164676 -0.28077966 -0.47124046 0.3208681 0.05668089 0.12258182 -0.05200458 0.09956699 -0.15881045 -0.45979503 0.06483113 -0.33916304 0.41796032 -0.11067085 0.20299338 -0.501568 0.24086796 -0.03408097 0.04972635 -0.38000757 -0.31024075 0.20794195 0.058973216 0.1854549 -0.083967835 -0.15532255 0.2310998 0.011109588 -0.41978097 -0.02646256 0.15196484 -0.004508037 -0.09375464 -0.15541106 0.22950363 -0.24909143 -0.123149 -0.0072409953 0.052784074 -0.049605276 -0.047435682 -0.19006257 0.20733133 -0.1182351 -0.06459223 -0.26855478 -0.14127038 0.003992243 0.11001792 0.29970986 -0.048610426 -0.13513707 -0.17169471 -0.107292175 -0.22271097 -0.24030128 -0.35722387 0.27895012 0.19969018 0.18091846 0.0449593
3 -0.11211879 0.119025804 0.2368359 -0.010568413 -0.26961887 -0.027226362 0.3666443 -0.047777392 -0.19434746 0.005548937 0.20963687 -0.09757841 -0.24603209 -0.14393832 -0.097105265 -0.61002487 0.082092494 0.05617492 0.2483121 0.21518329 0.07580598 0.23923238 0.076120496 0.44612604 -0.061592545 -0.09853131 -0.16006383 0.08973096 -0.098913446 0.06903818 -0.51719105 0.2343024 -0.37645105 0.057786502 -0.13573676 -0.5131218 -0.1260772 0.17986684 -0.39704612 0.2879486 -0.22688612 0.19771826 -0.42891842 -0.02667182 0.10072811 -0.006591381 0.102062635 0.22964732 0.0109783 0.1412911 -0.292019 -0.0104331495 0.055852707 0.2124421 -0.0059279674 -0.15688385 0.20056456 0.022960702 -0.03119871 0.15473998 -0.06989027 0.20381625 0.4671845 0.36310527 0.33389327 0.16428365 0.122501545 0.004646673 0.13885424 0.1476312 0.10491414 0.050312884 0.44671664 0.20712149 0.11250512 -0.028031712 0.04423173 0.15321028 -0.20230164 0.5094971 -0.22753075 0.043219008 0.09184407 0.24531506 0.15510014 -0.11514615 -0.2333787 -0.3227028 -0.018467572 -0.11017643 0.14441423 0.14884485 0.16389589 -0.12639742 -0.02099472 -0.2579619 -0.24680687 0.18671337 -0.28154936 0.15641293 -0.17797643 -0.050671298 -0.11989277 0.41469863 0.082186654 0.03168914 0.062229533 0.06725211 -0.12675568 -0.015988417 -0.014175646 0.38173848 -0.18455625 0.0009215481 -0.41824874 -0.14469527 0.4570735 0.25751257 0.00803994 -0.23745818 -0.17705774 -0.1573162 -0.0587068 -0.01596193 0.23687543 -0.36011136 0.023239987 -0.104897164
4 0.03291084 0.058557667 0.43258965 0.10776624 -0.023477234 0.13058226 0.37394843 -0.21914761 -0.3207178 0.12751006 -0.057727408 -0.3238462 -0.49231327 -0.06401237 0.30048093 -0.0042560264 0.102696486 -0.107916445 0.33909124 0.15757617 0.3650173 0.013044123 0.2514456 -0.05345322 -0.10321058 0.3605895 -0.17519888 0.20782848 0.022360934 -0.09302315 0.026746152 0.32987556 -0.07658879 0.008845209 -0.11503187 -0.08999935 0.072159275 0.43519 -0.2813207 0.30436134 -0.012467682 0.24932638 -0.40304995 0.06284317 0.07468685 0.2555339 0.029748576 -0.1643585 0.09813975 0.16064225 0.005297827 0.31363836 0.13724771 -0.10814473 -0.036938075 0.0980411 -0.24319944 0.14717406 -0.46702227 0.03233036 0.043824024 -0.059382763 0.27516058 0.3245383 0.081318416 0.33240455 0.18282357 -0.1702332 -0.05401982 -0.3448718 0.033618614 0.23616637 0.22179429 0.03475083 0.21263489 0.27605906 0.14173873 -0.12837847 -0.18523325 0.044439293 0.08578145 -0.057991624 0.019233663 -0.14462733 -0.14624031 0.074286826 -0.3317536 -0.37552246 -0.105296984 -0.017270783 0.017988963 0.46301278 0.5724119 -0.37921467 0.1539893 -0.42892265 -0.31060725 -0.40303928 0.05807266 0.29374945 -0.32790673 0.015419417 0.12881544 0.12968782 -0.05362867 0.2762775 0.060412504 -0.08478621 -0.2977799 0.06581795 -0.32898426 0.30360946 -0.1279188 -0.24692908 0.014137199 0.08262104 -0.0033997616 0.32320794 0.017374882 -0.08918725 -0.30623856 0.16982287 0.079849236 0.010140134 0.25582057 -0.52435064 0.06794925 -0.16840872
5 0.0010215514 -0.06772213 -0.2761439 0.11006636 -0.0739199 0.361647 -0.01994432 0.028368553 0.30794778 0.17975475 0.019017776 -0.10043585 0.26553786 0.055299215 -0.37625578 0.023825048 -0.20312276 -0.28707072 -0.38809314 0.3915805 0.40806437 0.039504036 -0.48260638 -0.23465095 -0.23798738 -0.011569131 -0.3574423 0.24220328 0.12984066 0.03458316 0.0036519028 0.103826866 -0.18399738 0.19665307 -0.44125912 -0.10818955 -0.13583256 0.08044858 -0.6057811 -0.18790673 0.13062525 0.38162565 -0.12291912 0.15584806 -0.09969707 0.06722988 -0.11356379 -0.2907633 0.04144195 -0.1392315 -0.42936692 -0.0060420264 -0.09251824 -0.1267854 0.017738614 -0.35013592 -0.099223845 -0.11083387 -0.22527595 -0.23335345 -0.12231555 -0.23227723 -0.09364452 0.062355936 0.43743005 0.0040698308 -0.124916606 -0.17152484 0.07915527 -0.3204081 0.15827292 -0.036917824 0.42682707 0.038087156 0.27027813 -0.12954193 0.26885873 0.29750067 -0.031164888 0.23049381 0.43284154 -0.04967293 0.33038914 0.30540332 0.09784814 0.3063655 0.09307019 0.33242434 0.21856862 0.10984714 0.021539954 0.08747111 0.24577734 -0.2965462 0.23848073 0.27469286 0.28407022 -0.22341575 0.00031256446 0.05967192 -0.19677965 0.06543804 -0.32178584 0.27197078 -0.13396247 -0.30098176 0.25719452 -0.09588864 0.055978768 -0.082619645 -0.13947645 -0.06272763 -0.020875983 0.16389343 -0.009269631 -0.0039340816 0.3511333 -0.069520205 0.0050949543 0.24588001 -0.49059346 0.58385026 -0.12580852 -0.17033862 0.41328028 -0.07610846 -0.09149889 0.046544336
6 0.024518613 -0.08860309 0.19641578 -0.067010865 -0.034042772 -0.15555143 0.34234965 0.0155140245 0.05705068 0.14731716 -0.17940572 -0.15595238 -0.20109247 -0.07629599 -0.34117177 -0.07220777 0.04475182 0.15420096 -0.09278238 0.19445941 0.62559617 -0.06490774 -0.10698891 -0.018268371 0.0026223478 0.12947693 -0.3536065 -0.1982924 0.08532427 0.177001 0.37491632 0.18942818 0.17653732 0.06044161 0.1293434 -0.3591813 -0.13857433 0.39643136 -0.052255236 -0.004866932 -0.14068371 -0.13521415 -0.380133 0.036539964 -0.008151138 -0.30180058 -0.0028125644 0.117669664 0.33478194 0.089973584 -0.13554814 0.42222476 -0.32787672 -0.041701023 0.13437466 -0.0403923 0.11065657 0.24607965 0.16866049 0.16486324 0.055890534 0.42748025 0.3212968 0.30749878 0.28450543 0.36302832 0.41204715 -0.10017742 0.039915465 -0.31226572 0.5691131 0.37687325 0.07869428 0.2619198 -0.093779795 0.31019786 -0.03469811 -0.21672092 -0.03315197 0.18671072 -0.018931225 0.37508422 0.07749774 0.38282102 0.14628467 0.24170442 -0.43204767 -0.44636267 0.12134073 0.066117704 0.19909468 0.37739578 0.2560999 -0.13672027 0.059613004 -0.05901274 -0.18513326 -0.2097088 -0.061199978 0.4307934 -0.026795184 -0.16404206 -0.05141923 0.027290024 -0.04289045 0.28921163 0.23496488 0.11013527 -0.028794112 0.0036469973 -0.22380708 0.360054 0.01713262 -0.5114473 -0.37692177 -0.041173134 0.17178401 0.025576254 -0.085983224 -0.14522502 -0.11521754 0.17232503 0.27371237 0.09462427 -0.13877708 -0.36579496 -0.095004424 0.01593508
7 0.23304862 0.045967735 -0.108966894 0.16488199 0.23812982 0.14216594 0.11969264 0.26983553 0.31046513 0.42130038 0.15897214 -0.033546723 0.12458492 0.1896869 -0.33926004 -0.061505593 -0.2895162 -0.31657797 -0.39310294 0.36305946 0.38472772 0.2182923 0.18226242 0.13633907 -0.24238071 0.45249462 -0.21212494 0.35231632 -0.12462993 0.060787078 0.13460632 0.24693675 -0.09445053 0.34174007 -0.3012282 0.24022004 -0.14294995 0.15987773 -0.48215732 -0.107966155 0.015438717 0.29868644 0.0905277 -0.0691084 -0.236719 -0.10030044 -0.14206636 -0.12024568 -0.14648065 -0.19305672 -0.4096524 -0.37506676 -0.10372165 -0.033567853 0.05665786 -0.16730057 -0.32827795 -0.2105594 -0.13455226 -0.29478085 -0.08158263 0.18958418 -0.12933384 -0.008066837 0.33023444 0.094875775 0.02767689 0.14047216 0.21590999 -0.22753742 -0.06871112 0.1341527 0.27392447 0.07429878 0.4412299 -0.25697476 0.18676056 0.05451597 -0.22180474 0.018384166 0.36975017 0.03146452 0.29675943 0.18281107 0.17444082 0.019867886 0.15454501 0.2406154 0.32607388 0.33546957 0.14442456 -0.17761995 0.35196674 -0.17780435 0.3792527 -0.14383285 0.41190878 -0.39210132 -0.025951037 0.2006925 -0.26738733 -0.025672307 0.0047045765 0.3037751 -0.19641241 -0.16345729 0.0912702 -0.11210229 0.20477875 -0.38638136 -0.14094725 0.07682397 0.27076736 -2.6018737e-05 -0.11101141 0.17317416 0.04047324 -0.032568287 -0.18922502 0.16429634 -0.4002511 0.32869643 0.029579174 -0.053000346 0.1253297 -0.4105182 0.16787982 -0.0016922493
8 -0.36218032 -0.13992906 0.31325343 -0.28830743 0.15120074 -0.064799875 0.1829312 -0.12555118 0.11806212 -0.117025875 0.037241336 -0.38068077 -0.059128337 -0.15385833 0.005209615 0.099746354 0.050698154 0.045856897 -0.07938542 -0.3217648 0.19209847 -0.28107795 0.29152483 0.20930645 -0.21873184 -0.18146187 -0.09668441 -0.059720628 -0.07338616 0.5269964 -0.096128054 0.07585254 -0.2841481 0.08064719 -0.018858004 -0.23027888 -0.1503246 0.029450601 -0.3365597 0.081916966 -0.16746612 0.3371527 -0.50506026 -0.09411321 0.071915984 -0.6341876 -0.32106426 0.05653648 0.0099337585 0.24796952 -0.23207954 0.031568043 -0.018874483 0.26306444 -0.09820752 0.12459919 0.5640079 0.066703774 0.22737882 0.13393325 -0.120632544 -0.3743451 0.15758994 0.36289424 0.18825647 0.23128004 0.0028691662 0.036672078 -0.0068594706 -0.08137381 -0.30078936 -0.25327083 0.01086011 -0.29254615 -0.09157249 0.13186765 -0.5369154 -0.1921536 -0.244968 -0.35211706 -0.17474589 0.1300397 -0.04940169 0.16531028 0.086606875 -0.0089820875 -0.0694135 0.1197486 0.17048863 -0.35574606 0.118391775 0.33444884 -0.2925113 0.122988775 -0.1551477 -0.051959638 -0.12995724 -0.27349117 -0.38020068 -0.09768493 -0.17856264 0.17403059 -0.10716202 0.06730317 0.04123388 -0.19644032 0.09981136 -0.085595526 -0.33337188 -0.132703 -0.3660227 -0.012134892 0.07966565 -0.04504981 0.15594362 0.11858474 -0.2374961 -0.30648145 0.12175432 -0.55628777 0.15471548 -0.010094469 -0.18284512 -0.43572924 -0.2224287 0.272302 -0.122659914 0.2915352
9 -0.0063254368 -0.3186334 0.21501705 -0.27689838 -0.0008300811 0.12455969 0.37827846 -0.2707228 0.051963255 -0.34008154 0.05743953 0.0696385 0.040344622 0.12174468 -0.16086267 -0.017333081 0.10529827 0.033812996 -0.34975392 -0.068594605 0.42171606 -0.27472737 0.35573483 -0.109289914 -0.19023362 0.003514384 -0.05543993 -0.40537012 0.27858558 -0.083481066 0.124911666 -0.26836076 -0.106926024 0.033289418 0.19106527 -0.16986081 -0.44736442 0.038349904 0.042378094 -0.034626503 -0.06721391 0.5410988 -0.4976876 -0.16412617 -0.19793193 -0.22415863 -0.29068705 0.28838918 0.10927888 0.15755536 0.22509564 -0.06946409 -0.37371504 -0.086202584 -0.3511732 0.29596123 0.09119334 0.13727376 0.021363767 0.3121542 -0.3293746 -0.20569658 0.11782157 0.012296161 0.28077653 0.15476868 0.3400723 0.2972148 0.06534606 0.2270794 -0.15792327 -0.11096028 0.31134453 -0.10261221 -0.23067364 0.017687349 -0.1887988 0.046711434 -0.038496457 -0.35866868 -0.038763497 -0.030890115 0.010923587 0.1618036 0.021913333 -0.3148845 -0.029410131 0.09569456 -0.004254159 0.22704582 0.19840066 0.13020973 0.13045296 -0.040868316 0.19639266 -0.15588948 -0.14125955 0.019172458 -0.40371898 -0.4600892 0.12336618 0.3908527 -0.09163361 -0.2420597 0.2818312 0.2425961 0.062278893 0.30499163 -0.23275147 -0.2409564 0.10800905 -0.1073754 0.36832464 -0.22295427 0.0065609035 -0.13327791 0.03500121 -0.18770003 0.099099785 -0.05754111 -0.34499997 0.17711513 -0.55002505 -0.22288212 0.25372884 -0.017638285 0.06785122 0.051870998
10 -0.09588933 0.1818628 -0.20075218 0.17906009 -0.13676153 0.06492638 0.049733 0.35421562 0.3336198 0.080136426 -0.12694336 -0.08343165 0.13597864 -0.057860162 -0.08908248 -0.14047658 -0.1518114 -0.107290566 0.036791716 -0.28022587 0.06104516 -0.023418257 0.02859953 0.3049065 -0.3881085 -0.17521228 -0.17365232 -0.2870668 0.25072733 0.27914205 -0.036356974 0.122871675 -0.13570036 -0.30074102 -0.16804054 0.03189609 0.48493347 0.20104001 0.074293554 0.25173184 -0.11804574 0.37765503 -0.44662488 -0.0954752 0.06835978 -0.04854203 0.076613836 0.058456764 -0.057485916 -0.062867634 -0.32806313 -0.009791474 0.38024157 0.021632843 0.31538445 0.030778414 0.075731196 0.6273417 0.13289508 0.19342911 -0.26531085 -0.2435046 0.14136317 -0.01812074 0.054354712 0.37795794 -0.019715061 -0.006152171 -0.010004638 -0.20844275 0.017561981 -0.004070315 0.30552545 0.20420155 0.09421693 0.24226415 -0.27078447 0.01963592 -0.2818086 0.15798391 0.04860282 0.14763272 -0.49138716 0.048136022 -0.038442444 -0.3617091 -0.42121455 -0.06691235 0.27744445 -0.2134414 0.36628935 0.1553643 -0.04570571 0.11626467 -0.3102605 -0.17103405 -0.22558379 -0.25359875 0.025138156 -0.14658675 -0.2652889 0.3176884 -0.17619349 0.3963383 0.361465 0.15958682 0.11194969 0.32118472 -0.24816635 0.067326926 -0.32330027 0.08526591 0.05359406 -0.37207714 0.08254064 -0.120429024 -0.23794846 -0.13986918 0.024482837 -0.11363263 0.28729698 -0.2577833 -0.45168293 -0.4520594 -0.090697505 0.29100195 0.110000834 0.08284769
11 0.13076784 -0.095242135 0.022690324 -0.2657698 -0.25338766 0.088950425 0.033416133 -0.004940988 -0.023884116 0.064022854 -0.27613857 -0.2066582 -0.19951499 -0.24421676 -0.15046716 -0.010465597 -0.036620278 0.17602569 -0.10626709 -0.31870872 0.09362957 0.02599999 -0.19691458 0.25517526 -0.04109334 0.012815656 0.3609654 0.31063482 0.0027169515 0.1620513 -0.20808843 -0.21402676 0.18506408 -0.0012626377 0.08069133 -0.07393298 -0.13663565 0.35959527 -0.18613456 0.2508998 -0.12404648 -0.18373391 -0.124705635 -0.13796255 0.4372177 -0.23221119 -0.45721346 -0.2543279 0.20507944 -0.19320527 -0.28541294 0.011281719 -0.12259791 -0.0064587644 0.12947083 0.19601542 0.02759579 0.31093627 -0.25183365 0.058743536 0.4594085 -0.0215599 0.1287547 -0.26515698 -0.22379914 0.2018824 0.43159565 -0.18508194 0.30659696 -0.1800045 -0.06635895 0.5322264 -0.104935 0.13055144 -0.10206902 0.3119969 -0.054483783 -0.17906332 -0.6379 0.083017476 0.1557883 -0.18908824 0.2806677 0.03227545 -0.2677622 -0.3740791 -0.49259263 -0.2499655 -0.13235989 -0.26164365 0.031657718 -0.01238363 -0.25266975 -0.010932779 0.29089198 -0.3432623 -0.12787934 -0.08238557 -0.30027878 0.017405625 0.233425 0.124044836 -0.048417363 0.29785046 0.04934358 -0.112505175 -0.4358142 -0.20198397 -0.16845421 0.12069581 -0.095345944 -0.0072237444 0.3037479 -0.084340475 0.0056896843 0.037701692 -0.20976713 -0.317837 -0.26939896 0.18511845 0.18724528 0.32821438 0.20422545 -0.3528743 -0.30246168 0.15324734 0.09644679 -0.115326814
12 0.56488234 -0.08142998 0.31690994 0.19155017 -0.26579893 -0.2210297 0.15623169 -0.15810291 0.09550174 -0.22290121 0.09772643 -0.10910311 -0.3505701 -0.17345111 -0.01864721 -0.24132928 -0.27113208 0.12637457 -0.018214153 -0.22619615 0.3421097 0.51915616 -0.27935615 0.41449204 -0.12212192 0.35721505 0.089366645 0.10297814 0.11537832 0.2947331 -0.12886102 -0.33443558 -0.09546909 -0.45128366 -0.031669386 -0.0040236497 -0.13740408 0.24958402 -0.30617592 0.22582115 0.101721235 0.10483304 -0.32753238 0.10069945 0.12478556 -0.22365245 -0.057287544 -0.35055158 -0.117838345 -0.06183206 0.28625312 0.0038690025 0.032301925 -0.2166982 0.0042958003 -0.32624203 0.20717838 0.3002217 0.20192404 0.11925664 0.06977286 -0.01703707 0.21502185 -0.14276671 0.5601226 0.012353228 0.0275608 0.0006121614 0.038513917 0.0072274827 -0.06785383 0.2638787 -0.09335556 0.16860326 -0.07655918 -0.15976335 -0.06902753 0.0072085476 -0.21566522 0.29507247 -0.2712174 -0.011276556 -0.3535925 -0.03849814 0.19183934 0.03843928 0.017584309 -0.06804768 0.08094302 -0.07434104 0.1295428 -0.24665248 -0.104152925 0.16765514 -0.10709273 -0.32290158 -0.19501008 -0.021656778 -0.12298156 -0.08810864 -0.2353591 -0.13804342 -0.6300586 0.53352356 0.1739556 0.16090123 0.16024625 -0.13984399 0.022009475 -0.0065868623 -0.077526145 0.21775831 -0.2653083 -0.39959398 -0.09375067 -0.21376531 0.3142562 0.10880843 0.031432264 -0.17423989 0.13820142 -0.0063384958 0.09509259 -0.21711855 0.16246377 -0.042151682 0.15414971 0.19389497
13 -0.2430289 -0.0951753 -0.10594242 0.058245845 0.33585927 -0.11092706 0.2729712 0.11190736 -0.06125543 -0.026205307 -0.11118966 -0.13803259 -0.15056436 0.34309003 -0.16561092 -0.029365689 0.21091421 0.015548768 0.1508545 0.063409664 0.53229904 -0.04731962 0.11215437 0.1598619 0.036573164 0.3539105 -0.32721105 -0.013015922 0.03350656 0.39597076 0.22113821 -0.0522987 -0.2730962 0.3208074 -0.10851849 -0.34737512 -0.15935966 -0.010766357 -0.21193485 0.32576877 -0.19362342 0.5423479 -0.26250175 -0.18570608 0.009667561 -0.24358967 0.024659855 0.11658703 0.23649773 0.4372393 -0.1711877 0.26896477 -0.1390909 -0.32467782 -0.32598636 -0.26502395 0.16408569 -0.015495433 0.05691102 0.31802055 0.06351035 0.2087979 0.20073722 0.06402262 0.030317347 0.4874589 0.36934394 -0.13575622 0.3048507 -0.1349403 -0.13697131 -0.03555668 0.48728815 0.12056549 0.010658483 0.104769245 -0.03588672 0.09671026 -0.22988647 -0.26409572 0.045362126 -0.14449342 0.5443952 -0.11720869 0.06614939 -0.40760955 -0.29693478 -0.36842525 -0.14432634 -0.2049077 -0.15835164 0.37089926 0.34209254 -0.2471458 0.2052795 -0.18859443 0.07856617 0.092463575 -0.21625257 0.10985716 -0.029639658 0.10226755 -0.18492205 0.029747905 0.3828028 0.2430839 0.1538468 0.03220361 -0.14427763 -0.20122924 -0.050244726 -0.07722932 0.272894 -0.028844565 0.08230382 0.14125659 0.1660499 0.2983758 0.1745658 0.053838886 -0.34984297 0.07443411 -0.13354106 -0.16102548 0.00198462 -0.18794732 0.03680498 0.13203265
14 -0.17932625 -0.3061294 -0.28579605 0.030311896 0.02289077 0.4281008 0.26403564 0.09058118 0.15437894 0.41301817 0.11994104 -0.065620385 0.15400572 0.008192136 -0.27696076 0.021658985 -0.060549065 0.06097628 -0.21875846 0.18942411 0.32569066 -0.1135372 -0.047338083 -0.18437807 -0.2982488 0.017914161 -0.25619143 0.0062515354 -0.026191609 0.012710754 0.32201818 0.4026489 0.017035436 0.4840105 -0.09591494 -0.1814773 -0.2591228 0.09725353 -0.5219887 -0.006603079 0.18684061 0.27545023 0.07779251 -0.11890756 -0.10119849 -0.030981846 0.026382564 -0.21913007 -0.23857881 0.018193034 -0.31364703 0.0088905245 0.04025443 -0.46065852 -0.15508336 -0.06660603 -0.09113063 -0.068408735 0.1827994 -0.03046872 -0.064596444 0.08760445 -0.0046944674 -0.004503722 0.34959668 0.22129723 -0.038363285 -0.019072607 0.35578057 -0.36233005 -0.11904104 0.13198191 0.34666935 0.20854038 0.4407286 -0.3549776 0.3083115 0.29081184 -0.21225923 0.18274437 0.5806087 -0.06495586 0.38510433 0.04347402 0.022068111 0.14720786 0.24583335 0.17922203 0.36941272 0.2648114 0.13698342 -0.010768274 -0.03436737 -0.14885435 0.15611908 0.0064124493 0.37864652 0.0986604 0.074738465 0.3475408 -0.21762075 -0.07551575 -0.061081506 0.41820738 -0.16525401 -0.45757395 0.19441895 0.02326391 0.34707493 -0.20099318 -0.20883639 0.036339615 -0.19906282 -0.12568061 0.1806822 -0.101726905 0.23318867 0.08883224 -0.15803215 0.1871049 -0.26770797 0.50343597 -0.23652291 -0.08557941 -0.0023323018 -0.2274417 -0.19634551 -0.1842481
15 -0.046686728 -0.2835103 0.3142408 0.2326867 -0.21482837 -0.052250303 0.06643874 -0.30577075 0.19323054 0.41462082 -0.10521422 -0.019693248 -0.21236499 -0.026600868 0.04944786 0.32322648 -0.14575261 -0.28566688 0.16738352 0.2169323 0.08767777 0.32298526 -0.12373408 0.18648094 0.068062 0.15417436 -0.33316943 -0.35137752 0.09139554 0.10193059 0.12918213 -0.08218576 -0.15024318 0.43685758 -0.14626671 -0.31547633 -0.1369397 0.4976547 -0.108379185 -0.13932264 -0.07972853 0.31756404 -0.5508514 -0.14165801 0.05094803 -0.3064537 -0.08034184 -0.015250239 0.22779013 0.059268177 -0.22460015 -0.04594561 -0.047259927 0.061556242 -0.29565078 -0.046281785 -0.38099104 -0.26400745 -0.21129228 -0.021764213 0.058266625 0.22143118 0.11130861 0.22725892 0.046687722 0.33243358 0.30681747 0.05391742 -0.055018954 -0.19022758 0.026337558 -0.07604613 0.4497172 0.13656844 -0.18737867 0.40025225 -0.09101024 -0.24225295 -0.5087496 0.4202645 0.30094796 -0.13430366 -0.21440499 -0.106930114 0.028104948 0.072992414 -0.052635007 -0.39095137 0.05395904 -0.071164094 0.056238074 -0.00035968464 0.11742239 -0.36392248 0.15238318 0.2529964 0.20511128 0.009996775 -0.06951216 -0.07055392 -0.20353968 -0.15686925 -0.09685624 0.16433688 0.21456034 0.13048328 0.17185861 -0.13699076 0.17078036 -0.113812156 -0.0083885165 0.45094946 -0.19540985 0.3419041 -0.20645462 0.12592019 0.2827764 -0.24400559 0.12667167 0.25531888 -0.049292065 0.21587552 0.0061462983 -0.08354917 0.3981416 0.09520614 0.21789189 -0.3468768
16 -0.13111076 0.08742478 0.103929624 -0.24484424 0.06829373 -0.17728056 0.11228015 0.028627593 0.024837526 -0.3285334 0.098721385 -0.17458154 -0.336051 -0.05656277 -0.04694952 0.083335474 0.013880436 0.1058902 -0.31813282 -0.53229755 0.16312821 0.00655812 -0.41078758 0.3556796 -0.3395858 0.2463625 -0.08150587 0.23926905 0.05673637 0.13450028 0.20796812 -0.16350165 0.40363297 0.069431804 -0.2208713 -0.36183488 0.049071472 0.14364384 0.13709427 0.45979342 -0.20424205 -0.23433869 0.10023428 0.29323438 0.2845197 0.2433246 0.011432743 -0.15532573 0.08695542 0.057968173 0.020269593 -0.024600053 0.0286472 0.097619444 -0.045880154 0.017364038 0.16755098 0.47302073 -0.1031156 0.17104492 0.07918768 0.19056046 -0.16520593 0.03118098 0.017123284 0.17034937 0.39500454 -0.43877664 0.1310036 -0.04694493 -0.10504132 0.28813863 0.16068679 0.14204977 0.019767057 0.3254111 0.072846115 -0.07413156 -0.29663917 0.33255607 -0.17192914 -0.032018747 0.23400071 0.26042405 -0.23237152 -0.23011053 -0.22977737 -0.053437073 -0.032127213 -0.34276474 0.2698923 0.066831835 -0.10786723 -0.2927697 -0.040712398 0.18491411 -0.05797533 -0.15592593 -0.57355314 0.12411578 0.11879228 0.057525348 -0.116431825 0.2420606 0.14174385 -0.11835271 -0.45972034 -0.43493557 -0.07024529 0.074921295 -0.21606563 -0.080701604 0.20462808 -0.119123794 0.18578398 -0.0064659705 0.17921318 -0.31814682 -0.5991584 -0.27311125 0.09670679 -0.007823569 0.09515072 -0.4287045 -0.09371569 0.35039613 0.0060552605 -0.3806066
17 -0.060411494 -0.01193927 -0.046018105 0.2770763 -0.31103772 -0.036576875 0.3192817 -0.25437716 -0.02817695 0.085651934 -0.1573983 -0.43886578 0.077483304 0.09178212 -0.20354871 0.03576662 0.33750865 0.062342566 0.033706333 -0.3306777 0.044736717 0.19387886 0.15209872 0.16574733 -0.17305084 -0.1662207 0.057681084 -0.08416106 0.12928341 -0.14903294 -0.23031521 -0.22027268 0.2433432 0.10144259 0.2794238 -0.12360208 -0.13949296 0.19213511 -0.074481666 0.22708946 -0.06804103 0.15323551 -0.06817577 -0.38826632 0.19726184 -0.20055781 -0.2178575 0.0063939625 0.0696108 0.203598 -0.34017357 0.32992092 0.31384218 0.35508728 0.111265115 -0.022354303 0.21992773 0.38597408 0.24336576 0.020178309 -0.40867174 0.4035492 -0.31453386 -0.08967891 0.028905129 0.1682655 0.069086365 0.22544688 0.35995552 -0.1510319 0.029454207 0.1772883 -0.09207789 0.09246191 0.11037201 0.42944196 -0.21885143 -0.16795266 -0.2487827 0.02880687 0.037376724 0.22675355 -0.08120184 0.44553217 0.044630885 0.18040104 -0.4553249 -0.14000776 0.14062898 -0.12958188 0.07816014 -0.11587076 -0.06314563 -0.30936387 0.12811764 -0.24386919 -0.27588296 -0.18073274 -0.40586555 -0.07178483 -0.26844904 0.28536037 -0.07464525 0.28783804 0.24139236 -0.17827712 0.3128258 -0.43652663 -0.42229956 -0.057006937 -0.15035549 0.13139698 -0.106023625 0.03646094 0.31812465 0.19487633 -0.045430142 -0.2002489 -0.0097072795 -0.39572427 0.010842235 -0.033311475 -0.23016652 -0.5386786 -0.30320457 0.2752929 -0.04244879 0.0891797
18 -0.23321143 0.0514985 0.19951265 0.11746394 -0.026190717 0.17612688 0.122418456 -0.30039683 0.1840801 0.28032658 -0.28488556 0.00270988 -0.02773135 -0.24458238 -0.05274892 0.26328146 -0.19245301 -0.40957102 -0.15151249 -0.3249112 0.35724133 0.31894276 -0.1266951 0.3315107 -0.22306909 0.18746041 -0.40849456 -0.123441406 0.1173745 0.3056322 0.034833208 -0.0038698216 0.28864685 0.28089273 -0.08594199 -0.34072053 -0.07528404 0.41291288 -0.30789772 0.13007109 0.04706133 0.12497467 -0.14195628 0.4023386 -0.23146391 0.0027181031 -0.55045074 -0.34063727 0.15729262 0.2863599 -0.16575827 0.2453487 0.20579948 0.4036652 0.15454154 0.19832283 -0.3219239 -0.10811616 -0.009083563 -0.0035193223 0.018087393 0.07237644 0.12839538 -0.091145985 0.3201265 0.17438751 0.39912292 0.38827905 -0.14980102 -0.32805732 -0.122450426 0.23827463 -0.03519987 -0.063072555 -0.07757509 0.17361587 -0.10835929 -0.17594314 -0.15416336 0.2622122 -0.03158285 -0.17086099 -0.31365028 -0.22474004 -0.15963192 -0.08869636 0.50295657 -0.00767644 -0.21310247 0.26409203 0.026129235 -0.34683564 -0.15298025 -0.23064218 0.11332908 -0.0680584 0.20142438 0.07190861 -0.2873516 -0.001090147 0.012155633 0.13170837 0.058407553 0.32943833 0.24320062 -0.03230302 -0.15713564 -0.17726478 -0.13736826 -0.39518198 -0.26349232 -0.07610893 -0.0835251 -0.056924768 -0.33492747 0.08565554 0.20053656 -0.0422705 -0.20899796 0.17627746 -0.26540357 -0.030776238 0.09028762 0.16017982 0.36029348 0.11987472 0.18449016 -0.42132992
19 -0.103627466 -0.17235464 0.115430884 0.1890513 0.08406071 0.087163284 0.33576614 0.051327173 0.009276929 -0.19400638 0.11838515 0.0051741046 0.15656142 0.021286324 -0.27827483 -0.17270328 0.3290567 -0.31759608 -0.035255153 -0.042086758 0.24590859 -0.034577683 0.20574175 -0.2992174 -0.1888963 0.028342739 -0.03431615 -0.52560663 0.032195475 0.09201957 0.35596785 -0.14514928 -0.24708931 0.108200826 0.21930774 0.056004096 -0.1415371 0.12182155 -0.025151886 -0.07031875 -5.4780943e-05 0.5513408 -0.5348295 0.08358304 0.16956936 -0.37091225 -0.36663884 -0.35262895 0.21290971 0.37228325 0.07268716 0.17110991 -0.6135207 -0.19531026 -0.3982827 0.41571766 -0.015015953 0.13134171 0.024161233 0.41734514 0.007433909 -0.10471973 0.24777125 0.35183915 0.08534722 0.2894634 -0.062375385 0.16089925 -0.0121646635 0.2330765 -0.3735688 -0.015580909 0.2477013 -0.20463318 0.007433351 -0.11443226 -0.40930417 -0.1309927 -0.06719686 -0.2167834 -0.1570886 0.116946526 -0.088130824 0.19646472 0.16163804 -0.03301169 0.05031221 0.16029191 -0.17858726 0.16810966 0.32616362 0.13970672 -0.034551166 0.081203476 0.087345965 0.04174075 -0.14257506 -0.17399359 -0.09251031 -0.709589 0.5222744 0.27784395 0.099226415 -0.1750123 0.19802928 0.28791228 -0.12481576 0.35191983 -0.30808318 -0.027785588 0.14116839 0.0014588584 0.26133537 -0.047691938 0.14463167 0.09436966 -0.07748725 -0.11486004 0.078988135 -0.4004965 -0.23875956 0.02268544 -0.19765198 -0.13920619 -1.1993358e-05 0.030291345 -0.08561974 -0.08476673
20 0.25821796 -0.12478867 0.2650172 0.09053573 -0.38276422 0.10757946 0.05801512 -0.11279926 0.22155605 0.44765118 0.12593676 -0.12134448 -0.22471906 -0.13571797 -0.33365306 0.13464668 -0.30090433 -0.29639885 0.058020163 0.024151392 -0.068338625 0.03750292 -0.11723253 0.12429182 -0.28299034 -0.12857902 -0.34833547 -0.14446467 0.27354494 0.20346089 0.25108978 0.0685524 -0.0024261784 -0.113112085 -0.3045663 -0.15542902 -0.2486064 0.19131489 -0.05249907 0.053457726 0.1894008 -0.08096715 -0.24011596 0.2237175 -0.3225726 -0.08970962 -0.28577477 -0.44265747 -0.15917054 0.28482002 -0.09566448 0.32416737 0.3095348 0.111875884 -0.018152041 -0.27734643 0.101368465 0.44506198 -0.19565906 0.10148828 -0.064251006 0.35440508 0.07364865 -0.18659532 0.40963036 -0.002675193 0.09244781 -0.12512992 -0.080723405 -0.11464598 -0.13258393 0.3746191 0.35929966 0.017386006 0.010171864 0.1510191 0.03942906 0.053769805 0.015055061 0.62255096 0.31089178 0.034373753 -0.45078397 -0.047181956 -0.14252675 -0.06173055 0.15908165 -0.23368655 -0.2519022 0.040741134 0.009584715 0.11772031 -0.17307839 -0.113874115 -0.011511686 -0.27831835 -0.1763337 -0.14915937 0.12867747 -0.40648377 -0.3612011 0.0007142269 0.12490508 0.2938395 0.14826183 -0.045218863 -0.06965723 0.13103725 0.12410329 -0.108425036 -0.11440004 -0.004970555 -0.014118066 0.35821867 0.18339504 0.16564617 -0.12934837 -0.07873503 -0.15816328 0.1034681 -0.5777511 0.13077849 0.20523675 -0.41587085 0.13309328 -0.002710806 0.23987429 -0.20515972
21 -0.124470316 -0.14924434 0.040320683 0.18427627 -0.0417592 -0.0550575 0.09565585 -0.19119875 0.076853596 -0.14298812 0.25822455 0.03163748 -0.11177542 0.2191369 -0.21702428 -0.65466577 -0.11914137 0.16937228 0.24658602 -0.007820783 0.30052635 -0.24404167 -0.11833085 -0.12712856 -0.1333587 0.09260662 -0.37673083 0.3597651 -0.32111812 -0.027893651 -0.07891904 -0.14443123 -0.058130883 0.41343206 0.02831982 -0.010391942 -0.33154994 0.19978635 -0.2591387 0.2751968 -0.16442864 0.42517665 -0.3552349 -0.1662199 0.0032870995 -0.2595467 -0.08571534 0.043013103 -0.13211365 0.11145333 -0.38516292 -0.11893319 -0.11966555 0.17818908 -0.025413096 0.1462592 -0.16892451 0.27261198 -0.1583222 0.1766673 0.15813093 0.17619577 0.18813892 0.34092095 -0.054512132 0.16838273 0.2338066 -0.25669166 0.2685056 -0.20118701 -0.02793692 0.21646042 0.42006242 0.31257495 -0.062761314 0.44460118 0.14453578 -0.10924321 -0.02698338 0.28872606 -0.017706595 -0.15345477 0.3559944 -0.22526196 -0.23431173 0.12454099 -0.080375135 -0.36844727 0.10467502 0.2587259 -0.05321747 0.4656419 0.18515351 -0.57926095 -0.088870324 0.14866872 -0.08183334 -0.010832874 0.067985356 0.27821887 -0.1302494 0.26780105 -0.18971898 0.29009897 0.30515254 0.2659757 -0.047943138 -0.09842779 -0.15818356 -0.3634671 -0.107276626 0.47678074 0.13835089 -0.05268336 0.03127655 -0.012749923 -0.038842984 0.055911615 0.23745032 -0.04494488 -0.43600473 0.057965502 -0.07543368 0.095963545 0.25694755 -0.3511734 0.028370427 0.1412998
22 -0.08442837 0.12407128 -0.10171632 0.30320403 -0.11473464 0.1989198 0.1635026 0.21525398 0.051917918 0.2635246 0.021935 -0.27779472 0.23447625 0.11865492 -0.20144717 0.037658453 -0.079504885 -0.54372585 -0.42675978 0.27436998 0.61855215 0.20472829 0.11517604 0.09837906 -0.24207422 0.10347898 -0.35462394 0.23399597 0.1664594 0.08376864 0.10895211 -0.09448074 -0.18351331 0.2538652 -0.3127709 -0.065482885 -0.19838198 0.14860427 -0.53346056 -0.19427517 0.022839298 0.38041735 -0.10389421 0.06394603 -0.2593297 -0.12797861 -0.2766004 -0.21124372 -0.19942513 -0.12132465 -0.4047044 -0.18211092 0.050241865 -0.105736144 0.25378522 -0.39135724 -0.20698121 -0.18876758 -0.28844622 -0.20714468 0.10420302 -0.027716499 -0.20623317 -0.13008778 0.48481163 0.040264565 0.05601227 0.04117684 -0.052922614 -0.45818996 0.023853114 -0.13293137 0.101682514 0.08246635 0.3375313 -0.09603782 0.13025975 0.17331932 -0.009577734 0.28806275 0.3768844 -0.1208092 0.31177694 0.2392718 -0.05757643 0.060858812 0.055969052 0.2604961 0.23222429 0.27949205 0.19100472 -0.24168734 0.10085711 -0.107679985 0.20551156 0.12111969 0.49096817 -0.21839334 -0.007377899 0.049358413 -0.11164207 0.17227384 -0.19104588 0.441122 -0.4163162 -0.15030864 0.08799847 0.048430488 0.2273599 -0.1773826 -0.19392674 0.07422871 0.10280468 0.048075102 -0.057971045 0.22598161 0.3224518 -0.23175834 0.004463592 0.20192894 -0.22050822 0.3394391 -0.14812005 -0.049451247 0.21829754 -0.1457702 0.11491255 -0.17997114
23 -0.11512017 -0.14215846 0.17687023 0.080200896 -0.13109791 -0.055207323 0.47605687 0.11836474 0.11090554 0.11675127 0.05231681 0.12584877 -0.08971815 0.13583216 -0.11107447 -0.14481726 0.19950412 -0.09362511 0.06577128 0.08739947 0.38302046 -0.070825614 0.33747032 -0.26845416 0.14804354 -0.123865955 -0.07404828 -0.47272405 -0.0040142615 0.4040011 0.24019803 -0.2508654 -0.18625097 0.2945448 0.20167632 -0.27191183 -0.13057007 0.20223065 -0.15944688 -0.10354 0.077483125 0.7082002 -0.29121196 0.032813545 -0.11149484 -0.4224963 -0.20475505 -0.3601345 0.06161211 0.45342517 -0.026177278 -0.0067294985 -0.4863444 -0.4260662 -0.24826807 0.3948428 0.062932506 0.40135384 -0.0041825557 0.28587475 -0.0798028 -0.17360319 -0.18204315 0.33459717 0.054399207 0.33679804 0.19891407 0.119821675 -0.0046073883 -0.0075666104 -0.15606104 -0.3219893 0.012781492 -0.1261467 -0.032283064 0.017303064 -0.32057318 0.06045956 -0.24030116 0.0772553 -0.059526905 0.18411754 0.12565091 -0.0863834 0.15214878 -0.26975837 0.04250096 -0.0031590199 -0.25511512 0.24969631 0.35593566 0.10244067 -0.10883176 0.043419313 0.093589194 0.1520139 -0.37605894 -0.08188223 -0.22119033 -0.40097663 0.36388513 0.2885575 0.05447851 0.038016748 -0.12336825 0.17491996 -0.07923907 0.2728799 -0.19511983 -0.15522903 0.18536414 -0.14636791 0.3795999 -0.21415204 0.19299592 0.25392056 -0.017004892 0.05439968 -0.016384289 -0.3045164 -0.17275597 -0.009825817 -0.25838658 0.03399306 0.25821367 0.27484646 -0.12195987 -0.046034057
24 -0.26380223 -0.3310155 0.25742206 0.088178895 -0.0473598 0.05285157 0.16499987 -0.028173052 0.28891483 -0.20113854 -0.003150136 0.036355346 0.10470119 0.15285115 -0.043152653 -0.06059972 0.15353525 -0.23815575 -0.059344906 -0.18337956 0.17354041 0.06130583 0.4206813 -0.28739396 0.0062525687 -0.10629025 -0.017038437 -0.359049 0.1396776 0.02724164 0.19825493 -0.2127067 -0.13138844 0.0985193 0.31403702 -0.038662866 -0.35884142 -0.0948585 -0.0773219 -0.09663708 -0.09218915 0.56307286 -0.6772649 0.2463221 0.07003776 -0.36584118 -0.37774915 -0.13801329 0.054514885 0.349498 0.035934865 0.08670671 -0.35368153 -0.11009406 -0.13155691 0.38705385 -0.08970529 0.09085889 0.1886215 0.34007895 -0.15808608 -0.15431273 0.17998278 0.1719449 0.17697178 0.37740067 0.2748295 0.05191115 -0.12710664 0.16206212 -0.2705384 -0.056210257 0.075609066 -0.1691954 0.11154213 -0.09637187 -0.46643624 0.112717904 -0.2792789 -0.25536686 0.002848109 0.21923378 0.08256508 0.25145513 0.23571114 -0.16991606 0.015639883 0.017174898 -0.17815273 0.27551186 0.117861874 0.21730939 -0.15899283 -0.04141503 0.07195691 -0.11613155 -0.29734817 -0.06090509 -0.34253764 -0.45963848 0.417475 0.26927468 -0.22458887 -0.13981336 0.15252563 0.15537842 0.049791034 0.1888931 -0.30655065 -0.039888695 -0.065216556 0.030335257 -0.011257102 0.03325161 0.20369636 0.2593049 -0.057669148 0.08842703 -0.04380751 -0.40362945 -0.13058189 -0.027010605 -0.30092606 -0.25054806 0.12589747 -0.109156795 -0.24041529 -0.2559328
25 0.27557477 -0.064567804 0.034220062 -0.0711769 0.15340948 -0.11975095 0.40350822 0.02564987 0.17984568 0.10640629 0.0078860875 -0.19353499 -0.037014876 0.111044645 -0.40115964 -0.35208493 0.094798796 -0.074692346 0.11028043 0.0015497359 0.44840127 -0.26660708 0.11230544 0.007997131 -0.11802737 -0.02190485 -0.18622856 0.025349049 -0.2771309 -0.09824883 0.3983945 0.20851643 -0.26720142 0.358383 -0.34793836 -0.38494965 -0.30075082 0.17334665 -0.21637484 0.06396723 -0.16516525 0.34957433 -0.094330005 0.05114841 0.025926236 -0.24613391 -0.29727703 -0.16726111 0.34698108 0.27821392 -0.1689439 -0.09273857 -0.21354286 -0.048675053 0.17854482 -0.13097619 -0.35904378 -0.05254733 -0.024312552 0.19765143 0.25302675 0.0068399594 0.05666589 -0.020398427 0.12538244 0.3577803 -0.0084697455 -0.5709739 0.37126076 -0.19148692 0.11176879 0.08019527 0.15943098 0.22742645 0.21510136 0.38268644 0.45636433 0.007982946 -0.39997378 0.13727741 -0.28154194 -0.069471225 0.38770854 0.18968336 0.0014462079 0.27285922 -0.123466305 -0.1395838 -0.061197527 -0.028035613 0.19693033 0.22821215 0.41998208 -0.20784983 -0.13103452 -0.10803804 0.16906208 -0.06290861 -0.3319527 0.24764302 -0.49576977 0.21271807 -0.046526585 0.32867405 -0.12244666 -0.22249627 0.105671525 -0.03452429 0.09677323 -0.26003942 -0.06430134 0.0765328 0.15826793 -0.2152923 0.09173469 -0.002339061 0.5471544 0.09436311 0.1890386 0.2843306 -0.37097934 0.30579588 -0.23330116 -0.06894249 0.098108456 -0.34502298 -0.06563006 -0.20545512
26 -0.08018474 -0.38459325 0.18737918 -0.35966596 -0.38155478 -0.03152842 0.25676933 0.23261274 0.29136977 0.2483723 0.32033527 -0.20733464 0.2104566 0.081986085 -0.17119929 -0.07166507 -0.049403846 -0.32947996 0.0018920824 -0.26374266 -0.07082265 -0.13411134 0.13607764 0.5190252 -0.25292626 0.074082434 -0.41506165 -0.20961829 0.057053357 -0.064597666 -0.13756596 -0.15484127 -0.15725929 0.008599303 0.027276685 0.013699851 0.057293363 0.34125623 -0.31132528 0.23794259 0.33828562 0.37057048 -0.63905436 -0.20018837 -0.041253187 0.1637177 -0.22421232 -0.3642218 0.019443996 -0.036464624 -0.44061854 -0.301465 0.54551584 0.27202657 -0.09443283 0.05028175 0.40966168 0.17501551 0.107945606 0.36016098 -0.23960768 -0.12108152 -0.28093264 -0.048975483 0.07970614 0.124308966 -0.045298606 0.08006078 -0.08663835 -0.113313906 0.19988751 0.15440813 0.18431295 -0.07446718 -0.061985604 0.26334992 -0.33215618 -0.111049704 -0.3280917 -0.07073564 0.17196527 -0.014558466 -0.2082531 0.20721398 0.10560677 0.18153282 -0.07370088 -0.002823237 0.23572621 -0.29580173 -0.06549016 0.25258684 0.09832323 0.05696351 0.07027061 -0.25100014 0.06587642 0.018348329 -0.4335021 -0.0066150934 0.12704578 -0.02827951 0.13090475 0.2622737 -0.3132705 -0.035786234 0.21984568 -0.072893634 -0.3932959 -0.118467264 -0.505147 -0.17023651 -0.27447125 0.047446154 -0.0049341135 -0.03577085 0.001110488 -0.3260727 -0.20545788 -0.2968567 0.03378796 -0.010662919 0.13208464 -0.19699822 0.2401956 0.17870794 0.09305501 -0.10830579
27 -0.20737949 -0.096402064 -0.108424634 -0.17347124 0.1934895 0.09802196 0.3867427 -0.02129295 0.21701322 -0.16319996 0.14156248 -0.15715694 -0.094668314 0.40713683 0.048642125 -0.19957781 0.010632455 0.093574494 -0.22003084 0.063023984 0.33576313 -0.16800544 0.28134674 -0.272021 0.036101535 0.22312307 0.018476823 -0.42815855 0.22059733 0.18886547 0.011174804 -0.18918467 -0.031164978 0.25009835 0.39900288 -0.1857211 -0.32030544 0.09789669 0.112177745 -0.08528442 -0.3271156 0.6078279 -0.48659906 0.047763173 0.022274107 -0.537876 -0.43980557 0.31519383 0.016917085 0.19872406 -0.022667207 -0.005851053 -0.1894349 -0.1583279 -0.2507214 0.20379515 -0.06716683 0.24084704 0.072840795 0.48183075 -0.13387088 -0.09498745 -0.10313892 -0.19202554 0.12225642 0.15854809 0.20813358 0.1318377 -0.0040856395 0.054616082 0.03968818 -0.20246893 0.11978095 -0.08744278 -0.17613678 -0.10203659 -0.09544406 -0.059119944 0.024519553 -0.54300964 -0.084184945 0.050242744 -0.067295656 -0.17129925 -0.019184511 -0.2534061 0.048123356 -0.075397186 -0.016597237 0.16825022 0.0073625837 0.18921363 0.031802252 -0.12146757 0.24559894 -0.102620795 -0.50201416 -0.028230434 -0.51139057 -0.640803 0.16312456 0.289533 0.12276708 -0.084843814 0.25241855 0.30326372 0.25280944 0.16577096 -0.22051409 -0.29922608 0.118286654 -0.2014249 0.17286384 -0.032256152 0.06844689 -0.090603046 0.013997302 0.0751773 0.08265384 -0.3584814 -0.23670337 -0.0277943 -0.3384367 -0.37866968 0.13146763 -0.053258747 0.09856379 0.103495374
28 0.10672229 -0.22483908 -0.008503883 0.08284882 -0.1875244 -0.048664913 0.23407887 0.0018535606 0.08135207 -0.28531972 -0.034079295 -0.27079383 -0.1885647 0.16837631 0.05864581 0.10800261 -0.1427587 0.20440671 0.15029606 -0.049810644 0.35425422 -0.0058670705 0.17994314 0.13388306 -0.06904785 0.06972567 -0.021730155 0.1791206 -0.41713735 0.104872525 0.32260275 -0.11528808 -0.026709232 0.11755451 -0.27701926 -0.20584877 0.10401425 0.46887127 -0.030201832 0.24881834 -0.09479858 0.11893149 -0.33328977 0.08593431 0.113789715 0.31905934 -0.17563453 -0.19648565 0.23814672 0.018561145 -0.21969037 0.38093275 -0.42627618 0.0302551 0.16689321 -0.017428016 -0.10499748 0.24201126 -0.37920862 0.028286466 0.060472064 0.3045245 0.3345532 0.10590784 -0.061140276 0.17474926 0.5280918 -0.06016815 0.24273966 -0.11608426 0.10734081 0.21117438 0.13962746 0.011982134 0.46075276 0.20738252 0.4526108 -0.11142544 -0.22390033 0.17264774 -0.0053841397 0.2056653 0.3247831 0.11881673 0.09594723 -0.0696375 -0.51034594 -0.23679024 -0.00013089024 -0.08153261 -0.077509634 0.2508062 0.35099474 -0.19048294 0.07566146 -0.2080494 0.3273164 -0.038874596 -0.19489953 0.109574996 0.03581577 0.03177547 -0.11726972 0.15561423 0.22302803 -0.038905885 0.2086537 -0.2746027 -0.22615203 -0.24589412 -0.27019128 0.39870158 0.17433038 -0.10283881 -0.27255204 0.4238813 0.39287066 0.17633046 0.042032328 -0.18599701 -0.053243432 -0.03457309 0.22265026 -0.06506501 -0.061121948 -0.097233295 -0.20780198 -0.38382006
29 -0.14939354 -0.30258825 0.2600686 -0.036879342 0.04471342 0.111983016 0.13607065 -0.047184985 0.0231888 0.19947027 0.09761031 -0.57311845 -0.004854331 0.058965918 0.16495398 -0.26861057 0.16530913 -0.116999134 -0.06296163 -0.31929892 -0.09437793 -0.32304952 0.007943882 0.17921199 -0.40306738 -0.22582808 -0.2804007 0.055856254 0.12936403 0.05149132 -0.01884524 -0.08783708 -0.14583308 -0.06607275 -0.14870577 -0.08702252 0.17974116 0.12098925 -0.63736445 0.21159427 0.067208216 0.024938691 -0.72197175 -0.37563527 0.10950298 0.0026035407 -0.026496446 0.28486785 -0.19698104 0.24587715 -0.28275815 0.051693805 0.50584686 0.064802 0.11823655 0.36237797 0.2542735 0.14724728 0.27904314 0.12190954 -0.11921313 -0.024356652 -0.018270936 0.07321434 -0.013006335 0.35786626 0.26607272 -0.05644973 -0.06560866 -0.3087466 -0.3384655 0.28003496 0.06137555 -0.014438442 0.039487544 0.06332341 -0.45035994 -0.2563576 0.08207541 -0.08468522 0.1217352 0.05256761 -0.24632771 0.3185461 0.18568815 0.020552808 -0.10583035 -0.046264105 -0.24184762 -0.13494205 0.062142 0.37840027 -0.03561436 -0.17649035 -0.17702273 0.022748277 -0.30915868 -0.23119122 -0.09243698 -0.12906735 -0.21070537 0.36675295 -0.39524528 0.1664375 0.058244705 -0.10786719 0.20701389 0.011084179 0.037425783 -0.08338618 -0.03664165 -0.14449017 -0.0552221 -0.32763028 -0.23701274 0.02833455 -0.03261952 -0.35066834 -0.24154393 0.1119483 0.18479234 -0.24297205 0.044580474 -0.40814066 0.21105209 0.07995127 0.03795387 -0.030726586
30 0.025384177 -0.2462829 -0.14365664 -0.3311763 -0.19431049 -0.32594997 0.13995892 -0.0150345005 -0.0632311 0.14001945 -0.086216755 -0.23202382 -0.19781928 0.38194478 -0.110237174 -0.4899206 0.21852174 -0.33567184 0.18581806 -0.14563361 0.35709462 0.08557328 0.30081967 0.05789126 -0.038663603 0.33551642 -0.2156628 0.108687446 0.032236345 0.06657943 -0.17035902 0.060382657 -0.0426686 0.17859304 0.0005773481 -0.21241103 -0.33383834 0.18684731 -0.31350717 0.35956565 0.00922523 0.13138069 -0.24739093 -0.07938031 0.25032857 -0.16019852 0.12571631 -0.040266916 0.03467468 0.003996836 -0.33003348 0.122345254 -0.16056323 -0.10774454 -0.11149281 0.3015359 0.14811552 0.53075707 0.16977985 0.07238956 -0.10520834 -0.106232 0.224696 0.27531475 -0.18819295 0.41385588 0.36235946 -0.007269473 0.11905732 0.09019583 0.03285959 0.2898714 0.35894012 0.22342521 0.08552791 0.43392694 -0.09077286 0.0071468325 0.04338151 0.26195237 -0.06146387 0.11411686 0.4881563 0.09581949 -0.14550672 -0.1818684 -0.40293092 -0.3972274 -0.25103328 -0.20777151 -0.036516305 0.32666197 0.036865845 -0.13362686 -0.11274244 -0.068165176 0.13272555 -0.3736233 -0.0656054 0.35314032 -0.26735538 0.28597975 0.17446522 0.20161666 0.21002059 -0.2232411 0.07381721 0.07967894 0.08637625 -0.31293148 -0.29477692 0.13533235 -0.0422517 -0.34679806 -0.28006706 0.14647157 -0.006340212 -0.24898778 0.16369116 -0.016612183 -0.3951885 0.034094907 0.055519342 0.0064535094 0.1026473 -0.25030637 -0.198985 -0.04083918
31 0.16250849 0.13981782 0.35727963 0.2645929 -0.25191346 -0.11853868 0.41205698 -0.14006948 -0.030065972 0.094706014 0.2830804 0.062649325 0.18832378 -0.07847598 0.088906154 0.29570925 -0.14817467 -0.5306996 -0.07009914 -0.013439646 0.28141537 0.44505203 -0.21742964 0.3456838 0.13796322 -0.21500602 -0.023709197 0.024465358 0.16452324 -0.05552904 0.43511596 -0.023119446 0.34890917 0.16570242 -0.16049834 -0.3282998 -0.22630408 -0.0658494 -0.30355206 0.18458496 -0.028844608 0.118945315 -0.63785887 -0.19778138 0.09850833 -0.057128638 -0.26173282 -0.41217303 0.12726198 0.0727128 -0.25813976 -0.085369945 0.06609913 0.124637544 -0.06476243 -0.27345148 0.008889568 0.08593032 -0.019352473 0.2474904 0.06446196 0.21244627 0.124870144 0.10002239 0.16624625 0.10305003 0.35237458 0.0978514 -0.31525597 -0.5028916 0.16375168 -0.045192942 0.2870065 -0.031919632 0.008282426 -0.21522515 -0.27965328 -0.019447012 -0.26022792 0.16833934 0.042251624 -0.04215263 -0.10879228 -0.006435279 -0.20906013 -0.0030804793 0.24775837 0.0016171691 -0.05274167 -0.03977087 0.15213932 -0.08413037 -0.09371856 -0.0058616595 -0.060285922 0.11157293 0.157742 0.08757042 -0.26075512 -0.16981916 -0.35668382 -0.15651166 0.17076069 0.37084746 0.2746711 0.14195476 0.006922523 0.22706366 -0.01736535 -0.19675018 -0.5596327 0.08671157 -0.5057416 0.18060969 -0.34181857 0.3967867 -0.057036094 -0.12494854 -0.31330773 0.19033553 -0.2518513 0.35521695 0.23808704 -0.30920792 0.15674616 -0.0866769 0.4827591 -0.30039835
32 0.007872537 -0.11195158 -0.0126416115 0.17123802 -0.13212639 0.08729566 0.14357288 0.1651974 0.18165113 -0.1031955 -0.019929878 -0.18767112 0.13468257 -0.023957234 -0.052021213 -0.1760627 0.026139898 -0.2590517 0.07148673 -0.44435093 -0.17759964 0.063751005 0.119315 -0.028008597 -0.21911275 -0.2586174 -0.13768314 -0.2190913 -0.06424402 0.18226631 -0.27287158 0.033682663 -0.19354884 0.18943456 0.13702565 -0.108743854 0.34673765 0.28040758 -0.16332413 0.103597626 -0.33387908 0.38267192 -0.41793236 -0.18870814 0.31372538 0.058555122 0.12986019 0.039519254 0.01712963 0.20984532 -0.21947609 0.110741995 0.26342043 0.44007364 0.05097954 -0.003978878 0.36688757 0.71505374 0.1875704 -0.01875063 -0.3767927 -0.21704656 -0.13297474 0.08120064 -0.25052208 0.20401219 0.22928098 0.05633004 0.039644223 -0.39455485 0.11869198 -0.16277331 0.2933436 0.1790224 0.22450633 0.31585887 -0.032887787 -0.23794362 -0.46333498 0.051975533 -0.03752649 0.26014653 -0.2912975 0.06716161 -0.030467719 -0.29183578 -0.2007713 -0.19042006 0.16181083 -0.10266019 0.34020194 -0.034272015 -0.062351182 -0.05237165 -0.09531213 -0.21170236 0.019798305 -0.49633726 -0.09607364 -0.26283997 -0.38077006 0.25874847 -0.10653392 0.15096316 0.3671398 -0.11069982 0.23312545 0.15451041 -0.083673775 -0.02728269 -0.51198065 0.17213571 -0.033642974 -0.3038354 0.100027375 -0.17475338 -0.0896821 -0.03086432 -0.04067807 0.019187907 0.13942666 -0.1596713 -0.3807348 -0.47485122 -0.21105786 0.1714182 0.12330312 0.21373719
33 0.16860983 -0.13942458 0.09995366 -0.31080362 -0.16021848 -0.03652164 0.25901785 -0.08731503 -0.13288657 0.027687872 -0.10510404 0.008884804 -0.011434894 -0.059293985 -0.41297707 -0.34190732 -0.008766719 0.07201045 -0.08123158 0.016026618 0.5649579 0.05651555 0.07860772 -0.03913004 0.075038955 0.5000854 -0.17231117 -0.021240737 0.14248599 -0.018922936 0.14241418 -0.015854266 0.04953057 0.38009268 0.009791757 -0.44611636 -0.34315985 0.15003644 -0.051382266 0.022029733 -0.3465944 -0.079913646 -0.10644781 -0.18130828 0.34845194 -0.23777182 0.009558424 -0.07737441 0.2114054 -0.34349537 -0.29709858 0.20020208 -0.043923654 -0.14939074 0.09075069 0.15808818 0.06939092 0.36657745 -0.008863765 0.017534012 0.1879828 0.119884975 0.26060948 0.40145338 -0.1748018 0.49930844 0.49816447 -0.077000216 0.15919945 -0.00049505476 0.030708367 0.4242757 0.35338032 0.3181818 0.13494931 0.47354522 -0.09023667 -0.12666708 -0.03371873 0.25314718 0.13157095 0.27257708 0.52440614 0.027289562 0.17739518 0.036476087 -0.5478339 -0.5081822 -0.005449021 -0.17496678 -0.047488086 0.5449983 0.2379339 -0.1049967 0.16916008 -0.18904686 -0.1749525 -0.07775684 -0.022515163 0.37985507 0.0039166394 0.044320654 -0.10861773 0.12014662 0.1513769 -0.04845567 -0.10232314 -0.1350148 0.094218574 -0.12498401 -0.34060243 0.37329552 0.27251717 -0.4027865 -0.22644812 0.11672825 0.059868522 -0.07355798 -0.044373546 -0.0382011 -0.28403512 0.27649003 0.07222546 -0.0971397 -0.12257994 -0.21732841 -0.24525115 -0.13375132
34 -0.021640005 -0.1960646 -0.17954953 -0.017653476 0.24991839 -0.06485541 0.45589802 0.108643584 0.13031988 -0.37595987 -0.03550903 -0.12320371 0.02388412 0.34469262 0.11672683 -0.09748355 0.028987374 0.0690918 0.037458867 -0.05967126 0.32498375 -0.28091246 0.088682316 -0.10917546 0.0053185187 0.28457496 -0.0022323148 -0.20395903 0.14208195 0.31584823 0.03714369 -0.07937132 -0.28784844 0.36335212 0.049465228 -0.31956992 -0.2494931 -0.20167626 -0.16473687 0.08350996 -0.1106511 0.75754803 -0.4095683 -0.07263337 -0.13394476 -0.11823985 0.0024973461 -0.11145422 0.15875305 0.5912072 -0.03856712 0.053945154 -0.27304623 -0.2991182 -0.27516797 -0.013007268 0.25448027 0.050553042 0.07838405 0.5868012 -0.21535677 0.2454597 0.13271837 0.005028723 0.07340929 0.34990337 0.29161474 -0.031137636 -0.0346622 -0.1259507 -0.14614806 -0.11154493 0.3101377 -0.115742624 -0.24792583 -0.005213733 -0.19397946 -0.04994795 -0.18207654 -0.4218109 0.0017453847 -0.1607763 0.16475949 -0.11372752 0.136874 -0.45050648 -0.19169205 -0.07674737 -0.0044244523 0.07280825 -0.045238785 0.3025241 0.07464077 0.0023154395 0.24820381 -0.014174174 -0.31283936 0.00977891 -0.45530534 -0.36998045 0.25905722 0.17484432 0.0336971 0.047668427 0.38090354 0.25449246 0.19734804 -0.022267805 -0.20618948 -0.22359484 0.08570925 -0.21169229 0.3175308 0.010697566 0.00036135234 0.023276372 0.08036844 0.3551002 0.30203173 -0.29963326 -0.2080347 0.032277726 -0.3757143 -0.22566125 0.096305475 -0.050447434 0.07453674 0.012733081
35 0.26270205 -0.30823392 0.14024416 0.36560836 -0.4190886 -0.20569816 0.09744045 0.14001967 -0.16373582 0.16243266 0.06261375 -0.08317467 -0.2766796 0.013065161 0.24880745 -0.067392945 0.094873264 0.15071517 -0.20022993 -0.058569603 0.3626398 0.36247137 -0.28288752 0.2917298 -0.40503109 0.07313041 0.028836848 0.12270503 0.09087301 0.094012424 0.0051680487 -0.03315101 -0.19662398 0.13905197 -0.20792295 -0.14722238 0.2634916 -0.010166414 0.13334128 0.4830662 -0.13860898 -0.0981159 -0.1475842 -0.12819469 0.24662806 -0.18356682 -0.41179094 -0.044066273 -0.018130057 0.24537365 0.03650875 -0.26470396 -0.08759171 -0.041395556 0.11953957 -0.014501986 0.10905927 0.30534807 -0.03010062 0.0446552 0.020362051 0.19862829 0.25539392 -0.08591806 0.6972841 0.054494523 0.19249818 -0.31695658 -0.2763333 0.119976684 0.6209461 -0.0073463 -0.03353535 -0.35275376 0.009011499 0.0330978 -0.29905713 -0.18836145 -0.28706297 0.47898936 0.012845207 0.098033965 -0.30021387 0.08256532 0.017071659 -0.20295186 -0.07060308 -0.074764304 0.07140333 0.13300978 0.46224526 0.17647779 0.2261131 0.24503312 -0.027236324 -0.13220835 -0.16781884 -0.18961191 0.036804304 -0.34606272 0.061416607 -0.09867349 -0.17739464 0.29867822 -0.009903322 0.09845646 0.24414268 0.079567224 -0.2427122 -0.12790726 -0.46607158 -0.16481371 -0.35445553 -0.28844023 -0.24768122 -0.23572439 0.28481525 0.20470123 0.112456165 -0.1388201 0.14236593 -0.06890938 0.16457148 -0.26368973 0.0678337 -0.19873162 -0.040851194 -0.056875437
36 -0.17927861 0.02313326 0.1251661 0.21940929 -0.2711743 -0.069052905 0.3756808 -0.13965073 0.1429704 0.11506098 -0.20300283 -0.32320413 -0.12782927 0.041129738 0.037089396 -0.31525308 0.08093337 0.009774203 -0.07182957 0.087148525 0.114409246 0.14202829 0.244152 0.09796614 -0.07505628 0.31445754 -0.18704689 0.37402356 -0.24427152 0.39422542 0.39818949 0.10503149 0.113087006 0.26412106 -0.08587169 -0.13950266 0.024520548 0.07930952 -0.30236158 0.075804144 0.07810586 0.3373323 -0.45270503 -0.19015922 0.21588758 -0.11441527 -0.09803399 -0.35105368 0.2781903 -0.048935935 -0.39873603 0.10973339 -0.22648712 -0.10644616 0.12807673 -0.3675057 -0.12707984 0.1511259 -0.19104666 -0.050417513 -0.338982 0.33456773 0.22309054 0.21385282 0.021352874 0.061892226 0.33656886 -0.20339206 0.2734664 -0.25849265 0.014991778 -0.011482618 0.4701488 0.3359209 0.21630791 0.14961235 0.4092565 0.03748715 -0.07346985 0.19968343 0.23490554 0.08264862 0.27850667 0.092892334 -0.092029326 0.038992587 -0.2947443 -0.1448917 -0.008276184 -0.040104814 0.2036688 0.18282273 0.5005564 -0.38672847 0.16498604 -0.1263283 0.086684115 -0.29536632 -0.10123726 0.4217535 -0.051156275 -0.28519934 -0.00061104295 0.21544284 0.021855917 -0.014341311 0.39274648 -0.09425593 0.20442985 -0.3718448 -0.056314327 -0.052742023 0.13732928 -0.10059187 0.10882188 -0.054473225 0.22886758 0.054374352 -0.44359428 -0.17183581 -0.20114496 0.20108174 -0.10371036 -0.20419154 0.19965622 -0.6300608 -0.045059193 -0.012709722
37 0.24041095 0.0017067883 0.08076678 0.08203638 -0.18825963 0.16596709 -0.054936398 0.13687433 0.1903169 0.24664712 0.31281272 -0.14511909 0.19257815 -0.09187602 -0.112935744 -0.3932866 0.104640536 0.0014765415 0.34402487 -0.11126627 -0.24358447 -0.111548886 0.1064067 0.0066951714 -0.28776535 0.17092523 -0.20295025 0.14291364 -0.048839223 -0.022913381 -0.29896796 0.017370578 -0.003160364 -0.199644 0.15654644 -0.3041925 0.22292082 0.003084218 -0.268009 0.09038218 0.2225412 0.4059188 -0.64237124 0.025537262 0.11846716 -0.2117702 -0.29262128 0.009315384 0.106663786 -0.081227444 -0.112267055 0.013707815 0.12577094 0.39311835 -0.019906297 -0.05925404 0.42491972 0.5533286 0.12576035 -0.031949554 -0.34584177 0.18913865 0.27554825 0.022930168 -0.058976516 0.33106774 0.11636276 -0.12406061 0.25182366 -0.12667155 0.04272388 -0.016566198 -0.22265883 0.03874208 -0.14490989 0.33704278 -0.45870152 0.046633273 -0.25103197 0.010624967 -0.32185045 -0.011253689 -0.118114814 -0.08673811 -0.12366521 -0.145938 -0.35255745 0.07688807 0.273026 0.08110044 0.17628694 -0.09354016 -0.09874493 -0.1384584 0.06212262 -0.30587336 -0.38459638 -0.2573721 -0.15309015 -0.29158053 -0.32692355 0.3660068 -0.46784124 0.21770164 0.12503454 -0.193667 0.10326071 -0.059584826 -0.20102789 -0.02958058 -0.46116015 -0.25216004 -0.38926622 -0.31678215 -0.049051315 0.1860399 0.09672974 -0.30306137 0.14188482 -0.44214314 0.17064857 -0.16914064 -0.02863707 -0.6473233 -0.008258269 0.20409115 0.19496241 0.34029597
38 -0.16817477 -0.20521888 0.005615247 -0.102266856 -0.0037115482 0.04267893 0.59904754 -0.17464137 0.13317403 -0.17352952 -0.0714731 0.13868329 -0.032322384 0.2470605 0.013724632 -0.31707668 0.061294504 -0.12904282 0.18625376 -0.20046376 0.48160425 -0.3767559 0.49575362 -0.25822142 0.13214505 -0.05814717 0.018442038 -0.3045241 0.13444321 0.25317755 -0.0009554647 -0.16790813 0.02875433 0.2341246 -0.0045059356 -0.1564423 -0.44206038 -0.067891 -0.38983002 0.25114542 -0.035265967 0.67396563 -0.23861356 -0.0072948453 -0.15518078 -0.236362 0.001010337 -0.19861344 -0.09337923 0.4281341 0.028350722 0.050904587 -0.44986123 -0.28569093 -0.17209335 0.274742 0.061235588 0.31978104 -0.038506236 0.40459746 0.11416624 0.04989579 0.15725681 0.19786714 0.051121805 0.22697932 0.25110176 0.07018739 0.14388262 0.032590665 -0.14397825 -0.13625853 0.29682556 -0.13342683 0.10597377 0.104723416 -0.45439515 0.13405637 -0.15787174 -0.116615675 -0.0400117 0.018106386 0.352203 -0.040246908 -0.010013967 -0.12589428 -0.10164368 0.19580796 -0.052640736 0.42502126 0.21838282 0.14794798 0.114950314 -0.05019337 0.1572052 0.15803315 -0.30530855 -0.10667263 -0.32112217 -0.25368673 0.4586435 0.35281006 0.05448556 0.13932051 0.12008948 0.08385064 0.009330113 -0.13112529 -0.194309 -0.35219663 -0.060865115 -0.0729728 0.31084546 -0.035140894 -0.16926816 0.12418923 -0.023090245 0.18792742 0.19653125 -0.42291734 -0.37651795 0.03562864 -0.3174786 -0.029283535 0.42219698 -0.0047323173 -0.1574457 -0.047758266
39 0.047562197 -0.037838068 -0.114458196 0.07307796 0.047053263 0.13154243 0.13839796 0.16158237 0.27866578 0.36493713 0.02649508 -0.27822638 0.027014844 0.05845477 -0.2568897 -0.36925563 -0.04078232 -0.03664879 -0.05564771 0.23736387 0.24639086 0.21552761 -0.019623702 -0.008834856 -0.4208865 0.34823677 -0.21728535 0.24786125 -0.18423992 0.3420706 0.42523712 0.2663328 0.030931296 0.26399297 -0.2548735 0.05936416 -0.05423485 0.024568183 -0.5331002 -0.14078179 0.065824665 0.33241972 -0.038038317 -0.10620423 -0.25215885 -0.18038984 -0.18034218 -0.17048223 -0.017126141 -0.0074530444 -0.4298169 -0.120821744 -0.16486809 -0.0301257 -0.0041207923 -0.26143888 -0.059672747 -0.0065922597 -0.24345025 -0.0642949 -0.24779892 0.25245672 0.0687997 0.11305439 0.12815174 0.16008097 0.08663852 -0.03623361 0.23462467 -0.3341801 -0.14699659 0.1620114 0.29559484 0.09789147 0.4550071 -0.17397243 0.281012 0.0717183 -0.12609899 0.108337775 0.524221 0.22193244 0.5307943 0.18249752 0.073697485 0.120763555 0.002413601 0.26603654 0.0979719 0.20095602 0.15097031 -0.083998784 0.32932287 -0.30598578 0.43349257 -0.11438667 0.30710706 -0.33017305 -0.026153153 0.15350729 -0.35030192 -0.25477543 -0.06861897 0.25148043 -0.09012298 -0.21208437 0.114373766 -0.23365106 0.35085255 -0.44764262 -0.003719932 -0.1456953 0.16454145 -0.038998254 0.031849954 -0.015906481 0.05241619 0.039046336 -0.34821063 0.058218103 -0.46219733 0.12211087 -0.2265516 -0.15255673 0.23073447 -0.6451486 -0.036054973 -0.050808113
40 0.2618278 0.08298856 -0.07807898 0.31056044 -0.06813913 0.17928363 0.2087377 0.29636988 0.17895207 0.038027614 -0.027670333 -0.07917989 0.005496793 -0.26277938 -0.13826454 0.16307294 -0.27631608 -0.15143578 0.09200619 -0.27007747 0.08843882 0.22738174 -0.021019062 0.19291824 -0.46283782 -0.057123054 -0.06837786 -0.041938998 0.07228075 0.41021574 0.064915724 0.061196294 -0.061055884 -0.393055 -0.17574093 -0.26762772 0.12604868 0.116386205 0.1843081 0.38598678 -0.04974143 0.056376062 -0.42148814 0.10329722 0.13569939 -0.09191225 -0.23557389 0.18120492 -0.022674052 0.04332198 0.049514223 -0.17669041 0.27071264 0.03408097 0.23048784 0.1720392 -0.105248965 0.38988882 0.029360926 0.014221363 0.050316766 0.059129294 0.26236787 -0.072946355 0.565176 0.40741074 -0.109763116 -0.1984538 -0.13034365 -0.1155744 0.016990261 0.09987807 0.40395394 0.1415595 -0.010487619 0.04507393 -0.25129706 0.13949706 0.0035633044 0.32071286 0.10776169 0.21144453 -0.526866 -0.101040855 0.28301865 -0.2934981 -0.2595128 -0.038019326 0.10252484 -0.09562366 0.5826451 -0.078711845 -0.15800373 0.14797546 -0.24138609 -0.23050278 -0.28100142 0.02433474 -0.024193088 0.06370328 -0.39170095 0.0353026 -0.1663603 0.5513441 0.40715775 0.37395242 0.11112519 0.2444434 -0.11436536 -0.20223108 -0.73729634 0.13159658 -0.18343318 -0.0634057 -0.10370536 -0.018169044 0.026549678 -0.20917255 -0.16076382 -0.18000509 -0.0020912879 -0.108267605 -0.2033115 -0.18460909 0.21778002 0.20161884 0.20359866 0.069264844
41 0.22393061 -0.12571844 0.2193136 -0.1364883 -0.12319647 -0.06556233 0.08978873 -0.11468742 -0.115711495 -0.13438387 -0.22853173 -0.031389974 0.098609194 -0.20245297 -0.1689768 -0.28067747 -0.18083987 0.17570074 -0.07652257 -0.22733796 0.51694745 0.21918194 -0.16124655 0.18736579 0.063210316 0.3405449 0.2919107 0.21129192 0.0110219745 0.14074524 0.054734886 -0.21426034 0.06726203 0.065335505 0.08735325 -0.19931152 0.0808037 0.06950653 0.09088673 0.15968105 -0.20016184 -0.2533774 -0.004070686 -0.16778348 0.32909763 -0.064910404 -0.16768253 -0.14467311 0.38426098 -0.193631 -0.3056172 0.30902895 0.0689344 0.22144796 -0.028456392 0.16151363 0.077135585 0.367288 -0.16839415 0.08899062 0.20509925 0.2661759 0.043288257 0.1499216 -0.18575482 0.3304159 0.4254777 0.023811366 0.18926413 -0.0663095 -0.101959765 0.57802343 0.12144736 0.101576075 0.10632431 0.39554584 -0.016660536 -0.20347428 -0.29173386 0.22367938 0.17616162 0.0643602 0.42713374 0.30990523 0.026681263 -0.051202934 -0.513152 -0.30929652 -0.18762048 -0.17083895 0.07220925 0.45294887 -0.10916259 -0.22002271 0.22971854 -0.26018298 -0.18841769 -0.14957952 -0.29968137 0.15676725 0.1275765 0.11830557 -0.13758981 0.4422026 -0.023689492 -0.299998 -0.32370436 -0.3453397 -0.10884479 0.02628486 -0.22479175 0.01828349 0.189812 -0.041671064 -0.101670735 0.07217316 -0.11269122 -0.22080566 -0.15422353 -0.022720804 -0.08188472 0.23962183 0.4107748 -0.30892664 -0.35053918 0.030343056 0.019681856 -0.18929277
42 0.21309093 -0.16812502 0.16659097 0.16318463 0.027270192 0.07987077 0.4591605 -0.15117301 -0.08405544 0.031193532 -0.19260317 -0.33758467 -0.36689273 0.24546692 0.215246 -0.020750983 0.01158158 0.17714134 0.2540417 -0.16507693 0.15801327 -0.009895526 0.2218419 0.19631396 -0.22865903 0.1466967 -0.19937325 0.26299843 -0.12147684 -0.17314388 0.35667136 0.14827968 -0.079709895 0.09167878 -0.2138591 -0.11496302 -0.1398541 0.26372844 -0.21275832 0.2620788 -0.1805402 0.2839095 -0.39429197 0.05108445 0.2280105 -0.038231716 -0.2479628 -0.049654968 0.20899472 0.09234905 -0.0058887918 0.30372712 -0.21779755 -0.10197031 0.06589801 0.07385383 0.055087656 0.2674126 -0.4449417 0.022643354 0.04964599 0.20914833 0.56858563 0.3182765 0.22907984 0.1454962 0.4100155 -0.06537417 0.24479564 -0.3284634 0.05738019 -0.02401371 0.21810435 0.026745338 0.4454345 0.3039783 0.37777293 -0.23854743 -0.029183509 0.29443127 0.06882048 -0.015877822 0.039706457 -0.07848784 -0.23517688 -0.023366017 -0.5017963 -0.09786823 0.06625395 0.13839738 -0.03585563 0.28384444 0.61862177 -0.31965053 0.23635158 -0.42591524 0.07251292 -0.06486969 -0.0576206 -0.17075877 -0.109155595 -0.18156967 0.0667369 0.2865118 0.11409431 0.19132619 0.027367325 -0.09468241 -0.22651477 -0.19968559 -0.37201142 0.1873206 -0.15433036 -0.09488505 -0.32415634 0.16102017 -0.024261655 0.27684075 0.055053074 -0.09261287 -0.09295378 -0.09450379 0.03278232 0.035940446 0.14955345 -0.501731 0.012487523 -0.22797517
43 -0.10844678 0.044808332 0.40437257 0.026509682 -0.21877056 -0.085544564 0.33515802 -0.2741228 -0.0124603305 0.15295304 0.09019481 0.023471318 0.0702741 0.019975683 0.159685 0.19901577 -0.15359144 -0.5044989 -0.20532037 0.0052380925 0.20237769 0.18408665 0.08509973 0.010869641 -0.25792992 0.00442512 -0.28364936 -0.36893746 -0.062601745 0.19088383 0.11772266 -0.17504951 0.32595587 0.14373402 -0.17708565 -0.21444277 -0.2822348 0.29133233 -0.25242308 0.06987747 -0.1354706 0.3901224 -0.644157 0.20200193 -0.002607693 -0.059343785 -0.5397151 -0.4714918 0.23976718 0.04514526 0.006643038 -0.10059823 -0.2028262 0.011343775 -0.20846161 0.28970835 -0.13574393 -0.07905105 -0.0891225 0.25702047 0.18925655 0.15943658 -0.081007004 -0.24307127 0.14547153 0.35789976 0.04418244 0.12657365 -0.18720958 -0.16279702 -0.12408503 0.17621465 0.36959806 0.2502044 0.15485118 -0.20981348 -0.14957239 0.02528608 -0.29453397 0.36837557 0.16945913 -0.024718136 -0.19793685 -0.21615335 0.11495239 -0.32521218 0.2294076 0.15975116 0.015515978 0.27740029 0.06962595 0.044558167 -0.15078895 0.026581896 0.35706544 0.044842303 -0.03585153 -0.22720717 -0.3686672 -0.07568856 0.38644484 0.1777549 -0.06198208 0.27580297 0.1282343 0.3291168 -0.10349267 0.14098862 0.03490793 -0.17226356 -0.16365118 -0.13870181 -0.0783412 -0.028214073 -0.049416624 0.032854486 0.22078617 -0.15868708 -0.0066110766 0.17365342 -0.39560044 -0.04221428 -0.11579902 -0.08604198 0.43628454 0.10697549 0.24373296 -0.4453646
44 0.064863265 -0.28682 -0.25046036 -0.06294183 0.0564819 0.4252868 0.20018286 0.06796542 0.26687428 0.20777744 -0.09333811 -0.19653155 0.14899242 0.052688908 -0.3072446 -0.30261385 -0.18513256 0.07580102 -0.10936288 0.17325844 0.40533257 0.081849925 -0.469927 -0.12625295 -0.37185335 -0.010948864 -0.26209807 0.13323586 0.1346802 0.056387503 0.11693319 0.1771624 0.11036077 0.31477368 -0.1701867 -0.23786907 -0.14049648 0.2435786 -0.6779512 -0.19253275 0.13037969 0.3533291 -0.17928882 -0.08715618 -0.20311296 0.14905243 -0.15819658 -0.10514248 -0.23261976 -0.06545092 -0.44641757 0.16241176 -0.021619163 -0.24715203 0.22926156 -0.09717545 0.04171817 -0.09157423 0.037257478 -0.16527466 -0.19709148 -0.005819424 0.011988662 -0.0028436277 0.20852622 0.06635567 -0.08968712 0.05433908 0.13113476 -0.36937335 -0.2253676 0.07763428 0.4618985 0.08700794 0.39421162 -0.14325434 0.28150478 0.16604131 -0.13153355 0.14936145 0.50726867 -0.015217788 0.45793015 0.17277741 -0.012780645 0.26967636 0.18340442 0.179771 0.3216492 0.21260828 0.13697505 -0.031860165 0.18162265 -0.26872653 0.364011 0.12305027 0.114802256 -0.12032876 0.25622556 0.11633345 -0.1871676 -0.16332307 -0.23917179 0.25536096 0.057604387 -0.4245662 0.22720455 -0.11834325 0.2477159 -0.2578901 -0.09666659 -0.035237122 -0.15133877 -0.06737478 0.042033974 0.014741787 -0.037915483 0.031485796 -0.18942699 0.22976619 -0.4263237 0.39609164 -0.10187341 -0.19608314 0.25475195 -0.2959362 -0.06034193 0.031769913
45 -0.07674591 -0.34139785 0.32092896 -0.07974792 -0.38485563 -0.060942043 0.22028257 0.061854653 -0.044116195 0.28914216 0.20310621 -0.29039222 0.16559699 0.21060975 -0.12130085 -0.085943446 0.089399196 -0.07289312 0.09239645 -0.08616574 0.30765694 0.10026526 0.19129983 0.34144235 -0.027084947 0.14090535 -0.26898083 -0.022667782 -0.120003715 -0.06540595 -0.25041786 -0.18622756 -0.37251002 -0.17478277 0.24603938 0.0090319915 0.088968806 0.42176044 -0.5009866 0.28915825 0.08298508 0.37609833 -0.53908443 -0.16711271 -0.032324392 -0.10418573 -0.24599908 -0.1989804 0.20576179 -0.04506594 -0.26214173 -0.30954182 0.5035521 0.30421373 0.0385296 0.08087494 0.38045052 0.32987237 0.14845252 0.2789468 -0.03250955 -0.07073946 -0.41198015 0.050701015 0.30408505 0.3330446 -0.26082724 -0.17667834 -0.056697343 -0.2639633 -0.15604205 0.12823237 -0.06408936 0.022801002 0.22015804 0.43928182 -0.33875743 0.010950609 0.19999447 0.014043193 0.10289539 0.21291453 -0.10952038 0.20704736 0.083157636 -0.11289652 -0.32139614 -0.17511316 -0.1763147 -0.40602657 -0.016845113 -0.049060248 0.22286834 0.11998307 0.038453687 -0.37334573 0.030478422 -0.092604905 -0.5236292 0.012279045 -0.12197837 0.2863654 0.069822766 0.30848548 0.13212566 -0.15764943 0.19926503 0.13379231 -0.14894071 -0.18160556 -0.53410125 -0.047861002 -0.23728117 -0.12686633 -0.023572866 -0.23619933 0.30605373 -0.07518159 -0.12077324 -0.21781185 0.081516325 -0.038725525 0.22635196 -0.1494195 0.051789887 0.04097569 -0.32188517 -0.06061885
46 0.116395615 0.08102609 -0.11594902 -0.31554943 0.012735701 0.043123208 0.38071528 0.1191812 -0.2004562 -0.13741924 0.08274366 -0.45753855 -0.31975943 -0.003959182 0.14446062 -0.39849287 0.13680975 -0.15740529 0.0728174 -0.30039683 0.34844193 0.49233502 0.06103999 0.3590055 -0.25212416 -0.22221297 0.10589751 0.032483093 -0.32335776 0.16754276 -0.2550355 -0.046954453 -0.05810783 -0.108937696 0.1691706 -0.27304673 0.13349038 0.049254358 -0.15411346 0.2908098 0.17290838 -0.17032582 -0.3736966 -0.26698261 -0.023391103 -0.22655027 -0.26838264 0.18993023 -0.06832109 0.36154625 -0.2632246 0.07033097 0.038516235 0.296668 0.1135566 -0.22502092 0.3380889 0.47376248 -0.12442349 0.21136291 -0.08827771 -0.09206456 -0.10077282 0.13672253 0.6020267 0.27326667 0.1474552 -0.30700544 -0.26057318 -0.22261082 0.11565898 0.26127622 0.12961933 0.16893977 0.1575124 0.06385579 -0.46632442 -0.053608157 -0.119039305 0.4159474 0.021289224 -0.030741872 -0.35325155 0.29081145 0.1258318 0.06489109 -0.1520871 -0.065575935 0.33547 0.099894896 0.07608217 -0.19882262 -0.24130802 0.08892337 0.10301136 -0.4776719 -0.12253523 0.12404669 -0.19974732 -0.050248273 -0.22849135 -0.08313131 -0.18226407 0.15692271 -0.119532846 0.19016387 -0.13670267 0.19459033 -0.18432528 0.14902882 0.1373332 0.1019323 -0.2929751 -0.11328729 -0.19977774 -0.12645558 0.27597493 0.02061029 0.11085491 -0.19797084 0.00920624 -0.18820378 0.009783461 -0.493937 0.21085131 -0.09343471 0.12891798 0.06832565
47 0.4595291 0.015162269 0.2979919 0.034106914 -0.13936922 -0.19517708 0.50116867 0.19283056 -0.27481273 -0.002700919 0.051618695 0.0033669302 -0.19704004 -0.2264911 -0.28675798 0.11861375 -0.15404166 0.071017794 0.13249628 -0.20121607 0.12931491 0.047896635 0.13819465 0.48986742 -0.33072993 -0.09302085 -0.38367426 -0.02627222 0.19642971 0.2269284 -0.046242006 -0.26064086 0.14914489 -0.13273756 -0.08431104 -0.08876405 -0.05993132 -0.25909713 0.17037657 0.18941411 -0.02984814 0.36490607 -0.34328362 0.006681262 -0.008003559 -0.05407412 -0.41738108 0.32734343 0.12679702 0.24564174 -0.024762671 0.0764701 0.12986796 0.27744865 0.17588383 0.17809115 -0.056048095 0.24813177 -0.016262317 -0.14003873 -0.01877096 0.09780023 0.087126926 0.08952799 0.48655093 0.21160391 -0.010800688 -0.42073345 -0.124541596 0.050796222 0.40376574 0.08699426 0.18014929 0.10165739 0.27126363 0.23155741 -0.017623369 -0.33217734 0.11696638 0.3515306 0.05981694 0.34721202 -0.35507712 0.34128934 -0.021674018 -0.19682401 -0.036229294 -0.18416183 0.29537967 -0.20928048 0.115457505 -0.09180355 -0.02047389 0.0072099357 -0.055411033 -0.11408793 -0.25413397 0.26388136 -0.034281958 -0.27466765 -0.33545005 0.023389366 -0.20633382 0.71502775 -0.06351133 0.23847821 -0.058744345 -0.038275596 -0.23507921 0.1414553 -0.21931565 0.0879054 -0.23257369 -0.08745102 -0.64725184 -0.21007355 0.47364402 -0.12963195 0.04896685 -0.06989576 0.14253333 0.010429297 -0.0054645906 -0.038916063 0.3538502 -0.19371724 -0.070772655 0.024193177
48 -0.15602237 -0.40681702 0.27096385 -0.24728715 -0.08702946 0.00748073 0.1044917 -0.18047357 -0.06755161 0.2710498 -0.027450342 -0.26570612 -0.15750329 0.1728657 0.108440146 0.12742819 -0.28524688 -0.18890499 -0.014776037 -0.2265215 -0.010217782 -0.041669346 0.0785355 0.14092131 -0.56533504 -0.37719822 -0.37982404 0.1545042 0.19435106 0.07179285 -0.065738805 0.16578236 -0.0777432 -0.018075129 -0.07713664 0.12683304 -0.15772997 0.2842369 -0.50062436 0.0861795 0.046615694 0.3349536 -0.5910113 -0.32529622 0.53303516 -0.23641686 0.028869882 0.05425682 -0.091268286 -0.17125922 -0.53833073 0.20701659 0.27209008 0.16137855 0.14513604 0.14026813 0.35503256 0.2423593 0.1065626 0.03186078 -0.33539367 0.15899217 -0.07288574 -0.08550917 -0.021210564 0.40049583 0.12337103 -0.27539632 -0.13370463 -0.24955243 -0.26616386 0.14339776 0.0773146 -0.11698449 0.24710366 0.013398563 -0.4221784 -0.3481886 0.1742258 -0.13453689 -0.17902668 0.12947874 -0.31977028 0.26677176 0.03276973 -0.10123813 -0.16604438 -0.098129064 -0.21728861 0.021497294 0.08714983 0.24546655 -0.23188567 -0.15611063 -0.23627034 -0.05791237 -0.12343176 -0.3714455 -0.25051114 0.1733622 -0.2585191 0.5999991 -0.40166354 -0.07068215 0.25683615 -0.2948529 0.24455538 -0.27594075 0.116934955 -0.17713903 -0.12753002 0.054914072 -0.015025684 -0.0015663937 -0.14811781 0.028061971 0.2167717 -0.2851891 -0.24539869 0.1466247 -0.124883816 -0.38678008 0.21769206 -0.24727969 0.26743045 0.07290255 -0.17451628 0.19808225
49 -0.11918953 -0.32838604 0.4884412 -0.11540512 -0.22046979 0.07551219 0.38127294 -0.19796234 -0.09480273 0.009570571 0.0106143085 0.050473005 -0.2338179 0.002105739 0.17364033 0.08265183 -0.47329718 -0.57305205 -0.023196982 -0.17038514 0.43989417 0.47423828 -0.1970216 0.38402805 -0.4331171 -0.1423003 -0.42623827 -0.08086262 0.12939234 0.31388673 0.058592964 -0.20265514 -0.07211397 0.2398926 -0.2888472 -0.21105237 -0.12154249 0.18738869 0.0771961 0.15341698 0.35990286 0.18401927 -0.24849242 0.120820455 -0.116817325 -0.10081659 -0.22950822 -0.20652236 0.04124814 -0.038952745 -0.48241842 0.14339297 0.0036846828 0.10850051 0.0051850546 -0.02481949 -0.08051122 0.28889626 -0.18045934 0.17576008 -0.14992125 0.2807165 -0.033771988 -0.29394642 0.34977767 0.070285805 0.4711508 0.08097965 -0.0038938078 -0.17906031 0.13086067 0.0700018 0.09107258 0.0909805 -0.17205475 -0.13746238 0.0060975696 -0.18523593 -0.46895316 0.17077577 0.035596732 0.0004096857 -0.33205286 0.20166948 -0.23093249 -0.1529746 0.1197428 -0.007897361 -0.38407278 0.15736939 0.22141981 -0.43935862 -0.037482876 0.099368006 -0.16643381 -0.055642214 0.09032963 -0.24876846 0.16527647 0.088237464 -0.056152582 0.041875996 -0.2492706 0.103362314 -0.18361594 0.11370884 -0.20560597 0.18556091 -0.06558825 -0.2527219 -0.11187459 0.3197618 -0.4748588 0.116138525 0.03323197 -0.06683852 0.024207702 -0.26046088 -0.31109366 0.33390778 -0.18714294 0.25939688 0.014410833 -0.16550751 0.51974267 -0.1486629 0.045622736 -0.07666697
50 -0.16532752 -0.23191081 -0.14041477 0.026074052 0.07908275 0.36495697 0.22953047 0.12747575 0.054311946 0.33770055 0.070431165 -0.06579589 0.034557648 0.21133754 -0.44683388 -0.16992547 -0.05530515 -0.08180638 -0.091926455 0.09629038 0.260578 0.024706768 -0.019794423 -0.10458545 -0.23810895 0.2843169 -0.3851947 0.08780804 -0.12573215 0.19948952 0.20917997 0.31256798 0.03343111 0.3607287 -0.06620419 -0.07776037 -0.16189949 0.09470169 -0.3917429 0.046579998 0.10186151 0.24619512 0.042569824 0.09987821 -0.12417521 -0.024083955 -0.058681462 -0.07392565 -0.0850146 -0.07750602 -0.490995 -0.22148336 -0.064551644 -0.36525652 -0.25067174 -0.171033 0.06467977 0.24544074 -0.12672439 0.02730043 0.028902048 -0.020057198 0.037705146 0.13953061 0.09843957 0.24657275 0.08302331 -0.043215133 0.2326222 -0.3141377 -0.11934516 0.054728445 0.37481913 0.12333713 0.43768227 -0.2742108 0.071875155 0.13141683 -0.171387 0.17630729 0.46160346 0.068765484 0.44915184 0.023558997 -0.020823313 0.04632761 0.2286434 0.298611 -0.110358894 0.25312194 0.12860523 0.038347088 0.19405127 -0.18422334 0.25170383 0.049126983 0.2867386 -0.017586853 0.008731901 0.29192513 -0.20226948 -0.16424824 -0.13148639 0.42222306 -0.13912891 -0.47465137 0.21759479 -0.1380173 0.29087493 -0.38310948 -0.29109934 0.16012381 -0.043661837 0.033288654 -0.06290805 -0.11301119 0.1641385 0.05619062 -0.1322668 0.075078815 -0.5849028 0.34275436 -0.2781766 -0.13415062 0.3337193 -0.4590875 -0.19696721 -0.0840648
51 0.055085693 0.04131359 0.017289381 -0.39577976 -0.32165378 0.098295756 0.039266977 -0.2391661 -0.36668524 -0.21663126 -0.18851206 -0.52534336 -0.29540998 -0.1704336 0.1091718 -0.35695475 -0.10377248 0.005398511 -0.20661035 -0.32072982 0.40894863 0.35655072 -0.23310806 0.40648794 -0.0064874357 0.11373217 0.10916809 0.52984846 -0.24428077 0.28827536 0.25662127 -0.16686133 0.2826189 0.008007715 0.052247327 -0.28514624 0.28887075 0.034289774 0.098046675 0.19772618 0.037623815 -0.3053461 -0.33124265 0.07484745 0.11932432 -0.18779463 -0.17092833 0.023815185 0.05912469 0.22570679 -0.14961298 0.10612692 0.16305478 -0.043366123 -0.014773412 0.16766217 0.20689602 0.43697128 -0.24500702 -0.12328613 0.4723247 0.15396138 -0.122899726 -0.18983525 -0.025541987 0.122650445 0.49654767 -0.3366467 0.18828878 0.049431402 0.11761675 0.318837 0.23803546 0.13955715 0.21221709 0.056794155 0.034711055 0.00868367 -0.51637405 0.30100465 -0.16111639 0.27368018 -0.12624949 0.07941147 0.094796054 -0.29677042 -0.23942031 0.04064055 0.15952 -0.060604606 0.18525055 0.02031776 -0.36022827 -0.08196552 -0.06473676 -0.1089138 0.009458511 0.17787622 -0.36790726 0.054106098 0.13324352 0.10837567 -0.35622287 0.21143946 0.18367338 -0.34562308 -0.12918608 -0.30833524 -0.08081277 -0.075476825 -0.2691294 0.0039231353 0.122137375 0.06584822 0.060304902 0.21301559 0.045252845 -0.11151175 -0.2077164 -0.30501345 -0.049793705 0.1554274 0.17400143 -0.28317893 -0.33903098 0.027869293 0.32649133 -0.12609191
52 0.09836467 -0.021828106 0.22960865 -0.1816745 0.016223133 -0.49950916 0.47494534 -0.15923448 -0.17344297 -0.06055569 0.1045113 -0.3399191 -0.109449856 -0.35496277 -0.17841145 -0.13197565 -0.17604169 0.18147649 0.17436498 -0.1486007 -0.110590816 0.36831337 -0.12129575 0.39172375 -0.35863474 0.13162656 -0.46076918 0.025746774 0.19440402 0.35466924 -0.1745494 -0.2037503 -0.19970125 -0.09040127 0.01683427 0.22395861 0.19702026 -0.15856273 -0.28465512 0.19778346 -0.1670337 0.23482242 -0.44910467 -0.043301843 0.011168964 0.11407128 -0.23143427 -0.08200294 0.1880739 0.4052311 0.034736108 -0.22595674 0.20104481 -0.028253144 0.3382058 0.092796154 0.04079054 0.36312503 0.19247752 -0.12697667 -0.06244299 -0.17620742 -0.06415702 0.014579278 0.3556824 0.4245591 0.15980753 -0.3168177 -0.109555736 0.10498175 0.30014697 0.2319863 -0.009547795 -0.21234927 0.13925566 -0.18478905 -0.118436016 -0.082894705 -0.18262924 0.11308621 -0.15105183 0.28609762 -0.09588434 0.12683131 0.059511874 -0.13501765 -0.030298397 -0.2237308 0.49945593 -0.039146103 0.264473 0.35126567 -0.22523412 0.13825338 -0.1567413 -0.075663075 -0.40421057 0.29399318 -0.20296478 -0.22291978 -0.044840395 -0.07624472 -0.37807143 0.5464583 0.16118053 0.08345273 0.20748538 -0.005063178 0.047011215 -0.16384631 -0.12438984 -0.020184048 -0.3080703 -0.12606241 -0.427046 -0.04137468 0.13833287 -0.31816345 -0.1670113 0.062432908 0.25277686 0.07104828 0.30408883 -0.41836354 0.30610073 -0.1919091 0.10029463 0.030039482
53 0.35499004 0.1834062 0.12964728 0.34067398 -0.16308121 0.06743823 0.71490383 0.07367711 0.0017163281 -0.0029148506 0.1402302 -0.16743472 -0.08504531 -0.25133127 -0.19491017 0.20244148 -0.106053315 -0.12978213 0.0453451 -0.16681668 0.23493749 0.5651273 -0.32505125 0.17445558 0.10512057 -0.031199401 -0.077191226 -0.11334952 0.007350247 0.065115534 0.26843658 -0.1561543 0.23810573 -0.12703565 -0.17769821 -0.41963518 -0.063586615 -0.13380885 -0.2596317 0.4033835 -0.12563103 -0.19275276 -0.6087088 -0.3009973 0.31996045 -0.13841479 -0.26095486 -0.078972265 0.046064574 0.14865364 -0.17288952 -0.28020608 0.26600942 -0.21138516 0.22356759 0.0623554 0.096417926 0.261067 0.07120284 0.061625253 0.066217296 0.16219072 0.17556854 0.14147986 0.43432382 0.2176442 0.04814612 0.12014997 -0.11715124 -0.29047567 0.38676307 0.123828486 -0.07259101 -0.27996838 0.21369782 -0.1346637 -0.18411964 0.011289336 0.018884663 0.14614682 -0.23974219 0.2510242 -0.13782854 -0.07168744 -0.2833734 -0.1270988 -0.015067741 -0.110583924 -0.10407763 -0.06236084 0.24936752 -0.09404315 0.22201253 0.014993296 -0.23438998 -0.11543073 -0.35018405 0.24906315 -0.3872844 -0.24938883 -0.25479057 -0.15493135 -0.2356925 0.2522652 0.32714692 0.2721813 0.052962426 0.009014727 -0.0684588 -0.23117186 -0.41628516 0.019694235 -0.26319963 -0.073217034 -0.4600298 0.23050512 0.15200736 -0.126041 -0.28461847 -0.10299312 -0.05240707 0.19979244 0.12632938 -0.22502503 -0.021929031 -0.08787076 0.27955526 -0.031475097
54 0.33068752 -0.18178801 0.21184357 0.30390573 -0.051640093 -0.21428576 0.38593185 0.21841572 -0.30583784 -0.007013308 -0.015708584 -0.27286404 -0.31453225 -0.0006958633 -0.0043620425 0.043591518 0.06949088 -0.050841495 0.17278485 -0.27452362 0.27308798 0.3467197 -0.07186275 0.3017548 -0.41496482 0.14078194 -0.06580746 0.030557696 0.051013865 -0.056238864 0.15108761 -0.03737854 -0.19759133 -0.05488975 -0.1308435 -0.09829863 -0.019832596 0.0013873001 -0.04633838 0.38421866 -0.09558666 0.16059625 -0.22768661 0.080567785 0.29702833 -0.34576303 -0.43363854 -0.00995767 0.10115264 0.26739308 0.18137616 0.04853238 -0.06408861 0.1532253 0.17366548 0.065574475 0.2246438 0.45922092 -0.15573339 -0.1195299 0.14655006 0.124325946 0.34543198 0.07632578 0.5572822 0.03248505 0.13594595 -0.3810654 0.10905984 0.0075299586 0.34488693 -0.19359834 0.15999691 -0.16236544 0.33249128 0.2262719 -0.040738378 -0.3674847 -0.037103847 0.38940775 0.116095535 0.16764073 -0.34388095 0.27026176 -0.15412147 0.024333015 -0.35036036 -0.07749006 0.20911285 0.18513048 0.025389502 0.20664112 0.26923725 0.004295726 0.051555075 -0.2784953 -0.1660637 -0.086853385 -0.15585977 -0.38916403 0.0787551 -0.21333499 -0.20143154 0.44378325 -0.11377514 0.27037674 0.06704018 0.21370159 -0.26215467 -0.13017038 -0.42810684 0.18998241 -0.45232078 -0.21198823 -0.5868599 0.07549638 0.13854547 0.16709715 0.08440767 0.09980649 0.011981771 -0.06668614 0.072794646 -0.178733 0.035601925 -0.1544985 -0.17899053 0.07332787
55 -0.084424525 -0.3791054 0.15581957 -0.074299835 -0.22814342 0.042069923 0.33190474 -0.048625797 0.24774384 0.0817619 0.071745396 -0.45210543 -0.11959902 0.08372081 0.03183575 0.047827978 0.025888555 -0.18608128 -0.09605614 -0.1256366 -0.2325897 -0.2208731 -0.18456234 0.068409115 -0.38142917 -0.58034325 -0.34847045 0.012346839 0.07791238 -0.07639746 -0.16064723 0.010930058 -0.08849091 0.08525338 -0.100927725 -0.0998089 -0.1179892 0.3710803 -0.58466154 -0.030437335 -0.14227778 0.16228804 -0.47885197 -0.21600327 0.08948275 -0.1941875 -0.10956124 0.2021787 -0.3106908 -0.07007723 -0.41955218 0.36073563 0.3393906 0.13304238 0.25463983 0.2181313 0.50299287 0.25965813 0.13977928 0.07323003 -0.28801346 0.022895996 -0.14007671 0.18082233 -0.016803468 0.31110892 0.044220183 -0.15007791 -0.2821605 -0.2630626 -0.2882433 0.35143697 0.09480229 0.01986355 0.23036326 0.11340657 -0.3369277 -0.41221535 -0.17567267 0.12087884 0.030621074 0.1669544 -0.32067457 0.09047984 0.1108784 -0.2030952 -0.020278037 0.0008888863 -0.41472143 -0.010700513 0.2489895 -0.012936834 0.006616979 -0.25862297 0.17900294 -0.1942402 -0.06498933 -0.36969858 -0.026435085 -0.13385093 -0.22942424 0.3061361 -0.3431386 0.0882424 0.04654546 -0.25665027 0.042040583 -0.21110378 -0.04257444 -0.006416878 -0.3559642 -0.0794823 0.16251536 -0.32930574 -0.024266852 -0.05783308 -0.20839235 -0.24393371 -0.07001731 0.012464688 -0.35110253 -0.24230772 0.012775274 -0.55991465 0.02120678 0.18401423 0.015085637 0.14504959
56 0.017567126 0.0834378 0.19766295 -0.26779476 -0.104325 -0.11440184 0.12694101 -0.01940464 -0.11826058 0.0014736054 -0.061496273 -0.3773725 -0.100827985 -0.17906696 -0.18150705 0.20133227 -0.11830428 0.07987573 -0.107393384 -0.19187905 0.13251275 -0.093461744 -0.20260282 0.21777368 -0.23653962 0.06784182 0.2804307 0.34724396 -0.15398084 0.22684132 -0.1613782 0.057136983 0.29450375 -0.0073866756 -0.06528484 -0.3375597 0.13035765 0.20927231 -0.106590174 0.20514132 -0.14480273 0.04722708 -0.16006851 -0.046778828 0.04457664 -0.15422596 -0.31785005 0.018649869 0.12069742 -0.005217192 -0.21508537 0.08849479 0.09495699 0.3385221 -0.1404232 0.12884006 0.08844061 0.29172525 0.113916054 -0.013487396 0.1660169 0.124136165 0.0740296 -0.2524488 -0.30625352 0.2168255 0.34173384 -0.28380084 0.19687666 -0.21373641 -0.10095112 0.3168272 0.0450096 0.28007025 0.044812404 0.38339427 -0.046236545 0.0018856374 -0.65363574 0.1277374 0.09102332 0.105345115 0.24375752 0.23470068 -0.14980619 -0.3032526 -0.2870565 -0.24719211 -0.26923856 -0.17033893 0.080364175 0.29643217 -0.31279603 -0.37730598 0.057624515 -0.21600387 -0.097866185 -0.21638542 -0.3536585 0.0039626267 0.017357863 0.13258293 -0.13840273 0.50501543 0.1598759 -0.12926948 -0.24627605 -0.31734204 -0.43586713 0.09247386 -0.130352 0.06834129 0.37956914 -0.21951453 0.10879992 0.019600963 0.059987273 -0.07595658 -0.07991857 -0.06721097 0.18193474 0.48881716 0.06052192 -0.67120814 -0.4055128 0.34959984 -0.023687419 -0.011372254
57 0.22742735 -0.05491568 0.23364106 0.024282856 -0.16610575 -0.10398484 0.18990484 0.02848651 0.116987765 -0.072404936 0.19890434 -0.26270193 -0.0608072 -0.35324284 -0.31209102 0.09572617 -0.17816295 -0.077684715 0.040675275 -0.1820185 0.21621887 0.24941589 -0.06635986 0.32320172 -0.25383192 0.0652498 -0.14551064 0.104824565 0.081855915 0.28335276 0.0679882 0.02680858 -0.25092936 -0.36257243 -0.22959358 -0.20557915 0.05920137 0.09268707 0.038857944 0.23876265 0.09080637 -0.088902764 -0.3931906 -0.04047561 -0.30051556 -0.4220145 -0.16789581 -0.0946767 -0.042287633 0.10296195 0.11054492 -0.1332181 -0.010420097 0.07873969 -0.061493248 -0.10887056 -0.027229689 0.31985936 -0.11832766 -0.01752144 0.123348564 0.17938437 0.22933127 -0.1193526 0.63231 0.11811839 0.09276996 -0.27835298 -0.0011552671 0.08248495 0.1468836 0.34400734 0.1917131 0.03372997 0.04301736 0.17803775 -0.19344682 0.20299536 0.088191114 0.53959715 0.35689867 0.10555336 -0.38467297 -0.14510137 0.14125678 -0.17532235 -0.047491707 -0.34513098 0.06363435 0.014127199 0.31812403 0.06898757 -0.061420977 0.22853981 -0.18662155 -0.36735895 -0.43603057 -0.049968928 0.112160854 -0.52015704 -0.43171012 -0.016408088 -0.105226636 0.1903618 0.39130136 0.21338233 0.029934866 0.21217132 -0.018069958 -0.020997198 -0.38247928 0.11315435 0.13525683 0.060367543 0.03894251 0.025837338 0.19663583 0.066536866 -0.2627471 -0.23955925 -0.32239997 0.027584393 -0.10185854 -0.6420962 0.32888088 0.046101987 -0.036689464 -0.182883
58 0.07223102 -0.147227 0.3542787 0.13152704 -0.25605038 -0.053393103 0.2341931 -0.108959846 0.2732943 0.35189766 0.10962226 -0.16065109 -0.17070116 -0.071207516 -0.06736135 0.22207116 -0.095056824 -0.31701636 -0.02377389 0.010283416 0.23519047 0.30994135 -0.17818527 0.40241206 -0.01158336 0.0971359 -0.11911054 -0.013047309 0.09780406 0.3571935 0.20691203 0.28202885 0.09197217 0.39168268 -0.28711775 -0.41631967 0.025027532 0.12760039 -0.2767968 0.0772991 0.002326639 0.37203297 -0.2550944 0.14228986 -0.07302262 0.029480439 -0.3993109 -0.35779175 0.112478994 -0.051433075 -0.27025804 0.04533554 0.1398751 0.15532584 0.06700207 0.14134441 -0.15392314 0.2367485 -0.33716938 0.50704634 0.1468702 0.28951728 -0.25399563 -0.027831877 0.46271822 0.27950191 -0.052268308 -0.027403478 -0.45911524 -0.0066519394 -0.26396808 0.43348014 0.32551554 0.0717684 -0.08669382 -0.17302096 0.029587794 -0.12287733 -0.2723323 0.3054628 0.14420995 -0.0008300059 0.051289085 0.25968078 0.03329678 -0.05373867 0.35207507 -0.25538394 -0.21426521 0.064585455 -0.15103877 -0.022214836 -0.29201722 -0.18968254 0.1588017 0.0011046241 0.1697469 0.15524188 0.19036224 -0.30002484 -0.16775241 0.2948759 -0.16255684 0.39561602 -0.11119079 0.27494875 0.3470975 -0.12929203 0.077569164 -0.028997023 -0.2070045 0.24731497 -0.5846571 -0.10684288 -0.3007313 0.16519344 0.09154787 -0.32577753 0.068135045 0.05498071 -0.10570118 -0.21402186 -0.1016313 -0.34990785 0.097547054 -0.0045341467 0.2960916 -0.0960389
59 0.2766911 0.23167601 0.03295931 0.115084425 -0.14655326 0.13536657 0.40727094 0.22920892 -0.34517908 -0.10474846 0.032471735 -0.045231663 -0.31918895 -0.115034156 -0.18042274 -0.13777542 0.10652823 0.093471915 0.065474 -0.05050535 0.27963138 0.22956687 0.22958475 0.42703882 -0.16758864 -0.16282079 -0.082384795 0.00034919157 -0.20725368 0.2841946 -0.034070265 -0.16212305 0.032388438 -0.16797711 0.034531448 -0.3719316 0.0111687435 -0.016201306 -0.07352581 0.09837079 0.08435388 0.17873128 -0.47463164 0.08438431 0.08327221 -0.17011258 -0.29619184 0.17935948 0.07841752 0.37324184 -0.1668416 -0.083113365 0.09643527 0.12604101 -0.027288392 0.13534202 0.26495427 0.12007845 -0.23249137 0.057035252 0.042700864 0.24618456 0.30895463 0.120703004 0.61285746 0.30190614 0.17883788 -0.20293586 -0.1859641 0.09654593 0.20401265 -0.06515132 0.13520187 0.20922185 0.19264014 0.24432504 -0.25960332 -0.024632398 -0.033630267 0.5208732 -0.09159102 0.05738902 -0.163596 0.22120844 0.13338834 -0.054494042 0.071958296 -0.26485956 0.0992319 -0.14212745 0.19761102 -0.22618972 -0.22509904 -0.17573088 -0.2386844 -0.15951224 -0.3897505 0.26552308 -0.08115598 -0.12940566 -0.5256844 -0.13809003 -0.20243406 0.27823484 -0.035972845 0.043846685 -0.21835254 0.2710714 -0.22265343 0.13045178 -0.05669431 0.17243417 -0.28842533 -0.0005114882 -0.30657095 -0.32308605 0.3471302 -0.042124096 0.0032563303 -0.36934614 -0.09296042 -0.10800519 -0.17163841 -0.29606295 0.21270572 -0.41733214 0.1844457 -0.10669503
60 0.16862926 -0.009110511 -0.091720454 0.20815077 -0.041262083 -0.34671906 0.44604197 -0.0311491 -0.25607482 -0.07510697 -0.014072146 -0.29832911 -0.4356505 -0.14714918 -0.33307418 0.17204075 -0.34906548 -0.07931387 0.017255269 -0.11435078 0.022079905 0.50724113 -0.41572282 0.18590297 -0.35768214 0.14121686 -0.2799171 -0.28104016 0.056736004 0.1770431 -0.16393729 0.09194892 -0.007223751 -0.032260302 -0.20457542 -0.12099668 0.17830698 -0.1688833 -0.35941124 0.29922718 0.025127279 -0.011067935 -0.43628404 0.07899159 0.2179746 -0.09943989 -0.28182772 -0.1646514 0.038211733 0.19080679 0.005736243 -0.2709032 0.0385621 -0.033330213 0.3752841 -0.043783233 0.02546839 0.46881405 0.23230003 0.20247096 0.021970477 0.29070103 0.105578735 0.018084586 0.36593625 0.1293536 -0.029955162 0.004000343 -0.04048753 0.061916605 0.16637814 0.007370796 0.16460502 0.0076687154 0.083954304 -0.0108551225 0.11355431 -0.13280968 -0.038693756 0.2355801 -0.2880515 0.3933573 -0.5769372 0.026236119 0.013728188 0.14146402 -0.068881206 -0.1980968 -0.010402867 0.12263242 -0.015846835 0.0951824 0.028428748 0.16303611 -0.06388015 -0.14312485 -0.3822929 0.41585866 -0.3458271 -0.44402596 0.06691873 -0.023796814 -0.490861 0.50836545 -0.021992236 0.06273019 0.18761879 0.061958898 -0.03734306 -0.25462997 -0.32716736 0.25765234 -0.19131227 -0.16604118 -0.56837994 0.09343929 -0.030427944 -0.16656345 -0.18648763 -0.025107006 -0.05993527 -0.041276414 0.12388805 -0.16920997 0.15210852 -0.21764499 0.02788074 0.16344716
61 -0.04519628 -0.38819793 -0.047399472 -0.1291722 0.1180183 0.21027698 0.3585066 -0.056143265 0.31650037 -0.023808587 0.01543093 -0.14738697 0.05039029 0.33000228 -0.014001247 -0.18113577 0.33884797 -0.16402002 -0.023981862 -0.14831984 0.22979641 0.060725 0.3936558 -0.16523375 -0.28828552 -0.057587296 -0.11178049 -0.48101473 0.264311 -0.18800205 0.009518022 -0.19610773 -0.1044957 0.16578172 0.31431398 -0.104639545 -0.18805583 -0.032093737 -0.018746661 0.087079704 -0.3046713 0.5203636 -0.6986648 -0.13979733 -0.03640542 -0.23033328 -0.2322509 0.008967909 0.011088277 0.34489 0.052362736 0.0129742315 -0.27368993 -0.13585058 -0.39469692 0.27869478 -0.025092205 0.20826049 0.05211465 0.36202013 -0.37011087 -0.029266749 -0.0242784 0.012568405 0.1965537 0.32040283 0.34006354 0.11773593 0.0194443 -0.114559025 -0.20269439 -0.119770594 0.1457065 -0.12587227 0.05651028 -0.04903163 -0.38087916 -0.033501346 -0.095194355 -0.39775237 0.07652311 0.088622205 0.10628091 0.23828797 0.138451 -0.34498268 -0.04348385 -0.03715001 -0.01742049 0.10116613 0.082247674 0.32935727 -0.018247617 -0.104312606 0.26162663 -0.16479337 -0.31106755 -0.07437862 -0.644651 -0.63016045 0.11414824 0.2672851 -0.08035981 -0.11392944 0.30977145 0.25988492 0.12047389 0.24871397 -0.18283658 -0.07165995 -0.022584256 -0.2506603 0.22448091 -0.032807305 0.09438488 0.045460705 0.06417815 0.11465894 0.13685916 -0.22406125 -0.18134212 0.05053198 -0.31307533 -0.368801 0.08831314 -0.048790842 0.060021404 -0.19768189
62 -0.07835382 -0.21109782 0.53124154 -0.24935067 -0.2185684 0.21080507 0.21906206 -0.11103411 -0.08878848 0.3436642 -0.09542541 -0.099768594 0.08439828 0.025319422 0.067255475 0.20566043 -0.41235965 -0.4448642 -0.14934732 -0.24736391 0.30042952 0.3994746 -0.04260038 0.20744185 -0.42904022 -0.121607594 -0.4017943 0.028150056 0.15511024 0.22014825 0.17784311 0.14862129 -0.007663877 0.007992758 -0.3157889 -0.13077806 -0.14214426 0.21365733 -0.27463546 0.0014155629 0.2002786 0.29151276 -0.41313654 -0.13948101 0.2619037 -0.20474756 -0.20605257 -0.29009348 0.09531772 -0.2274846 -0.431086 -0.017020572 0.29495648 0.13201782 -0.14351146 -0.12625937 0.028009579 0.019298468 -0.3415735 0.18228313 -0.045628477 0.37337285 0.029433737 -0.2725417 0.15109266 0.09172686 0.27601522 -0.057053454 -0.27273124 -0.2663633 -0.051664915 0.2985267 0.23532689 -0.1415388 0.09702893 -0.11934525 -0.18440269 -0.22600423 -0.0115593085 -0.029179085 0.055881545 -0.09530077 -0.15992156 0.22345547 -0.13764012 -0.012087572 0.16102198 -0.03228925 -0.21034116 0.080085546 0.05022356 -0.062450938 -0.18184996 -0.32238802 -0.19387628 0.1668321 -0.11183356 -0.37520477 -0.018136835 -0.13416727 -0.14723483 0.31378922 -0.27251312 -0.13599342 0.36270386 -0.022307912 0.243051 -0.22596727 0.17712307 -0.2013294 -0.107759915 0.23540294 -0.32023254 0.20215645 -0.12109084 0.10344459 0.31650957 -0.30323982 -0.30695525 0.2308144 -0.39957204 0.08027649 0.08266341 -0.32781512 0.45806694 0.003186066 0.0796095 -0.02364177
63 0.13782233 0.08456531 0.10841123 0.104136 -0.16824448 -0.013750351 0.24277863 -0.20631868 0.27891386 0.16398157 -0.0479052 -0.16280739 -0.22600259 -0.021764133 -0.179061 0.26899177 -0.59873366 -0.25431773 -0.2633987 -0.02256628 0.19499469 0.36395186 -0.3113596 0.15650724 -0.19647805 0.044187497 -0.18338403 -0.18032582 -0.1511917 0.027687289 0.09330067 0.29253113 0.082595564 0.18021592 -0.004357851 -0.35411972 -0.12117786 0.05320859 -0.41250238 0.110677496 0.1814333 0.38541353 -0.44079438 0.11580463 0.085851446 0.17795682 -0.20174405 -0.4796155 0.06371782 0.22678941 -0.3349422 -0.3347657 -0.14535414 0.27141312 -0.03308961 0.3836158 0.13533714 0.19809127 -0.100920364 0.22949724 -0.093264796 0.47305822 -0.03894791 -0.21054903 0.31705752 0.17355224 0.15976489 0.038924333 -0.2170425 0.10159648 -0.047512494 0.12834182 0.28243038 0.19225934 -0.09232203 0.055555213 0.20223036 -0.15744007 -0.27320856 0.51378995 -0.2681897 0.24693 -0.45632967 -0.026483607 0.12742926 0.034160655 0.18048644 -0.075380296 0.035485405 0.18430644 -0.045143146 -0.32234773 -0.25188357 0.076335594 0.21706356 -0.075175285 -0.0380673 0.12501045 -0.005754824 -0.122800075 -0.056930453 -0.040898517 -0.3270841 0.36412007 0.18594557 0.15286748 0.2482649 -0.002827584 -0.08555768 -0.16540223 -0.3220981 0.13190576 -0.38780025 -0.1315732 -0.40650162 0.32697982 0.20971504 -0.22887258 -0.05010934 0.23688939 -0.026713418 0.034319747 0.10373591 -0.08816341 0.18434948 -0.010522468 0.3623239 0.0149032
64 0.014116923 0.18562025 0.08910886 -0.33297446 -0.32398042 0.1139574 0.12955496 -0.113236785 -0.27298382 0.13138716 -0.33036843 -0.30323514 -0.13820665 0.09115364 -0.019314418 -0.20178723 -0.2701309 0.16475035 -0.07868774 -0.4311479 0.43059522 0.13721694 -0.20758334 0.14751518 -0.069443665 0.05525597 0.12194743 0.29848552 0.021181023 0.2087843 -0.11000702 -0.3538627 0.29385138 0.1673123 0.0308516 -0.189326 0.11281453 0.17252724 -0.06395709 0.17905854 -0.22853816 -0.23155227 -0.2449733 0.09186928 0.09932783 -0.13503937 -0.2944609 -0.36854964 0.18801609 0.22299185 -0.3545117 -0.016057868 -0.049251467 0.22607397 -0.004959492 0.059590135 0.035411756 0.3899517 -0.06063565 0.020347621 0.3631874 0.25942248 0.013686944 -0.07523246 -0.17874737 0.13555609 0.24793947 -0.11176857 0.15931764 -0.032905944 0.042518124 0.4603017 -0.012300693 0.3242486 0.08601731 0.00089661736 0.18279152 -0.2231608 -0.58532685 0.36959347 0.15418342 -0.057570964 0.013063135 0.10321211 -0.10143608 -0.48195893 -0.22176817 -0.18369485 -0.1444484 -0.049505044 0.058873177 0.03481687 -0.24983273 -0.22958358 0.250113 -0.10054629 -0.08910035 -0.08139606 -0.4522469 -0.07665497 0.07832139 -0.09841003 -0.13516198 0.65715754 0.023010714 -0.2556854 -0.3090648 -0.11564551 -0.21549757 0.13753362 -0.31837633 -0.29537085 0.29561585 0.052082747 0.036766287 0.33017418 -0.051562876 -0.23946941 -0.40770718 0.20678982 -0.013179236 0.3132427 0.18239279 -0.40692317 -0.30717397 0.10427534 0.27853066 0.038102303
65 0.039062794 0.016841823 -0.1536491 0.18095164 -0.10505439 0.30921176 0.13344625 0.1579236 0.08452967 0.41923824 0.1048004 0.0011743122 0.22006083 0.10224754 -0.23503394 0.083713725 -0.07221187 -0.3404075 -0.2781581 0.14830385 0.22728597 0.17354012 -0.1473219 0.08075882 -0.4650206 0.2507946 -0.43309563 0.14080551 -0.18570594 0.23035945 0.31647384 0.38468435 0.028795041 0.37120685 -0.3903388 -0.07890089 -0.12807533 0.105038576 -0.34736687 -0.044108443 0.22579893 0.2160385 0.02015472 -0.044436723 -0.13348064 -0.04728264 -0.08282805 -0.3074083 0.09184425 -0.07297315 -0.59464 -0.16841316 -0.0808352 -0.31316242 -0.24404025 -0.1575065 0.037265643 0.09968515 -0.16576552 0.11462702 -0.25747865 0.009469642 -0.10831971 0.20843552 0.14608018 0.19180343 0.13228391 0.017348541 0.126892 -0.3920081 0.06743039 0.18293953 0.29108447 -0.01442537 0.2541208 -0.24343744 0.21653779 0.1365781 -0.1628695 0.15071246 0.64717716 0.12433749 0.281383 0.22960575 0.24684952 0.14771694 0.030311404 0.43995234 0.21903843 0.23629412 0.16781886 0.07521836 0.17731111 -0.23093054 0.29684943 0.048511263 0.31727162 -0.16478367 0.029179184 0.08397458 -0.32388055 -0.26334897 -0.011772135 0.37995577 -0.3414857 -0.1718194 0.16121577 -0.1331967 0.22539015 -0.2543931 -0.10890922 -0.21705863 0.02263222 0.04904747 -0.106311694 -0.03248282 0.21456131 -0.12058904 -0.1355764 0.062921576 -0.48417833 0.4087446 -0.18409571 -0.1222129 0.26062563 -0.43874544 0.046586387 -0.035861254
66 0.093771905 0.124315895 -0.10403587 0.068145536 -0.19370069 -0.12529136 0.11410784 -0.21087667 -0.13989489 -0.14786139 -0.008499776 -0.3356698 -0.008683785 -0.23810457 -0.299301 -0.0968108 0.06316222 0.14729434 -0.041429523 -0.21385096 0.2737572 0.00016558936 -0.33875728 0.338467 -0.18676211 0.06554928 0.19869073 0.07849307 0.09773406 -0.07898418 0.006273592 -0.31839356 0.369973 -0.055434167 0.07259391 -0.13303404 -0.027989369 0.24826765 0.038632512 0.31043795 -0.19476192 -0.16412535 -0.0013376465 -0.23839118 0.28738266 0.11743208 -0.44337305 -0.07339508 0.3289248 0.08352546 -0.28364113 0.30928686 0.034643855 0.30414873 -0.08222096 0.09800771 0.15088226 0.41877404 0.0182228 0.022120498 0.06971703 0.21561135 -0.19431235 -0.29892558 -0.2281217 0.2581833 0.3289642 -0.12486943 0.41216275 -0.08809877 -0.20027032 0.23476912 0.17862523 -0.047151037 0.22196603 0.3712296 -0.09711342 -0.24841435 -0.47907126 0.20634128 0.07559057 0.017006127 0.09749437 0.3584863 -0.047335226 0.008716916 -0.54046494 -0.1988961 -0.11422559 -0.17317083 0.081798755 -0.023668887 -0.28033078 -0.31353962 0.13853832 -0.3536386 -0.19277568 -0.19823128 -0.37238783 -0.107249446 0.015260198 -0.0144412145 -0.19324918 0.55714273 0.23885651 -0.38004878 -0.09265026 -0.56686044 -0.20240778 -0.1668868 -0.12977587 0.1074839 0.25739682 0.097562484 0.19795857 -0.050719157 -0.03764604 -0.21152468 -0.052229796 -0.18896134 0.055368025 0.20738584 0.13658726 -0.56917816 -0.28805932 0.18140738 0.07472353 -0.111121625
67 -0.13017951 -0.19530313 0.32678598 -0.20837691 -0.08721314 0.0976282 0.25829443 0.13497485 0.1638775 0.019054603 0.09064404 -0.2895053 0.13439293 -0.20072821 -0.10771375 0.05495704 -0.039504707 -0.05316234 0.041693974 -0.307142 -0.14794165 -0.13811706 0.004159867 0.15667331 -0.5132136 -0.29034308 -0.10948806 0.107790306 -0.33926502 0.26118505 -0.33103848 0.044177383 -0.11069501 0.10254128 -0.1316793 -0.17278168 0.16149144 0.15288918 -0.41658214 -0.02187295 -0.2160053 0.42429298 -0.41050065 0.00083589065 -0.006790202 -0.4641901 -0.30334753 0.10640946 -0.0049403436 0.007964947 -0.049670056 0.09668604 0.10000275 0.51554954 -0.116587214 0.12718995 0.48331055 0.38060367 0.2988599 -0.0057412875 -0.11409774 -0.05086458 0.13694943 0.106702305 -0.10780071 0.28577572 0.23939933 -0.24754755 -0.08816173 -0.3175719 -0.16556787 0.06164231 -0.046842035 0.09273524 0.02062924 0.30963144 -0.19084634 -0.07395287 -0.41530508 0.09995596 -0.066766985 0.1519841 0.065869994 0.07477401 -0.05623642 -0.3341313 -0.23350255 0.025978323 -0.16161716 -0.1491034 0.28787577 0.068486 -0.22629824 -0.30050483 -0.06585946 -0.21395297 -0.13373181 -0.19923028 -0.13441646 -0.1540477 -0.19359104 0.31158447 -0.26724428 0.027135482 0.103183724 -0.3185765 -0.0020195912 -0.1652717 -0.34184003 0.024030475 -0.35657996 0.059655845 0.13353916 -0.40498036 0.26608306 -0.0131108 -0.15526569 -0.29202387 0.007052409 -0.2765383 0.08907032 0.070870556 -0.054934017 -0.71185887 -0.23747271 0.29813433 -0.02815124 0.356738
