100 64
15 -0.32873 0.666989 -1.22974 0.559787 0.0574047 -0.070152 -0.0511722 -0.0651571 -0.189079 -0.0071489 -0.106751 0.0842883 0.149382 -0.241076 -0.120202 -0.0960171 0.0781183 0.0851624 0.0558878 -0.22562 0.0228734 0.0203311 -0.127656 0.0398283 -0.41246 0.281461 -0.133737 -0.183894 -0.0794206 -0.0380042 0.00558305 0.14475 1.51873 0.722466 -0.121648 0.688472 0.0134526 -0.0868555 0.068968 -0.140024 0.0972563 0.422686 0.575989 -0.500905 -0.361595 0.322223 -0.11093 -0.146347 0.25081 -2.15123 1.08335 0.455094 0.468767 -0.0267711 0.0208364 0.0522272 -0.0299078 -0.459779 -0.0767187 -0.721916 0.0810447 0.266098 -0.0135743 0.0473041
96 -0.253498 0.606709 -1.03054 0.337907 0.0697157 0.0768324 0.00497081 -0.144698 -0.0477037 0.0270238 0.196002 -0.304423 0.0491438 -0.134541 0.00626705 0.128817 -0.0871055 0.278618 -0.0969216 -0.234779 -0.120284 -0.0075576 0.0853191 -0.18669 -0.190555 0.276932 -0.068726 -0.287772 -0.247309 -0.0454535 -0.130677 -0.0401295 1.59882 0.406438 -0.0653321 0.53434 -0.147269 -0.105184 -0.230439 0.0813092 -0.146434 0.314071 0.553628 -0.284109 -0.276483 0.0900118 -0.158863 0.0899698 0.379491 -1.8897 0.860366 0.5156 0.838578 -0.0148111 -0.15797 0.311839 0.0304034 -0.404636 0.1122 -0.538988 0.112616 0.111934 0.035367 -0.00194627
79 -0.335126 0.456276 -1.12051 0.208696 -0.020093 0.365526 -0.170841 -0.0811475 -0.101702 0.000641796 0.0901208 -0.159691 0.00192543 -0.155622 -0.0527274 -0.126636 0.0808622 0.20521 0.118339 -0.176117 -0.369492 -0.0127704 -0.15095 -0.0515091 -0.574213 0.103372 0.00256652 -0.178245 -0.0500455 -0.0965445 -0.0899766 0.0957634 1.45806 0.451413 -0.0988187 0.57359 -0.18221 0.0346212 -0.378805 -0.0372453 0.0470363 0.270369 0.555154 -0.440308 -0.218833 0.297551 -0.253429 -0.0526654 0.318197 -1.80295 0.910392 0.348944 0.640459 -0.00187154 -0.116217 0.132768 0.0546558 -0.710529 -0.151639 -0.692582 0.0160729 0.00170493 0.0111731 0.0446544
89 -0.108048 0.545574 -0.975144 0.285992 0.162412 0.0274029 0.0147335 0.00720377 -0.420396 0.105197 0.0383531 0.0513918 -0.0658685 -0.0656965 0.0844929 0.0904 0.0999212 0.270342 0.091867 -0.230797 -0.223329 -0.0329407 -0.427802 0.0729754 -0.188361 0.213344 -0.0160947 -0.200799 -0.398858 -0.0845628 -0.151218 0.0535288 1.48349 0.645656 -0.135805 0.560984 -0.0099294 -0.0494447 -0.219193 0.118932 -0.0802513 0.292565 0.472355 -0.478402 -0.261776 0.0469477 -0.290077 0.00181129 0.386293 -2.01528 0.968964 0.474714 0.645513 0.0590581 -0.125066 0.153849 0.00613325 -0.403675 0.103232 -0.473043 0.0689011 0.202344 0.087209 0.0639241
21 -0.186405 0.490256 -1.14451 0.269366 0.0851313 0.14837 -0.12758 -0.0467117 -0.0826844 0.0751574 0.0777466 0.0445123 -0.0700102 -0.0911885 -0.0751555 0.157869 0.171979 0.287823 0.0819883 -0.110254 -0.0587533 0.0939528 -0.240063 -0.0726073 -0.404071 0.156958 -0.0498798 -0.258573 -0.26668 -0.127999 -0.146487 0.000284661 1.49055 0.608678 -0.124229 0.657785 -0.139315 0.0906505 -0.378349 -0.0151078 0.0221389 0.317689 0.431566 -0.500364 -0.16487 0.0669178 -0.309091 0.0103907 0.374598 -1.66922 0.929805 0.396046 0.743456 -0.0116796 -0.132166 0.298434 0.000640369 -0.553127 -0.114288 -0.691886 0.0199672 0.22259 -0.0396472 0.095007
50 -0.22463 0.629794 -1.2309 0.177128 0.137561 0.144677 0.0655253 -0.0212207 -0.3098 0.129999 0.288976 0.0926718 0.0823885 -0.324982 0.0675608 -0.142898 0.154359 0.467013 0.166746 -0.384735 -0.154969 0.0465359 -0.417346 0.0593125 -0.407867 0.367923 -0.252473 -0.482363 -0.415496 -0.0336625 -0.0933522 0.111149 1.8344 0.893942 -0.0388507 0.867576 0.0869235 -0.222914 -0.247252 -0.162103 -0.0142007 0.53982 0.600442 -0.338443 0.0541536 0.371608 -0.0708891 -0.13507 0.0674371 -2.20092 1.35657 0.609351 0.584232 -0.0813967 -0.197807 0.171236 -0.00835602 -0.576648 0.156268 -0.303081 0.0373957 0.127511 0.131797 -0.129541
65 -0.315944 0.499224 -1.29151 0.605275 0.110998 0.197943 0.120285 -0.150673 -0.238589 0.135881 0.189322 0.06005 0.0035607 -0.264791 0.0176217 -0.131053 0.268697 0.174872 0.223497 -0.513702 -0.29932 0.17319 -0.135604 0.182375 -0.679804 0.415484 -0.166319 -0.3792 -0.436198 -0.0224701 -0.0862856 -0.106805 1.89932 0.798556 -0.0188206 0.84635 0.0500591 -0.190994 -0.364008 -0.0754113 0.0661257 0.483235 0.504305 -0.258058 -0.014812 0.328066 -0.134737 -0.0712369 0.0164622 -2.39885 1.23439 0.552605 0.480096 -0.00380545 -0.237821 0.0791115 0.068836 -0.918561 0.254294 -0.601093 0.0284902 0.174734 0.152355 -0.115312
30 -0.122664 0.335303 -1.18687 0.258134 0.0227259 0.188022 -0.0723225 -0.0324686 -0.0386348 0.176969 0.179369 0.0633487 -0.165054 -0.121896 -0.072768 0.111741 0.131148 0.31322 0.153014 -0.166634 0.0874585 0.17104 -0.27914 0.0529749 -0.371385 0.108746 0.00185462 -0.1275 -0.266737 -0.052576 -0.0313026 -0.074271 1.57939 0.663326 -0.10756 0.725399 0.0377746 0.149723 -0.364266 -0.0351317 0.10724 0.286506 0.404336 -0.528732 -0.191681 0.133397 -0.31 0.0415465 0.343983 -1.66958 0.966748 0.411312 0.815592 -0.0722116 -0.227862 0.476155 -0.0584064 -0.695761 0.0588494 -0.636689 0.0229282 0.315231 -0.0656574 0.0434841
33 -0.106943 0.474976 -1.14867 0.246171 0.0738538 -0.0100038 0.0646082 -0.016452 -0.111363 0.0920741 0.0520907 0.00219247 -0.0763696 -0.0672636 0.0495966 0.127612 0.134792 0.241578 0.104254 0.0113127 -0.0381048 -0.0552375 -0.166717 0.0180036 -0.325623 0.234748 -0.0573624 -0.133697 -0.208945 -0.0491233 -0.0365466 0.0672145 1.39299 0.598801 -0.0709514 0.715332 -0.0180845 -0.0100618 -0.258007 0.0274558 -0.0969721 0.377579 0.598754 -0.590525 -0.306262 0.178794 -0.341683 0.0541369 0.330626 -1.99287 0.815988 0.466046 0.657472 0.0320494 -0.150774 0.183614 -0.0258724 -0.541927 0.13163 -0.685407 0.0648935 0.261367 0.0377407 -0.00425475
41 -0.0375308 0.52538 -1.17176 0.190077 0.159204 -0.107802 0.103767 0.0617166 -0.084243 0.166758 0.0959813 0.0551366 0.107048 -0.141251 0.125729 -0.114645 0.197183 0.192006 0.0907628 -0.0911363 -0.130226 -0.0765437 -0.24389 -0.034181 -0.246137 0.340042 -0.0797132 -0.0727462 -0.302444 -0.0972233 -0.0575936 -0.056945 1.58339 0.684356 0.0231029 0.574946 0.0542795 -0.0365775 -0.0980098 0.00784119 -0.114748 0.471652 0.541285 -0.488105 -0.28513 0.107802 -0.339252 0.00331368 0.397777 -2.01271 0.803099 0.629081 0.329862 0.0329833 -0.0566768 0.262858 -0.115906 -0.554915 0.11036 -0.980664 0.21934 0.549726 0.0494907 0.137949
77 0.0216947 0.473226 -1.10698 0.136659 0.262351 -0.149382 0.0617651 0.0920967 -0.216741 0.0813351 0.209943 -0.0060932 0.0983313 -0.105618 0.0803791 -0.00511896 0.192454 0.0811356 0.0175057 -0.105255 -0.151414 -0.0460723 -0.237289 0.0234401 -0.287157 0.295184 -0.111759 -0.134887 -0.106947 -0.0919055 -0.030036 0.0508382 1.37184 0.727521 0.0846073 0.418429 0.0339553 -0.14488 -0.102732 0.0168507 -0.222994 0.440384 0.390084 -0.454672 -0.290448 0.0734579 -0.259432 -0.109347 0.549097 -2.00476 0.857615 0.690274 0.175569 0.0506777 0.053392 0.420459 -0.147339 -0.555598 0.0260246 -0.97847 0.225867 0.522087 0.0109006 0.200978
87 -0.150324 0.45519 -1.0722 0.115768 0.156935 -0.174796 0.118308 0.0831697 -0.0760711 0.0961205 0.319782 -0.101517 0.165959 -0.298432 0.0950796 -0.0671385 0.28704 0.207472 0.087772 -0.0182215 -0.0828361 0.090543 -0.233347 -0.110306 -0.115799 0.354863 -0.164926 -0.267324 -0.0307526 -0.0766955 -0.0367836 -0.0117433 1.47947 0.658881 0.159854 0.776809 0.0155016 -0.0321028 -0.0233317 -0.124798 -0.326705 0.544462 0.375346 -0.389971 -0.189483 0.198403 -0.263587 -0.0437003 0.413099 -1.91821 0.663008 0.463022 0.0206674 0.0889235 -0.0652066 0.310215 -0.17593 -0.659918 0.14039 -1.0772 0.161992 0.486074 0.0399023 0.173696
85 0.0068853 0.31553 -1.13793 0.221397 0.144257 -0.0239922 0.085719 -0.00353855 -0.0239296 0.11904 0.0934848 0.0931147 -0.0079253 0.0483624 0.145838 -0.110297 0.137753 0.162061 0.152138 0.0314279 -0.082183 -0.0701506 -0.110154 2.86436e-05 -0.287151 0.171083 0.0262393 0.0708832 -0.404963 0.0513577 -0.0142531 -0.258252 1.49981 0.568013 0.028568 0.466081 0.00633205 -0.0203386 -0.0759317 -0.0842926 -0.141813 0.425268 0.383579 -0.305616 -0.197007 0.0308993 -0.399752 0.0619657 0.477657 -1.94157 0.788247 0.616581 0.216026 0.0480366 0.0550997 0.307182 -0.160448 -0.503087 0.0871543 -0.943863 0.268815 0.61972 0.0763463 0.175096
11 0.0660768 0.549977 -1.3491 0.223688 0.207947 -0.166642 0.105975 0.0625106 -0.0474023 0.167955 0.132237 0.0778177 0.168169 -0.159793 0.117078 -0.255131 0.223089 0.106003 0.05329 -0.11274 -0.193837 -0.046213 -0.0926418 -0.0338586 -0.144497 0.36271 -0.0880641 -0.076108 -0.239832 -0.140267 -0.0626662 -0.106274 1.42998 0.682192 0.0396148 0.628142 0.118269 -0.0467699 -0.0336082 -0.0537979 -0.124456 0.595853 0.551909 -0.439029 -0.279243 0.162454 -0.310431 -0.0459362 0.419536 -2.14375 0.847166 0.76964 0.304913 0.0426189 0.000906946 0.384283 -0.0841938 -0.614191 0.0514253 -1.00955 0.263642 0.532386 0.0781144 0.188315
78 -0.334408 0.646077 -1.06196 0.249155 -0.0345757 0.204565 0.0390425 0.00154352 -0.280651 0.121605 -0.0639995 0.0476622 -0.134394 -0.0601079 -0.00704044 0.241805 0.242765 0.33216 0.126947 -0.0781943 0.107381 0.278025 -0.0458176 0.0255706 -0.245406 0.0073236 -0.095693 0.118118 -0.0707321 0.074505 0.100823 -0.0430376 1.37959 0.450291 -0.0754531 0.627055 -0.0437688 0.083243 -0.163328 -0.0482042 0.0857363 0.305825 0.308485 -0.3926 -0.195544 0.183561 -0.114234 0.0140047 0.307619 -1.72123 1.17093 0.433121 0.924121 0.0311159 0.0126965 0.42527 0.0356587 -0.488935 -0.0962904 -0.720221 0.000480986 0.253036 -0.176608 0.0773014
74 -0.109691 0.524283 -1.36036 0.209 0.0116178 0.00739777 0.149137 -0.101982 0.02188 0.102983 0.184265 -0.0495274 0.0106631 -0.0439009 0.098233 -0.068113 0.044527 0.340714 0.0852669 -0.208605 0.129791 0.112048 0.106005 0.0274936 -0.565357 0.279183 -0.0494854 0.064375 -0.11587 0.0829662 0.0881166 -0.152006 1.51089 0.628722 -0.114062 0.757781 0.064395 -0.0073921 -0.0160136 -0.0771615 0.056012 0.319591 0.302435 -0.303089 -0.175341 0.138288 -0.10828 0.0524548 0.317656 -2.00464 0.626733 0.566685 0.708456 0.0305004 0.0853108 0.501495 -0.0399296 -0.412081 0.0601344 -0.824904 0.106607 0.486733 -0.238314 0.148516
48 -0.0753656 0.302803 -1.26321 0.39497 0.00419267 -0.098684 0.0059119 -0.0647037 -0.205523 0.154214 -0.00796106 0.131987 -0.0243419 -0.0990146 -0.104083 -0.179434 -0.0587201 0.215143 0.131256 -0.201339 0.274913 0.0870153 -0.134032 0.049131 -0.443531 0.288533 0.076457 0.0220826 -0.0573823 0.0409315 0.078378 -0.0618859 1.47926 0.667856 -0.138561 0.473399 0.158206 0.121202 -0.0138474 -0.16367 0.258324 0.248354 0.258581 -0.277006 -0.178589 0.201275 -0.0821935 0.00871853 0.387918 -1.91238 0.678018 0.472165 0.612576 -0.061937 -0.102276 0.467741 -0.0999376 -0.582986 0.0821806 -0.700952 0.116436 0.524134 -0.151268 0.0929333
55 -0.00229183 0.599299 -1.327 0.100085 0.00169278 -0.0551847 0.130454 -0.00637617 -0.233369 0.00865378 -0.162582 -0.0036384 0.085368 -0.053284 0.0419654 -0.236963 -0.159789 0.428616 0.0479899 -0.25126 0.0138671 -0.102985 -0.172385 -0.0459069 -0.60463 0.451366 -0.0800406 0.0409692 0.00570528 -0.0375464 0.0745311 0.152651 1.45681 0.577395 -0.107333 0.578127 0.0840824 -0.0326619 0.0451913 -0.0560529 0.243107 0.259638 0.313235 -0.228252 -0.174631 0.1969 0.0705132 -0.0613916 0.286021 -1.99685 0.705474 0.611184 0.692875 -0.0749904 0.0879253 0.497482 -0.0880511 -0.492499 0.01314 -0.693369 0.0748277 0.482478 -0.187387 0.0661611
91 0.202447 0.399123 -1.12472 0.226098 -0.0473227 -0.0267203 -0.0285752 -0.0033483 -0.346462 0.0857644 -0.0184425 -0.129616 -0.0382688 0.047978 0.0606866 -0.263976 -0.0802656 0.246126 0.125403 -0.244165 -0.0408306 0.0064678 -0.281675 0.0615109 -0.24007 0.246922 0.0539295 -0.00761848 0.0940923 -0.036597 -0.00676601 -0.169971 1.34706 0.644971 -0.155562 0.737641 0.113096 0.25088 0.00691974 -0.207866 0.176756 0.436917 0.118772 -0.277012 -0.151461 0.210623 -0.13375 -0.0307564 0.40855 -2.09942 0.630746 0.384951 0.498216 0.0248507 -0.0199703 0.472628 -0.118963 -0.651052 0.018109 -0.692749 0.122307 0.352868 -0.0190123 0.259232
52 -0.0242108 0.172067 -0.963644 0.342059 0.0389202 -0.149973 -0.0350834 -0.0419041 0.123096 0.0430728 0.0994746 0.286056 -0.0606323 0.142196 0.0401571 -0.135983 0.107969 0.0754234 0.149373 0.094229 -0.0529353 -0.0193674 0.176202 0.0781296 -0.271565 0.267227 0.00949239 -0.185091 -0.200806 0.0217656 -0.0700806 -0.33575 1.16569 0.685989 -0.196553 0.748775 0.178494 0.134014 0.327503 -0.287823 0.0834713 0.442846 0.193343 -0.231799 -0.0987592 0.206936 -0.177474 -0.0151319 0.354549 -2.16115 0.810271 0.514804 0.462505 0.161879 0.194679 0.268507 0.0181794 -0.313996 -0.100452 -0.607305 0.116317 0.253195 -0.00663057 0.170713
92 -0.202381 0.354568 -1.04012 0.322855 0.0867704 -0.144702 0.0274441 -0.0553357 -0.0890913 -0.163308 0.141837 0.0845007 -0.00978574 -0.0359811 -0.0293595 0.00175525 -0.0419679 -0.109706 -0.0344821 -0.12347 -0.184057 -0.0162712 0.235518 0.022936 -0.284702 0.0756696 -0.0790753 -0.171742 0.0322451 0.0234207 0.0313794 -0.171419 1.29529 0.686708 -0.304632 0.636758 0.140681 -0.260574 -0.0579539 -0.160247 -0.0480336 0.237685 0.453043 -0.290527 -0.179163 0.342882 -0.0280514 -0.0593925 0.105021 -2.09908 0.80026 0.423062 0.60577 0.0717029 0.0122432 0.276782 -0.00875659 -0.355915 0.0659612 -0.745857 0.143699 0.0859331 -0.0360974 0.177389
53 -0.0415352 0.342027 -0.956459 0.3397 0.13651 -0.221172 0.0414518 0.0556806 -0.196813 -0.107976 0.00886273 0.0614765 0.00131547 -0.00432332 0.0371798 -0.103112 0.0191383 -0.0956241 0.0354941 -0.177758 -0.306736 -0.123567 0.024069 0.134909 -0.503275 0.251563 -0.148179 -0.250347 -0.197996 0.0255214 -0.0568501 -0.124233 1.24993 0.58179 -0.161557 0.900796 0.101585 -0.0601506 0.0500425 -0.0833099 -0.046743 0.27906 0.27459 -0.241545 -0.144999 0.209527 -0.0345413 -0.107972 0.157238 -2.19234 0.919559 0.508814 0.506944 0.0252171 0.0745625 0.230495 -0.0309037 -0.481732 0.0354097 -0.799046 0.176799 0.184025 0.0128345 0.131104
99 0.0092117 0.35736 -1.03473 0.207463 -0.0670723 -0.141787 -0.0262871 0.0101513 -0.178691 -0.172974 0.0407104 0.0336683 -0.13134 0.105878 -0.0297234 0.0381201 -0.15959 0.0841318 -0.0043887 0.0583561 -0.0481652 -0.0204736 0.0085937 0.122564 -0.387107 0.297299 -0.00962328 -0.355401 -0.150643 -0.00560318 -0.154684 -0.0861836 1.32974 0.716377 -0.160938 0.6528 0.105857 0.0455861 0.198666 -0.0836736 0.01273 0.422916 0.294846 -0.378683 -0.212012 0.320959 -0.131163 -0.100005 0.255465 -2.19924 0.83261 0.283084 0.477638 0.0262415 0.125297 0.263502 -0.0358894 -0.482796 0.0151831 -0.851223 0.0728965 0.22334 -0.0406691 0.215987
46 -0.100568 0.362587 -1.09138 0.40453 -0.0688156 -0.225162 0.0592121 -0.0344153 -0.266606 -0.118662 0.159433 0.0255271 -0.035123 -0.0554719 0.0388841 -0.137311 -0.203007 0.315983 0.054498 -0.240817 -0.103378 0.0224225 -0.2416 0.206021 -0.235326 0.178191 -0.0566218 -0.306105 -0.249133 0.027459 -0.0844574 -0.219674 1.47198 0.702739 -0.0829705 0.696925 0.146245 -0.00295274 0.184037 -0.126568 0.00183411 0.480521 0.409984 -0.41433 -0.293075 0.362301 -0.131612 -0.0649415 0.121837 -2.07619 0.799201 0.341687 0.678639 -0.0101886 0.0919374 0.522188 -0.0853694 -0.553461 0.186001 -1.02984 0.11718 0.306154 -0.0442607 0.231872
94 -0.0665803 0.448763 -1.08058 0.293025 0.00518541 -0.137596 0.0446019 -0.00207249 -0.103287 0.135027 0.0907469 -0.158169 0.0657414 -0.00823755 0.115018 -0.252334 -0.0888968 0.390726 0.101251 -0.211668 -0.0117228 -0.102885 -0.211174 0.0274426 -0.431421 0.352801 0.021787 0.133147 0.102942 0.0286345 0.0957162 -0.0999144 1.37193 0.660849 -0.196829 0.804504 0.146868 0.150239 0.198117 -0.156677 0.15506 0.32432 0.27191 -0.361524 -0.267893 0.183128 -0.103917 0.00102383 0.393506 -2.12969 0.619647 0.392154 0.548108 0.0511121 0.031395 0.281745 -0.0720461 -0.423849 -0.000118704 -0.696569 0.0812788 0.405988 -0.161087 0.145289
59 -0.102482 0.50166 -1.00599 0.156227 0.0339075 -0.115307 0.0197766 0.0385269 -0.199149 -0.11993 0.202726 -0.143762 -0.0740506 -0.069001 0.0531002 0.0551923 -0.0659173 0.0764481 -0.0223831 -0.0526245 -0.111133 0.024204 -0.143445 0.156988 -0.406594 0.207349 -0.0755006 -0.284161 -0.0981115 -0.03076 -0.115977 0.116734 1.40315 0.723106 -0.214886 1.02272 0.0757168 -0.0385745 0.0142511 -0.0119144 -0.184429 0.34781 0.348322 -0.439999 -0.239508 0.249151 -0.129617 -0.0785482 0.158947 -1.97146 0.779542 0.296613 0.675776 0.0859022 0.0156722 0.239374 -0.0155251 -0.489263 0.0569022 -1.0229 0.139702 0.118611 -0.0521094 0.227854
83 -0.126711 0.378059 -1.06116 0.313151 -0.0386899 -0.34142 0.101873 0.0182845 -0.0824076 -0.0773598 0.1466 0.0699244 -0.0144403 0.0101246 0.0833405 -0.00220464 -0.0579527 0.142718 0.010825 -0.0892832 -0.10851 -0.10028 -0.147132 0.181322 -0.294167 0.319344 -0.0922385 -0.31881 -0.229234 0.0535003 -0.0691109 -0.160638 1.40311 0.65942 -0.0790407 0.676037 0.121401 -0.0116436 0.245167 -0.0345832 -0.0747828 0.398143 0.328248 -0.32454 -0.24144 0.241473 -0.0910247 -0.0214358 0.216682 -2.09184 0.773976 0.374135 0.57191 0.0767804 0.114945 0.225314 -0.0457627 -0.389703 0.174 -0.750269 0.0867077 0.226957 -0.00893495 0.111207
63 -0.118071 0.492171 -0.968337 0.288478 0.100353 -0.189514 0.09751 0.0798909 -0.118204 -0.0345371 0.0311301 -0.035115 0.0650845 -0.115252 -0.0304196 -0.0935535 -0.0636283 -0.268542 -0.0678572 -0.235004 -0.112222 -0.0504335 -0.0701772 0.101248 -0.564177 0.280355 -0.157895 -0.198128 -0.223719 -0.0171255 -0.0493103 0.106576 1.62062 0.564383 -0.181497 0.773256 0.078228 -0.117085 0.0322602 0.00771417 0.0178724 0.0461217 0.227367 -0.146028 -0.22183 0.148806 0.17072 -0.105595 0.202635 -1.89748 1.05621 0.490844 0.420963 -0.102586 -0.0284124 0.211577 -0.0459792 -0.443235 -0.00233895 -0.886643 0.231484 0.286502 -0.111879 0.11044
84 -0.331525 0.558776 -0.94784 0.542989 0.0638956 0.0525533 -0.155481 -0.023785 -0.132202 -0.0717844 -0.0368429 -0.0111932 0.142415 -0.107923 -0.215574 -0.213704 -0.111771 -0.185915 -0.0494945 -0.147779 -0.169792 0.0361556 0.0583961 -0.112331 -0.314923 0.26314 0.0623949 -0.162448 -0.181982 -0.180903 -0.212163 0.105791 1.42701 0.689322 -0.198774 0.587495 0.0633915 -0.0467378 0.111407 -0.0999582 0.0467606 0.444152 0.297953 -0.0645859 -0.0659098 0.221324 -0.0437298 -0.116564 0.297249 -1.94643 1.09159 0.374392 0.212083 -0.0249635 0.0861858 0.106216 0.0657624 -0.497595 -0.224423 -0.920765 0.14257 0.323414 -0.0124572 0.212927
18 -0.324082 0.518926 -1.11032 0.484968 0.133567 -0.25784 -0.112693 0.0471409 -0.0640755 -0.0411687 0.0116812 0.14974 0.198783 -0.228325 -0.157388 -0.169913 -0.040828 0.00325565 0.0122123 -0.19145 -0.109771 -0.0731752 -0.20264 0.00674822 -0.297932 0.241449 -0.0934494 -0.323695 -0.282778 -0.0505594 -0.134985 0.134666 1.66909 0.660728 -0.0811036 0.46768 0.0217949 -0.0847289 0.27198 -0.0955497 -0.00372929 0.354475 0.405235 -0.213333 -0.235119 0.220121 -0.0310215 -0.186646 0.284761 -1.94954 1.21057 0.598193 0.480716 -0.0577872 0.0779097 0.234642 -0.0534257 -0.427239 -0.0906586 -0.775284 0.201962 0.242107 0.0457108 0.0682852
97 -0.330372 0.450561 -0.991583 0.474457 0.0817989 -0.163243 0.0324785 -0.0191732 -0.106142 -0.0221252 0.0800417 0.146997 0.0464377 -0.179793 -0.024981 -0.161105 -0.0731301 0.0974684 0.0708586 -0.132559 -0.0517525 -0.0704373 -0.0186741 0.135096 -0.352898 0.150171 -0.134267 -0.210666 -0.184007 0.0646194 0.0309874 0.235951 1.59559 0.602308 -0.106964 0.342587 0.100524 -0.210863 0.250178 -0.102063 0.0967056 0.192281 0.417818 -0.219994 -0.275366 0.342892 0.147888 -0.141249 0.223282 -1.8826 1.24099 0.633537 0.495503 -0.125471 0.0965556 0.246576 -0.00301611 -0.338161 -0.017921 -0.548527 0.178302 0.179573 -0.0155885 -0.042155
31 -0.250195 0.515051 -1.06811 0.501962 0.0731646 -0.123724 -0.0172649 -0.0308289 -0.152241 -0.00254001 0.00916811 0.062492 0.146086 -0.134619 -0.0608409 -0.232338 0.0391972 -0.0943591 0.0210136 -0.263843 -0.153947 -0.0236104 -0.0498155 -0.0184658 -0.414926 0.370506 -0.105281 -0.292993 -0.242405 -0.0854638 -0.106433 -0.075501 1.54238 0.628606 -0.114966 0.599891 0.051141 -0.0910063 0.0704477 -0.147505 0.119029 0.336862 0.402264 -0.188873 -0.182171 0.253945 0.0122274 -0.110067 0.25372 -2.0085 1.09628 0.537069 0.361289 -0.0303675 0.0270444 0.2273 -0.0210981 -0.53217 -0.0604344 -0.779744 0.142144 0.293177 0.0118054 0.127637
93 -0.269038 0.487254 -1.00264 0.398994 -0.0172849 -0.064679 0.060563 0.0365987 -0.208398 0.0355945 0.0821258 -0.0953558 0.035793 -0.11948 -0.0177987 -0.0902537 -0.0307148 0.0209553 0.0566887 -0.113604 -0.0585031 0.0192043 -0.101336 0.0692774 -0.491097 0.415704 -0.0827976 -0.359731 -0.345752 -0.0133411 -0.175054 0.190986 1.53193 0.436295 0.0760372 0.473374 -0.017307 0.0449961 0.294437 -0.000629487 0.0465462 0.292456 0.309899 -0.23124 -0.269103 0.241449 0.0325907 -0.101738 0.381888 -2.01464 1.23185 0.512839 0.347141 -0.0471164 0.0394287 0.238402 -0.0164421 -0.45093 -0.0353379 -0.520603 0.067914 0.188225 -0.0133514 -0.017079
86 -0.242205 0.585121 -0.946011 0.412445 0.0109749 -0.0827607 0.0367536 -0.0156645 -0.211512 -0.0385609 0.0960019 -0.167082 0.0390285 -0.0385509 -0.0378824 -0.0697286 -0.0704811 -0.148521 -0.0672251 -0.054706 -0.177428 -0.000323477 0.0411024 -0.118781 -0.379403 0.399358 -0.0659049 -0.40293 -0.0839488 -0.184882 -0.212787 0.164361 1.47129 0.637624 -0.269999 0.26154 0.0265225 -0.184055 0.118115 -0.110202 0.212205 0.158388 0.294908 -0.14909 -0.203351 0.340848 0.197659 -0.0784515 0.244085 -2.06265 1.13453 0.356865 0.33812 -0.0471541 0.0328794 0.241855 0.0554084 -0.390048 -0.137398 -0.809655 0.0652978 0.191408 -0.126391 0.225855
98 -0.332366 0.599924 -0.863533 0.410618 0.134382 -0.148915 -0.160084 0.184184 -0.275535 -0.0829386 -0.0660848 -0.0235059 0.259899 -0.181245 -0.054599 -0.207626 0.0684059 0.0455728 -0.0202089 -0.0275811 -0.118663 -0.0170512 -0.158143 -0.281541 -0.409526 0.346181 -0.107524 -0.0161764 0.0598553 -0.149942 -0.0495367 0.0894366 1.67894 0.580104 -0.000695793 0.497316 -0.0987142 -0.00705556 -0.099588 -0.154081 -0.0262344 0.392734 0.30002 -0.141197 0.00909808 0.0669507 -0.151136 -0.108486 0.457717 -1.8661 1.1 0.490023 0.37823 0.00285547 -0.000382132 0.31958 -0.092634 -0.498589 -0.197567 -0.579605 0.0534466 0.232653 0.0173493 0.0902231
82 -0.247042 0.649629 -1.08416 0.243244 -0.0178615 0.193669 -0.0472094 -0.0192885 -0.0846954 0.0579557 0.0737954 -0.261814 0.0812617 -0.130956 -0.00938786 0.0715802 0.185256 -0.009733 0.0213015 -0.00380027 -0.0238391 0.0414497 -0.0711973 -0.146033 -0.217099 0.283176 -0.142592 -0.245215 -0.196387 -0.0569006 -0.109117 0.0223891 1.41863 0.48994 -0.020458 0.90716 -0.128559 0.0709594 -0.0233795 -0.0738687 -0.0496149 0.393023 0.493633 -0.526371 -0.336177 0.178469 -0.254025 -0.0384544 0.387971 -2.24119 1.11134 0.384185 0.453097 0.0182709 -0.0708561 0.0234403 -0.0235698 -0.462834 -0.0220173 -0.320066 0.00793378 0.0619951 0.0624813 -0.0278542
42 -0.254763 0.66349 -1.08267 0.225357 0.0507902 0.218557 0.00518241 -0.0828554 -0.206326 -0.0322181 0.0829124 -0.0737801 -0.0427577 -0.0862484 -0.0485708 0.146783 0.0270531 0.0411673 -0.0120172 -0.0408685 -0.158939 0.043776 -0.0537163 -0.0573529 -0.18095 0.125832 -0.0790787 -0.300827 -0.143183 -0.0282008 -0.101892 0.0164741 1.61709 0.567256 -0.177293 0.714265 -0.0411297 -0.130785 -0.118956 0.00418953 -0.14425 0.243039 0.615972 -0.505664 -0.377528 0.298164 -0.161462 0.00483577 0.371403 -2.13643 0.892117 0.37415 0.594302 0.0703557 -0.0623567 0.119104 0.0549406 -0.356608 0.080204 -0.503369 0.0740824 0.0145937 0.0428313 0.0243896
4 -0.240849 0.628087 -1.05915 0.323381 0.0900999 0.208769 -0.0442861 -0.0853003 -0.279571 -0.00397648 -0.0392235 -0.0197997 -0.0494677 -0.120171 -0.137027 0.108535 -0.0548051 0.17471 -0.00110512 -0.160168 -0.0708156 0.0274357 -0.180838 -0.0668932 -0.236229 0.0509668 -0.00898212 -0.158446 -0.0968997 -0.0540911 -0.0686415 0.218129 1.44788 0.500719 -0.1739 0.569418 -0.073422 -0.0967939 -0.240792 0.0546682 -0.0208353 0.181221 0.66206 -0.585269 -0.38774 0.224742 -0.176663 0.00262333 0.413686 -2.0813 0.861868 0.456232 0.769376 -0.0213188 -0.105157 0.258867 0.0528939 -0.397166 0.0517579 -0.51503 0.0838988 0.157501 -0.0254333 -0.00567726
54 -0.13241 0.438551 -0.952699 0.129267 -0.031974 -0.190069 0.0621892 0.0156107 -0.058798 -0.0784171 0.140712 0.0262673 -0.0291992 0.00659005 0.0786384 0.0426813 0.0219925 -0.0244022 0.00852645 0.033499 -0.183318 -0.0714934 -0.0570594 0.0761269 -0.21395 0.351586 -0.0831652 -0.417308 -0.202117 -0.0149584 -0.141492 -0.10101 1.39029 0.673397 -0.195289 0.83888 0.119211 -0.00469878 0.261645 -0.0638466 -0.109064 0.362236 0.337243 -0.33031 -0.250452 0.280785 -0.0967826 -0.0321082 0.213992 -2.13956 0.79288 0.355104 0.532712 0.1415 0.0963412 0.135527 -0.00877898 -0.358564 0.0900928 -0.663641 0.0633885 0.052874 0.0421215 0.136098
47 -0.135569 0.440643 -0.905021 0.281616 -0.0143298 -0.0734169 -0.0246151 -0.0489601 0.110495 -0.0954897 0.0466373 0.0384948 -0.0276899 0.0867682 -0.0073748 0.0845615 -0.0316056 -0.00373457 -0.0112835 0.00116057 -0.108495 -0.0660228 0.130907 0.118414 -0.233667 0.23815 -0.00208448 -0.161383 -0.0686747 -0.0616482 -0.100966 0.0317959 1.19224 0.773421 -0.335379 0.780999 0.125234 -0.0380225 0.234714 -0.0549836 -0.0869086 0.48732 0.310819 -0.273899 -0.205648 0.240386 -0.168586 -0.0185645 0.202731 -2.13327 0.773208 0.431031 0.727792 0.178464 0.227388 0.172178 0.0712237 -0.334463 -0.0568816 -0.927194 0.14099 0.159009 -0.00205449 0.211306
60 -0.105915 0.38922 -0.948437 0.396011 0.0332804 -0.243923 0.00938288 -0.00219368 -0.0720226 -0.0839362 -0.0983191 0.231972 -0.0277941 0.0878155 -0.0235068 0.0140382 0.0424443 -0.0173257 0.0379038 -0.0790794 -0.18458 -0.117358 -0.0247983 0.101005 -0.471861 0.363482 -0.0976472 -0.29837 -0.23542 -0.0434671 -0.098746 -0.12963 1.38076 0.703515 -0.226451 0.738851 0.0947108 0.00584516 0.0968043 -0.0655264 0.0261403 0.404925 0.261356 -0.198076 -0.121582 0.198602 -0.0813417 -0.0285804 0.203108 -2.18808 0.852235 0.45776 0.592098 0.0641942 0.127029 0.174104 0.0288726 -0.461249 -0.00205047 -0.824328 0.106861 0.230185 -0.00338495 0.131771
100 -0.192633 0.60305 -0.85401 0.302189 0.0288022 -0.173621 -0.0809271 0.0297939 -0.201263 -0.0973502 -0.00320724 -0.13943 0.121047 -0.055828 -0.0370991 0.00166305 0.00225012 -0.0031658 -0.0703856 -0.342751 -0.348776 -0.0396909 -0.0759487 -0.0350729 -0.28174 0.205189 -0.089129 -0.162201 0.014571 -0.0261996 -0.0707506 -0.305768 1.35522 0.645491 -0.271793 0.762169 0.0222408 0.0326695 0.252088 -0.0849583 -0.0183081 0.370259 0.315988 -0.400265 -0.40818 0.269758 -0.0527481 -0.108233 0.327372 -2.19188 0.839118 0.320799 0.572718 0.07297 0.158132 0.150575 0.000429472 -0.294772 -0.135785 -0.776566 0.126216 0.0903252 -0.0819478 0.293793
90 -0.0342691 0.367534 -1.02292 0.341978 0.129506 -0.235476 -0.0192101 0.107794 -0.19268 -0.121118 -0.000937278 -0.0383381 0.023345 0.0477109 0.0727253 -0.181411 -0.117511 -0.168923 -0.0326654 -0.168641 -0.245713 -0.217744 -0.0241656 0.159308 -0.452404 0.173837 -0.0532122 -0.0283162 -0.333741 -0.0207656 -0.0660771 -0.0198912 1.28101 0.600822 -0.144445 0.734699 0.0800659 -0.0696699 -0.00694023 0.0377843 -0.0891846 0.278555 0.338458 -0.320628 -0.243855 0.0712523 -0.197311 -0.0993607 0.2193 -2.04456 1.01526 0.542064 0.564394 -0.013677 0.0726376 0.25212 -0.0852279 -0.510524 0.0168305 -0.88004 0.248496 0.266016 0.0351024 0.173358
12 -0.039721 0.409559 -0.898867 0.298669 0.101212 -0.21801 0.0802967 0.0577311 -0.317385 -0.123615 0.179278 -0.075959 -0.0262067 -0.0830573 0.0667901 -0.0963532 -0.0791703 0.0327663 -0.0047983 -0.262415 -0.23542 0.0341449 -0.0691878 0.178301 -0.421704 0.169488 -0.126087 -0.233133 -0.188608 0.0506752 -0.0391486 -0.239558 1.54289 0.701304 -0.173224 0.988577 0.161096 -0.0856909 0.0755312 -0.0915603 -0.125268 0.294302 0.330115 -0.397343 -0.288965 0.30633 -0.0414365 -0.10411 0.117951 -2.065 0.844738 0.336266 0.483067 -0.00296036 0.0430813 0.342386 -0.0578295 -0.461631 0.131344 -0.976848 0.212892 0.203871 -0.0524964 0.234754
56 0.0213171 0.513113 -1.13464 0.240981 0.148244 -0.156477 0.139423 0.0279427 -0.169086 0.154097 0.0171727 -0.0149954 0.134113 -0.071439 0.148626 -0.233854 0.0587037 0.15353 0.0879268 -0.205448 -0.178005 -0.155993 -0.276834 -0.0473238 -0.324735 0.338862 -0.0483272 -0.00325282 -0.333275 -0.059187 -0.0443617 -0.105403 1.60032 0.556994 -0.00641419 0.548165 0.0308337 -0.0468499 -0.0308155 -0.0236781 -0.0378166 0.360468 0.492849 -0.311224 -0.298869 0.101539 -0.252315 0.0208107 0.392282 -1.92304 0.842261 0.688242 0.393179 -0.00327893 0.0204631 0.349886 -0.165834 -0.604583 0.122136 -1.14155 0.295031 0.644064 0.045888 0.1999
67 0.0269404 0.643226 -1.29462 0.0406437 0.0605754 -0.113504 0.109942 0.00780823 0.00605283 0.0913318 0.044905 -0.19718 0.194225 -0.0703346 0.138435 -0.331753 -0.0717425 0.353546 -0.0329119 -0.285649 -0.0734481 -0.0967974 -0.202153 -0.0256056 -0.495278 0.536779 -0.0665054 0.175612 0.0302446 -0.0266304 0.0916042 -0.0335361 1.27967 0.596685 -0.116601 0.692209 0.109347 -0.0193346 0.0986419 -0.0795634 0.0558642 0.391838 0.305752 -0.354474 -0.362669 0.128415 -0.0192728 -0.0479064 0.479183 -2.11442 0.592877 0.613004 0.415525 0.00239788 0.112888 0.355128 -0.108149 -0.377554 -0.0783386 -0.68796 0.163288 0.49239 -0.150623 0.180752
32 -0.0362122 0.548986 -1.2467 0.173135 0.0390006 -0.123571 0.151719 -0.0259481 -0.0756652 -0.011196 0.203281 -0.333365 0.0962477 -0.0821672 0.15972 -0.284349 -0.275323 0.38584 -0.0188731 -0.313784 -0.0947304 -0.0909236 -0.0137516 0.0697249 -0.582362 0.42925 -0.0626328 0.0543556 -0.0601039 0.0448077 0.0771864 -0.0193022 1.42932 0.600434 -0.103357 0.834076 0.153506 -0.0918908 0.193978 -0.0659528 -0.00882362 0.353622 0.405402 -0.337729 -0.358406 0.230814 -0.0361905 -0.034364 0.269028 -2.16322 0.750386 0.544999 0.589709 -0.0258561 0.115417 0.382248 -0.0841722 -0.431272 0.0893907 -0.754947 0.171574 0.3619 -0.108815 0.117073
81 -0.0889203 0.437407 -1.26866 0.175264 -0.0564838 -0.0108801 0.177591 0.034727 -0.233869 0.0427244 -0.0204166 -0.079216 -0.0741305 0.0542555 0.159873 -0.0788835 -0.0239113 0.295497 0.140088 -0.011904 -0.0278252 -0.216011 -0.266026 0.170693 -0.519848 0.237422 -0.0594239 0.113836 0.0136491 0.0434151 0.144382 0.256075 1.2979 0.68658 -0.19021 0.805496 0.171912 -0.0232136 0.00813544 -0.0314625 0.0894787 0.241545 0.431046 -0.551728 -0.315575 0.199189 -0.156312 -0.00725498 0.262045 -2.10748 0.575025 0.365147 0.581556 0.0234814 -0.0146644 0.243991 -0.101831 -0.441744 0.139589 -0.76552 0.0558296 0.489195 -0.1862 0.0159049
45 -5.22316e-05 0.45808 -1.12137 0.479559 -0.0468558 -0.0813237 0.0522644 -0.17468 -0.166724 0.0904195 -0.0347517 -0.102308 -0.0173463 0.0285724 0.0078348 -0.123422 -0.106684 0.35947 0.0954833 -0.350639 0.104588 0.0431828 -0.0363719 0.0531078 -0.408987 0.355695 -0.0118421 0.0482022 0.0177165 0.0219712 0.100965 -0.198856 1.36945 0.600602 -0.173622 0.612959 0.0597301 0.109971 -0.058427 -0.159899 0.215541 0.387948 0.312845 -0.339397 -0.315192 0.236715 -0.152147 0.118459 0.37084 -2.10654 0.611922 0.50261 0.8242 0.0183685 -0.00071645 0.47895 -0.0461515 -0.59387 0.0785997 -0.696158 0.0898014 0.370995 -0.0835921 0.123482
61 -0.0252302 0.558518 -1.30883 0.380381 -0.0576914 -0.184346 0.0196403 -0.0595992 0.283805 0.0820292 0.20604 -0.143513 0.0562966 0.0909092 0.131324 -0.166027 -0.0312257 0.335817 0.0641954 -0.345451 -0.326367 -0.207613 -0.361808 0.104859 -0.172836 0.133971 -0.148543 -0.181515 -0.0395661 -0.103868 -0.0359187 -0.127501 1.44451 0.744489 -0.331785 0.886587 0.0376977 0.082058 -0.0700039 -0.109013 0.200739 0.26653 0.317554 -0.3917 -0.255414 0.178676 -0.0735739 0.00159074 0.163179 -2.05037 0.951037 0.410302 0.703919 0.0410487 0.0279118 0.293669 -0.0272821 -0.584639 -0.160446 -1.15069 0.0458801 0.246224 -0.119119 0.256178
68 -0.106815 0.540306 -1.37699 0.230327 -0.0763294 -0.136635 -0.10029 -0.0667385 0.269764 0.0223533 -0.0118893 0.158226 0.102922 0.0413032 -0.0676314 -0.108491 0.0440033 0.106778 0.0144129 -0.565678 -0.314623 -0.15984 -0.401751 0.0402251 -0.151121 0.236582 -0.184752 -0.416366 -0.153816 -0.181614 -0.121056 -0.248554 1.48401 0.814093 -0.382272 0.797997 0.0158688 0.0775038 -0.144075 -0.122776 0.247446 0.347136 0.25136 -0.307849 -0.175323 0.180163 0.00644765 -0.0501539 0.201265 -2.17325 1.03455 0.4474 0.702669 0.056602 0.0282378 0.136713 0.0040981 -0.532461 -0.175519 -0.890888 0.0328038 0.187854 -0.0332017 0.227731
88 -0.0449912 0.526458 -1.1792 0.48195 -0.0426016 -0.21689 0.00457296 -0.0434398 0.444154 0.115202 0.21051 -0.0251091 -0.00717972 0.193688 0.160107 -0.0784331 0.128768 0.214784 0.115213 -0.0739607 -0.281243 -0.22377 -0.214381 0.118686 -0.303811 0.188533 -0.145662 -0.175306 -0.111502 -0.100463 -0.0580742 -0.140138 1.48038 0.808545 -0.388682 0.970847 0.0166738 0.159161 -0.0165014 -0.108328 0.21673 0.205333 0.217951 -0.313764 -0.154637 0.0872741 -0.127595 0.0340012 0.170535 -2.05273 1.04508 0.368228 0.616453 0.0886678 0.0259843 0.0677893 0.0418564 -0.487473 -0.279139 -1.0742 -0.0242786 0.156955 -0.134453 0.215917
70 -0.134813 0.362632 -1.01094 0.525166 0.0354286 -0.463854 -0.0433936 0.0462945 0.0707699 -0.0988971 -0.124104 0.221438 0.0604122 0.0639307 -0.0641625 0.0365335 0.00707454 -0.0126309 0.00659339 -0.131586 -0.161909 -0.238902 -0.172308 0.162153 -0.381541 0.184596 -0.164001 -0.281591 -0.200926 0.0764074 -0.0311828 -0.119388 1.40077 0.543309 -0.108643 0.625961 -0.0564198 0.0990901 0.199116 0.00142206 -0.0075235 0.285996 0.167709 -0.180138 -0.184003 0.0760244 -0.0403924 -0.0611277 0.262911 -2.09716 0.949822 0.510525 0.746137 0.00303406 0.147687 0.123372 -0.0213679 -0.401438 -0.0256723 -0.715318 0.135552 0.125246 0.0210778 0.0224579
43 -0.268108 0.561754 -0.960595 0.563458 0.0986606 -0.245693 -0.163324 0.0250965 -0.00425877 0.0127154 0.00769991 0.0164024 0.27024 -0.141464 -0.107828 -0.162329 0.142519 -0.1329 -0.0151042 -0.229437 -0.275039 -0.151093 -0.252375 -0.106987 -0.389524 0.295786 -0.148153 -0.320081 -0.0236475 -0.178272 -0.126737 0.0427086 1.45006 0.670418 -0.210712 0.441751 -0.0851477 -0.0121128 0.060252 -0.146532 0.169548 0.269955 0.322561 -0.22885 -0.196502 0.148856 -0.011512 -0.147979 0.28328 -1.97416 1.07242 0.467677 0.44507 -0.00777083 0.0246415 0.123795 -0.0432406 -0.443465 -0.270301 -0.761987 0.084247 0.134414 -0.00190726 0.183984
76 -0.331366 0.469344 -1.21189 0.454248 0.0226858 0.109959 0.0924247 -0.0773449 -0.250375 0.10364 0.140688 -0.0154542 0.0240983 -0.182243 -0.117503 -0.170311 -0.0221591 0.134537 0.0490794 -0.336573 0.00676526 0.242984 -0.0099488 0.0094281 -0.460147 0.29248 -0.020679 -0.215832 -0.308248 -0.0175109 -0.0940759 0.00112232 1.39358 0.438614 0.0702701 0.468624 0.068829 -0.0623802 -0.0391226 -0.0265645 0.102065 0.336546 0.340894 -0.102277 -0.074261 0.269692 0.0616146 -0.057938 0.247401 -1.96805 1.097 0.546854 0.453668 -0.0778202 -0.0456113 0.433556 0.050938 -0.658369 0.041307 -0.803741 0.0928749 0.403519 -0.10759 0.0410268
62 -0.198774 0.44078 -1.04122 0.395626 0.0766321 -0.171266 0.00449287 0.0210917 -0.22103 0.077847 0.00272135 0.115172 0.126402 -0.237484 -0.127085 -0.231826 -0.0359657 0.0733322 0.0653653 -0.245023 0.0485422 0.0454525 -0.241433 -0.0444084 -0.343711 0.336792 -0.0456343 -0.223264 -0.105014 -0.0957513 -0.0603457 0.0933686 1.61295 0.658147 -0.0818035 0.319885 0.117987 -0.0792325 0.152551 -0.162062 0.205397 0.221073 0.346246 -0.218849 -0.206207 0.28021 0.0758318 -0.129594 0.262899 -1.88669 1.02664 0.587136 0.466662 -0.0881204 -0.041596 0.47509 -0.103808 -0.548542 0.00350821 -0.776442 0.126812 0.391264 -0.0634009 0.136537
20 -0.0755632 0.604848 -1.162 0.12795 0.0397587 -0.0492742 0.0810195 0.0578863 -0.181953 0.0586615 -0.210855 0.210456 0.0970789 -0.0714412 -0.0118579 -0.246729 0.0862514 0.0420715 0.0898557 -0.00654385 -0.0217089 -0.0504234 -0.0995869 -0.0834973 -0.569577 0.603981 -0.145219 -0.228622 -0.215552 -0.189091 -0.107884 0.0950749 1.56474 0.605357 -0.0577183 0.589128 0.101853 -0.0184257 0.103749 -0.141539 0.266423 0.340337 0.365055 -0.194912 -0.128837 0.284416 0.058899 -0.118587 0.234206 -1.85804 1.16041 0.67988 0.400422 -0.0650696 0.0827353 0.322471 -0.0406861 -0.626101 -0.133139 -0.752183 0.0635903 0.367683 -0.0258255 0.0688352
26 -0.0728033 0.438436 -1.32462 0.54958 -0.098527 -0.00471866 0.131132 -0.184422 0.0799419 0.17836 0.192083 -0.0706653 0.0900229 -0.0594313 0.0379583 -0.321446 0.020308 0.0718286 0.104912 -0.3965 0.179842 0.102202 0.0248168 0.0654431 -0.403467 0.354722 -0.0617386 -0.035903 -0.130038 -0.0136624 0.064471 -0.202614 1.26521 0.576937 -0.147981 0.614625 0.143752 -0.00897932 -0.0377327 -0.256489 0.289703 0.314215 0.364728 -0.297241 -0.24204 0.245832 -0.0462642 0.058611 0.243093 -2.00416 0.789667 0.49626 0.47951 0.00120952 -0.0153159 0.411979 -0.0540019 -0.526365 0.0848242 -0.496684 0.0835493 0.391822 -0.0983012 0.0863725
66 0.127644 0.628869 -1.33498 0.0448214 0.153884 -0.0831048 0.219001 0.0521161 -0.190928 0.200532 0.21183 -0.210388 0.138187 -0.120472 0.237995 -0.289035 0.0148478 0.157416 -0.0271563 -0.114955 -0.228206 -0.069614 -0.271488 -0.0582198 -0.327634 0.348596 0.00555397 0.0474918 -0.300426 -0.0106247 -0.0545153 -0.155509 1.60219 0.557173 0.0371699 0.516127 0.0772251 -0.0605678 -0.0011143 0.0225582 -0.0733793 0.40817 0.527196 -0.332248 -0.330974 0.175451 -0.152975 -0.0541823 0.378762 -1.97275 0.92162 0.607001 0.46828 -0.0376375 0.0183119 0.445309 -0.1411 -0.605974 0.113595 -0.979605 0.28368 0.533857 0.0317532 0.252832
16 0.107595 0.498388 -1.16859 0.154174 0.183145 -0.130516 0.091796 0.0656153 -0.164883 0.192351 0.0913343 0.057374 0.0735394 -0.0865657 0.144774 -0.130005 0.193029 0.121831 0.0726249 -0.0173345 -0.144449 -0.0651778 -0.286664 -0.0487896 -0.202327 0.304694 -0.011844 -0.0636487 -0.297816 -0.0757306 -0.0829881 -0.154513 1.61296 0.695703 -0.0224175 0.548435 0.0451698 0.0318566 -0.0718644 -0.0322941 -0.0840068 0.448649 0.428025 -0.378196 -0.223548 0.100068 -0.295505 -0.024952 0.428829 -1.91955 0.811721 0.607007 0.362351 0.0421821 -0.00621251 0.335224 -0.136517 -0.591292 0.0689514 -1.01127 0.245824 0.524036 0.0709153 0.235148
69 0.0309469 0.512652 -1.11317 0.211545 0.0921218 -0.129425 0.0857136 0.0631195 -0.0593026 0.146406 -0.0257587 0.132055 0.182167 -0.173207 0.0152604 -0.294593 0.0567212 0.0884292 0.0438348 -0.124084 -0.0723913 -0.0736808 -0.127458 -0.0216725 -0.0719493 0.435743 -0.0306641 -0.106831 -0.30829 -0.178305 -0.138036 0.00615439 1.49314 0.673641 0.0417661 0.485844 0.139337 0.0271057 0.120998 0.0134089 -0.0271371 0.552707 0.534136 -0.333186 -0.243172 0.145599 -0.282594 -0.0286104 0.294761 -2.0037 0.713346 0.612334 0.260716 0.00553696 -0.0244609 0.207108 -0.0434935 -0.5303 0.12583 -0.996076 0.256105 0.534763 0.0759417 0.148442
51 0.103122 0.463525 -1.07118 0.201991 0.212115 -0.0609173 0.110739 0.0322098 -0.184887 0.137506 0.0351262 0.0789243 0.0679804 -0.0348755 0.154393 -0.137247 0.230083 0.0814538 0.0656259 0.0639568 -0.280294 -0.041018 -0.0608673 -0.056427 -0.362971 0.335363 -0.0407877 -0.154337 -0.434352 -0.0481698 -0.154678 -0.319856 1.53787 0.618451 0.0219162 0.704422 0.0323285 0.0136596 0.00354861 -0.082038 -0.126909 0.591111 0.480426 -0.323052 -0.199167 0.186346 -0.300018 -0.0466459 0.346537 -2.04977 0.937626 0.591647 0.366193 0.0495106 0.0876622 0.287057 -0.0624771 -0.617573 0.0222791 -1.13589 0.27708 0.478957 0.118723 0.257801
64 0.0230578 0.528277 -1.20783 0.248811 0.193161 -0.203595 0.0845295 0.0818309 -0.039386 0.192387 0.0791823 0.141388 0.19241 -0.17174 0.0532927 -0.260445 0.199565 0.0928475 0.0514753 -0.124337 -0.0871802 -0.0233596 -0.154371 -0.0667714 -0.212138 0.461237 -0.0851518 -0.106151 -0.3157 -0.200584 -0.10921 -0.0617886 1.55356 0.717518 0.0429423 0.51774 0.109819 -0.00580175 0.00950173 -0.0329019 -0.00448619 0.53694 0.484204 -0.355156 -0.227848 0.108564 -0.240258 -0.0495478 0.390975 -2.00703 0.903015 0.746786 0.308878 -0.0134891 -0.0214568 0.398714 -0.0780249 -0.611273 0.00555315 -0.964302 0.231059 0.555285 0.0327088 0.174162
17 -0.0379107 0.552001 -1.21284 0.210391 0.117418 -0.148638 0.19582 0.0542567 -0.265736 0.0251219 0.137489 -0.33917 0.174095 -0.136884 0.246764 -0.316484 -0.137344 0.47582 0.0930737 -0.406399 -0.29816 -0.234155 -0.264621 -0.00289044 -0.414067 0.377671 -0.123969 0.127336 -0.141526 -0.0345396 0.0833186 0.0763374 1.41331 0.499656 0.0403064 0.768848 0.0613178 -0.147934 0.00334744 -0.0115636 -0.137027 0.371529 0.497603 -0.392119 -0.33908 0.104851 -0.220888 0.0166988 0.314355 -2.01815 0.67757 0.640863 0.381064 -0.0177206 0.0414483 0.392812 -0.17557 -0.490354 0.17062 -0.865839 0.1949 0.529224 -0.0122717 0.0712184
72 -0.239488 0.446824 -1.21516 0.265155 0.148018 -0.0838186 -0.246738 0.0329833 -0.115558 -0.117029 -0.107168 0.223507 0.198498 -0.306481 -0.325184 -0.156661 -0.130856 0.0507696 -0.0398705 -0.129803 0.158707 0.00633164 -0.211852 -0.112008 -0.489555 0.312909 -0.0397577 -0.283439 -0.0914051 -0.123196 -0.11368 0.262866 1.69912 0.771108 -0.0964301 0.549285 -0.00885063 -0.0440179 0.0530015 -0.15849 0.0324408 0.375439 0.366595 -0.245161 -0.0879978 0.165723 -0.0987301 -0.203555 0.296613 -1.85211 0.941682 0.545361 0.563719 -0.0954724 0.0125759 0.336321 -0.122608 -0.552685 -0.0989181 -0.742591 0.169303 0.29807 0.0179771 0.0762188
58 -0.312374 0.569755 -1.00084 0.514941 0.0872432 -0.0484113 0.0157365 0.0278012 -0.34851 -0.0205958 -0.0681794 0.0763904 0.0769127 -0.137836 -0.0422679 -0.220457 -0.00152855 0.159406 0.0649779 -0.118242 -0.0887546 0.0636626 0.0117514 -0.0691681 -0.552516 0.380444 -0.126664 -0.108095 -0.105484 -0.0930844 -0.0236238 0.0661081 1.41149 0.522806 -0.0389777 0.591081 0.0479347 -0.0645727 -0.00635556 -0.174817 0.177944 0.375035 0.425704 -0.203352 -0.104964 0.320927 0.0123567 -0.0927048 0.20085 -1.90509 1.28236 0.596244 0.614777 -0.049311 0.0526988 0.436624 -0.00609112 -0.682344 -0.129545 -0.878486 0.0740909 0.329062 -0.0669502 0.0819608
24 -0.0665279 0.533754 -1.2553 0.358708 -0.0377955 -0.244922 -0.0408319 -0.00744245 0.262827 0.0642399 0.0834945 -0.0300417 0.121118 0.108797 0.0965146 -0.214582 0.0396113 0.209681 0.0541166 -0.351781 -0.369222 -0.265971 -0.369811 0.058906 -0.329598 0.277133 -0.160541 -0.253767 -0.0826864 -0.167263 -0.0826748 -0.178239 1.43816 0.782019 -0.383284 0.869912 0.0224484 0.118203 -0.00393648 -0.144433 0.25438 0.284555 0.299347 -0.396654 -0.255735 0.168082 -0.0657193 -0.0386436 0.226841 -2.15639 1.01828 0.456897 0.674375 0.0718072 0.0665813 0.206051 -0.016783 -0.53026 -0.27105 -1.14474 0.0478463 0.258444 -0.119824 0.281025
2 0.0744908 0.300059 -1.13756 0.1927 -0.0130348 -0.241578 0.189122 -0.00118966 -0.22127 -0.0390841 0.032398 0.0498214 -0.0862678 0.0923826 0.145229 -0.0425243 -0.0930024 0.351738 0.0804178 -0.18451 -0.228315 -0.184147 -0.171558 0.172782 -0.566401 0.377754 -0.0723026 -0.244411 -0.255413 0.0578464 -0.0122958 -0.317697 1.34206 0.705598 -0.136058 0.748498 0.197592 0.00812537 0.113916 -0.0178896 0.0287287 0.405811 0.339306 -0.356039 -0.207918 0.253489 -0.121673 -0.0232646 0.182376 -2.28673 0.544597 0.315438 0.537397 0.00575839 0.0799581 0.296051 -0.0574574 -0.468376 0.242074 -0.870942 0.0927328 0.416633 -0.085818 0.15469
71 0.106958 0.410384 -1.11282 0.292039 -0.0130075 -0.198394 0.12665 -0.0320783 -0.275909 -0.0751314 -0.0369005 -0.167453 -0.0653571 0.0273113 0.0956437 -0.188734 -0.339119 0.37082 0.0445022 -0.280377 -0.00440753 -0.126322 -0.111036 0.174487 -0.465931 0.317542 -0.048082 0.0958409 -0.0577409 0.0634399 0.119163 -0.0784594 1.52963 0.636952 -0.141866 0.744988 0.167524 -0.0413265 0.0121166 -0.0821921 0.0467561 0.286688 0.337743 -0.33433 -0.336389 0.221888 -0.11489 0.0483254 0.270577 -2.0588 0.657328 0.463534 0.522115 -0.0725467 0.00662412 0.354375 -0.130039 -0.523748 0.205074 -0.7362 0.172255 0.3873 -0.0358013 0.0705989
27 -0.116789 0.566714 -1.31398 0.267594 -0.0656513 -0.101625 -0.016454 -0.0537359 0.320458 0.11124 0.144569 -0.0402319 0.102265 0.0195292 0.109794 -0.161028 0.123816 0.298662 0.104637 -0.401101 -0.292112 -0.177619 -0.368511 0.0725123 -0.282539 0.252347 -0.191775 -0.237912 -0.133527 -0.123027 -0.0350111 -0.224119 1.5303 0.809709 -0.317453 1.01836 0.0103066 0.0954908 -0.107286 -0.127999 0.144274 0.358565 0.383003 -0.505102 -0.295471 0.19738 -0.16182 -0.0175693 0.213062 -2.11306 0.979525 0.437827 0.646138 0.075133 -0.000787097 0.143562 -0.0161905 -0.545208 -0.159183 -0.967012 0.0290139 0.21887 -0.0572309 0.198074
9 -0.101089 0.585472 -1.34684 0.289858 -0.0555251 -0.152229 -0.0304847 -0.0556167 0.317275 0.0673378 0.141995 -0.0134806 0.0907734 0.0544481 0.0945565 -0.140077 0.0853226 0.241825 0.0695885 -0.35196 -0.364075 -0.198139 -0.358462 0.0753144 -0.227933 0.207941 -0.188203 -0.309588 -0.122348 -0.157492 -0.0976187 -0.15921 1.55944 0.835258 -0.371034 0.952213 0.00861331 0.0810244 -0.0900538 -0.122437 0.201017 0.336805 0.339767 -0.402248 -0.224152 0.215067 -0.0687061 -0.0423287 0.159372 -2.17556 1.08046 0.445579 0.683508 0.0640983 0.0212016 0.127883 0.00638879 -0.573065 -0.222729 -1.08621 0.0311923 0.175652 -0.0727255 0.23819
23 -0.181959 0.543641 -1.15712 0.341524 -0.0506443 -0.0903649 -0.0987485 -0.0449899 0.351577 0.0982394 0.120454 0.00771634 0.121932 0.0187468 0.00587924 -0.125706 0.145903 0.150584 0.0692228 -0.387462 -0.345737 -0.155739 -0.412129 0.0254405 -0.25797 0.172939 -0.193482 -0.336864 -0.0588836 -0.175055 -0.0978217 -0.0867997 1.45611 0.778139 -0.372463 0.768337 -0.0390449 0.072793 -0.160547 -0.120794 0.258158 0.234078 0.291315 -0.367937 -0.189195 0.172539 -0.033037 -0.0513332 0.182816 -2.00237 1.0708 0.372447 0.62235 0.0468387 -0.0419994 0.0759175 0.0338948 -0.526533 -0.283984 -0.964835 -0.0133484 0.136735 -0.0943725 0.221017
19 -0.143286 0.521048 -1.16376 0.374406 -0.0589526 -0.163836 -0.0776846 -0.0494866 0.382322 0.0707006 0.125317 -0.0251745 0.104807 0.0935792 0.0758538 -0.164801 0.0794114 0.225944 0.0811328 -0.374144 -0.37681 -0.228417 -0.354835 0.0690942 -0.343258 0.250081 -0.190517 -0.306965 -0.0630519 -0.174654 -0.0939393 -0.157121 1.44798 0.823144 -0.397039 0.840045 -0.0190026 0.101634 -0.106193 -0.145846 0.292064 0.297678 0.276123 -0.349978 -0.179089 0.173927 -0.0381466 -0.046763 0.161633 -2.11269 1.10038 0.394357 0.677107 0.0756201 0.0257085 0.0855216 0.0289405 -0.577115 -0.303633 -1.08872 -0.0198924 0.158216 -0.0949319 0.246139
34 -0.136362 0.575171 -1.27621 0.201228 -0.0450298 -0.0217533 -0.0529946 -0.0417543 0.263063 0.103118 0.103248 0.00690892 0.0559872 0.0494614 0.0860596 -0.0644322 0.186065 0.218248 0.0840855 -0.323729 -0.338805 -0.188449 -0.397322 0.0492418 -0.209405 0.145205 -0.17977 -0.258902 -0.108274 -0.136096 -0.0596436 -0.184591 1.41546 0.758749 -0.351455 0.921343 -0.0351044 0.0969273 -0.198817 -0.090785 0.151807 0.294672 0.429434 -0.585637 -0.320265 0.190111 -0.178487 -0.0129002 0.244219 -2.07502 0.993701 0.394201 0.705313 0.0845374 -0.0287674 0.0788073 0.0128997 -0.508445 -0.192946 -0.883491 0.000954028 0.146368 -0.0594222 0.183981
38 -0.17765 0.604045 -1.21158 0.265954 -0.0108421 -0.00904861 -0.134835 -0.0356975 0.248739 0.0700674 0.0599355 0.0694153 0.0643087 0.0018963 -0.0177309 -0.00397019 0.184797 0.222739 0.0835727 -0.340291 -0.370058 -0.145671 -0.450279 0.011222 -0.179018 0.0989344 -0.185526 -0.339185 -0.0775015 -0.190845 -0.111741 -0.0331077 1.49616 0.778523 -0.344502 0.881283 -0.0696086 0.0946724 -0.243082 -0.0455385 0.144111 0.254585 0.30311 -0.389035 -0.1291 0.0961134 -0.107608 -0.0476081 0.196848 -1.95209 1.04 0.385759 0.719982 0.0637057 -0.0508423 0.068701 0.0432054 -0.537886 -0.237542 -0.881005 -0.027356 0.093003 -0.0324885 0.160833
73 -0.159054 0.621754 -1.18865 0.120273 0.0912996 0.188298 0.0116921 -0.0704527 -0.218202 0.0547346 -0.0987971 0.2082 -0.0304178 -0.155954 -0.180705 0.0489571 0.00753773 0.176829 0.0589726 -0.239281 -0.0521994 0.0893363 -0.291729 -0.0361446 -0.219665 0.177249 -0.100842 -0.377123 -0.265463 -0.100095 -0.145324 0.167839 1.568 0.576918 -0.125219 0.650199 0.0285704 -0.0741635 -0.0965391 0.0195011 0.0744654 0.196961 0.544565 -0.462707 -0.287736 0.29662 -0.00174061 -0.0869753 0.299989 -1.99232 1.01683 0.552747 0.603412 -0.0699391 -0.0916069 0.319142 0.0317189 -0.486612 0.0264133 -0.597825 0.0669258 0.246368 -0.0327682 0.00299228
3 -0.319096 0.565966 -0.977385 0.307773 0.0165074 0.192956 -0.114594 -0.0513416 -0.288018 -0.0655156 0.0126307 -0.112944 -0.131465 -0.0645284 -0.068794 0.200881 0.00905391 0.344944 0.0406513 -0.0500757 -0.00322291 0.132627 -0.105684 0.0421595 -0.608134 0.162095 -0.057576 -0.251887 -0.0592567 -0.0633783 -0.0960123 0.191196 1.33149 0.63559 -0.214888 0.826538 -0.115078 0.0405939 -0.210739 -0.039486 0.00284032 0.328719 0.424452 -0.573518 -0.231142 0.236936 -0.209927 -0.0527819 0.259396 -1.91456 0.922546 0.228106 0.848254 0.0240282 -0.0208239 0.233151 0.0680407 -0.522306 -0.135185 -1.05161 0.0373591 0.191324 -0.15454 0.173827
49 -0.322993 0.521771 -1.04152 0.431242 -0.0338021 -0.227602 0.0389437 -0.00882568 -0.240912 0.00736229 0.101274 0.114973 0.103333 -0.253521 -0.0729937 -0.151116 0.0171505 0.00282354 0.0310156 -0.294459 0.0888905 0.088182 -0.298024 0.153475 -0.193243 0.217661 -0.120371 -0.311236 -0.157747 0.0128491 -0.0328544 -0.0163449 1.80099 0.775951 -0.0834525 0.573484 0.130125 -0.0742631 0.140508 -0.086575 0.0340501 0.29733 0.392942 -0.331911 -0.268188 0.330944 0.0561181 -0.133354 0.192271 -1.85581 0.965015 0.392794 0.354403 -0.045162 -0.0516286 0.201181 -0.0878718 -0.556757 0.111703 -0.928564 0.12566 0.312832 -0.0478291 0.138814
44 -0.313282 0.617638 -1.2902 0.284817 0.130124 0.224003 0.149825 -0.0484307 -0.315534 0.12309 0.0757944 0.169081 -0.0085352 -0.296603 0.114627 -0.196032 0.216293 0.542852 0.276915 -0.377785 -0.349515 0.136466 -0.225471 0.150634 -0.723756 0.436792 -0.200856 -0.236218 -0.393385 -0.0306969 -0.0314707 0.0554127 2.03816 0.74349 0.0685022 0.767358 0.0733698 -0.200914 -0.205756 -0.0912711 0.133892 0.497164 0.511087 -0.206462 0.0242169 0.396996 -0.0184609 -0.142314 -0.0106367 -2.06429 1.46225 0.720536 0.595054 -0.0869669 -0.0858008 0.24781 0.0689696 -0.907183 0.114086 -0.631109 0.017098 0.178473 0.120423 -0.159279
39 -0.333846 0.574654 -1.36459 0.362716 0.156987 0.280029 0.121432 -0.107011 -0.352899 0.0736505 0.264813 0.0318618 -0.0404764 -0.314982 0.139319 -0.1283 0.166184 0.472042 0.244871 -0.407025 -0.416737 0.0919733 -0.135082 0.141827 -0.675506 0.274545 -0.13575 -0.237382 -0.303174 0.00726751 0.0193232 0.0586285 1.87642 0.765466 -0.0379089 0.694523 0.0836314 -0.276374 -0.305315 -0.0882091 0.00328415 0.475362 0.632132 -0.321742 -0.0998096 0.383722 -0.116266 -0.102289 0.0882738 -2.27915 1.22152 0.574697 0.499859 -0.0366749 -0.0979993 0.227033 0.0142655 -0.715908 0.181029 -0.565318 0.0769711 0.143389 0.12465 -0.0493886
80 -0.382245 0.573686 -1.37607 0.454635 0.0839818 0.225227 0.058448 -0.101014 -0.280872 0.0263216 0.303432 -0.00166397 0.021545 -0.326598 0.116972 -0.288277 0.196956 0.329283 0.22296 -0.285341 -0.225143 0.0568064 -0.180967 0.137716 -0.52183 0.30765 -0.177303 -0.248251 -0.292733 0.017285 0.0136954 0.157789 1.80022 0.788166 0.0503558 0.903487 0.0491539 -0.284659 -0.28818 -0.170119 0.0225217 0.594404 0.632167 -0.305468 0.0178631 0.455231 -0.165932 -0.1209 -0.0340493 -2.32745 1.40373 0.583798 0.436905 -0.124155 -0.0858094 0.0969342 0.0449568 -0.923377 0.17951 -0.615626 0.0587609 0.167602 0.174711 -0.123202
14 -0.323796 0.568748 -1.40793 0.366084 0.124931 0.148752 0.11768 -0.0748714 -0.249564 0.0727487 0.252285 0.144875 -0.0292987 -0.278965 0.158025 -0.151388 0.282575 0.47271 0.279454 -0.397949 -0.459735 0.0457037 -0.245997 0.224282 -0.609095 0.32014 -0.226625 -0.371055 -0.439205 -0.0155101 -0.0487365 0.00381505 1.87581 0.799935 0.0158142 0.962669 0.0742333 -0.198021 -0.247741 -0.123577 0.0367777 0.563323 0.572394 -0.309417 -0.00448405 0.400671 -0.127146 -0.137448 -0.0525374 -2.19222 1.41567 0.649749 0.563783 -0.0614458 -0.0787821 0.154297 0.0504508 -0.85439 0.14315 -0.680797 0.0287932 0.13681 0.169685 -0.09757
25 -0.327828 0.597609 -1.34369 0.134689 0.0919882 0.189769 0.0548139 -0.024307 -0.237601 0.0865505 0.269533 -0.110909 0.0183842 -0.236997 0.0560098 0.027781 0.121055 0.376988 0.111386 -0.156934 -0.175325 0.109206 -0.0283371 0.0260978 -0.567235 0.282679 -0.152159 -0.38457 -0.353224 0.0240797 -0.0874776 0.0210568 1.6117 0.555309 0.0496802 0.678678 -0.0384525 -0.0912709 -0.143427 -0.0699109 -0.159731 0.47555 0.602127 -0.417534 -0.187275 0.3091 -0.189114 -0.0867186 0.259274 -2.02272 1.22288 0.460575 0.596633 0.0339039 -0.137177 0.209871 -0.0111341 -0.467882 0.021664 -0.465472 0.047288 0.0395777 0.0605345 -0.0575666
5 -0.346093 0.522202 -1.43527 0.415739 0.164199 0.0256162 0.0868735 -0.0569469 -0.308624 0.045972 0.325444 0.0542368 0.0764208 -0.320217 0.135532 -0.272989 0.130977 0.534543 0.231375 -0.456468 -0.450482 0.0107509 -0.207806 0.172642 -0.756041 0.445228 -0.229494 -0.511196 -0.454979 -0.0289393 -0.101407 -0.00345973 1.86076 0.839224 0.0258873 0.816927 0.0854105 -0.240729 -0.157526 -0.192605 0.00201226 0.604835 0.588082 -0.275625 0.00871042 0.414461 -0.0926009 -0.158542 -0.0070331 -2.35682 1.3942 0.611692 0.537549 -0.0338671 -0.103579 0.238374 0.00321156 -0.784209 0.108197 -0.716564 0.058393 0.143789 0.134863 -0.0493951
22 -0.38212 0.458219 -1.41225 0.505888 0.211416 -0.125058 0.0413634 -0.0535032 -0.303193 0.0154627 0.328364 0.0544396 0.120908 -0.325556 0.0642063 -0.278218 0.0465624 0.430766 0.152972 -0.442003 -0.435451 -0.00125951 -0.150797 0.108684 -0.592878 0.333915 -0.196875 -0.576477 -0.479817 -0.0290378 -0.16136 -0.0577392 1.69192 0.744107 0.0463394 0.579965 0.0558322 -0.274417 -0.118579 -0.171251 -0.0382057 0.535386 0.646466 -0.279083 -0.049359 0.428493 -0.0797955 -0.201269 -0.0167575 -2.27448 1.37411 0.604969 0.515721 -0.0341423 -0.143424 0.272248 -0.0159369 -0.71767 0.0687646 -0.830057 0.112196 0.137061 0.128876 0.00704701
36 -0.236571 0.533339 -1.20738 0.142875 0.0420794 0.271028 0.0506747 -0.0721138 -0.182241 0.0514761 0.157296 -0.120678 0.047205 -0.18509 0.0492628 -0.175896 0.0707391 0.102414 0.0794771 -0.0672742 -0.144529 -0.00859173 -0.0230182 -0.0142 -0.34075 0.197793 -0.0876818 -0.24121 -0.272945 0.0182217 -0.0712116 0.0741552 1.49961 0.478876 -0.000824215 0.788359 -0.0189692 -0.169995 -0.163917 -0.0553764 -0.110622 0.345312 0.681658 -0.421848 -0.209803 0.374531 -0.179067 -0.0691401 0.161119 -1.90489 1.06524 0.550171 0.591462 -0.0306528 -0.139608 0.137873 0.0620155 -0.64311 0.14447 -0.411056 0.0989723 0.0104458 0.134862 -0.153256
37 0.0387146 0.386553 -1.24579 0.133465 0.0676308 -0.100413 0.143966 0.0362495 -0.0658682 0.0396923 0.278602 -0.176155 -0.0319909 -0.0759587 0.128828 -0.258372 -0.2044 0.152847 0.0454885 -0.212966 -0.00237944 -0.0309648 -0.0705521 0.171168 -0.457233 0.180407 -0.0136038 0.107769 -0.0487276 0.133169 0.112205 0.0213032 1.38719 0.645282 -0.200935 1.00691 0.278357 -0.0294784 0.220206 -0.112726 -0.00888489 0.158652 0.246488 -0.329156 -0.268788 0.210284 0.0204145 -0.0512608 0.26914 -2.04541 0.670309 0.425041 0.432884 -0.0310807 0.0276165 0.356037 -0.110333 -0.330753 0.157097 -0.633834 0.225924 0.377778 -0.165897 0.120061
10 0.00344747 0.441679 -1.2404 0.221535 -0.0135968 -0.109573 0.121709 -0.0814953 0.086926 0.0665525 0.239687 -0.150475 0.040737 -0.0223059 0.122178 -0.256601 -0.154745 0.279714 0.0451378 -0.202201 0.0354921 0.00805477 0.0769387 0.0904645 -0.388748 0.331544 -0.014351 0.00133871 -0.0867724 0.0402621 0.0380261 -0.141872 1.39329 0.645153 -0.167951 0.840044 0.189219 0.0021595 0.242036 -0.178992 0.0635088 0.375596 0.33822 -0.319975 -0.297752 0.245895 -0.0593079 0.0104558 0.290638 -2.08008 0.746782 0.530024 0.583006 0.0281797 0.11771 0.441906 -0.0644452 -0.425329 0.0397931 -0.732931 0.166947 0.350849 -0.105813 0.160744
40 -0.0730891 0.470221 -1.03298 0.243958 0.0363936 -0.134491 0.0252454 -0.00129899 0.0564391 -0.0644485 0.080865 -0.0577283 -0.0128088 0.0328917 0.0305798 -0.061053 -0.0898816 -0.0298292 -0.0161014 -0.0474709 -0.0467684 -0.0485614 0.163918 0.10528 -0.46273 0.249803 -0.0677197 -0.0683315 -0.049748 -0.0347068 -0.0141179 0.0652913 1.3356 0.724047 -0.313101 0.920896 0.155178 -0.0527543 0.160803 -0.101496 -0.00275002 0.288354 0.269102 -0.253177 -0.201209 0.211777 -0.0455742 -0.0575502 0.157824 -2.03207 0.894243 0.468306 0.655144 0.0709171 0.140905 0.23952 0.00782155 -0.389022 -0.0844961 -0.93704 0.174052 0.202827 -0.0829766 0.216017
57 0.00529044 0.424393 -0.997966 0.134323 -0.0147923 -0.229439 0.0774334 0.017513 -0.0354425 -0.0859774 -0.0195544 0.122078 -0.0153841 0.0708213 0.0682969 -0.0294858 -0.00635999 0.0703469 0.0287639 0.0070738 -0.147494 -0.117933 -0.0314573 0.0672168 -0.335109 0.414366 -0.131766 -0.354022 -0.199013 -0.0778155 -0.123102 -0.0724995 1.28346 0.61432 -0.115538 0.708289 0.103217 0.00539626 0.190907 -0.0647469 0.0281113 0.397838 0.303346 -0.237498 -0.179005 0.27574 -0.0323766 -0.0754375 0.174738 -2.03651 0.948177 0.535389 0.568613 0.0599788 0.150265 0.26607 -0.0309867 -0.48202 0.0039575 -0.678379 0.054292 0.120319 0.0572674 0.116503
95 -0.0213779 0.448775 -0.935866 0.162827 0.10106 -0.335715 0.0951323 0.102165 -0.147214 0.0420504 0.0922675 -0.0252071 0.0784862 -0.0708657 0.146936 -0.143564 0.0544053 0.0072543 0.0383803 0.0487367 -0.173566 -0.128249 -0.116056 0.0380645 -0.186112 0.38268 0.0033376 -0.148704 -0.0816477 -0.0679392 -0.122079 0.123779 1.30999 0.677926 -0.176115 0.831719 0.148441 0.0809691 0.263362 -0.00850521 -0.145215 0.435718 0.240348 -0.128427 -0.0830016 0.178597 -0.09856 -0.050738 0.179785 -2.1114 0.749916 0.451361 0.686338 0.173614 0.0854075 0.169453 0.00102491 -0.476233 0.081635 -0.935161 0.165437 0.192101 0.0640976 0.210014
28 -0.189634 0.687985 -1.0393 0.39426 0.109325 0.0797884 0.0801408 -0.0529496 -0.112159 0.0755519 -0.0172124 -0.0714048 0.0909781 -0.181086 0.0361921 -0.0173906 0.14053 0.0488019 0.0166247 -0.0316086 -0.210773 -0.0310548 -0.120721 -0.152581 -0.139778 0.219749 -0.0475621 -0.0916736 -0.257936 -0.0666616 -0.0880912 -0.0145143 1.62592 0.507922 -0.118989 0.799391 -0.0623121 -0.0837333 -0.184763 0.0413686 -0.166588 0.384268 0.705401 -0.487515 -0.363723 0.194759 -0.305367 0.0656815 0.306895 -1.97394 0.72127 0.434557 0.543861 0.0340538 -0.124461 0.0758985 0.0288192 -0.44454 0.169184 -0.567241 0.147896 0.178012 0.132679 -0.00377785
75 0.00615002 0.457218 -1.35835 0.293329 0.0972568 0.014205 -0.0262313 -0.128081 0.011855 0.0853498 0.103087 0.00187946 -0.0857876 -0.0181986 -0.117715 -0.100528 -0.266774 0.494018 0.0190551 -0.127583 0.24226 0.110888 -0.0118672 -0.0769063 -0.527466 0.37392 0.108772 -0.0364411 -0.104003 -0.0411831 -0.0417065 -0.0931399 1.49773 0.655391 -0.215739 0.691176 0.0842375 0.11064 -0.0823772 -0.0851401 0.0853566 0.256056 0.326573 -0.31813 -0.190649 0.105586 -0.144352 0.100154 0.500127 -1.99405 0.602943 0.427802 0.691518 -0.0313312 -0.0502357 0.436706 0.0242046 -0.442762 0.00125352 -0.716771 0.128823 0.438509 -0.173779 0.121898
29 -0.00726621 0.431688 -1.40926 0.235723 -0.0741573 0.00903165 0.0457292 -0.0848136 -0.0599234 0.134341 -0.00698701 0.112835 -0.0534998 0.0182588 -0.0113864 -0.17474 -0.0355538 0.311425 0.157039 -0.187325 0.214089 0.0637194 -0.110203 0.081482 -0.403932 0.25561 0.0173897 0.0374624 0.00489798 0.0264314 0.0867798 0.00844521 1.41696 0.6772 -0.203122 0.626187 0.159393 0.121332 0.0549467 -0.205394 0.291484 0.277201 0.233494 -0.320862 -0.185232 0.229153 -0.0410533 0.00589197 0.367936 -2.01324 0.667771 0.545651 0.754472 0.00572217 0.0333363 0.57316 -0.0947933 -0.523978 -0.00403645 -0.736859 0.0923639 0.502011 -0.213072 0.144233
8 0.0641406 0.443478 -1.28461 0.134671 -0.0559674 -0.101887 0.0323799 -0.053835 0.17279 0.156746 0.0494656 0.0598149 0.0662537 0.0831037 0.118814 -0.283921 0.0499753 0.316058 0.121185 -0.319095 -0.094391 -0.0870463 -0.226022 0.0726744 -0.267837 0.277205 -0.0615759 0.043275 -0.00865593 -0.0503948 0.0658864 -0.287226 1.21795 0.68857 -0.299556 0.779386 0.146646 0.150726 0.0681289 -0.238525 0.26637 0.320829 0.223546 -0.403337 -0.278954 0.179383 -0.0739946 0.0123344 0.337524 -1.9728 0.703281 0.497992 0.555808 0.0823573 0.10518 0.317898 -0.0736381 -0.395414 -0.158119 -0.732538 0.0916845 0.369738 -0.14586 0.236211
35 -0.0439846 0.389898 -1.02625 0.286327 0.0642387 -0.2108 0.0499212 -0.00269153 -0.0381917 -0.0442645 0.0708971 0.0875176 -0.0410382 0.0716557 0.0927785 0.0446826 0.105631 0.033156 0.047606 0.0114936 -0.236589 -0.112015 0.0754109 0.08665 -0.389207 0.321088 -0.117219 -0.344983 -0.23484 -0.00924922 -0.103098 -0.21545 1.30647 0.656667 -0.157144 0.819323 0.0617914 0.00796722 0.107539 -0.0857494 -0.0869562 0.418105 0.365637 -0.342043 -0.218603 0.24146 -0.174532 -0.0307792 0.2265 -2.2856 0.875365 0.469248 0.626146 0.122341 0.110054 0.210071 -0.000284488 -0.442231 0.0317148 -0.795192 0.111028 0.133537 0.0405788 0.146884
6 -0.128437 0.515377 -0.958549 0.213153 0.0391655 -0.00417784 0.0684598 -0.0290072 -0.0866629 -0.0281202 -0.0686394 0.0387297 -0.0852188 0.0304682 0.0477529 0.207918 0.132982 0.00153126 0.0271235 0.0175082 -0.147488 -0.128192 -0.0466837 0.0372841 -0.277518 0.159136 -0.127689 -0.227727 -0.1512 -0.0379822 -0.0453025 0.0800414 1.31289 0.601007 -0.232335 0.828872 -0.00488817 -0.104357 -0.189004 0.0291565 -0.116561 0.296786 0.598767 -0.556853 -0.324665 0.238336 -0.221729 0.0231112 0.226844 -2.15841 0.847126 0.453301 0.750967 0.0936343 -0.0610002 0.0726374 0.0376997 -0.403194 0.0937747 -0.61661 0.0594268 0.0811349 0.0385311 0.0119535
13 -0.214557 0.582346 -1.18233 0.22662 0.0011233 0.116993 -0.0691987 -0.0384809 0.0821519 0.119782 0.13295 -0.0641966 0.026193 -0.0707117 0.0480635 0.0296314 0.235906 0.244465 0.100992 -0.191632 -0.23311 -0.0349931 -0.270113 -0.0341281 -0.289314 0.173224 -0.150962 -0.245147 -0.15813 -0.116904 -0.0770368 -0.105677 1.35971 0.62267 -0.164249 0.821009 -0.08172 0.0700582 -0.228079 -0.0747139 0.0584302 0.368013 0.544571 -0.662996 -0.368131 0.218324 -0.277318 -0.0212155 0.306631 -1.86675 0.957929 0.395887 0.68116 0.0478041 -0.0825116 0.173635 -0.000516543 -0.50543 -0.117086 -0.63284 -0.008265 0.130356 -0.0289853 0.0907488
1 -0.0539669 0.353856 -1.16991 0.285349 -0.0357043 -0.171276 0.0442145 -0.0199149 0.0353424 -0.0892406 0.136072 0.00851526 -0.0722115 0.0653342 0.0863106 -0.0432636 -0.069534 0.199438 0.083237 -0.0212126 -0.143458 -0.109491 0.0271622 0.154463 -0.297155 0.194305 -0.095238 -0.25787 -0.140602 -0.00380448 -0.0463756 0.0143532 1.14997 0.581427 -0.161384 0.920048 0.131428 0.0584265 0.215719 -0.140534 -0.0284856 0.402589 0.367475 -0.388074 -0.230195 0.263597 -0.174502 -0.0207464 0.153591 -2.05045 0.850932 0.500192 0.866074 0.117858 0.149777 0.440783 -0.0294323 -0.468192 0.0172667 -0.723241 0.0738033 0.124025 0.00923101 0.0959377
7 -0.32006 0.583102 -1.43867 0.38024 0.158023 0.0706606 0.155904 -0.0675894 -0.331478 0.0738582 0.359435 0.00618123 0.0839871 -0.340354 0.160055 -0.292998 0.158726 0.395293 0.189527 -0.446078 -0.387286 0.0202928 -0.205244 0.129166 -0.543218 0.352905 -0.21862 -0.436769 -0.460688 0.018109 -0.0642703 -0.0144767 1.82803 0.78974 0.0270616 0.867008 0.112024 -0.336836 -0.211037 -0.158977 -0.0356792 0.543647 0.692414 -0.305265 -0.0225525 0.480667 -0.0738854 -0.139673 -0.0559484 -2.31287 1.4063 0.664616 0.476607 -0.0939864 -0.143395 0.205703 0.0235957 -0.774738 0.218696 -0.635883 0.107352 0.165195 0.17018 -0.100019
