100 64
1 -0.5314906 0.067649305 -0.084359236 -0.27972227 -0.4035854 -0.21285719 0.1097719 -0.030631049 0.05297457 -0.2779995 0.5063838 -0.23606238 0.14084156 0.28205395 0.13236512 -0.0074044545 -0.13041618 -0.20093566 0.14821598 -0.18234213 0.26711383 -0.25755003 0.14739226 0.3258093 0.25336695 0.47637516 0.30763936 -0.030359918 0.18681732 -0.027869401 0.14776379 -0.14653331 0.2827664 0.31446424 -0.27338323 0.34464273 0.5998986 -0.14582938 -0.104008764 0.15197931 0.30213732 0.1849293 0.8055192 -0.33329037 -0.33093345 0.11424938 0.019137029 -0.16942514 -0.10062637 0.16322592 0.14735046 -0.18915674 -0.38836142 -0.518172 -0.6588593 0.34065726 0.58230686 0.52973187 0.033399772 -0.32631248 -0.015993847 -0.2529483 0.20696324 0.4373078
2 -0.34825787 0.27413818 -0.09499583 -0.32827398 -0.4121558 -0.3948062 -0.20625171 -0.097246855 -0.27423865 -0.2028683 0.14817019 -0.20817994 -0.24160784 -0.43800014 0.11143143 0.39308465 -0.32468948 0.12636322 0.17775042 0.26185423 0.1466546 -0.3393153 -0.086199924 0.1347485 0.041614074 -0.3107443 0.35125768 -0.20422968 0.27392814 -0.15515053 -0.4621105 0.3964708 -0.39752305 0.13322948 -0.47845432 0.3030664 0.44809085 -0.41995874 -0.44137782 0.0050658933 0.25718066 0.4846276 -0.1772023 0.11303115 -0.44124532 0.2574794 0.14047986 0.27790675 0.09577323 0.4198398 -0.09293853 -0.13655189 0.036868487 -0.68977463 -0.24165511 0.54839754 0.30150115 0.8122758 -0.1325432 0.29485473 -0.14074309 0.105033115 -0.44308913 -0.014129771
3 -0.60759157 -0.5701076 -0.10213858 -0.4072894 -0.03443816 -0.38740227 -0.4429092 0.037476193 -0.08357408 -0.112951756 -0.055635266 -0.0063267597 0.0039145113 0.041574392 0.65591204 -0.05152003 -0.3498969 -0.13952065 -0.13701679 0.31024015 0.06083078 -0.019620458 0.023611406 0.02147296 -0.07023683 -0.25424922 -0.273196 -0.25790545 -0.12020475 -0.7231148 -0.12337074 0.5654719 0.41677347 0.64523983 0.11584361 0.13296822 0.548778 -0.34164938 -0.16311888 0.58565104 0.10689261 0.0957091 0.3882132 -0.26534456 0.06194923 0.1529129 -0.29108146 -0.1820932 -0.31753907 0.21504143 -0.12617858 -0.066316135 -0.07992937 -0.34901232 -0.27801183 0.47782296 -0.39704153 0.17538358 -0.046374764 -0.09736073 -0.42019823 0.30606624 0.2380742 0.4277545
4 -0.48945925 -0.0961147 0.036004994 -0.48671806 0.030722283 0.35996547 -0.23172586 0.16610041 0.23192097 -0.0029355062 -0.42761558 0.15335654 0.3950297 0.10866258 0.01735038 -0.11402497 -0.2292366 -0.45577866 -0.1966552 0.0038052984 -0.26346642 -0.06309187 -0.09774795 -0.19459292 0.10830793 -0.26938525 0.039393708 -0.017563516 0.3864725 -0.6250093 -0.15590172 0.34043205 0.64148456 0.4311469 0.13901876 0.08412446 0.8542704 -0.6362058 0.32119727 0.67512184 0.17331147 -0.29305646 -0.0013108077 0.28587723 -0.1815353 -0.3321538 0.24022575 0.2852699 -0.5027364 0.17480911 -0.10040702 0.14887954 0.19675598 0.48321575 0.016497845 0.10536022 0.03643825 0.4252014 -0.0984326 -0.31165716 -0.1501925 0.18172161 -0.48312655 0.49300656
5 -0.42473495 0.5405744 -0.42066205 0.30811605 -0.035810415 0.22967517 0.011747062 0.14104937 0.09031919 -0.12779321 -0.20325767 -0.09215723 -0.1457473 0.008361946 0.039351083 -0.18649511 0.35661402 -0.36413774 0.13770355 -0.29586977 0.23252134 -0.076350205 -0.068070635 -0.38835222 -0.5234434 -0.398315 0.157464 -0.18171766 0.10173171 -0.31571746 0.18599606 -0.1079422 0.4749211 -0.23880933 0.0021567165 -0.25148788 0.26543817 -0.44678673 -0.15384607 0.43123376 0.21819314 0.51259124 0.24441923 0.6316692 0.5047766 -0.11848993 -0.5705336 -0.043153178 0.39587432 -0.19331497 0.33537725 0.21357185 -0.015774969 -0.3801447 -0.17402717 0.24638024 0.5469218 -0.51176035 0.1062168 -0.22959933 -0.38864133 0.5529016 -0.05274667 -0.4274949
6 -0.44758904 -0.15085171 -0.50322986 -0.5417438 0.1163678 0.02625846 0.29377782 0.17790192 0.6305707 -0.024621308 -0.028230477 -0.14126083 0.09021191 -0.07833308 -0.0090909945 -0.36776245 -0.16857994 -0.14526148 0.010561261 0.32609943 0.07261402 -0.37241912 -0.4185159 0.18641761 -0.3226268 -0.3895808 -0.21600124 0.40486217 0.098878935 -0.11548997 -0.20699528 0.005419367 0.028509356 0.3641795 -0.1971271 -0.28229204 1.0031607 -0.23982163 0.156853 0.23246615 -0.10293497 0.00923216 -0.10418364 0.25933477 0.2250676 -0.5437426 0.276997 0.17831415 0.10424337 0.19858141 -0.42709053 0.2506067 0.3793482 0.0077088885 -0.5540169 0.45217943 0.036099404 0.6141861 -0.4059107 -0.5331356 -0.14812565 0.27584794 -0.004928618 0.44116455
7 -0.6397007 0.43374676 -0.42718008 0.100497685 -0.3760997 0.3826317 -0.46551916 0.46063107 0.61384785 0.2216647 -0.08008756 0.034392316 -0.20678425 0.21076104 -0.042482175 -0.4111759 0.4950114 0.032080248 -0.08928023 -0.085654095 -0.029787408 0.12352435 -0.232768 -0.2507139 -0.45703867 -0.20606852 0.22328126 -0.28850034 0.15615284 0.051011037 0.020001033 -0.19554445 0.48570082 -0.004304998 0.35596362 -0.42937624 0.44953233 -0.030958222 -0.15198798 0.62928516 0.43041757 0.36679596 -0.30178204 0.15121658 0.46239096 -0.019029915 -0.27895904 0.26116794 0.20472758 -0.33101335 0.10273114 -0.29393515 0.128929 -0.22676824 -0.38356337 0.38416937 0.084428206 -0.5584721 0.59929746 -0.23697045 -0.0736462 0.13196516 -0.31794402 -0.35713795
8 -0.03380207 0.053555354 -0.15492767 -0.13893902 -0.1553013 -0.4461962 -0.23803309 -0.53581595 0.45774367 -0.25905892 0.15190673 0.25146404 -0.27036795 0.5788917 0.19989046 -0.019011144 0.1381418 -0.44466722 0.5288143 0.038900793 0.46457937 -0.031839352 -0.48174572 0.37332496 0.2650704 -0.32585794 0.23262301 0.15228263 -0.058542587 0.086625166 -0.22263919 -0.117400624 0.49178144 -0.25544092 -0.4428583 -0.57440984 -0.45595616 -0.3848617 -0.2074462 0.38158235 0.05583919 -0.036260407 0.39388266 -0.02072707 -0.59159404 0.24345589 0.16489838 -0.21569976 -0.22480702 0.061238293 -0.28145298 -0.4393392 -0.13301237 -0.14362128 0.1692695 0.26860467 -0.07133673 0.8768371 -0.33586293 -0.20105255 0.6569192 0.057437014 0.058337443 -0.40446043
9 0.16830057 -0.43093187 -0.42803538 0.35388634 0.0545383 -0.37736636 0.17505048 0.07339186 0.34154344 -0.08771037 0.28283688 0.4323938 0.10169226 0.26787272 0.3398521 0.006808299 0.11744235 -0.34358746 0.25862426 -0.21291296 0.25850943 0.33198214 0.07133401 0.14656833 0.012473677 0.2716696 0.5358141 -0.34151834 0.26730722 0.18915382 -0.49483758 -0.16955356 0.5482463 -0.09520253 -0.2567283 -0.55742395 0.037599295 -0.710999 0.019600078 -0.05237252 -0.27214053 0.31050918 -0.12634954 -0.30112296 -0.37104246 0.3585255 0.49955097 0.12254726 0.060981467 -0.31994283 -0.16115004 0.009773197 -0.22317475 0.016145872 0.37140927 0.68095374 -0.064885415 0.6887354 -0.04399943 -0.09518347 -0.1392262 0.18108265 0.26144752 0.3775709
10 -0.30228615 -0.34947985 -0.09873744 -0.3292571 0.11913264 -0.6438 -0.11867472 -0.022549167 0.32350886 -0.46347484 -0.24605832 -0.22154291 0.45306566 -0.33070612 0.7394121 -0.30979064 -0.20927165 -0.22012271 0.15358606 -0.14608417 0.0072191004 -0.47995073 -0.5096307 0.25515252 0.30058986 0.065276094 0.6461785 -0.038959187 -0.37243208 -0.16435258 -0.02171687 0.0404502 0.15229613 -0.113585144 -0.38079366 -0.34381822 0.04635346 -0.23410013 -0.34770206 -0.012337552 0.14119016 -0.47553816 0.28492576 0.23109935 -0.24178438 -0.11057144 0.35957074 0.14680748 -0.054201223 -0.1768726 0.041523863 -0.7301456 -0.19014092 -0.20255731 -0.33705333 0.04948691 0.33379525 0.5579036 -0.14726074 0.5618163 0.5082852 -0.16923009 -0.21590051 -0.10413979
11 0.011225774 -0.34395206 0.35094014 -0.39323035 -0.054115564 0.29039213 -0.20467684 0.25281096 0.10540487 0.02370472 -0.03951667 0.49536997 -0.15948227 -0.1945463 0.04763408 0.12919357 0.37168947 0.13959385 0.43003005 0.11441477 0.09632688 -0.26055422 -0.4794324 0.2958788 -0.25629002 0.19037645 -0.27928054 -0.3237704 -0.2078467 0.077537164 0.11410393 -0.22957994 0.113626964 0.063324146 -0.12704729 -0.24855503 0.43083054 0.07351915 -0.25373557 0.49449933 -0.0041735047 -0.32446256 0.39728716 0.17568776 0.041313965 0.2898696 -0.24225937 -0.5578985 0.024834517 0.45769113 -0.72803754 0.12864652 0.01429409 -0.07747316 -0.16369659 -0.21810162 -0.03657924 0.89359 0.10228139 -0.109608285 0.22744907 -0.5396521 -0.7480121 0.1438136
12 -0.7674195 0.25396866 -0.16038023 -0.31181186 0.087084964 -0.47052985 -0.2994528 -0.2113827 0.34822237 -0.28154176 0.50187457 0.057338502 0.14579313 -0.21359916 0.38488457 0.14326888 0.24550515 0.36683998 0.33650094 -0.017590648 -0.38217905 0.02864393 0.31009802 0.42332736 -0.22004382 0.14250617 -0.048184086 -0.16080524 -0.47760248 0.030682556 -0.2549869 0.63006777 0.031478662 0.21379219 -0.17166631 0.32322046 0.6189099 -0.5626088 -0.090539254 -0.22346792 0.13376895 -0.1835126 0.44124418 -0.32555246 -0.37937918 -0.2307757 -0.11816514 -0.3660544 0.07687854 0.19741942 0.4408127 0.29604444 0.18501855 -0.3291663 -0.18696815 0.26496732 -0.17483592 0.47246265 -0.080623195 -0.030738804 -0.15133312 -0.30603105 0.07126196 -0.32027113
13 0.20370463 -0.3555679 -0.48430204 -0.037422583 -0.2587625 0.3098772 -0.06490264 0.02992343 0.45018095 -0.20414421 0.23114514 0.29864088 0.17042254 0.17822593 0.4131869 0.010233458 0.45572135 -0.3604758 0.13542554 0.35360292 0.25095534 0.47385022 -0.1209335 0.25858557 -0.35058922 -0.06921814 -0.44973445 -0.63786733 0.31770638 0.0023026888 -0.0223147 0.08294209 0.4459607 0.22363754 0.13309172 -0.71127576 0.5383922 -0.39754066 -0.2010328 0.3782367 0.46779427 -0.0029926396 -0.06304203 0.41539472 0.039049745 -0.43025073 0.18304108 -0.04194982 -0.3025518 0.37549698 -0.40288845 -0.12668237 -0.0601767 0.33518544 0.15350127 0.4560715 0.17719291 0.16575336 -0.29542622 0.11720578 -0.4588963 0.22105858 0.24091947 0.589434
14 -0.51778406 0.18363993 -0.20087078 -0.044608004 -0.41017425 -0.127238 -0.08493061 0.23645055 0.24336988 0.08267405 -0.68717825 -0.006010282 0.22649875 0.2463787 -0.19761145 -0.13722289 0.56506836 0.032871164 0.1155672 -0.18333781 -0.09843511 0.25377548 -0.1236991 -0.11379222 -0.48895225 0.02707939 0.03862633 -0.34731722 0.00786624 0.09160877 -0.27246362 0.08131367 0.63032067 -0.082864255 0.29086086 -0.57380086 0.56233346 0.16905127 -0.019909536 0.3937975 0.45643342 0.1741949 -0.08362604 0.4505569 0.6032058 -0.41673848 -0.68349105 0.48850885 0.14053918 0.06289992 0.019313578 -0.20604925 0.121879384 -0.62321836 0.1988154 0.27942413 0.39377072 -0.6453109 0.2299288 -0.35410473 0.22749728 0.22716871 0.060338706 -0.27360728
15 -0.12704833 0.2408288 -0.6699077 -0.26136845 -0.52829677 0.120683976 -0.13595018 0.7228032 -0.07382658 0.3820467 0.23403282 0.3070377 -0.27216634 -0.06314153 0.098040946 -0.750655 0.22757366 -0.49308297 0.05567077 -0.3900702 -0.13951844 -0.44973606 0.123851046 -0.03853071 0.16272055 -0.5074182 -0.35273612 -0.005621328 0.27942473 -0.16510785 -0.4325325 0.18361668 0.6810454 0.2658889 0.032015435 0.15979438 0.19139077 -0.08990315 0.39087334 0.33267325 0.02644232 -0.24974392 0.27840978 0.30413535 -0.23257668 -0.44240814 -0.40112486 0.09175202 0.19610673 0.11495841 -0.21103895 -0.021644605 -0.18297467 -0.35247082 0.1606658 0.5446013 0.10747923 0.15705357 -0.22724895 0.3761933 -0.39841375 0.27292088 -0.37719813 -0.016263954
16 -0.24840216 -0.18504313 0.23191369 -0.21628031 -0.28490654 -0.09809422 -0.6068288 0.45970318 -0.046386845 -0.31415826 0.027104743 -0.033902522 0.53648716 -0.20199661 -0.0948 0.2762664 0.11972031 0.39477664 0.3474271 0.020358164 0.46000028 -0.12524346 -0.267078 -0.29700166 0.11585144 -0.023532614 -0.38270822 0.009479202 0.050221253 0.35716894 0.52803993 -0.12018034 0.14212465 -0.070837565 -0.36222702 -0.36322522 0.12928048 0.041901734 0.27841166 0.41403022 0.6259411 -0.35457367 0.2181769 0.05755916 0.0122695 0.09252547 0.12555712 -0.33944574 -0.020748537 0.16230363 -0.5932912 0.43542647 0.19812696 0.21238226 -0.18641217 0.23860201 -0.12997156 1.0623797 0.22669458 0.4797335 -0.22042531 -0.37571907 -0.24415308 -0.1324645
17 0.009847705 -0.25910512 0.37353852 -0.64569503 -0.39305076 -0.77464753 -0.7257546 0.095558666 -0.07897074 -0.28639418 0.13094994 -0.08412846 -0.18561156 -0.2548245 0.1514218 -0.18499357 -0.27093554 0.040545788 0.4270816 -0.16408883 0.06021181 -0.16655134 -0.514121 0.26527202 -0.33486786 0.1572142 0.33433723 0.20850478 0.43173376 -0.019079432 0.2021748 0.38783142 0.26148042 0.37776926 -0.48578197 -0.22611877 0.0963466 -0.22654402 -0.54431075 -0.47680485 0.2689258 -0.35428292 0.3383144 0.21430477 -0.4595565 -0.0064927065 0.10712725 0.09033289 -0.10783826 0.21920449 -0.24986786 0.16451196 -0.20976575 0.065944426 -0.009323713 0.018355716 0.3059276 0.44474444 0.06427781 -0.57242256 -0.06181467 -0.012919809 -0.24725695 -0.09082563
18 -0.41201758 0.6303993 -0.67383033 -0.4250157 -0.091352135 0.031422198 -0.13203444 0.24379562 0.2738768 0.2551615 -0.15032156 0.705269 -0.18906249 -0.22109976 0.47835645 -0.13897781 0.4590406 -0.3087161 -0.17266761 -0.4951727 0.001666098 -0.05416759 0.14508943 0.42358747 0.57964176 -0.13232265 0.07420312 0.10411004 0.062368646 0.14682898 0.07361422 0.13048151 0.211136 0.50956476 -0.40701985 -0.2704931 0.09317385 0.17135786 -0.007965402 -0.03938558 -0.21210882 -0.27270958 0.22972193 0.3676649 0.27985576 -0.14239262 -0.23655243 -0.10129126 -0.3838342 -0.09181353 0.3535938 0.49391022 -0.2787249 -0.6042307 -0.17999527 0.38551638 -0.116742484 0.23753111 0.3355378 0.32880905 -0.24030475 0.38319325 -0.48120978 0.0027313898
19 0.38630882 -0.29856646 -1.1147166 -0.09370258 0.012618369 -0.123499565 0.2079255 -0.30049884 0.24535015 0.044203293 0.36200732 0.49023843 0.062557176 0.56417024 0.45996442 -0.300067 0.45784798 -0.34804976 0.5144448 0.08508205 0.22593082 0.018719478 -0.1983161 -0.2574994 0.10243388 0.019013839 0.35742772 -0.57476085 0.16347417 0.1061508 -0.19833496 0.0836702 0.21086714 0.1113151 -0.3982036 -0.32814232 -0.23629245 -0.3521449 -0.37533608 -0.078193784 -0.22767684 0.005971047 -0.3535783 -0.2509787 -0.10680021 0.3901574 0.3281031 0.57769215 0.11609168 0.02783128 -0.0013966722 -0.029275527 -0.3048271 -0.21566653 0.3624136 0.42549953 -0.24488808 0.74814135 0.008035392 -0.2663727 0.25213745 0.21519849 0.68975997 0.3065079
20 -0.2512307 0.67346966 -0.2512377 -0.2822879 -0.3140085 0.032954972 0.048482608 0.44494906 0.06832455 -0.44280455 -0.09136504 0.1649626 0.02741836 -0.094312444 -0.06666155 -0.24209039 0.06288435 -0.3541343 -0.5393521 0.0004454568 0.558753 -0.37622395 0.028936436 0.71637976 0.33922318 -0.008610676 -0.1118921 -0.12943839 -0.15326676 -0.27347067 0.108673505 0.30129525 0.1576675 0.11153663 -0.055182286 -0.19330806 0.103513665 -0.5079284 -0.04132006 0.3850744 0.3494539 -0.37504274 0.09988297 0.02597572 -0.12608711 -0.16145581 -0.618249 0.41212174 0.4474596 -0.023768915 0.015496363 0.15050367 -0.2573283 -0.38250363 -0.19493003 0.47114384 -0.33875304 0.3875888 0.6747645 -0.058563408 -0.024979418 -0.43396524 -0.26102167 -0.050538268
21 0.02035366 -0.4286734 -0.23880097 -0.06892448 -0.04383192 0.26609138 0.06924593 0.052040175 0.37622666 0.34947374 -0.40342548 -0.29672188 0.5509508 0.3354233 0.25293502 -0.43221143 0.040839046 0.052747253 0.044103455 0.3479372 0.14510238 -0.049086004 -0.3211106 0.26276308 0.30533454 -0.24912177 -0.30227998 -0.3864836 0.28833023 0.42794305 0.25114942 0.19340266 0.67736405 0.64028585 0.1549813 -0.346318 0.43133265 -0.56788266 -0.2814353 0.59964365 0.15446407 0.0930166 0.37150192 0.33460748 -0.09548218 0.08004979 -0.17986052 -0.10908817 -0.06995266 0.17590493 0.0381772 -0.04452127 0.4687066 -0.050740402 0.2631599 0.336498 0.14416544 0.13763139 -0.09546934 -0.41461512 -0.5307846 0.49684212 -0.34009737 0.3093473
22 -0.44653517 0.38930023 -0.24842896 -0.053100187 -0.37075442 0.21706888 -0.13514258 0.29569563 0.43946025 -0.12304732 0.19893928 -0.053462774 -0.37271398 -0.026031954 0.15279007 -0.21930143 0.808867 -0.32431787 0.27220815 -0.011116327 -0.18040083 -0.13723236 -0.23408625 -0.48985732 -0.43282264 -0.11023086 0.23310684 -0.021964924 0.0112795085 0.040652134 0.011107907 0.03556395 0.08382932 0.08309034 0.13101463 -0.22373079 0.1893417 -0.2171873 -0.021422042 0.632776 0.19001219 0.5138241 0.37058216 0.5192029 0.33615714 0.007885913 -0.4735858 0.34521484 0.23389141 -0.37885273 0.18614103 0.21049233 0.053084802 -0.5976673 -0.34072125 0.349094 0.30212697 -0.35559356 0.3533805 0.039460767 -0.20764056 0.45565698 -0.32444155 -0.4270918
23 0.39572927 -0.31271216 -0.82070833 0.24344917 -0.22942491 0.028181266 -0.00073234143 -0.40590376 0.29599187 0.00613997 -0.006588255 0.2679258 0.13914268 0.8426784 0.6746351 -0.21806943 0.31813586 -0.53385663 0.56593335 0.06436071 0.59236646 -0.22267616 -0.29694876 -0.055061508 -0.18977228 0.05151908 0.27215993 -0.22289312 -0.14551894 0.4695629 -0.51545876 0.22120267 0.27790353 -0.13179006 -0.13951395 -0.056143407 -0.21244174 -0.42799395 -0.044544585 -0.064582035 -0.22782752 -0.09669616 -0.29194775 -0.002230377 -0.41879427 0.27973968 0.3379923 0.33065182 -0.17886165 0.1324627 0.056372475 0.25633997 -0.19782309 -0.13359606 0.016232042 0.300243 -0.06371696 0.6970814 0.16800779 -0.3363871 -0.06376353 0.40081352 0.64945054 0.23455295
24 0.276215 0.00893981 -0.6480001 -0.23493142 0.004548005 -0.082829885 0.0034902375 0.02997162 0.28139135 -0.18783349 0.11430521 0.5365078 0.15589276 0.5139974 0.329565 -0.30713117 0.29338872 -0.20135914 0.29848224 0.25500226 0.190083 0.3068377 -0.1382589 -0.17077988 -0.2158325 0.27516916 0.379661 -0.6362591 0.021270992 -0.06575903 0.0028901638 -0.43443543 0.3686047 0.033703595 -0.46600816 -0.29709905 -0.3329892 -0.41048053 -0.17031874 -0.41149318 -0.25754675 0.10804975 0.046953876 -0.028468637 -0.53602964 0.25996843 -0.05991022 0.5672424 -0.25874513 -0.394767 0.076528534 -0.08207118 0.12665515 -0.0537217 0.17026664 0.5594326 -0.09291842 0.7880575 -0.15798482 -0.19879638 0.0061820853 0.19071215 0.8353477 0.43080366
25 0.033613134 -0.0018397248 -0.104385495 -0.42191407 0.023015676 0.1341811 -0.17510638 0.46947894 0.26324984 0.17303829 -0.31464493 0.45916647 0.43707007 -0.040893987 0.5282319 -0.34389544 0.301682 0.19877961 -0.27720994 -0.39878526 -0.14616805 0.70027536 -0.5189894 0.11912375 -0.19778603 -0.08241147 -0.43936694 -0.16954258 0.17259409 0.012625708 -0.11642731 0.25082645 0.24238122 0.029733218 0.14357777 -0.10235333 0.574515 -0.32442316 0.13516662 0.82644975 0.531562 0.31402186 -0.08556898 0.6977239 0.09419859 0.13720886 -0.36366975 0.2872683 0.34664086 0.14221673 -0.07567295 0.079906695 0.17395078 -0.09566921 -0.34094378 0.35262382 0.42251757 -0.006964365 -0.30376115 -0.45563942 -0.45154795 0.34040013 -0.1757954 -0.10646901
26 -0.43476063 -0.1053428 -0.076463126 0.028218796 -0.262293 -0.46245685 -0.054547977 -0.2475815 0.07742616 -0.3845045 -0.011101162 0.066467285 -0.045070454 0.3619306 0.17973305 -0.18374225 0.22074196 0.14232172 -0.32746398 -0.73062384 0.20670326 -0.47742823 -0.50458753 0.34053582 -0.05433799 -0.5251347 0.15738603 -0.011096544 0.33575156 -0.32007018 -0.06236294 -0.06748809 0.22380595 0.23984629 -0.34810933 -0.5610216 -0.34836477 -0.32143155 -0.26803657 -0.0321764 -0.04109133 -0.31483144 0.71643186 -0.07248266 -0.20373677 0.035489988 -0.221886 0.26347777 0.021266699 0.08151074 -0.34963274 -0.6421057 -0.06643182 -0.021651288 -0.28505182 0.33470082 0.20864344 0.53377116 -0.119259566 0.01950153 -0.2800985 -0.14516185 -0.38081434 -0.51552296
27 0.29346442 -0.36909267 -0.037325017 0.16091336 -0.15185441 -0.044240825 0.03617781 0.06255939 0.39351195 -0.010496143 0.23899783 0.26611632 0.17419547 0.27317962 0.3412962 -0.15948 -0.019175634 -0.40971938 0.1195402 -0.24607365 0.44470385 0.32310832 0.03092803 0.31640613 -0.25878707 0.30894855 0.1750691 -0.11345013 -0.11788243 0.10922606 -0.5321884 -0.11179344 0.74413323 -0.3637381 -0.24499352 -0.73326033 0.3274889 -0.761039 0.19972792 -0.5370847 0.04358716 0.37077808 -0.14605388 0.09313065 -0.5324319 0.5546736 0.4074491 0.42482543 -0.2830855 -0.1776324 -0.3238281 -0.26163068 -0.28426325 -0.23600206 0.31907392 0.61055046 -0.3060306 0.38823187 -0.4221809 0.083626926 -0.17171927 0.026317505 0.44058165 0.5767843
28 -0.38508892 -0.25253195 -0.14292145 -0.5382402 -0.06767152 0.013793643 -0.42698106 0.24950236 -0.04912849 -0.18444364 0.0750483 0.03541541 0.22779535 -0.10860316 0.24731469 -0.38535994 -0.08182127 -0.2160246 0.25490496 0.09122904 0.012945777 -0.09920197 -0.93599296 -0.22660981 0.18645528 0.12702514 -0.7295949 -0.29483175 0.3708288 0.22563551 0.15943325 0.04912847 0.47807124 0.310777 -0.08160256 -0.16733605 0.90321195 -0.43748125 0.32999402 0.3576146 0.1298541 0.2045695 0.13097544 0.012299543 0.32591185 -0.061114646 -0.17123033 0.09787034 -0.35337284 0.38441458 -0.072103895 -0.05038032 0.13698843 0.49414733 0.34534323 -0.0047880663 -0.031806275 0.46346927 0.02409747 -0.05864439 -0.31284893 -0.06785364 -0.5295712 0.20714937
29 -0.39171165 0.287353 0.04691972 -0.31512898 -0.18203835 -0.9526632 -0.38683495 -0.36314693 0.45962366 0.26949188 -0.033758197 -0.026370162 0.111731924 0.21036968 0.18018097 -0.051149324 -0.1813597 -0.6984322 -0.42427576 -0.27816492 0.16159777 -0.39330667 -0.40279862 0.2877119 0.080985785 -0.12447233 0.46750313 -0.118093 -0.16450605 0.3685933 0.28125697 0.022129972 -0.015887761 -0.15616459 0.15408877 -0.007175126 -0.034371193 -0.14392364 -0.571839 0.021478357 0.37517565 0.2681363 0.81145847 0.15488887 -0.15893623 -0.18381584 -0.10676453 0.15305838 -0.15222731 -0.14741082 -0.5555552 -0.24330445 -0.21606278 -0.0026892594 0.20649627 0.09419821 0.029204236 0.733175 -0.042136513 0.0814106 -0.0987597 -0.032932222 0.02410455 0.2843921
30 -0.15163343 -0.08204054 -0.32443702 -0.22802141 0.022296626 -0.091611534 0.035955176 -0.056969553 0.35753095 0.07980449 -0.22074698 0.026963184 0.32658738 -0.14845857 0.18734656 0.280281 -0.06938769 -0.5464773 -0.19717672 0.021391794 -0.32430837 -0.21283495 -0.58626723 -0.12584049 -0.475718 0.32463902 -0.70782596 -0.35995463 0.21485157 0.35867518 0.28747424 0.58267856 0.67663324 0.47698075 -0.0044024936 -0.67524934 0.3002663 -0.18885498 -0.24344662 0.4497106 -0.14401558 -0.052538525 0.212385 0.31351036 -0.020476313 -0.041708473 0.0143386265 0.08645214 -0.08176054 0.08300243 -0.361186 -0.19437067 0.39274058 -0.13322115 -0.26067716 0.6571316 0.13781968 0.3727392 -0.11987687 -0.14651679 -0.0573979 0.101004444 -0.012730202 0.3640987
31 -0.7899511 0.051146995 -0.40729135 -0.31177038 -0.43928203 0.27303666 0.4079276 0.23460054 -0.33614326 0.36082673 0.18021207 0.49529937 -0.0029068661 -0.5404035 0.038149256 -0.37552065 0.45163208 -0.19850057 -0.10671012 -0.49439567 0.10768058 -0.29676452 -0.17773695 0.19661228 -0.08600028 -0.5355502 -0.16426644 -0.27351302 -0.28845996 0.08057383 -0.19910392 -0.15640937 -0.04526455 0.64988625 -0.19684497 -0.10032593 0.17401378 -0.5798579 0.0779515 0.14149277 0.36366364 -0.43393552 0.18471064 0.031414755 -0.44173884 -0.24951454 -0.1992825 -0.28813818 -0.16592255 -0.37308708 -0.065865144 0.11786033 -0.3282623 -0.47467166 0.035237968 0.6751804 0.19480737 0.21875833 0.56480396 -0.096223146 0.063373856 -0.046909522 -0.107949875 -0.113404214
32 -0.010478618 -0.027288055 0.106327616 -0.15840782 -0.1969765 -0.727013 0.10713625 0.19455706 0.48063934 -0.594878 0.28907183 -0.124513105 0.1916 -0.378525 0.7681361 -0.019962348 -0.63029534 0.1590295 0.5089532 0.058699124 -0.007377575 -0.29555604 -0.39688292 0.10718966 0.19825566 -0.23779498 0.697548 0.09138922 -0.20703742 -0.08416651 -0.017109822 0.2078769 0.26542968 -0.09556681 -0.19339004 -0.35868797 0.30132693 -0.20267692 -0.357352 0.26539814 0.28241464 -0.3071626 0.34141138 0.45187917 -0.60946906 0.14525455 -0.14012328 0.2838086 -0.35318607 -0.20525117 -0.044577032 -0.61807 -0.27128854 0.024894634 0.06774526 0.20987551 0.20251414 0.3873707 0.097786985 0.020295922 0.21454929 -0.077889316 -0.4248707 0.05821029
33 -0.40580425 -0.43277454 -0.17386363 -0.414975 0.12499205 -0.017904365 -0.026393706 0.38930216 0.503696 0.10940359 0.17288405 -0.0153685445 0.17748052 -0.1911973 0.04746172 0.09586852 -0.3530524 -0.31031185 0.011696336 0.12029305 0.012209537 -0.19124353 -0.64780015 0.007367183 -0.50846267 -0.06941422 -0.7291195 -0.10373938 0.10418807 -0.016899459 0.110140294 0.06707662 0.40672377 0.47387546 -0.1506775 -0.6817747 0.35563847 -0.023066586 -0.09489951 0.45763987 -0.2333103 0.0057716887 0.01555736 0.48321593 -0.24030545 -0.32018983 -0.10087848 0.051543944 0.22135463 0.5579304 -0.36361253 0.30695286 0.35525122 0.1470872 -0.52737427 0.34969237 -0.031241104 0.4447167 -0.20154355 -0.35234937 -0.03908507 0.20413503 -0.23635912 0.54573905
34 0.17149998 -0.28593448 -0.3279256 -0.0453318 -0.20000772 0.19286077 -0.1397935 -0.113311246 0.42551368 -0.34356537 0.2844852 0.22919936 0.39268094 0.24364384 0.39187023 -0.01013006 0.18023437 -0.3257352 0.3664358 -0.21053946 0.582721 0.16359136 -0.19842069 0.4729093 -0.1793645 0.29183206 -0.1880309 -0.55087274 0.00957169 -0.14468424 -0.45050365 -0.2781727 0.62288696 -0.15424453 0.18957357 -0.5247959 0.124221876 -0.49167982 -0.23608507 -0.23182315 0.2662601 0.19261327 -0.26822844 0.066432185 -0.2662499 0.06387272 0.27227396 0.30082187 -0.23675331 -0.26060408 -0.12567699 -0.17780049 -0.15517208 -0.12230958 0.031730596 0.42132962 -0.13062163 0.41445783 -0.2541214 -0.16490547 -0.2125958 0.5093086 0.4698506 0.6759471
35 -0.76119184 -0.2870242 -0.37651557 -0.6561225 -0.008788186 0.22484404 0.038542267 -0.3150704 0.43738925 -0.21416847 0.23663326 -0.18798554 -0.032860104 -0.028979544 0.03936446 -0.21038754 -0.011145982 0.17845803 -0.22812843 0.28801978 0.22690135 0.0938539 0.15850292 0.16679545 0.06188494 0.033090495 -0.07265452 0.090469934 0.2219667 -0.062324416 -0.24619506 0.54579616 0.038294062 0.09559732 -0.33027536 0.57456535 0.5187753 -0.5771111 0.050260026 -0.14692058 0.03121356 0.09584439 0.37053767 -0.093229674 -0.3395038 0.13762386 -0.33997577 -0.142401 -0.091287784 -0.013897999 -0.24633819 -0.015559907 -0.39376765 -0.807784 -0.25275752 -0.10558854 0.39186186 0.86848384 0.3196312 0.51305676 0.01189886 0.34278142 -0.28776193 -0.08956093
36 -0.3510953 0.13238557 -0.091421865 0.31318504 -0.35006243 0.1141396 -0.07761037 -0.028196093 0.33425465 -0.10791053 0.027877571 0.5371937 0.12820235 -0.2912418 0.35334483 -0.30716264 -0.0032307361 -0.43455338 0.18262528 0.45077616 0.3096852 0.05400031 -0.42019805 -0.24173638 -0.04376212 -0.16937381 -0.38017052 -0.3213013 0.2529669 -0.11300086 0.12967941 0.094284385 0.82441956 0.32385087 -0.2131086 -0.042991094 0.24695322 -0.62721735 0.28473717 0.17784502 0.4840374 0.4482009 -0.24254113 0.34921795 0.3161854 -0.43924025 -0.25816017 0.12157039 -0.3736614 0.23355156 -0.5833492 -0.1232154 0.38170418 -0.19074081 -0.7044897 0.23857637 0.2421434 0.013605443 -0.31146973 -0.56222254 -0.16044843 0.2148034 -0.3013412 -0.0037247408
37 -0.22219448 0.1746953 0.3516816 -0.58576125 -0.12402041 -0.6383429 0.10074527 -0.42933345 0.08902293 -0.4352995 0.18102147 -0.029954057 -0.25507 0.1607638 0.050054003 0.22399154 -0.35997805 0.08173386 0.48651892 -0.2466814 0.24572133 0.045275275 -0.8165175 0.4879101 -0.19523066 -0.29027036 0.5493638 -0.28814536 -0.3682042 0.06008742 -0.1204784 0.53102106 0.4656976 0.20087571 -0.40444532 0.03026117 0.05455682 -0.07986052 -0.33246264 0.061999183 0.15335803 0.011243526 0.54824877 0.06315018 -0.31351545 -0.22654234 0.3938502 -0.10100285 0.061044954 -0.47761756 -0.1457698 -0.35666108 -0.4624696 -0.2624832 -0.17340335 0.58350044 -0.28579587 0.5406925 -0.10577647 -0.020134887 0.08023169 0.021972572 -0.38289666 -0.03940105
38 0.3052777 -0.3715184 -0.53565377 0.24479955 -0.26385397 -0.058699753 -0.054626904 -0.2505621 0.47602406 0.09375749 -0.17119358 0.21075468 0.05305307 0.2628495 0.3426043 0.08468423 0.41715074 -0.15954992 0.43941605 -0.06789642 0.27610856 0.12096643 -0.47298953 -0.08876234 -0.01374729 0.14947194 -0.067047395 -0.19907947 0.21197139 0.09738754 -0.49378774 0.1564582 0.9088097 -0.045797277 0.20329592 -0.49434042 -0.026193859 -0.57719254 -0.14563851 0.024973013 -0.152097 -0.20501931 -0.26553392 0.024309713 -0.4491222 0.27731308 0.053079765 0.03804469 -0.16527563 -0.07742787 0.25589746 -0.03565679 0.23030046 -0.13356514 -0.09045824 0.33768427 -0.12167465 0.8055421 0.24955346 -0.2486119 -0.15340948 0.6296585 0.7672231 0.5203052
39 -0.6671407 0.24294864 -0.25896102 0.3451702 -0.3514824 -0.0035928881 -0.26639217 0.42896804 0.5361302 -0.046158068 -0.40236837 0.35811222 -0.19277044 -0.22723496 -0.028687498 -0.47965777 0.22616339 -0.029819142 -0.15159205 0.1883512 0.24928527 0.008043835 -0.29419085 -0.17405437 -0.3379484 -0.14734292 0.1240507 -0.348955 -0.038658474 0.07868079 -0.06457053 0.22206795 0.777635 -0.13549152 -0.033149835 -0.28357258 0.17330088 -0.23292544 -0.20558771 0.3521902 0.36706728 0.41977587 -0.2805183 0.36421844 0.6719985 -0.19195135 -0.3716499 0.21133767 0.004968049 0.021396799 -0.011041892 -0.047556434 0.2743562 -0.13433842 -0.23848714 0.40396175 0.4473383 -0.4701622 0.14197727 -0.4951113 -0.042354017 0.45337644 -0.18922336 -0.2604396
40 -0.5256587 0.17006794 -0.13995825 -0.5920592 -0.33765584 -0.30707824 0.012666591 0.0029690384 0.5294128 -0.42461684 -0.5281724 -0.07853244 0.18317612 -0.47578752 0.6480192 -0.5499329 -0.13712685 -0.186757 0.38382384 0.15343377 0.30349323 -0.20575629 0.039709013 0.39985734 0.007438685 0.24638745 0.6880652 -0.25476214 -0.28797752 -0.21500494 -0.10376969 0.51556647 -0.03555113 0.25331637 -0.35298672 -0.2293857 0.1907686 -0.15353274 0.20454839 0.1789511 0.3671321 -0.46081707 0.49294746 -0.4355552 0.017619794 0.0057143425 -0.092868455 -0.10635979 0.13232936 -0.102486685 0.24975346 0.1251764 -0.18114495 -0.19875622 -0.46153218 0.36336836 0.09487005 0.544178 -0.14499784 0.59166324 0.04865628 -0.17480645 -0.15394074 0.26113465
41 -0.23421794 -0.4387896 0.34167725 -0.5261453 -0.3236254 0.17136958 -0.3215924 0.2769161 0.08707983 0.11795324 0.10524799 0.40393865 0.15161264 -0.16313766 0.09791751 0.22425148 -0.11195331 -0.045194842 0.26135594 0.11084139 0.112297624 -0.26755774 -0.63727367 0.21678446 -0.6188963 -0.0047671604 -0.45742553 -0.14567184 -0.23478614 0.16621342 0.11964406 0.00069713284 0.10151693 0.27270982 -0.42560595 -0.801959 0.2517507 -0.1405963 -0.2233223 0.2776483 -0.20537426 -0.25949708 0.063115135 0.29055202 -0.00958758 0.018500075 -0.24428655 -0.32368514 0.26387697 0.44813094 -0.3144356 0.35184553 0.16131896 0.08865381 -0.256857 -0.22290243 -0.18568906 0.8486096 -0.22145598 -0.040773798 0.012304844 -0.13024287 -0.7425433 0.19015849
42 -0.25858757 -0.046083298 -0.2746732 -0.30595535 0.31863979 0.26926866 -0.44960827 0.39498666 0.112922415 -0.07792339 -0.06174398 0.02560972 0.39660046 -0.22587593 -0.0119386185 -0.4763053 0.018288698 -0.38163412 -0.15620774 -0.11020788 0.24161798 0.114472575 -0.4439636 -0.1020347 -0.04285851 0.035802614 -0.49208653 -0.221286 0.1493853 -0.31578407 -0.23262781 0.5065072 0.5969245 0.52192646 -0.17361961 -0.020543804 0.9729665 -0.5731364 0.27760214 0.5147671 -0.14362888 0.17708832 -0.049170427 -0.021699212 0.06302315 -0.30439126 -0.07222439 0.30377308 -0.54878896 0.317929 0.25026205 -0.15863276 0.032459054 -0.025749054 0.23507428 -0.13730173 0.40547103 0.6184604 -0.17396419 -0.2742709 -0.3153961 -0.0049799504 -0.3518773 0.25060552
43 -0.4618381 0.3453707 -0.56577355 0.04372935 -0.60474324 0.2325866 0.12396541 0.52708334 0.10737509 0.1863546 0.1007859 0.50202364 -0.010733667 0.00088680466 0.46363363 -0.21790013 0.6889724 -0.37698448 0.21337433 -0.46353757 0.26926458 0.11653248 -0.1754892 -0.10974774 0.1173688 0.027874254 0.16964827 -0.019135997 -0.21976887 -0.18090503 -0.27307653 -0.08244777 0.30747104 0.43151736 -0.35537842 0.09694179 -0.16608523 -0.35923603 -0.07718338 0.05138015 -0.06950027 -0.1710589 0.08163473 -0.0043281564 -0.16979185 0.06571337 -0.23013268 0.57050514 0.34408215 -0.2460359 -0.21257499 0.2358967 -0.48810577 -0.30517927 0.17715228 0.4440561 -0.18206553 0.76547587 0.21958281 -0.19883758 -0.4615519 0.076955914 0.05725463 -0.22417666
44 -0.619788 0.10616256 -0.52767706 0.28488582 -0.2212107 -0.27961928 -0.223408 0.51086825 0.44005966 -0.04287977 -0.35109222 0.20025028 -0.104483545 -0.08035269 -0.24228568 -0.03668358 0.15750986 -0.19268137 -0.08578241 -0.07502693 0.3860734 0.2996365 -0.32906675 -0.18216665 -0.24386217 0.025149738 0.043905262 -0.26585615 -0.0045380387 -0.25649753 0.34960508 -0.0051635583 0.355181 -0.2894706 0.043821294 -0.27663144 0.45583236 -0.22509779 -0.1367976 0.44530326 0.41803625 0.0054886774 0.15105544 0.44377726 0.5715262 -0.5194542 -0.75091255 0.47556752 0.21978574 -0.23368816 0.055418883 -0.04606659 0.19457279 -0.39996037 -0.045023315 0.35873467 0.39849266 -0.5294544 -0.010209498 -0.28106406 -0.001526723 0.39894608 0.15964611 -0.41626173
45 -0.19794695 -0.23794718 -0.23184016 -0.21213707 -0.17424507 -0.5597008 0.04402943 -0.20259933 0.6856259 0.0871111 0.019181872 0.33095407 0.15299912 0.1785191 0.24168806 0.11993081 -0.26108128 0.11027209 0.09448687 -0.17638454 0.33730963 -0.7438471 -0.0825485 0.26744616 -0.16567406 -0.12045979 0.13553481 -0.013963518 0.6388491 -0.3358843 -0.10694294 0.4261992 0.03371742 0.4846509 -0.013516128 -0.50059056 0.17908584 -0.28321296 -0.53904635 -0.12584966 0.19194223 0.03379096 1.074205 -0.2703553 -0.32202268 0.034286737 0.045570392 0.40619993 -0.12447697 -0.10255212 -0.24668473 -0.3781047 -0.24965277 -0.04421906 -0.18828404 0.22162905 -0.0915643 0.38142237 -0.3503225 -0.16785416 -0.17135894 -0.27568024 -0.28420448 -0.416785
46 -0.43054944 -0.112601966 -0.08363793 -0.103537455 -0.23215167 -0.12824209 -0.71931887 -0.37867025 -0.14420204 -0.46022925 0.30932924 0.09772983 -0.2672086 -0.29266343 0.26572785 0.0096405335 -0.3647943 0.19456226 0.2112623 0.15294202 -0.103926525 -0.08771749 -0.026429797 0.32372865 0.320206 0.2180101 0.4919764 -0.06678071 0.113199875 -0.19236584 -0.061390117 0.5177596 -0.2088649 0.47731718 0.025026448 0.060538713 0.06308329 -0.61706203 -0.32878852 -0.0031252003 0.2439427 0.21843454 0.17480831 0.10642859 -0.13089502 -0.07465224 -0.2956417 0.06458122 0.008827879 0.3052701 -0.07444687 -0.12826526 -0.102423206 -0.7961758 -0.30680665 0.59922266 -0.0286969 0.9497998 -0.32572743 0.30025077 -0.17768878 -0.31051907 -0.077874765 -0.23338401
47 -0.52654266 -0.4979105 0.10790371 -0.17845929 -0.22809404 -0.0048449663 -0.018321546 -0.01808766 0.39631492 -0.4482412 0.4263644 -0.3285694 0.0272277 -0.20758192 -0.0179276 -0.6122547 -0.050595455 -0.34378397 -0.2960152 -0.0047540353 0.0080994535 0.016456626 0.18192492 0.15163927 0.17120594 0.02793837 -0.20360556 0.060999595 -0.12553467 -0.74448067 -0.07348289 0.59710526 -0.22807615 -0.14497192 -0.40017432 0.058273837 0.35931024 0.06649643 -0.30013317 0.087847374 0.19576466 -0.149738 0.2967007 -0.47970632 0.02799597 0.101367176 -0.06791583 -0.2173161 -0.2225391 -0.13996468 0.40937576 0.060589526 -0.089946754 -0.53671753 -0.06314327 0.60264933 0.3112564 1.0325644 -0.21925507 -0.36893368 -0.28599864 0.009782432 -0.2635205 0.025164245
48 -0.2868301 0.13836636 -0.19673058 0.07836035 -0.611042 -0.61406267 -0.19320852 -0.26683944 0.31832957 0.07079979 -0.17466128 0.109910995 0.0029046242 0.06088992 -0.111066304 0.016743543 -0.21359561 -0.57736105 -0.23596184 -0.22334003 0.17305067 -0.44285706 -0.69754446 0.19294317 0.19941825 -0.09046168 0.05985377 0.025681447 -0.094499655 -0.22678213 0.1691142 0.2959584 0.09228519 0.292997 -0.004793625 -0.3048285 0.41396993 -0.11739915 -0.4706632 -0.15380344 0.3759785 0.25441766 0.6875075 0.6195593 -0.42772445 0.15262567 0.034162547 -0.33547068 0.001133789 -0.35204235 -0.391458 -0.61975056 -0.111555025 0.11396328 0.14795248 0.2517645 -0.0985161 0.66756845 0.3241792 0.16995002 0.062243227 0.11287197 0.07758396 -0.079118066
49 -0.438078 0.27405116 -0.62409645 -0.04363748 -0.71929973 -0.106135175 0.44075534 0.5039529 0.17874075 -0.16535619 0.012983208 0.431146 -0.6929687 0.18643075 0.27984485 -0.23715694 0.41499075 -0.26745287 -0.044636704 -0.45697713 0.4028966 -0.19500268 -0.06183123 -0.09123718 0.28202024 -0.09960028 0.2865346 0.3904704 -0.09283604 -0.05523403 0.1350383 0.50667197 0.11341145 0.39149234 -0.061245274 -0.24526352 0.5251917 -0.18936779 -0.23069845 0.17791988 0.5192605 0.0771718 -0.020771682 0.38473648 -0.120798826 -0.53764105 -0.025334213 -0.2724504 -0.0062488723 0.15222873 0.11169151 0.38455823 0.17352669 -0.51977533 0.076940805 -0.14119312 -0.28594747 0.52045065 0.17750035 0.29612684 -0.52302456 -0.37308484 -0.19246091 -0.0035585398
50 -0.39149764 0.014538478 -0.346135 0.15060763 -0.32088727 -0.31259942 -0.22630236 0.52779406 0.4052699 0.078352615 -0.5531076 0.21462579 -0.012340447 0.051713545 -0.20858814 -0.13401896 0.382571 -0.2249993 -0.3017092 0.24121699 -0.012203112 -0.06522724 -0.3377379 -0.25816748 -0.5422343 0.16085488 0.000909591 -0.4985066 0.1566496 0.18398784 -0.08938381 -0.00067382323 0.7102307 -0.13419853 -0.0006802017 -0.40988034 0.1340254 -0.33161157 -0.3484454 0.47741428 0.30071852 0.24759425 -0.08973388 0.21438105 0.57541966 -0.2808963 -0.76862025 0.12908685 -0.056672193 -0.10826199 0.081858255 -0.3024893 0.013553255 -0.40229067 -0.12036158 0.4490266 0.37496266 -0.37144375 0.31932643 -0.36367357 -0.35072556 0.58913934 0.18510094 -0.27679983
51 -0.49642962 -0.0025145046 0.07677947 -0.3098669 -0.30778188 -0.09933806 -0.36051226 0.01267659 -0.5090833 -0.17206436 0.3968269 0.4901474 0.34299862 -0.048824366 -0.058676634 -0.43290216 0.1554104 0.12627394 0.5154138 0.18340616 0.23049694 -0.18687524 -0.35968834 0.07877494 -0.562194 0.08016371 -0.089840725 0.08025407 -0.23503922 0.3012938 0.4636193 0.24667054 -0.047622267 -0.31318447 -0.28767622 0.002623026 0.4635171 -0.32767344 -0.38077855 0.51792485 0.1365588 -0.2869326 0.19569267 0.34560996 0.07610675 0.21586935 0.0040502963 -0.18257415 -0.029394485 0.7087875 -0.23275807 0.19433324 -0.1506583 0.13084336 -0.37188518 0.14583379 0.03924865 0.7924441 0.0031581041 0.55642706 -0.15184157 -0.25316578 -0.44051105 -0.07524113
52 -0.4592447 -0.14626874 -0.4806984 -0.18035313 -0.4911381 -0.39709654 -0.29618257 -0.5291783 0.5093489 -0.5768195 0.07638514 -0.16724704 0.44342792 0.06552564 0.022805063 -0.33642167 0.18615434 -0.3222217 0.022215143 -0.1501964 -0.057956204 -0.014547161 0.11842949 0.29045582 -0.10412215 -0.12877692 -0.25222674 0.05679423 -0.2789151 -0.38952246 0.23433058 0.22708023 -0.15484074 -0.05859516 -0.07849891 0.22941048 0.6893012 -0.06209162 -0.23262857 0.4134704 0.022618197 0.0493559 -0.040571388 -0.24145783 -0.4525949 0.29785183 -0.27739403 -0.3394547 -0.42955467 -0.42166492 -0.2756897 0.14538273 -0.030072886 -0.5422685 -0.07234076 0.5345089 0.22686665 0.5744393 -0.22922242 -0.050238855 0.060986936 -0.3533123 -0.5812789 0.17199424
53 -0.7971986 -0.05946637 -0.22647221 -0.09623896 -0.18634191 -0.23121811 0.24546956 0.06670832 0.011749304 0.038959026 0.4335709 -0.04824933 0.19736622 -0.29103526 0.33896077 -0.27075535 0.039880026 0.016426682 -0.3244549 -0.26475433 0.21102905 -0.109235585 -0.14871487 0.31620607 -0.57585126 -0.34844965 0.06569371 -0.136525 -0.085993946 0.05158103 0.10501714 -0.06767839 -0.036859453 0.5548377 -0.006646529 0.43759105 0.45938358 -0.5296562 0.02764402 0.15655838 0.3854622 -0.28717282 0.12889925 -0.41087094 -0.3272298 0.14442897 -0.33449334 -0.1485037 -0.25315252 -0.043500725 0.41259053 0.3959094 -0.27462092 -0.6146218 -0.045823697 0.7070229 0.15435575 0.80674523 -0.1895836 0.53826976 0.34667978 0.019676838 0.03717159 -0.18258817
54 -0.74570274 -0.110137895 -0.26229355 -0.50451714 -0.25029564 0.0854013 0.071676835 -0.04566841 0.22828752 -0.559284 0.4628427 0.10696784 0.14203867 -0.25860834 -0.19836491 -0.36499098 0.013300884 -0.10897622 -0.22525004 0.06904751 0.1525986 0.18806387 -0.35973012 0.18800007 0.11820295 -0.05196341 0.0448144 0.038607873 -0.1598658 -0.24145608 -0.15080875 0.5953242 0.030766847 0.25377703 -0.12925026 0.18115722 0.57992107 -0.3261983 0.2192396 0.2234794 -0.13506003 0.14298125 -0.005901069 -0.6442618 -0.1766332 0.024179112 -0.15103061 -0.2519394 -0.21003498 0.1448523 0.40418312 -0.35194266 -0.040046964 -0.5199964 0.3379246 0.14136039 0.629625 0.86190605 -0.19296682 0.05581552 -0.3802748 0.1053138 -0.46810132 0.032705404
55 -0.2951445 0.17737369 0.15005696 -0.079000436 -0.32436028 -0.41394213 -0.48096746 -0.07442117 0.4674403 -0.20189117 -0.13936408 0.1488332 -0.17480269 -0.32651561 1.2477235e-05 0.18480396 -0.29631597 -0.44744453 -0.1276735 -0.41386485 0.44414666 -0.4780271 -0.38459626 0.21437864 0.15952551 -0.17435564 0.31417397 -0.27179658 0.07297865 0.0787587 0.3155425 0.19356191 0.22506817 0.006357481 -0.2968287 0.17513154 0.4278379 0.069645725 -0.3641484 0.069036245 0.18614379 0.03452616 0.5283045 0.58762324 -0.391535 0.054700904 -0.21997336 0.3274552 0.1457897 -0.18735297 -0.3680917 -0.6584112 -0.39365187 -0.12578014 0.33328483 0.32750967 -0.19062884 0.6841306 0.10335884 -0.3549525 0.37215745 0.27881342 -0.14718206 -0.009381175
56 -0.085756294 -0.18813702 0.31894982 -0.6756719 -0.04602252 -0.14012702 -0.17948066 0.36040583 0.49973947 0.073937945 0.15327653 0.27099305 -0.17496647 -0.18891543 -0.3266779 0.05286029 0.20367141 -0.02315272 0.8203487 -0.15352526 0.20926684 -0.09233251 -0.4428484 0.13117442 -0.22128047 -0.18303825 -0.2736 -0.2321093 -0.18732424 0.38818368 0.10777386 0.060894914 -0.1245833 0.07629697 -0.50518346 -0.27779263 0.25649634 -0.06268945 -0.042938318 0.34903222 0.35389027 -0.21435566 0.20551461 0.3010193 -0.047507066 0.30779338 -0.4932507 -0.28693327 -0.36612508 0.33027753 -0.4994676 0.050481126 -0.27119118 0.014325513 -0.01709054 -0.07901915 -0.21093959 0.9318495 0.090280004 -0.013518652 -0.19217828 -0.36846536 -0.41319317 -0.14267641
57 -0.3835214 0.10917076 -0.42985705 -0.44124085 -0.119680226 0.07589015 0.02015265 0.062367093 0.24310236 -0.5384391 -0.22683172 -0.21578465 0.5102105 -0.3454722 0.22976762 -0.25556067 -0.050135102 -0.17588973 -0.22094403 0.25288418 0.50107706 -0.340368 0.0017731015 0.7267969 0.1173766 0.459487 0.31029958 0.03699551 -0.15914962 -0.26227823 -0.0053210743 0.46932012 0.366583 0.06701582 -0.29303715 0.2988692 0.32488224 -0.5587206 -0.16361354 0.45433584 0.45687062 -0.11163631 0.029244615 -0.36654693 -0.25013724 -0.016126018 -0.5250454 -0.058299374 0.31625018 0.37076846 0.20229483 0.5981185 -0.28809437 -0.4663422 -0.3029323 0.43769574 -0.24781942 0.3066926 -0.08633469 0.3701996 0.036295846 -0.32541037 -0.15539756 0.055883273
58 -0.054240797 -0.249856 -0.41377446 -0.121503174 -0.5233426 0.03503775 -0.048165686 0.09114491 0.29174146 -0.0037318668 0.09937903 0.24703698 -0.31551522 -0.4926196 -0.07604712 -0.09091947 0.25349522 -0.3269517 -0.4934057 -0.30183467 0.1206628 -0.007873229 0.2562112 0.19197626 0.32485324 -0.4436027 0.33053574 -0.074852675 -0.5743944 -0.07025076 0.09387829 -0.0063027353 0.7936467 0.59936804 -0.08793023 -0.1611255 0.7236418 -0.28401813 -0.16450918 -0.041494038 0.09067334 -0.29673985 0.5700993 0.09337962 0.15301092 -0.053217832 -0.4081237 0.31099504 0.41743284 0.19397734 0.10808936 0.18430802 -0.025682153 -0.38704473 -0.21572421 0.21563546 0.03490114 0.4884136 0.47511485 0.024912823 -0.30162552 0.06172182 -0.17660615 -0.45136037
59 -0.744261 -0.8306847 0.052504342 -0.24146031 -0.16123116 -0.35209593 -0.22512276 -0.36484516 -0.11358314 -0.28658575 0.24242954 -0.018828439 -0.5207672 -0.18970898 0.2216146 -0.08617468 0.009263993 0.09650826 -0.118048385 0.37339774 0.33263722 -0.15561405 0.030055784 0.24799508 0.047373734 0.17906967 -0.015497838 0.027374813 -0.33845598 -0.5181663 0.010809491 0.48170874 -0.20005521 0.2511439 -0.20097226 0.0055219405 0.43382055 -0.20961548 -0.04923832 0.2097496 0.5443715 -0.25113496 0.34733996 -0.060098756 -0.17354175 0.0027088898 -0.08904812 0.018094461 -0.12853546 0.06490449 0.2980484 0.049983416 -0.21411334 -0.9938339 -0.25642437 0.66923434 -0.2907285 0.6679638 -0.24606416 -0.05852184 -0.41931123 0.20070788 0.043876655 0.08375409
60 -0.21386866 0.07041227 -0.46463802 -0.36989552 -0.5538575 -0.23685458 -0.06688436 -0.057466906 0.3732353 -0.37460285 0.19162987 0.10086458 0.35500056 -0.13714877 0.020654744 0.008493695 0.052067768 -0.05938715 -0.3327653 0.036831323 0.50701374 0.2337276 -0.11937762 -0.054164596 -0.08508993 -0.050352 0.19663681 0.08934583 -0.24228397 -0.010137362 0.20228411 -0.06174254 -0.3066998 0.5572794 0.21199821 0.16849479 0.70952165 -0.40455168 0.17537437 0.18668191 0.022890056 -0.13409561 0.0684774 -0.47067812 -0.38239816 0.2118439 -0.2442139 -0.13628216 -0.20951858 0.16620475 0.12131404 0.0004949478 -0.20820533 -0.6881839 -0.015045252 0.7240913 0.38457766 0.786069 -0.23355065 0.14940533 0.084390484 0.079558484 -0.4667538 -0.30415437
61 0.137544 -0.40368298 -0.37960604 -0.14522788 -0.03800527 -0.082788914 -0.020807523 -0.027517937 0.43217045 -0.19095792 0.23181608 0.48905402 0.084088616 0.42598683 0.4506839 -0.15822403 0.08803078 -0.25470793 0.5283775 -0.13805884 0.5799471 0.016035039 -0.11617637 0.07388949 0.014347829 0.2922061 0.3924295 -0.44319308 0.09202976 -0.03430782 0.1504378 -0.27693114 0.44813687 -0.19723167 -0.061973598 -0.41734764 -0.20794852 -0.9455132 -0.31782275 -0.30968523 -0.19343631 0.36156785 -0.08177001 0.24767594 -0.3396858 0.30822876 0.43465406 0.24821736 -0.16473418 -0.28310233 -0.004352483 -0.28948975 -0.38077685 -0.2859421 0.17638893 0.743651 -0.12339114 0.72107023 -0.004460026 -0.0926277 -0.10365301 0.13022456 0.4495063 0.5027037
62 -0.35089296 0.56963885 -0.6750181 0.02630244 -0.6228658 -0.15561613 0.17235036 0.4145947 0.26458684 0.12937601 -0.084050894 0.4298188 -0.42898914 0.11902193 -0.07797676 -0.21209867 -0.06622137 -0.74079776 -0.074352585 -0.34975377 0.098145135 -0.21653947 -0.4179911 0.18161692 0.39111426 0.023682162 0.0077840714 0.44151455 -0.28604355 -0.223937 0.07062883 0.2215158 0.12480225 0.27932632 0.049366653 -0.07723671 0.51460695 -0.35256052 -0.2546531 0.18951742 0.4739993 0.010019569 0.26728642 0.26271847 0.09526413 -0.099543504 -0.3244129 -0.011861133 0.14717788 -0.23304477 0.0045382874 -0.03544633 0.0066577173 -0.28907567 0.26336437 0.14298426 0.03858555 0.59474105 0.61530334 0.5339028 -0.17389412 0.065316476 0.1393582 -0.42771435
63 -0.3515229 0.30607423 -0.2706837 -0.06345949 -0.82765937 -0.20567073 0.48292857 0.087322295 0.29647404 -0.18637577 0.15085986 0.021210656 -0.09079549 -0.38717017 0.3463878 -0.25456113 0.5272083 -0.10035922 -0.27895862 -0.099673025 0.08294181 -0.047874242 0.15922998 0.20701122 0.2676544 -0.21724111 0.16771716 -0.38654414 -0.36270145 -0.2190726 -0.028439699 -0.05470813 0.2952115 0.696683 0.2826225 -0.15658273 0.43903244 -0.029720658 0.3124972 -0.0417553 -0.13914654 -0.5147871 0.10067146 0.35556957 -0.016554464 -0.20760228 0.0007156873 -0.13851865 -0.022120133 0.43651527 -0.04433437 -0.033034865 -0.55498976 -0.46559423 0.066003054 0.60322416 0.10779295 0.7608168 0.2949641 0.16010483 -0.074977055 0.14045864 -0.47615615 -0.5380387
64 -0.38973495 -0.07387989 0.35623032 -0.2079516 -0.109203026 -0.09002178 -0.11801117 0.434235 0.050271433 0.27745727 0.073728025 0.4762558 0.025294399 -0.26846498 -0.13361834 0.1322872 0.3407787 -0.27001548 0.6292537 0.2497204 0.502496 0.034486353 -0.40860122 0.28093082 -0.40590996 -0.17622025 -0.33397436 -0.018684484 -0.23468654 0.0142119145 0.30280593 -0.1185381 0.17655936 0.09543729 -0.29461855 -0.3884001 0.47854316 -0.038709074 -0.06328372 0.22041999 -0.16214536 -0.50444543 0.15222438 0.5396248 -0.11914733 0.24478716 -0.50847536 -0.51333284 -0.09331221 0.46926278 -0.4123906 0.19907507 -0.1721877 -0.0018126415 -0.23024663 0.030738425 -0.13509847 0.8552252 0.57799596 0.20085329 -0.2354172 -0.6181463 -0.49081576 -0.14038238
65 -0.688683 0.3382464 -0.31162637 0.1414539 -0.3731324 0.23284592 -0.20590605 0.19065814 0.5095625 -0.1350258 -0.5427055 -0.014416461 -0.100584544 0.036216136 -0.029204031 -0.49878034 0.3814616 0.06846809 -0.14216287 -0.4368211 0.09555947 -0.01981578 -0.24053574 -0.37755692 -0.68521774 -0.022201747 0.23357706 -0.382364 0.3448188 0.009046775 -0.057630166 -0.1306891 0.5068151 -0.14224088 0.10783901 -0.45260477 0.31252107 -0.12229594 -0.09522024 0.19777368 0.33371013 0.32099086 0.14909124 0.15839767 0.5822586 -0.39577317 -0.6211062 0.041467853 0.30647486 0.21421587 0.36033642 -0.2846288 -0.033914626 -0.4762278 -0.12730291 0.487901 0.2000669 -0.2615013 0.27947018 -0.48252445 -0.22296678 0.34723103 -0.14732459 -0.33176783
66 -0.05190836 -0.38796028 0.47969437 -0.850759 -0.5936793 -0.4535718 -0.63481426 0.2387979 0.0131765315 0.054942045 0.21470235 0.27836776 0.07791434 -0.07602132 0.112643495 -0.034872763 0.107250564 0.057216153 0.51503915 -0.32905203 0.081155434 -0.27969506 -0.6824713 -0.12900257 -0.33229572 0.056303825 -0.3418194 -0.05312914 -0.046230927 0.13014719 0.7442718 -0.07201466 0.019654267 0.041855764 -0.636566 -0.5428784 0.32278582 -0.24523012 -0.3449422 -0.045117423 0.26823977 -0.445355 0.028906431 0.13405445 -0.10414939 0.110967055 0.059647966 -0.27078497 0.011609245 0.7174481 -0.37009495 0.16502197 -0.23109016 -0.09570494 -0.019061508 -0.31682378 -0.003920634 0.7541418 0.20638654 -0.20237453 -0.17223471 -0.0019630617 -0.5668355 0.050922226
67 0.0865002 0.033955537 0.19406357 -0.20407602 -0.11973058 -0.4545666 -0.1716304 -0.18768173 0.56237483 -0.45622158 -0.030196553 0.13683173 -0.14108425 -0.06335847 0.105819546 0.30722097 -0.42612332 -0.17934133 0.57422495 -0.023089351 0.42072794 0.04035888 -0.79259896 0.29169318 0.0425873 -0.3633096 0.22335501 -0.06341423 -0.091831245 0.12533358 -0.12815474 0.14935438 0.24405997 -0.05220297 -0.74141145 -0.17639239 0.10843966 -0.09953218 -0.30470917 0.44154483 0.3002528 -0.37902373 0.5848699 0.36470672 -0.4614473 0.058476005 -0.09627184 -0.17498061 -0.25364354 -0.09833119 -0.22902055 -0.41463354 -0.44257432 -0.11891884 0.29241386 0.4590701 -0.23578827 0.6291418 -0.443121 -0.104686126 0.39287478 0.01098303 -0.21152127 -0.13017072
68 -0.06246754 -0.2485222 -0.8936545 0.26468116 -0.27069682 -0.16676253 0.041065797 -0.17155883 0.5010915 -0.0544311 0.012938735 0.59062654 0.0613263 0.46091756 0.5447785 -0.04530785 0.42416024 -0.3713107 0.5259492 -0.104426265 0.19381402 0.14678372 -0.13385887 -0.039480854 -0.008458172 0.19217189 0.32106674 -0.19174227 -0.08682121 0.21261196 -0.35888728 -0.25373146 0.49262 -0.08876552 -0.18355146 -0.29741827 -0.23806202 -0.5980929 -0.22698727 -0.09975431 -0.3081576 0.07797749 -0.027802713 0.001881476 -0.36528018 0.33880407 0.26582414 0.46986774 0.10024282 -0.109444685 0.033036634 0.10313569 -0.27297008 -0.07147094 0.34794006 0.41731417 -0.1408728 0.9368138 0.10343297 -0.29024738 -0.33736983 0.46486098 0.5804742 0.49327475
69 -0.17500697 0.287856 0.23861778 -0.64777964 -0.67915404 -0.262227 -0.31664902 0.4748693 -0.12576908 -0.31520945 0.1100229 0.37969878 0.21756934 -0.25030872 -0.19071694 -0.1487658 0.14958593 0.36256287 0.46414673 -0.16757701 0.21284613 -0.09528509 -0.25436145 -0.23352465 0.037394 -0.14907755 -0.31758338 0.034465063 -0.3167264 0.39444956 0.6384873 0.07806645 0.19121034 -0.022959817 -0.44342262 -0.54812884 0.3366963 -0.19830959 -0.2693237 0.4280208 0.5376153 -0.42849198 0.18503493 0.2754088 0.15466146 0.1917211 0.023088189 -0.16668451 -0.2962792 0.39750525 -0.5475932 0.42525104 -0.3232984 0.0009343664 -0.19330123 -0.11209899 0.007891665 0.9567871 0.20628874 0.01890734 -0.124520645 -0.07262645 -0.29547605 -0.19009699
70 -0.6095344 0.00929372 -0.15703264 -0.57336396 -0.46525872 0.09803244 -0.17078331 -0.13823386 0.51584506 0.2230387 0.083900526 -0.19367607 -0.1294444 -0.19033764 0.54692835 -0.51402164 0.16641532 -0.32610607 0.04040418 -0.24096036 0.3288764 -0.27373192 0.12690637 0.12787671 0.2925497 0.2569522 -0.023137985 -0.21487589 0.083845444 -0.43235436 -0.18493381 0.39266306 -0.07966533 0.0256503 -0.45324084 0.14124842 0.47137588 -0.1168509 -0.29873562 0.23309559 0.030299172 -0.5554613 0.08335137 -0.3715556 0.16033971 -0.18126349 -0.13493273 -0.33982557 0.019462675 -0.021092262 0.13175333 0.25537223 -0.27745926 -0.46087858 -0.14643845 0.76478744 0.37627956 0.68777734 -0.061784435 0.3981379 -0.20751208 -0.04146339 -0.030894002 0.086437
71 -0.06564979 0.047944132 0.46732008 -0.1657529 -0.34014964 -0.7829796 -0.12542741 0.031773128 -0.04253493 -0.35182607 0.06172642 -0.2146644 -0.17407961 -0.27759734 0.42192987 0.26565906 -0.4317417 -0.021054855 0.21866821 -0.01335596 0.055141263 -0.51425505 -0.5568562 0.2884166 -0.032854088 -0.26484272 0.41532794 -0.3322413 0.16634849 0.092105456 -0.042013686 0.57355034 0.39162606 0.31427205 -0.39327282 0.031955827 0.20013674 -0.089441076 -0.6461807 -0.2575697 0.5250315 0.006171575 0.2591585 0.17231557 -0.6080821 0.053633034 0.06588557 0.26703826 0.046868727 0.012095318 -0.18968746 -0.52780026 -0.23211654 -0.2272724 0.083657816 0.51593155 0.27472177 0.6431424 -0.036866046 -0.06208092 -0.022085046 0.103980474 -0.3645582 -0.011660312
72 -0.21315135 -0.15131454 -0.33423653 -0.51075697 -0.4224697 0.12242379 0.35054916 0.2408276 0.1503077 -0.08815379 -0.13554037 0.22999954 -0.11350994 -0.52059776 0.066992894 -0.15736218 0.19816005 -0.6586699 -0.22120775 -0.5677257 0.5613006 -0.14918004 0.4051801 0.18847418 -0.011057958 -0.20080876 0.07281917 -0.12671885 -0.0011492034 0.20193869 -0.033863634 0.2019543 0.67565614 0.6536966 -0.010643472 0.15390357 0.19484359 -0.21729432 -0.437094 0.4068461 0.0725389 -0.45968977 0.39705652 0.55372375 0.21964632 -0.02452397 0.004947607 0.30791542 0.093295634 -0.06345189 -0.0066670734 -0.100940436 0.41186062 -0.4916244 0.06334787 0.3044586 -0.08924169 0.3310334 0.57095 0.08978636 -0.32985896 0.17248495 -0.16762722 -0.26798683
73 -0.05797439 0.15889686 0.041646447 -0.21236958 -0.063343905 0.012105964 -0.19453049 0.04606395 0.061990358 0.13440953 -0.38095725 0.6103044 0.4689298 -0.32541138 0.5791982 -0.39399898 0.30692428 -0.36089835 -0.038473535 -0.09065269 0.27276272 0.1491197 -0.40311643 0.030440066 -0.024202632 -0.41234833 -0.5780968 -0.2857589 0.117669225 -0.16423611 -0.013177886 0.58008397 0.6145197 0.4757469 -0.11268256 -0.25371864 0.6331674 -0.609763 0.046883292 0.7280986 -0.22184393 0.23070678 -0.11312968 0.39382997 0.103505895 -0.3594922 -0.25810894 0.039857086 -0.17023492 0.03492679 -0.15860252 -0.25876674 0.023650002 -0.16642012 -0.4574979 -0.04545338 0.23751915 0.33222127 -0.042810842 -0.43708053 -0.26561743 0.110480234 0.023417376 0.23973744
74 -0.018870447 -0.060166907 -0.0793231 -0.21825266 -0.1782271 -0.6066129 0.18684208 -0.010070259 0.49088 -0.04202342 0.03536577 0.062275615 0.2301846 -0.19108018 0.04039345 0.26060906 -0.26448107 -0.17690386 -0.07202704 -0.3158302 -0.3029102 -0.49772114 -0.6624023 -0.08362105 -0.09151703 0.014782565 -0.07957233 -0.25998393 0.2103674 -0.306625 0.021781376 0.4359108 0.5071448 0.49727032 -0.053702004 -0.36883825 0.021203168 -0.20662007 -0.5181195 -0.12579356 0.34076327 0.14362986 0.6793501 0.3100604 -0.3637698 0.45361334 -0.04491815 0.07646763 0.040964954 -0.18585062 -0.4559326 -0.7099076 -0.1838713 -0.026307736 -0.07456026 0.41802582 0.25653404 0.7706729 -0.022200515 -0.0013072244 0.28472093 -0.13221048 -0.08194657 -0.06447775
75 -0.1833662 0.13328792 -0.059402127 -0.3174786 -0.14554548 -0.73255855 0.07604523 -0.53141874 0.38619027 0.28644884 -0.16653378 0.10941699 0.1979719 -0.055982884 0.096375994 -0.09298743 -0.2757966 -0.4156353 -0.1301053 -0.29850215 0.29143104 -0.59899044 -0.23827343 0.24432527 0.019199153 -0.08924564 0.019845383 -0.081359506 0.15052181 -0.34169054 0.08320656 0.10987432 0.39236414 0.24922751 -0.060366634 -0.27627787 0.35998622 -0.106918395 -0.73492557 0.26833603 0.5058133 0.3695881 0.55594325 0.12727524 -0.33929506 0.0059635267 -0.21834731 0.0049676015 -0.24713172 -0.1590514 -0.5221987 -0.5318232 -0.1359567 0.21914428 0.14412442 0.1568884 -0.21594732 0.70764667 0.18206625 -0.12605593 -0.24005812 0.26299316 -0.21450287 -0.19747432
76 -0.32483724 0.41779244 -0.55442595 -0.1790046 -0.46165258 -0.109716184 -0.1439309 0.36045548 0.19826083 -0.15792124 -0.29839322 0.3850325 -0.27417046 -0.46083185 -0.13523307 -0.020519305 0.050150134 -0.6109418 -0.40397915 -0.40550402 0.6453888 -0.23653068 0.0034017186 0.48371655 0.19029906 -0.090673834 0.1554181 -0.12961544 -0.32054612 -0.0411517 0.27148497 0.20302208 0.42164344 0.067920245 -0.19453831 -0.23076877 0.4181865 -0.22557856 -0.44762856 0.26515046 0.356773 -0.5376002 0.3138012 0.609753 0.18489835 0.002436076 -0.47295278 0.43214497 0.49536735 -0.18103747 0.18010458 -0.089077495 -0.13215001 -0.52899796 0.16982418 0.20593306 -0.06679296 0.2783444 0.47477785 -0.1443523 0.12859935 0.32204595 -0.025387889 -0.33013985
77 -0.15694195 -0.26180583 0.22157992 -0.41680324 -0.39879864 -0.17383525 -0.66870403 0.32497615 -0.15171263 -0.38449386 0.058553178 0.2884184 0.3146951 -0.16468573 -0.0044161878 0.051628042 0.23526853 0.13703625 0.4278432 -0.03356322 0.42286357 -0.16544946 -0.6256995 -0.052696947 -0.250345 0.24611868 -0.3749628 -0.046310972 -0.15652688 0.53807837 0.32047936 0.032826208 0.23265135 0.09823474 -0.46917662 -0.26374388 0.6260866 -0.24951594 0.043749172 0.4157369 -0.008950505 -0.1933801 0.21970113 0.20019609 0.25996706 0.03854565 -0.26246995 -0.2098533 -0.14227852 0.3510481 -0.2628987 0.26161382 0.081235714 0.3857552 -0.03889154 0.16234541 -0.19651385 0.9753596 0.12611519 0.16370805 -0.044365935 -0.26635775 -0.44263086 -0.08796309
78 -0.3017548 -0.3073528 -0.0018104509 -0.46280193 0.16924559 -0.21538699 -0.08140346 -0.22078764 0.3626914 0.32296753 -0.42862546 0.06029226 0.5023736 -0.06983877 0.3723759 0.04728717 -0.10844397 -0.5150606 -0.17021978 -0.03352987 0.027056992 -0.22124091 0.031942286 -0.24079822 -0.14054257 -0.037440743 -0.12342169 -0.41527325 0.13914342 -0.15429837 0.100091316 0.3656289 0.8349379 0.7059967 0.13273393 -0.19360562 0.41934153 -0.6147088 -0.45724925 0.9353844 -0.008410052 0.03190917 0.30377787 0.30428606 -0.0018653747 -0.012239067 -0.29065 0.097315624 -0.3875653 0.17056905 -0.23665315 -0.37200537 0.21521343 -0.1434127 -0.027298877 0.24431081 -0.28556752 0.46266484 0.04496454 -0.3780654 -0.4819263 0.5047965 -0.09074144 0.2446725
79 -0.05260933 -0.24650416 -0.5409391 0.14135309 -0.2552631 -0.236121 -0.1405481 -0.035815995 0.45358968 0.20035785 -0.3833739 0.13911901 0.20817052 0.041039404 0.068960145 -0.21863063 0.38398495 -0.21495469 0.17785636 0.34207794 0.13788354 -0.11557126 -0.3659713 -0.019706715 -0.14366713 -0.14969607 -0.34508762 -0.39307132 0.3388217 0.32993114 -0.009929077 0.36954397 1.0355839 0.27766836 0.09965699 -0.6723287 0.5977667 -0.55571085 -0.059892904 0.48481733 0.009335667 -0.022678379 0.054780435 0.2618525 0.07179295 -0.16670996 -0.2801821 -0.095534444 -0.12806335 0.038783785 -0.044173326 -0.2923269 0.15978631 -0.13805166 0.02407228 0.3869753 0.17942823 0.39653873 0.05797116 -0.21909995 -0.33153126 0.6046652 0.25982654 0.40095657
80 -0.38287234 0.25465518 -0.35441044 -0.18838291 -0.21495919 0.044454794 -0.17554474 0.47770646 0.3659381 0.15700413 -0.24540581 -0.065291815 0.004463204 0.08207882 0.10481678 -0.10960152 0.4311273 -0.30770844 -0.137305 -0.1984545 0.010782636 0.19957805 -0.3600011 -0.30161032 -0.50996447 0.09570935 -0.028062107 -0.26293084 0.082228854 -0.02603261 -0.05815106 0.1295108 0.4093644 -0.24127167 0.04445836 -0.39689007 0.42614195 -0.16222821 -0.134901 0.7335223 0.5162858 0.5811224 -0.07654343 0.69590694 0.44842303 -0.013562004 -0.56035507 0.21523452 0.24849692 -0.16558355 0.18230265 -0.12234565 0.17343485 -0.50961643 -0.26066396 0.40780848 0.37643752 -0.37278515 0.32602933 -0.44982964 -0.14610632 0.46929342 -0.025508802 -0.4456215
81 0.021450927 0.006552286 0.02475316 -0.29189217 -0.012777415 -0.7513776 -0.18206844 -0.1521105 0.6901883 -0.20669338 -0.09624333 -0.014271333 0.076069765 -0.26269367 0.47702935 -0.17875089 -0.5044477 -0.038345292 0.127723 0.20506968 0.42120984 -0.25902224 -0.5007125 0.27369472 -0.30808917 -0.27907097 -0.034350384 0.11344938 0.33771604 -0.21304242 -0.30907774 0.11177479 0.21156406 0.2732015 -0.4259923 -0.30129477 0.24263312 -0.26585642 -0.58132845 0.13895084 0.50565696 -0.1381692 0.8012383 0.31755722 -0.5832594 0.024740612 0.0935454 0.21874627 -0.13867284 0.23736018 -0.06375833 -0.296372 -0.42108858 -0.025803676 0.25364313 0.36997217 0.31093168 0.5181989 -0.16393623 -0.2928447 -0.12565401 0.009517326 -0.26767668 -0.18655977
82 -0.45590648 0.1797255 -0.27496314 -0.24498531 -0.1914729 0.15836999 0.18071169 0.056239106 0.37503457 -0.054706726 -0.12902085 -0.06710015 0.039479576 0.00073110743 0.29300773 -0.42251223 0.18165797 -0.16298705 -0.028412707 0.0048177205 -0.070378 -0.04172238 -0.52842754 0.17248166 0.1039738 -0.15474957 -0.25681332 -0.19882445 0.06703388 -0.24279839 0.1050588 0.15700525 0.47518352 0.36200628 -0.3131843 0.003366982 0.914723 -0.8792143 0.36878437 0.5776133 0.003210413 0.055964116 0.095024094 0.2025703 0.078800075 -0.41636458 -0.045465924 0.3577472 -0.35530347 0.11531239 -0.38565132 -0.04548326 0.2940169 0.06647085 -0.29835993 0.1490126 0.19192904 0.564635 -0.092926726 -0.42571902 -0.31757495 0.266894 -0.3679019 0.3667115
83 -0.932105 0.088688545 0.016956016 -0.3757635 -0.17444421 -0.5903243 0.14434563 -0.40883788 0.2004806 -0.22086339 0.43843943 -0.093402624 -0.11560369 -0.281865 0.17536166 -0.20203252 0.3016604 0.15749814 0.11468783 0.16483903 0.0013802482 0.08619808 -0.15191907 0.4960776 -0.28995308 0.12464318 0.20172755 -0.48803398 -0.4249461 -0.23221269 -0.051811993 0.3899698 0.18100628 0.39733776 -0.30147842 0.3188783 0.44006863 -0.42223245 0.2552575 0.18135776 0.29352796 -0.19795443 0.5602411 0.024053577 -0.21100911 -0.29210982 -0.102377355 -0.13641751 0.062164556 0.01846168 0.4655187 0.09501163 -0.28308344 -0.50796765 -0.14504354 0.44580227 -0.25817302 0.7700339 -0.12997353 0.19326049 -0.24219516 0.14062183 -0.30981064 -0.021894176
84 -0.55949974 0.45642444 -0.3605858 -0.17073034 -0.52753615 0.21847971 -0.085410096 0.28134972 0.34029892 -0.17898525 0.09921873 0.41157857 -0.1374305 -0.095867455 0.23664795 -0.32754856 0.49209794 -0.3528441 0.051373105 -0.48914036 0.18406531 -0.22275068 -0.11182149 0.029120356 0.3788454 0.2519903 0.021827376 -0.22636116 -0.003468026 -0.2619512 -0.24673733 0.08052301 0.12618533 0.6836631 -0.31327677 0.014015779 0.5288235 -0.24661297 -0.26132965 0.3042391 -0.09966957 -0.6581671 0.27845263 0.32647607 0.2609633 0.1623237 -0.103864 0.09102635 0.067147456 -0.062495455 -0.08753056 0.28859067 -0.1488434 -0.46124923 0.2290115 0.36950266 0.13993263 0.2738639 0.46911567 0.49259758 -0.53844047 0.27573022 -0.0037461994 -0.42539075
85 -0.45976087 -0.16702564 0.12805824 -0.36631107 -0.33141798 -0.07651672 -0.5013394 0.14912257 -0.060763724 -0.14877488 0.10999156 0.27435806 0.42050692 -0.16828813 -0.06178098 0.19212389 0.05779202 0.23121221 0.47422385 -0.11570404 0.31096664 -0.3229062 -0.46988344 0.08997572 -0.41937172 -0.08750861 -0.1515527 -0.07895906 0.0005619371 0.11868825 0.32480848 -0.05587124 0.26665905 -0.44834027 -0.3970179 -0.5133779 0.368452 -0.15577252 -0.05412708 0.48088095 0.33416006 -0.34312713 0.35430524 0.20291126 0.08562626 0.21327695 -0.090541884 -0.536404 0.022852767 0.32077944 -0.49568972 0.3409317 0.13861556 -0.22876069 -0.106044084 0.0036685057 -0.11313526 0.96885455 0.21198717 0.2615308 -0.13534935 -0.4942031 -0.4869694 0.108323
86 -0.5207637 0.24226856 -0.75835574 -0.5095936 -0.6523162 -0.048343413 0.2420022 0.62770265 0.24095225 0.4919099 0.069580585 0.3317022 -0.2161395 -0.4029674 0.51798904 -0.40940124 0.43482164 -0.16041534 -0.15699442 -0.49924645 0.2178242 -0.15212828 0.030209063 0.19260521 0.40535432 -0.0283162 0.24619523 -0.08147159 -0.00217463 -0.17730986 -0.2179732 0.28982434 0.40809077 0.17410584 -0.32386032 -0.1991894 0.109597236 -0.0063163433 -0.09958563 0.1763813 -0.151618 -0.31253305 0.11281196 0.17633869 0.05547552 -0.46681443 0.029904056 -0.31141284 -0.19654766 0.056538492 -0.068211555 0.14801869 -0.13498299 -0.36247313 0.19887973 0.7383471 -0.051527623 0.488412 0.20094155 0.25359926 -0.34387028 0.3134495 -0.3235452 -0.30767038
87 -0.28453842 -0.3543603 0.28439257 -0.4429253 -0.18625773 0.17721716 -0.55311817 0.3777863 0.13500808 -0.053542238 0.21490526 0.29185808 0.34995452 -0.12635806 0.1676616 -0.07823901 0.18039687 -0.007994775 0.43106356 0.11266916 0.29223645 -0.19024514 -0.5848695 0.0062484294 -0.46166 0.037650432 -0.20002057 -0.29667032 -0.17091143 0.17764935 0.6656061 0.15240903 0.03671713 0.1521785 -0.3384443 -0.57190657 0.3384977 -0.04805538 0.033239424 0.37753603 0.45872056 -0.3750056 0.014594767 0.4450594 -0.22810447 0.110290736 -0.15483122 -0.26427418 -0.101725526 0.64664996 -0.42126566 0.3167185 0.10020629 -0.10810807 -0.19865671 -0.17499083 -0.18345861 0.913877 -0.059028637 0.14321467 -0.37711477 -0.245001 -0.26935384 -0.327116
88 0.3133805 -0.2395659 -0.4881865 -0.12868224 -0.1204631 -0.07773219 0.026783012 -0.16723976 0.45765513 -0.28472304 0.3620275 0.358697 0.16949399 0.2264951 0.39585876 -0.036293045 0.418873 -0.5686912 0.35173315 0.038080167 0.5445459 0.20118247 -0.17165059 0.2014847 -0.05962555 0.11614815 0.47226813 -0.43183804 -0.0025819815 0.2477129 -0.5018986 0.09267026 0.45609543 -0.05662973 -0.43935275 -0.722411 -0.047054574 -0.56289685 -0.102983505 0.037369203 0.035572182 0.13052619 -0.14344312 -0.15107884 -0.55793846 0.4225369 0.080202416 0.15099709 -0.1867067 -0.11689426 -0.07651768 0.03880013 -0.014006742 -0.28256765 0.010171542 0.61146414 -0.10059616 0.9254748 -0.274285 -0.21310249 0.083404444 0.24905752 0.40656155 0.28941187
89 -0.22373472 -0.3023743 -0.21146479 -0.100598305 -0.11222239 0.301295 -0.24344207 0.073286295 0.30338538 -0.02038306 -0.019431073 0.18946584 0.39026126 0.08626752 0.40654677 -0.15865517 0.24343204 -0.3133891 0.13627346 0.12580797 0.016030962 0.22571266 -0.67297447 0.14107859 -0.27992606 0.122185156 -0.58973855 -0.55089784 0.21988712 0.15187591 0.2765876 0.2866614 0.6105745 0.35790586 -0.033761002 -0.5038441 0.58804435 -0.52387494 -0.018497912 0.5153948 0.5526204 0.0060689226 0.20482989 0.53498584 0.01659318 -0.15590769 -0.053367093 0.14422059 -0.19563101 0.52487904 -0.34285092 0.08568459 0.3233017 -0.116139874 -0.14402133 0.5512681 0.1146591 0.44669157 -0.21795611 -0.16966039 -0.3485583 0.21152389 -0.23845328 0.29144713
90 -0.8020951 -0.21276899 -0.22749536 -0.27131268 -0.08532331 -0.0648665 -0.16703424 0.007959502 0.40376696 -0.40463433 0.27640265 0.17089696 -0.112629354 -0.29255328 0.39631546 -0.1999694 0.004091251 0.2046199 0.06357162 -0.0104139205 0.082304604 -0.15284413 -0.22795022 0.1098611 -0.14566554 0.26814505 0.09306994 -0.10094575 -0.14455357 -0.092902884 0.23442166 0.55608743 0.163042 0.34830347 -0.33141926 0.058441345 0.5511191 -0.37887833 0.017236762 0.2561415 0.44326016 0.013901565 -0.05418628 -0.0017193357 -0.56450033 -0.27607468 -0.19275516 -0.31452128 -0.010977742 0.25904328 0.45485076 0.24679212 0.027384816 -0.6861854 -0.1307612 0.12119821 -0.27736032 1.0756791 -0.23148227 0.09918302 -0.6233741 -0.1175191 -0.030987533 -0.37981868
91 -0.23987365 -0.07942511 -0.05943631 -0.2549828 -0.41016063 -0.85172987 -0.37183514 -0.55677783 0.26632768 -0.3028314 -0.09524394 0.020255776 0.23082455 0.3155867 0.07628902 -0.12956654 -0.045379493 -0.20757698 -0.018379925 -0.34573752 -0.01344829 -0.40277132 -0.79201365 0.2081865 0.06798592 -0.1111696 0.2339146 -0.030589204 -0.3106776 -0.3905474 0.1560648 0.15822874 0.4104077 -0.17668812 -0.38685656 -0.38667402 0.00665812 -0.16215365 -0.59845436 0.08735907 0.21197324 -0.10840817 0.6222247 0.14406054 -0.24772012 0.25111222 0.11471552 -0.27567387 -0.24738768 -0.32481834 -0.6079223 -0.49517378 -0.14152251 -0.32100123 0.009256288 0.37130696 0.115314655 0.78574264 -0.20410997 0.20023513 0.16020373 -0.13282381 -0.24829684 -0.34074518
92 -1.0554585 -0.13123624 -0.52646136 -0.44765237 -0.48599645 -0.14984857 0.09062535 -0.21885765 0.45732528 -0.29731467 0.256036 -0.23067695 0.0023575139 -0.07001464 0.08352764 -0.12319965 0.1523569 -0.10680013 0.017257284 -0.047226712 0.026185209 -0.14261946 -0.30283546 0.49170035 0.060690317 0.019777153 0.08245359 0.034150667 0.10697959 -0.25424102 0.084873356 0.13336791 0.29497623 0.31385988 -0.4789733 0.59813106 0.59912354 -0.58119965 0.12924786 0.6031713 0.2774961 0.032147735 0.28196108 -0.3491666 -0.40113604 -0.015464086 -0.15779841 -0.062616 0.08871232 0.15528072 0.36203355 0.14732133 -0.22062814 -0.4696132 -0.2564142 0.44266912 0.5585232 0.67126554 -0.09702524 0.07253814 -0.031240081 -0.1286794 -0.2171171 0.13931869
93 -0.58179975 0.14734182 -0.73289895 -0.3597816 -0.60979086 0.022170858 -0.06927365 0.30423355 0.20910625 0.19954763 0.22215651 0.41918024 -0.40076485 -0.05708656 -0.0051582423 -0.20229672 0.5139718 -0.6105467 0.25695673 -0.505457 0.07138697 -0.42054263 -0.16718255 0.09647433 0.03523251 -0.45563495 0.11683622 0.075644515 -0.119364716 0.021147722 -0.15479034 0.08190515 0.31167376 0.45294985 -0.27740985 -0.20981905 0.123225756 -0.35055053 -0.03782228 0.3932981 0.3231339 0.042690612 0.33985642 0.25517017 -0.029504098 -0.013118184 -0.40343344 0.20795433 0.07752354 -0.34409222 0.09982041 0.21788736 -0.3254806 -0.6187827 0.08277883 0.35921454 0.21572004 0.35048917 0.3216232 0.26987174 -0.45372218 0.1634816 -0.38435414 -0.09497567
94 -0.40286815 -0.23806757 -0.017052831 -0.38728702 -0.2626297 -0.7797803 -0.42841893 -0.101073116 0.16698562 -0.35732818 0.19022898 0.09473051 -0.14311908 0.091715045 0.39429253 -0.11196556 -0.31099424 -0.21748225 0.27848682 -0.36886662 0.22547095 -0.24452332 -0.5319027 0.38117734 -0.0029512548 0.12687305 0.5438264 -0.12648608 0.09316256 -0.014554531 0.06941299 0.1684575 0.3620865 0.22410564 -0.3076458 -0.5153703 0.06580365 -0.4253302 -0.6583636 -0.073312625 0.16970514 -0.07846963 0.7247404 0.25449353 -0.45906535 0.014968624 0.042184364 0.16141027 -0.11181443 -0.104007885 -0.20161757 -0.60252774 -0.23086424 -0.2877219 -0.26896262 0.54593205 0.19313268 0.8760981 -0.02380249 -0.23049374 0.1547937 -0.10665876 -0.06737916 0.09156369
95 -0.6669396 0.19493474 -0.33219668 -0.5502023 -0.120381385 -0.30185157 -0.28992817 -0.07148874 0.10817062 -0.23897465 0.40516758 0.14322856 0.29613027 -0.29232156 0.09867784 -0.086732574 0.09671152 0.124433585 0.12486737 0.0072983587 0.12764579 -0.114963725 -0.11598329 0.34859216 -0.12562291 0.078832515 -0.020792305 -0.37869886 -0.009114382 -0.1535408 -0.24957168 0.4211715 -0.111770965 0.20713744 -0.17469417 0.1919166 0.6342789 -0.68725836 -0.29591018 0.35120383 0.29467615 -0.13970263 0.07142296 -0.1727339 -0.22854432 0.18178901 -0.35740894 -0.29976767 -0.020176878 0.26078135 -0.16169102 0.28353533 -0.06365369 -0.5662443 -0.27221552 0.71844494 0.22029369 1.0179452 -0.13899311 0.550734 -0.041899566 -0.097128525 -0.4802433 0.24109021
96 -0.2884792 -0.3221268 -0.45827243 -0.5021942 -0.11009484 -0.048619814 -0.41763595 0.46108165 0.47517735 -0.06131225 -0.017897466 0.17036013 0.28882352 0.12077903 0.3431523 -0.46436015 -0.15474597 -0.23738241 0.07016046 0.1105334 0.064648114 -0.13232276 -0.5779324 0.052720565 -0.20075272 -0.5186662 -0.35968062 -0.33395988 0.45886788 -0.2681663 -0.28408885 0.14363074 0.739082 0.44331816 0.09317022 -0.3185756 0.87365025 -0.49756506 0.031739708 0.69565195 0.2951951 0.10806608 0.102878794 0.44632158 -0.14241703 -0.22086282 -0.23824392 0.2101406 -0.13196826 0.24408224 -0.35961762 -0.09651445 0.09028366 0.21034439 -0.09212708 0.5454578 0.08596132 0.417486 -0.23372687 -0.3752977 -0.30203342 0.30266702 -0.31717905 0.39460915
97 -0.666935 0.41966978 -0.5266915 -0.12270162 -0.7181698 0.06935333 0.104887 0.35242832 0.16994232 -0.1550647 -0.107042335 0.48923582 -0.23704071 0.029223412 0.14727305 -0.60211474 0.48151532 -0.17344165 -0.3677693 -0.57974964 0.12619808 -0.2238954 -0.25618735 0.25901347 -0.051353272 -0.5252047 0.19693732 -0.07252617 0.07466938 -0.110023685 -0.045854166 -0.053009424 0.49689007 0.43760636 -0.12467842 -0.3989169 0.38469136 -0.49413964 0.05823497 0.041169666 0.13806175 -0.5725009 0.3051734 0.1573871 0.06510879 -0.37882105 -0.4644433 0.31615987 0.10290714 0.12811182 -0.12249495 0.024938237 -0.093606845 -0.32195565 -0.17287765 0.66792184 -0.014123795 0.52009803 0.44307396 -0.11272723 -0.23419015 0.026853692 -0.4041733 -0.2836469
98 -0.45749697 0.48046172 -0.23132436 -0.24564981 -0.46871236 -0.11596328 0.19389917 0.51852626 0.05733869 0.089627795 -0.19405821 0.6524555 0.038518805 -0.35907394 0.19422723 -0.25675863 0.5765516 -0.32172903 -0.017697936 -0.307426 0.5959211 -0.038446322 -0.020500463 0.18732916 0.23266388 -0.26693046 -0.17596023 -0.14411643 -0.27819693 0.049662933 0.05361543 0.12265235 0.40940493 0.4941974 -0.19048469 -0.27922744 0.29406992 -0.41390887 -0.14032859 0.22813606 0.20813411 -0.27536216 0.28657478 0.4155699 -0.008046163 -0.011965306 -0.3754976 0.099950165 0.11279473 -0.018543757 -0.18878642 0.12221931 -0.37941945 -0.5313568 -0.24743432 0.48610485 -0.024972808 0.80463904 0.64877385 -0.046972666 -0.21794799 -0.006340527 -0.24576958 -0.29478076
99 -0.68635285 -0.260216 -0.31999168 -0.46374434 -0.39932632 -0.23017517 -0.29377046 -0.029851142 0.4214631 -0.31443378 0.2169606 -0.05067907 0.062082864 -0.08673148 0.42918992 0.025313854 -0.22909385 -0.17676418 0.035347793 0.042409398 0.16967466 -0.13141349 0.23228922 0.26232705 -0.010029836 -0.117164776 0.006206672 -0.07874049 -0.122081116 -0.29087135 -0.032561775 0.57973385 0.11586297 0.63164294 -0.08505595 0.16502307 0.79934245 -0.34429535 -0.29999954 0.051132172 0.16834572 0.05249217 0.5876824 -0.5210315 -0.29852027 0.18144391 -0.47379267 -0.1794939 -0.2529693 0.0704203 -0.04874903 -0.01917804 -0.27534345 -0.7468384 -0.45636415 0.56965494 0.0587805 0.7282747 -0.055851832 0.05129036 0.047728714 -0.085981935 0.01739063 0.027468361
100 -0.4114055 -0.18918528 -0.35955185 -0.6327197 -0.3219756 -0.24424785 0.21540846 -0.038031887 0.32301542 -0.35338622 0.10194772 -0.08883196 0.16709475 -0.24911806 0.20196445 -0.26744348 -0.038930766 -0.26344788 -0.05951103 0.25475183 0.7029385 -0.31721726 -0.055606823 0.22189651 -0.16984084 0.038509388 0.2656926 0.17733692 0.09201317 -0.07340042 -0.40466127 0.41304168 -0.07716271 0.1488172 -0.46817577 0.11243161 0.7268317 -0.494424 -0.06281367 0.06401276 0.3573562 0.090424955 0.23291361 -0.09154298 -0.3961654 0.06653847 0.22525775 0.09712142 -0.011315316 0.21652944 0.07320159 0.06777312 -0.19509998 -0.7019393 -0.33177876 0.6637767 0.33129364 1.0506938 -0.068740934 -0.05695353 -0.23216017 0.16476265 -0.06581803 0.22005057
