100 32
1 0.233885 0.637379 0.449177 0.409491 0.087810 1.001588 0.586177 0.249305 -0.260105 -0.626705 -1.567804 0.856451 -0.915805 -0.495437 0.130117 -0.268534 1.254851 0.349597 -1.243265 -1.330935 -0.885825 -0.515315 0.110051 -0.053529 1.699800 0.787411 0.575789 -0.386063 -0.062786 0.267680 1.207694 0.700126 
92 0.835889 0.122388 0.847960 0.661778 -0.249910 0.525709 1.447444 -1.237663 0.262715 -0.617232 0.272372 0.361007 -0.222862 1.595849 0.088515 -0.988976 1.519645 -0.965897 -0.599548 0.123998 -0.757550 -1.369612 0.485343 1.284276 -0.527054 -0.198658 -0.014131 -0.340911 0.647418 -1.112354 -1.487407 0.058937 
94 -0.258718 1.946967 2.285352 1.243254 -0.049409 0.210414 -1.658055 -0.800613 0.931359 0.763987 0.430248 -1.333105 1.041775 -0.564666 0.104634 -0.128917 -0.197822 -0.702230 -0.378926 1.048952 -0.680824 -0.222133 0.525681 -0.562620 -0.122428 -0.771231 -0.136667 -0.921947 0.173164 0.101212 0.142269 1.584862 
99 0.853448 1.166824 1.141593 1.693082 -0.177463 -0.442058 1.215768 -1.009881 -0.120385 -0.926378 0.096712 2.045882 0.459912 1.015076 -0.274542 -0.288618 -0.538194 -1.019390 -0.424874 -0.947589 -0.953043 -0.712823 -0.411727 -0.217931 -0.545236 -0.230156 -1.579790 -0.400909 0.983938 0.375244 -0.061095 0.532093 
100 0.472079 0.101121 0.929548 1.289160 0.073374 -0.249250 1.574755 -0.391816 -0.843003 -0.197594 -0.787848 0.272224 -0.192064 1.668235 -1.322372 -0.215751 0.108057 -0.766777 -1.454050 -0.238900 -1.342305 -1.234319 0.721310 -0.395237 0.186243 -0.455984 -0.698176 -1.263665 -0.211510 0.592843 -1.200018 -0.628535 
2 -0.337195 1.928840 1.668141 0.905465 -0.747519 0.870170 -0.287923 -1.526283 0.486130 -1.429382 -0.996835 0.584828 0.555676 -0.054315 1.007043 -0.624541 0.484609 -0.410773 -0.233457 -1.143356 0.439047 -0.522434 1.520255 0.471949 0.139308 -0.967899 0.172443 -0.354270 0.897405 0.593770 -0.123886 1.150306 
46 0.473710 -0.249956 1.000806 -0.251373 0.330230 0.583591 0.499738 -1.307492 -1.385230 -0.892827 -1.509451 -0.230877 -0.586775 0.501871 -0.364264 0.214159 1.845816 -1.713881 -1.517967 -1.063059 0.656395 -0.177817 0.160263 -0.761383 0.364821 0.273951 -0.778766 -1.450040 -0.743587 -0.127656 -0.106775 0.505657 
71 0.229038 0.135689 1.814531 -0.083609 0.836069 0.109288 -1.427890 -0.891312 -0.748699 0.751786 -1.164353 -1.228045 0.389142 -0.225157 -0.176669 1.213979 0.544858 -0.496399 -1.408268 0.925776 -1.502323 -0.547056 -0.359238 -1.117933 0.553867 0.423786 -0.102662 -1.095778 -1.081040 -0.644149 0.429321 1.724907 
95 -0.284204 -0.119222 0.691130 1.329354 -0.401663 0.535001 0.875776 -0.947631 -1.249755 -0.381780 0.304687 1.163570 -0.952741 1.028422 0.260828 0.383746 0.496736 -0.370968 -1.579880 -1.207301 -2.083576 -0.285305 -0.826099 1.452985 -0.630139 -0.217965 0.056019 -1.202181 0.586299 -0.021897 0.078606 0.735275 
3 1.846477 0.392100 -0.122045 -0.880723 -0.527134 1.441953 0.870046 -1.705128 -0.109965 0.728144 0.370503 -0.125852 -0.946526 0.556597 -0.683119 -0.321866 0.760665 -0.449818 -1.391396 -0.762293 0.723586 -1.005568 -0.359645 -1.157828 1.009900 0.641895 -0.093755 -0.056860 -0.853046 0.789298 -0.140320 0.239329 
59 0.722289 1.600351 0.808684 0.839550 -0.586249 0.401545 0.261858 -1.337829 -0.523971 -0.619059 0.083573 0.350387 0.835755 0.212084 0.056185 -1.275657 0.975207 -0.487038 -0.637032 -2.452234 -1.362635 -0.413535 0.343627 1.068102 -0.556115 0.217972 0.837881 -0.229686 -1.073482 0.650958 0.634647 -0.395835 
78 1.642567 -0.831132 -0.793559 0.112532 -0.053804 0.936463 -0.163956 -0.731262 2.045081 -1.078510 0.725736 0.356807 0.736893 -1.006665 -0.330266 0.043552 -0.821133 0.452133 -0.207622 -0.987527 -0.097248 -1.108159 -0.282455 -0.771050 0.388611 -0.227584 1.123576 1.039402 -2.068437 0.859567 1.177744 -0.109101 
96 0.893539 -0.592974 0.276062 -0.107729 -0.159260 0.263617 -0.924913 0.885725 1.712382 1.040273 -0.509614 0.005179 0.582868 0.522983 0.551850 0.846237 -0.400393 0.017888 0.222028 -1.658115 -1.005871 -1.289571 -0.064437 -1.042866 -0.219461 0.877011 -0.043237 1.303664 -1.769099 1.060409 -0.995302 -0.973938 
4 1.799942 -0.317309 0.638026 -1.072023 -0.582564 1.326456 0.083041 -0.393187 0.985634 1.588111 1.093222 0.300246 -0.073805 1.126133 0.352866 -0.519147 -0.058412 0.069547 -0.232336 -0.802232 -0.101780 -1.261513 0.382447 -0.733427 0.737038 1.030346 -0.763218 1.221774 0.111331 -0.070311 -1.029364 0.269351 
42 1.717915 -1.657934 0.137133 -0.287999 -0.412325 1.001500 0.416264 -0.531997 1.827018 -0.814894 -0.374731 0.441461 -0.095918 1.029397 1.053171 -0.172659 -0.435116 0.540055 -0.357903 -0.101232 0.199854 -1.725607 0.479154 0.400747 0.186184 0.792872 1.397469 0.553416 -1.038170 0.629866 -1.478333 -0.064397 
82 1.327192 -1.269786 -0.180623 0.035807 -0.205576 1.066360 0.011147 1.259910 0.090134 -0.332885 -0.506233 1.000962 -0.148580 0.946415 0.027126 0.065558 -1.504071 1.142123 -1.077554 -0.796184 -0.464774 -0.303900 -0.256128 0.227089 1.378389 1.931482 0.039412 0.724015 -1.279423 1.130275 -0.813681 -0.210535 
5 0.128118 -0.295702 -0.272007 0.592714 -1.868991 0.994064 0.092789 0.354482 -0.691208 -0.265583 -1.100153 -0.350991 1.184741 -1.013302 -0.449598 0.482741 0.315650 1.475309 0.426391 0.280105 -1.425772 -0.284296 -0.600407 -0.946446 -0.379297 0.722617 -0.733036 -1.197758 -0.660815 -1.211948 0.022476 0.109308 
22 1.304294 0.347295 -0.240256 0.114063 -1.078870 1.890680 0.366545 -0.255501 -1.101112 -0.106992 0.382955 -0.380679 -0.020180 -0.413489 -1.625216 0.368427 1.083244 -0.156372 1.504901 0.979703 0.418300 -0.279712 0.323436 1.755441 -0.579206 0.687004 -0.289205 -0.728978 -0.275553 -1.409164 -0.610491 0.407901 
44 0.414877 0.058431 -0.873442 0.537280 -1.076814 2.258143 0.123254 0.281502 -0.492099 -0.766181 0.050111 -0.742937 -0.037843 -1.552054 -1.646326 1.841946 1.096429 0.273538 0.653367 0.465667 0.963642 -0.874853 -0.943556 -0.045891 -0.220880 0.515901 -0.372673 -0.064767 0.268713 0.874248 -0.301075 -0.268205 
65 0.483075 0.303238 0.012021 0.691956 -1.086081 1.918442 0.455641 0.691954 -0.898187 -0.721640 0.705494 -0.174414 -0.247853 -1.297420 -1.857350 1.036656 -0.628285 0.022953 0.716018 0.567327 0.603335 -0.377874 -0.932857 0.654877 0.056001 1.939039 -0.133301 -0.605457 -0.514281 0.330078 -0.619005 -0.176974 
80 -0.227235 0.671691 -0.174662 1.056706 -1.364904 1.584806 0.533349 0.732094 -0.565373 0.139662 -0.300767 -1.308961 0.692540 -1.536547 -0.422918 1.664608 -0.694970 -0.396933 1.438479 -0.514399 -0.351950 -1.008524 0.191327 -0.817411 -1.316011 1.533870 -0.687535 -0.645508 0.358562 -0.609561 -0.615935 -0.157490 
6 0.768922 0.321459 0.425579 -1.074876 -0.669460 1.488626 -0.739874 -1.581852 1.193961 0.670433 -0.237854 1.325797 0.812124 0.406493 1.394583 0.102395 0.479397 -0.163670 0.061479 -0.937478 0.362432 -1.860378 1.324439 0.263812 0.557663 0.482124 0.188929 0.766010 -0.194014 -0.292120 0.293685 0.763777 
33 -0.251338 -0.734642 -0.337651 -0.669123 0.866293 1.817799 -1.210503 -0.574912 -0.102392 -0.359264 1.110285 0.418901 0.751439 0.723459 -1.018940 0.899289 -1.220764 -0.395744 -1.713541 -0.486207 0.169807 -1.058177 0.316952 0.689464 0.677892 0.672770 -0.198314 -0.041764 -1.649395 1.454272 -0.655644 0.241867 
7 -0.106085 -0.544702 0.170532 0.509580 -2.301657 1.277125 0.233519 0.495543 0.083385 -0.065693 -1.449678 0.191751 1.016298 -1.404946 -0.408546 0.884006 0.418314 1.003249 0.045044 0.248547 -0.017280 -1.431112 -1.014054 -0.265738 -0.383787 0.491332 -0.732379 -1.197937 -0.066217 -0.688273 -0.153061 0.008299 
39 1.101182 1.007581 -0.542265 -0.087402 -1.177991 1.773134 -0.104787 0.092489 -1.008633 0.187864 -0.753230 -0.241275 1.300036 -0.408888 -0.567192 0.768850 -0.010200 1.488556 0.725211 -0.432412 -0.382895 0.219226 0.670343 -0.117793 -0.518009 2.088099 -0.446458 -0.074754 -1.149056 -0.940800 -0.361522 -0.852253 
8 -0.601507 -0.362758 0.274113 0.169048 0.359410 0.146592 -0.707206 -0.031924 -0.273035 -1.719751 0.056610 -0.478922 -0.636502 -0.742775 -1.460450 0.470359 0.614140 -0.422665 -0.083326 0.669057 -0.645344 0.469896 1.379159 -0.760312 1.831274 0.334925 -0.133466 -1.641003 -0.104226 1.534070 0.321418 1.156051 
67 -1.385538 0.871841 1.766957 0.104482 1.060623 0.712198 -1.324871 0.669371 -0.483811 0.805142 -0.168534 -1.551906 0.382121 -0.461918 0.251629 0.891008 -0.161843 -0.782570 0.416627 0.734071 -1.828879 -0.181856 0.780971 -0.564998 -1.465655 -0.119951 -0.658631 -0.616801 -1.232991 0.284581 0.073116 2.142052 
88 -1.703220 0.856378 -0.387887 0.225578 0.345226 1.444449 -0.561588 -0.862303 0.287232 0.979792 0.635327 1.291534 -0.262051 -1.491663 0.571026 -1.153206 1.350869 1.014747 1.019299 -0.154158 -0.634429 -0.650111 1.635200 -0.002904 0.279347 0.327385 0.474390 -0.503914 -0.349790 -0.697211 -0.339084 1.266291 
91 0.182328 0.971777 0.469684 0.247948 0.901221 0.981254 -1.850901 -0.165211 0.675226 0.048769 0.769563 0.268793 -0.609971 -1.251448 -0.474089 1.315935 1.814131 -0.012095 -1.745458 0.623138 0.016524 0.516201 0.041730 0.081335 -0.746403 0.181961 -0.407544 -0.726729 0.859396 -0.633008 1.598092 1.564929 
9 -0.692581 0.717448 0.132240 1.051767 0.481654 0.549226 -0.215958 -0.143926 0.138403 1.032549 1.396177 -0.351055 -0.111974 -0.722457 -0.326350 -0.117171 1.501074 0.300523 0.770103 0.134277 -0.730517 0.140671 1.675907 -0.744275 1.117121 0.005519 -0.266319 -1.811536 -1.237449 0.216433 -1.181145 -0.151850 
27 -1.552688 -1.066141 0.360201 1.336403 -0.206634 0.713314 -0.461391 -1.120064 0.548314 -0.019946 0.222796 0.460399 0.578741 -1.585811 -0.140367 -0.708015 0.625411 0.641637 0.089642 0.590827 -0.449437 -0.834455 1.330833 -1.397063 1.178342 -0.127823 -0.312392 -1.715488 -0.529386 0.479839 -0.380541 0.112118 
61 -0.853430 -0.466198 0.084800 0.219699 1.275190 0.909145 -0.028532 -0.030281 -0.598486 -0.624802 0.104405 0.641924 -0.365928 -1.756648 -0.397102 -0.264129 2.162357 0.543266 0.619048 0.296039 -0.560953 -0.416421 1.366343 -1.104775 1.430331 0.259905 0.734522 -1.129565 -1.082099 -0.259703 -0.449585 0.101405 
68 -1.713809 -0.494414 -0.673528 1.365692 -0.513092 0.024663 0.037700 -0.378677 0.871743 0.004041 -0.017726 1.112608 0.601463 -1.941584 -0.752465 -0.913968 0.585139 1.389044 1.751212 -0.362695 -0.370954 -0.027447 1.449678 -0.688743 -0.360143 -0.069560 0.355778 -0.504407 -0.047581 0.597862 -0.906188 1.642545 
10 -0.159978 0.578303 1.650630 0.069195 1.194873 -0.320298 0.544342 -0.011745 -0.616355 -0.963520 -1.381992 -0.574911 0.713356 -0.909715 -0.346897 0.345434 0.351940 -0.521423 0.753157 0.194620 -0.856600 -0.114252 0.912427 -0.479141 1.180394 0.690288 -0.836257 -0.910033 -1.023250 0.600574 1.139692 1.779964 
32 -0.174679 0.704948 1.556405 0.833865 0.190172 0.999719 -2.400544 0.133866 0.217896 -1.303118 -0.073035 -0.136051 -0.202278 -0.204330 -0.871727 1.049158 1.406236 -0.711923 -1.524891 0.837234 -0.748671 -0.469964 1.038916 -0.580794 1.156430 -0.495320 0.875020 -0.238707 0.201886 -0.126080 -0.097984 0.315403 
40 0.488984 1.428607 0.225429 0.841397 -0.985328 1.242265 0.377551 -0.583293 0.623155 -0.761406 0.939833 0.423568 -0.710196 0.520886 -0.309613 -0.990471 1.509252 0.417771 -1.880091 -0.043506 -1.888844 -1.033829 -0.469484 0.530668 0.975287 -0.443314 1.185051 -0.809415 0.577769 -0.771108 -0.075441 0.235965 
11 -1.182147 -1.236589 -0.781092 -0.365500 0.048852 1.265898 -1.505003 0.002563 -0.444549 -0.514466 0.851620 -0.189929 1.208504 -0.664930 -0.423418 0.776896 0.326647 0.271142 0.083440 -0.959377 0.183962 0.287372 -0.438987 0.830021 -1.546049 -1.241453 -1.425887 -0.573052 -0.911162 0.201683 -0.292236 1.501927 
41 0.456560 -1.428685 0.130343 -1.292511 -0.422034 0.603445 -1.630530 0.046045 -0.362202 0.032040 -0.743312 0.276276 0.635381 -0.489466 0.821410 2.119032 0.158227 -0.692817 1.270523 -1.038955 0.675620 0.181301 1.770523 -0.541633 0.285987 -1.005552 -0.998121 -0.378585 0.172141 0.571313 -1.023831 0.822843 
56 0.535519 -1.996171 -0.132457 -1.118226 -0.546564 0.234260 -1.895573 -0.175208 -0.494546 -1.572862 -0.565151 0.012244 -0.093480 -0.675408 0.141440 1.542819 -0.036682 0.311462 0.409051 0.233889 0.750941 0.538629 1.667663 0.250385 0.767855 -0.818002 -0.780610 -0.456423 0.578832 0.735340 -1.001382 1.249322 
64 -0.097070 -0.876965 -0.995708 -1.296980 0.547676 0.628772 -0.415246 -0.160681 -0.838318 -0.440743 1.550427 -0.640621 -0.207941 -0.467454 0.108814 2.325501 -0.888871 0.108454 0.009331 -1.415596 -0.953899 0.769074 0.359969 1.047569 -1.123616 -0.034286 -0.642967 -1.090135 0.108871 0.021945 -0.857601 1.558801 
85 -0.122363 -1.322196 0.835019 -0.688123 -0.096124 0.394879 -0.233231 0.292278 -0.606345 -0.968446 -0.929579 -0.722565 -0.404363 0.147965 1.059391 0.719469 -0.331276 -0.743625 0.851458 -0.319456 0.567988 0.860341 1.569330 1.048378 0.066363 -0.294967 -1.199188 -1.239530 0.451842 1.430390 -1.428208 1.350810 
12 0.696634 0.228282 0.781464 -0.046574 -0.420630 0.471852 0.810938 -0.615555 -1.234461 -1.198554 -0.407796 -0.744108 -0.284677 0.915004 0.168913 -1.156976 1.744498 -0.908410 -1.343919 -1.304189 0.096968 0.036922 1.188967 1.002059 -0.252047 -0.392766 -0.741154 -0.791524 -0.426357 0.131892 -0.778358 -0.000329 
83 -0.258351 0.227465 1.406912 0.492979 -0.096651 -0.326770 1.821385 -0.917026 -0.743679 -0.203617 -1.201107 1.717298 -0.511198 0.255720 0.348141 -0.514316 -0.010444 0.373649 -1.411845 -1.026082 0.656897 -0.225542 0.845209 -0.847191 -0.939389 0.799049 -1.422957 -0.022156 -0.067088 -0.238301 0.448205 2.049037 
90 1.091848 1.358438 -0.185594 0.138111 -1.255329 0.339453 0.888360 -1.516656 -0.351245 -1.076618 -0.935575 0.352410 -1.308818 0.451825 1.290610 0.196437 0.085671 0.666344 -1.013842 -1.090867 -0.677251 -0.465305 0.103224 -0.806874 0.133052 -0.489508 0.658593 -1.287118 0.998763 0.689251 -0.734860 0.653508 
13 -0.390987 -1.583282 -0.357347 -0.821511 -0.049780 1.458395 -1.388898 -0.635267 0.537195 0.291484 0.547772 0.606067 0.374193 -0.493117 -0.093999 -0.085068 0.157744 0.716954 -0.607944 -0.167837 -0.075675 -1.862197 0.352006 -0.985535 1.793764 0.775573 -0.429676 -0.163944 -1.418894 -0.282398 0.166515 0.014479 
34 -1.066217 0.559540 -0.082635 1.022978 -0.053843 0.393989 -0.227558 -0.931355 0.589315 0.912590 0.693705 0.271418 0.284832 -0.914222 0.469673 0.038296 1.056508 -0.096805 1.178333 -0.356617 -0.330855 -0.168474 1.471177 -1.130280 -0.017688 0.726234 0.309627 -1.052445 -2.037256 1.998547 -1.520635 0.016906 
79 0.329543 0.399750 -0.759322 -0.476716 -0.604146 1.752725 -0.587353 -0.655145 0.534393 0.730965 0.792286 0.152290 0.679222 -0.586276 -0.063950 0.260815 -0.060184 0.313044 0.340506 -0.103358 1.184769 -0.468554 0.036434 -0.705806 -0.006513 0.834573 0.301806 1.339869 -2.311863 2.381457 -0.906364 0.258710 
89 1.161896 0.065752 -0.796933 -1.133678 0.044591 1.183402 -0.914157 -0.663173 1.010253 -0.260994 0.406179 -0.463653 0.202814 0.044266 1.481596 1.650684 -0.781682 0.086502 0.933080 -1.540292 0.334692 -1.514947 1.742347 -0.270858 -0.068026 0.845161 0.795424 0.444540 -1.527485 -0.011260 -0.338015 -0.287921 
14 0.296098 0.759663 -0.534784 0.119557 -1.383821 1.749506 -0.253121 -0.643645 -0.661929 -0.024889 -0.455436 -0.437065 1.660092 -1.152134 -0.789468 0.537393 0.788330 1.519892 0.590273 0.382761 -0.215551 0.034816 -0.109150 -1.096216 -0.789035 1.045409 -0.533231 0.005620 -1.063425 -0.286302 -0.234188 -0.300815 
50 0.490747 -0.555909 -0.284555 0.145618 -1.128243 1.430724 -0.895238 -0.666953 0.370317 -0.652904 -0.114692 -0.633298 1.045770 -1.510020 -1.469455 1.147141 -0.032456 0.328141 1.078062 0.216338 -0.392063 -1.998638 -0.382004 -1.197132 -0.108483 0.614390 -0.791012 -0.475303 -0.604746 -1.077729 0.535832 -0.856518 
15 2.174786 -0.618965 -0.029831 -0.519659 0.153278 0.873926 0.583730 0.054688 -0.144687 -0.388094 1.861944 0.307509 0.153317 0.199697 -1.094297 -1.183830 0.080305 0.518762 0.083631 0.685809 0.878418 0.049933 0.503556 1.023682 0.968085 0.888009 -0.147623 0.479268 -0.992640 -0.010952 -0.545346 0.910456 
86 0.166603 -0.462773 0.736587 -0.283882 -0.697197 -0.438285 1.762157 1.918487 1.819201 -1.034313 1.281617 0.798611 -1.335962 -0.927199 -0.119257 -0.445187 0.629278 1.907158 0.242835 -0.647677 -0.356871 0.458315 -1.019571 -0.238529 -0.333157 -0.063758 0.044199 -0.263925 -0.323885 -0.406607 -0.760002 0.886038 
93 0.978325 -0.982086 -0.752175 0.726930 -0.676941 -0.460044 1.104751 2.625954 0.570050 -0.536804 0.216169 -0.246979 -0.181684 -1.140255 0.135931 -0.167797 0.167011 1.989984 -0.068603 -0.872827 -0.961715 0.877127 -1.148503 -0.721705 0.284005 0.090596 -0.967308 -0.009066 0.406851 0.264916 0.045731 1.082837 
97 1.993913 -0.695387 -0.013258 -0.071346 -0.682367 -0.522618 1.143631 1.292874 1.307666 0.120899 0.472599 -0.651614 0.593631 -1.078428 0.440273 -0.963966 1.410371 1.683830 0.550142 -0.398473 0.229597 -0.032863 0.148384 -0.279793 -1.290706 -0.723607 -0.953426 0.985362 0.360246 -1.108057 -0.086756 0.586846 
16 0.559935 -0.845512 0.024999 -0.428091 -0.860287 0.594269 -2.011432 -0.858730 -0.193152 -0.441470 -0.636244 0.157961 -0.855351 -0.598237 1.030149 1.021898 0.054517 1.117847 -0.423873 -0.758229 0.843020 0.060515 0.101822 1.562959 -0.673510 -0.503669 -0.751495 -0.743881 0.644153 0.055012 -1.088700 1.460314 
69 -0.341839 -1.364338 0.738260 -0.766492 0.371510 0.292657 -1.126780 0.645308 -0.722230 0.386203 0.630652 -0.195504 -0.702317 -0.241830 1.452092 1.853037 0.680448 0.476592 -0.016632 -1.337313 -0.245978 0.984349 0.671245 0.889018 -0.961231 0.376296 -0.278109 -0.857671 0.353712 -0.743821 -1.782199 1.241680 
77 -0.651644 -1.682093 -0.088642 -0.087801 0.664639 0.419087 -1.605556 0.280559 -0.349397 -1.317337 -0.361098 -0.377992 -0.125698 0.271138 1.303983 1.654387 0.207778 1.150546 -0.077400 -1.004650 -0.537601 0.212326 0.620493 1.866976 -1.134346 0.568922 0.523960 -0.329100 -0.701477 0.652304 -1.042380 0.854349 
87 -1.301096 -2.141412 0.666853 -0.324882 0.108230 0.568878 -1.613510 0.289760 -0.947616 -0.411316 0.053826 0.389181 0.611497 0.441405 0.416903 0.403061 0.796891 0.019675 -0.620341 -0.757501 0.484793 0.532927 0.097404 1.544096 -0.536852 0.140893 -1.392072 -0.281119 -0.616048 0.574163 -1.212201 0.961323 
17 0.152073 -0.474925 2.087170 0.444931 0.887295 0.398780 -1.494682 0.644758 -0.224429 -1.329632 -0.880393 -0.431448 0.475876 -0.160524 -0.001286 1.358617 1.463636 -0.870563 -0.218950 -0.397737 -0.214285 -0.094106 1.060833 -0.724180 0.675633 -0.482865 0.800339 0.306323 -0.494408 0.455461 -0.628024 0.157385 
66 -0.283884 -0.710510 0.322604 -1.005721 -0.105286 0.410310 -2.564741 -1.401037 -0.227064 -0.150388 -0.187200 -0.623965 0.381165 -0.505224 0.740133 1.075514 -0.850761 1.064000 -0.360914 -0.347493 0.211437 -0.350514 -0.356317 1.111974 -0.689269 -0.184585 -0.414869 -0.964091 -0.423014 -0.240949 -1.338173 1.945303 
81 0.631552 0.760758 1.666408 -0.591611 0.486319 0.329686 -1.344961 -1.660751 0.975494 -0.824826 -0.320105 0.328878 0.982160 -0.181340 -0.137227 0.019401 0.201209 0.043390 -0.892102 0.428563 0.004779 -0.688920 0.353449 0.296847 1.919310 0.694806 0.650107 0.399601 -0.084225 0.083922 1.570601 2.053593 
18 1.896054 0.194305 -0.042016 -1.080626 0.303876 0.032760 1.092812 1.185635 -0.117745 0.592639 1.279482 -0.092212 -0.238614 -0.121835 -0.451718 -0.233374 1.699664 1.049660 1.105184 -0.583879 0.115518 0.740060 1.076481 0.713078 -0.438221 -0.203059 -1.018504 0.027732 0.022202 -1.011214 -0.887931 1.063785 
84 0.913619 -1.791767 0.191151 0.289540 0.061156 -0.586973 1.526673 0.522192 1.375703 -0.457066 2.010820 0.214275 0.045363 -0.834708 -1.249604 -1.263517 0.305467 0.965337 0.270069 0.075313 -0.083511 0.703041 -0.334372 0.726300 -0.696077 0.210023 0.347960 -0.290114 -0.404879 -0.858087 -0.341716 1.748561 
98 1.605562 -1.371515 -0.422390 0.254263 -0.665946 -0.269739 0.692135 1.095032 0.437640 -1.414275 0.251806 -0.020412 -0.012715 -0.656815 -0.244538 -1.454635 0.569617 1.797053 0.777794 0.429350 0.849976 0.650479 -0.736284 0.470803 -0.455455 -1.009425 -1.103795 0.920960 -0.436594 0.824236 -0.373443 1.295993 
19 -0.912545 -0.308676 -0.683223 0.376555 0.514200 0.240173 -0.041315 0.438877 -0.506339 -0.787332 -0.004240 0.720356 -0.298437 -0.660236 -1.694079 -0.188158 0.764755 1.015060 1.610158 -0.740768 -1.339810 -0.536527 2.002202 -0.546703 0.800632 -0.423852 0.265211 -0.760157 -0.570647 -0.605913 -0.925414 0.900001 
23 -1.149465 0.246257 -1.391091 0.304780 -0.218092 0.831328 0.016552 0.214398 -0.327670 0.559670 0.961979 0.564365 -0.293059 -0.248960 -1.237878 -0.365371 0.335644 0.649757 0.906016 -0.035143 -0.245460 -0.018705 1.808688 -0.084569 0.893240 0.486032 0.375243 -0.278753 -1.080711 1.070649 -2.158746 1.481439 
24 -1.210349 0.353845 -0.477717 1.328114 -0.360270 0.489550 -0.237258 0.197077 0.285163 1.064353 1.187623 -0.248140 0.163609 -0.394005 -0.923761 -0.554020 0.183040 0.769820 0.572034 0.301412 -0.597137 0.156876 1.933714 -0.161828 1.054726 -0.186335 -0.458324 -1.383253 -0.302362 0.130121 -1.709683 1.183810 
20 1.767897 -0.779368 -0.413872 0.559199 0.101536 0.674681 0.816226 1.164897 -0.254173 -1.165461 1.978388 -0.652180 -0.744550 0.087094 -0.651641 1.570363 0.434712 0.484864 -0.869745 -0.432944 -0.898926 0.141560 -1.018878 -0.583142 0.271110 0.530173 -0.120746 -0.095627 1.111711 -0.341885 -1.339556 0.075716 
57 0.407430 0.408487 0.262095 0.787448 0.059279 0.585058 1.449804 -0.695172 -0.784392 -0.499190 -2.394936 0.070665 0.240479 0.303309 0.473128 -1.704667 1.242256 0.342995 -0.736831 -1.191425 -0.517656 -0.407875 0.643700 0.421253 0.491470 0.151221 -1.538567 0.529852 -0.574137 -0.262247 0.487860 0.914803 
76 1.859285 -0.676628 -0.126073 0.305816 0.030951 0.454305 0.605425 0.345508 -0.244888 -0.815148 1.165310 -1.460336 0.377874 -0.864926 -0.317088 -0.961092 -0.485823 0.443238 0.697286 0.650088 -1.506717 0.936348 -0.786825 -0.752293 -0.868923 0.207694 -0.837953 0.942010 -1.093602 -1.359918 -0.490940 1.142531 
21 0.574503 -0.904133 -0.563721 -1.131024 -0.223613 1.207212 -1.110176 -0.392091 0.679102 1.095501 1.022905 -0.161057 0.278270 -0.065746 -0.768033 0.285691 0.195115 0.372327 -0.282505 -0.443198 0.182961 -1.463697 -0.209837 -1.473656 1.421641 1.010753 -0.914047 0.546329 -1.461311 0.448154 -0.116695 0.082888 
38 -0.685569 -0.964364 -0.872506 -0.221251 0.178302 0.524931 -0.696580 0.040542 0.236337 -0.004759 0.516749 0.290498 -0.190477 -0.376918 -0.953143 -0.151204 0.099676 0.935951 1.031212 -0.741888 -1.313896 -1.602237 1.682086 -1.242767 1.725423 -0.156305 -0.399908 -0.818171 -1.138120 -0.754774 -0.310635 0.019218 
25 0.812755 -1.138091 -0.438947 -0.561839 -1.409489 1.755858 -0.677105 -0.573694 0.077439 -0.082540 -0.337921 0.918348 0.853316 0.081286 -0.682504 -0.389605 0.146097 1.215709 -0.510604 0.807444 0.434430 -0.948946 -0.838732 0.469647 0.768880 0.843363 -0.119952 0.337262 -1.810426 0.594282 -0.352938 0.103463 
73 1.654569 -0.439477 -0.210978 -1.476029 -0.018613 1.137482 0.163788 0.180069 0.648524 1.278957 1.369221 -0.444442 -0.159069 0.326084 0.185779 0.788680 -0.639875 0.291129 0.125564 -1.578759 -0.467431 -1.173442 0.661912 -1.179422 0.522364 1.711090 -0.381561 0.708356 -0.256062 -1.140638 -0.486414 -0.137704 
26 0.936899 0.228550 1.749955 0.287740 0.984585 0.273726 0.251673 0.715469 -0.277990 -1.556813 0.900387 -0.094020 -0.419839 -0.446228 -1.134312 -0.187978 -0.277354 -1.123544 0.318527 0.231045 -0.373524 0.691576 -0.368044 -0.222390 1.615382 1.374798 0.069818 -0.513229 -0.786544 1.066837 0.252131 1.403102 
45 1.546176 0.794702 0.911700 0.674628 0.593373 0.782273 -0.916989 0.232072 0.733005 0.806676 -1.396184 -1.470881 -0.031758 -0.887064 -0.741768 0.441630 1.717550 -0.631840 -1.843910 -0.417967 -0.328899 -0.591004 0.040576 -0.300952 0.313508 -0.098902 0.380504 -0.401595 -0.782257 0.393765 1.454001 0.099562 
28 0.605042 -1.740068 0.782006 -1.209679 -0.877263 1.347030 -1.144275 0.053566 0.548695 1.017141 0.391171 1.004967 0.256122 0.728065 0.703483 -0.091547 -0.458664 0.280786 -0.704353 -0.358051 0.715248 -1.015560 0.274807 0.236706 0.811317 0.719270 -1.184019 0.511468 0.162031 -0.469328 -1.692356 0.543494 
29 1.027094 0.156424 0.376135 -0.961842 1.054811 1.058987 -0.470137 0.571213 0.510008 -0.928175 0.411512 -1.807064 -0.214669 -1.281547 -0.637959 0.733506 0.710951 -0.407908 0.262355 1.085192 -0.759652 0.787921 -0.293566 -1.069979 0.158845 -0.391867 0.277656 -0.717980 -1.209696 0.787809 1.380952 1.766668 
48 0.902697 -0.245546 -0.078452 0.221242 -0.256601 0.507547 -1.181033 0.176559 1.535532 0.234498 0.326358 -2.446014 0.754054 -1.107428 -1.087572 -0.388687 -0.123580 -0.038861 -0.578626 1.013116 -0.677571 0.799233 -0.178349 -0.118395 -0.153206 0.314390 -0.621209 -0.679997 -0.290362 1.278166 1.515106 1.970223 
55 0.768074 0.395880 0.351807 0.113168 0.514057 0.852831 -1.123551 0.257293 1.023732 -1.837949 0.647669 -1.120459 0.395141 -1.093392 -1.044651 1.282186 1.964681 0.185195 -0.337900 0.219316 0.708207 0.596634 0.280174 -0.908019 0.589108 -0.420472 0.002932 0.625998 1.010401 0.781907 1.009946 1.015498 
75 1.039305 1.050231 1.392753 -0.333499 0.361839 0.754140 -1.536300 0.448916 0.997740 1.056833 0.992237 -1.799886 -0.071615 0.407992 -1.098416 0.853914 0.035372 -1.169270 0.090666 0.783576 -0.631097 0.352483 -0.281493 -1.296863 0.279551 0.209305 -0.965425 -0.088461 0.147476 1.705633 0.099607 1.296695 
30 0.191133 -0.339705 -0.249187 -0.864030 -0.313338 0.849410 -2.308219 -0.431996 1.022348 2.074982 -0.534443 -0.363452 0.635359 -0.350330 -0.175081 1.039225 0.749675 -0.096333 -0.190298 -0.954200 -0.124124 -1.143126 0.039078 -1.426083 0.831632 0.839379 -1.508721 0.063042 -0.850305 0.867123 0.710795 0.468597 
74 0.862582 0.843381 1.573482 0.070828 1.410485 1.114306 -0.947923 0.498736 0.905497 -1.366919 0.505195 -0.768375 0.078932 -0.035812 -0.849495 1.043606 0.111292 -1.579843 -0.104155 0.078656 0.220343 0.020117 0.432859 -0.505002 0.396351 -0.595814 0.671791 0.203696 -1.048660 1.674938 0.809032 0.813754 
31 1.971940 -0.619832 0.626736 0.189509 0.944656 0.076712 1.718570 0.277523 -0.772710 0.325177 1.948990 0.432955 -0.520288 0.184180 -1.185204 -0.158520 -0.127650 0.165414 -0.039050 0.273679 0.152694 0.496183 0.851605 0.862263 -0.467317 0.792793 -0.534970 0.065555 -0.171442 -0.601845 -1.149804 1.357705 
53 0.150198 0.451618 0.195549 0.142362 -1.853842 1.029325 1.157413 0.624165 -0.329599 -1.039085 -0.573180 0.301217 -1.008965 0.124736 0.680442 -1.648248 0.454693 0.404023 -0.978954 -1.206854 -0.913731 -0.741737 1.026365 1.146626 0.652778 -0.923431 -0.810463 -0.752050 0.686907 0.518408 0.432427 0.093893 
35 0.283461 0.422442 0.168375 0.573759 -0.654992 1.185244 1.461825 -0.412698 0.341803 -0.305059 -2.126977 0.722627 -1.058563 0.295272 0.563612 -0.688803 0.478239 0.358661 -0.852382 -0.940380 0.021300 -1.224757 1.019996 0.449836 0.972396 0.396628 0.109244 -0.794945 0.460622 0.640930 -0.560766 0.418024 
54 -0.076799 0.374229 1.131100 0.919811 -0.668420 0.735773 0.123132 0.394304 -0.892454 0.739126 0.025534 1.993450 0.299332 1.497127 0.074192 -1.213897 0.011721 -0.199286 -0.324838 -2.232742 -1.948077 -0.810660 0.748717 0.736930 0.451959 1.052581 -1.197175 0.040666 0.271954 0.198092 0.167462 -0.016992 
36 0.502473 -1.541772 0.243321 -0.363320 -1.374142 1.784558 -0.487328 -0.082107 1.306285 0.205911 0.253579 0.535217 1.139275 -0.287311 0.349377 0.027901 -0.562629 0.059442 -0.301607 0.631801 0.981819 -2.252931 -0.780847 0.192247 -0.133288 0.698380 -0.340804 0.878807 -0.736690 0.328220 -1.283748 0.108475 
37 0.151983 0.555182 1.380991 -0.420194 -0.096746 0.331136 -0.765178 -0.253129 -0.535359 -2.769193 0.477620 -1.067105 -0.364005 -0.283153 -0.395204 -0.235583 1.043605 -0.566510 -0.437604 0.456118 -0.856161 0.509522 1.441220 0.225167 1.354609 -0.551851 0.676636 -0.885386 0.163895 1.015763 0.371997 0.983434 
70 1.431607 1.679007 0.255869 0.180092 0.257042 0.094825 1.907243 0.306722 -0.284113 0.470352 -1.199885 0.831653 -0.001330 -0.008586 -0.429408 -1.169027 0.936044 0.841907 0.041889 -1.510037 0.253523 -0.184656 1.416252 0.810107 1.213287 0.179984 -0.801864 -0.337291 -0.049877 0.819871 0.605170 0.586674 
43 1.253389 -0.013550 -0.285912 -0.547765 0.684192 0.349051 0.689610 1.531140 -0.470455 0.073444 1.747105 0.075882 -0.568488 -0.188343 -1.012123 -0.559814 0.917481 1.039455 0.829609 -0.010777 -0.081891 0.669929 0.924448 0.585174 0.856538 0.368243 -0.436583 -0.100313 -0.724188 -0.730003 -1.136663 0.840142 
47 0.534377 0.719296 0.746399 0.693423 -0.606979 0.876034 1.212579 -1.989200 1.495268 -0.168074 -0.804721 1.475038 -1.134473 0.466639 -0.758147 -0.479138 1.560030 -0.509185 -1.258866 -0.239492 -0.289841 -1.542600 -1.066175 -0.337850 -0.343602 0.908369 0.907808 -0.915707 0.047153 0.128038 -0.302515 0.463934 
52 0.594006 0.914635 0.449107 0.692640 -0.505024 1.263226 1.020808 0.814221 -0.573800 0.045426 -1.124112 -0.553933 -0.939354 0.223530 -0.374168 -0.786274 -0.344808 -1.038318 -0.110382 -1.565123 -0.539972 -0.106263 0.735008 0.594406 0.683290 -0.160069 -1.076417 -1.369574 0.256653 2.057162 0.482280 0.291438 
62 2.110388 0.156351 -0.179660 -1.013446 0.075784 0.940078 0.398053 1.502265 0.169985 -0.785358 1.287742 -0.657708 -1.305060 -0.002552 -0.219836 0.625244 1.608192 1.275649 0.661965 0.634290 0.468139 1.095927 -0.671076 -0.421304 0.007385 -0.155016 -0.212312 0.105371 0.436937 -0.233941 -0.959447 1.186348 
49 1.421422 -1.326578 0.531857 0.195632 0.527918 -0.221984 0.470726 0.954411 -0.334361 -0.046587 1.653373 -0.749375 0.635253 0.254321 -0.950943 -1.358112 0.876191 -0.202494 -0.440982 -0.505128 -0.198747 1.253111 0.115770 0.819505 -0.618052 1.335061 -0.749819 0.221166 -1.043098 -0.983348 -0.334211 1.203284 
51 0.197183 -0.441155 -0.251302 -0.297951 -0.735795 0.803722 -1.043969 -0.890857 -0.493942 -0.806473 -1.019916 0.121170 -0.353506 -0.386170 0.722902 0.418527 0.358316 0.352971 -0.255491 -1.062340 1.554643 0.070681 0.748131 1.463401 -0.785260 -1.410018 -1.651696 -1.043526 0.567597 0.304786 -0.957785 1.275897 
60 0.577515 0.407039 1.007219 0.592601 0.221704 1.124734 2.210039 -1.114390 0.649643 -0.313694 -0.872300 0.762808 -1.623105 -0.293383 0.077500 -0.357215 1.191425 -0.190591 -0.876620 -0.311319 1.032006 -0.941819 0.590561 1.393228 -0.797078 0.407752 0.339454 -0.395124 0.909522 -0.141032 -0.309019 1.177208 
58 1.767124 -0.798794 -0.537011 0.144852 0.134631 1.215591 2.315531 0.301963 0.194885 -0.760384 0.986994 -1.127286 -1.491803 -1.098858 -0.764270 -0.473249 1.335810 0.234539 -0.277459 -0.980521 0.554352 0.455892 -0.849436 0.142218 -0.440546 0.256909 0.530401 0.731675 -0.299085 -0.834513 -0.418361 0.667264 
63 1.962001 0.587044 0.276741 -0.389276 -0.433924 -0.573733 0.855895 1.748450 -1.298034 -0.553978 2.326475 -0.006617 -0.456785 0.175064 -0.488373 -0.838175 -0.149857 0.924495 -0.178126 -0.884191 -1.506145 0.947756 0.672761 0.408287 -0.155497 -0.397453 -1.161436 -0.164254 -0.184288 0.586374 -0.577734 0.424653 
72 2.534744 -0.022660 -0.471780 -0.243741 0.127733 -0.122201 0.977642 1.131608 -0.582004 0.443928 1.838143 -0.431840 0.004701 -0.003982 -1.251349 -0.255029 1.051574 0.581001 0.582332 -0.285535 0.035528 0.346840 -0.317664 -0.515980 0.142791 0.150171 -1.678020 0.986164 -0.108531 0.341612 -0.913932 0.347076 
