100 128
18 0.123661 -0.0704818 0.196748 0.00570424 0.210308 0.246498 0.0262446 -0.165931 0.0288232 -0.0586481 0.0830553 -0.0447025 0.0378279 0.169594 0.284021 -0.107605 0.0134405 -0.177498 0.258786 0.024129 -0.0691625 -0.016285 0.129671 0.229743 0.0290006 0.111014 -0.104266 -0.0695716 -0.0907038 -0.183167 -0.10925 0.00486198 -0.0486241 -0.264073 -0.056377 0.0267916 0.160547 -0.141324 -0.0117753 0.140277 0.0486583 0.0362107 0.0518465 -0.0273519 -0.180873 0.149533 -0.718302 -0.0748947 -0.160918 -0.116358 0.089276 0.0743092 -0.0987627 -0.0611684 0.0855993 -0.260542 0.566338 -0.137297 0.219029 0.22281 -0.288074 -0.025943 -0.120934 -0.354905 -0.226397 -0.11379 0.241592 0.144564 -0.0712445 0.0557594 -0.205709 0.10445 -0.219669 -0.695182 0.00481584 -0.228324 -0.330883 0.455894 -0.0907316 -0.202701 0.500176 0.907202 -0.160312 -0.952584 -0.252587 0.205855 -0.171794 -0.754552 -0.35911 0.080106 0.045408 0.0343822 -0.0945359 -0.196436 0.0666378 0.52824 -0.209755 0.150283 -0.417232 -0.0172741 0.0875405 0.144147 0.320195 0.230115 0.360014 0.103127 -0.0259174 -0.20626 -0.590629 0.235493 -0.0862076 0.277553 -0.780093 0.194945 0.113154 -0.0038273 -0.176519 -0.0605183 0.380858 -0.190514 -0.283476 -0.0974355 -0.0551884 0.235289 0.184011 -0.508472 -0.18481 -0.0142632
86 0.0861522 -0.137105 0.0600479 -0.0357328 0.0814664 -0.000498518 0.125394 -0.151175 0.0292928 -0.0454941 0.127086 -0.126739 0.0710033 0.0717261 0.157398 -0.02008 0.0382219 -0.232249 0.311531 0.0409163 -0.0423965 -0.0256848 0.13178 0.19017 0.0589168 0.203178 -0.130993 -0.117555 -0.139234 -0.255064 -0.163151 -0.0137282 -0.136484 -0.401865 -0.0881472 0.13339 0.0736354 -0.16636 -0.065285 0.150723 0.040199 0.173497 0.041518 -0.0282604 -0.142446 0.155276 -0.57096 -0.117923 -0.234323 -0.250668 0.0423169 0.184354 -0.088194 -0.142799 0.0601853 -0.477805 0.512126 0.109456 0.168628 0.215674 -0.323114 -0.0422844 -0.173867 -0.352571 -0.259027 -0.0804431 0.234243 0.0746938 -0.135807 0.0926982 -0.200209 0.116206 -0.172268 -0.648512 0.0545749 -0.276452 -0.231923 0.414351 -0.113874 -0.211042 0.489166 0.916238 -0.19718 -1.00767 -0.238731 0.190263 -0.149785 -0.775448 -0.288508 0.0734714 -0.0036137 0.067907 -0.0924343 -0.162925 0.0829966 0.476819 -0.208747 0.153183 -0.406083 0.00544108 0.00567624 0.107463 0.315124 0.220935 0.397986 0.082446 -0.00427435 -0.160128 -0.412361 0.181964 -0.0689858 0.235565 -0.637672 0.190857 0.14069 -0.0202777 -0.10792 -0.0962747 0.295353 -0.0905295 -0.156984 -0.109941 -0.0480171 0.256902 0.0565614 -0.442605 -0.0973932 0.0222534
84 0.0753088 -0.0954883 0.134812 0.00594949 0.156381 0.207526 0.0335299 -0.224644 -0.0372709 -0.0741168 0.106771 -0.0953952 0.0357818 0.0524712 0.111848 0.0253556 0.0490365 0.0532233 0.0939899 0.137675 -0.0850998 0.113336 0.072349 0.157937 0.143655 0.196989 -0.187711 -0.127026 -0.143836 -0.446069 -0.192133 -0.000817755 -0.0631633 -0.31552 -0.0496209 0.0769126 -0.0205554 -0.0959294 -0.0823013 0.0438012 0.0455106 0.141734 0.0547392 -0.0172785 -0.176942 0.147839 -0.765661 -0.189673 -0.149059 -0.22584 0.00680105 0.140193 -0.0524322 -0.0889032 0.033113 -0.32329 0.511948 -0.0137193 0.120663 0.172008 -0.213076 -0.0280992 -0.151181 -0.215357 -0.271901 -0.120764 0.284922 0.102614 -0.139219 0.0696768 -0.267379 0.163955 -0.121742 -0.609292 0.0016928 -0.265242 -0.319444 0.525947 -0.171382 -0.186994 0.514944 0.872929 -0.150884 -0.906183 -0.271044 0.19632 -0.149103 -0.650595 -0.240016 0.0310203 -0.00678232 0.057292 -0.111469 -0.234016 0.0764681 0.468596 -0.207423 0.179433 -0.374433 -0.00945652 0.0732464 0.125748 0.422718 0.236548 0.402606 0.0901181 -0.0148737 -0.143603 -0.38259 0.194937 -0.0701741 0.198383 -0.614909 0.19532 0.127594 -0.0322578 -0.0380903 -0.0675132 0.246354 -0.0944195 -0.108137 -0.0864589 0.0164312 0.233746 0.0391418 -0.364723 -0.0393901 0.0274493
98 0.114773 -0.0782226 0.0570657 0.0782518 0.207204 0.366507 -0.0971781 -0.344966 0.0149986 -0.0585342 0.0766153 -0.00379483 0.0461431 0.103441 0.114816 0.0129091 -0.0145145 -0.201098 0.168453 -0.00798474 0.00508401 -0.12178 0.106543 0.0168003 -0.0406746 0.123569 0.00605655 -0.118675 -0.169057 -0.0301497 -0.0671731 -0.00538304 -0.151879 -0.272248 -0.0592447 0.0935603 0.0148856 -0.187693 -0.0525986 0.144168 0.060265 0.0874462 -0.0138061 -0.00921006 -0.201149 0.209398 -0.719107 -0.110167 -0.0960281 -0.138161 0.0512103 0.0766448 -0.0718855 -0.0912621 0.164638 -0.3597 0.658968 0.0350771 0.180778 0.178826 -0.248239 -0.0037588 -0.15916 -0.313171 -0.242476 -0.111829 0.188883 0.0893021 -0.0513894 0.098079 -0.207302 0.118975 -0.170679 -0.631354 0.185654 -0.178204 -0.204782 0.325114 -0.0668569 -0.203102 0.500299 0.939151 -0.0309097 -0.780434 -0.212508 0.0600934 -0.117529 -0.622765 -0.25245 0.0925549 0.0817696 0.0392474 -0.0230897 -0.0964417 0.132217 0.449885 -0.230369 0.171791 -0.464735 -0.0661837 0.0103029 0.119902 0.23212 0.171456 0.350603 0.067612 -0.0531307 -0.273308 -0.581425 0.20718 -0.11593 0.287675 -0.636026 0.147886 0.275216 -0.106575 -0.112994 -0.0227605 0.15251 -0.131738 -0.166054 -0.0818569 -0.052669 0.188697 0.066618 -0.345568 -0.0508775 0.0949581
69 0.0372945 0.00181674 0.0405718 0.130442 0.0797382 -0.0319275 -0.107462 -0.193395 -0.230759 0.00510756 0.0398464 0.0173243 0.033701 0.184322 0.170305 -0.00867673 -0.0623874 -0.200328 0.113348 -0.188108 -0.0285764 -0.298122 0.250307 0.257845 -0.00763591 0.0463257 0.0330412 -0.0544097 -0.20549 0.000252889 -0.0591704 -0.050603 0.0457002 -0.248964 -0.296503 0.207547 0.553832 -0.276326 -0.123542 0.313902 0.133025 -0.172928 -0.0890564 0.0914137 -0.115961 0.200549 -0.785795 -0.150323 -0.0287023 -0.123811 0.220083 -0.037561 -0.190181 -0.108468 0.267782 -0.249347 0.71306 -0.323918 0.0658202 0.0320151 0.0760822 0.0153177 -0.0557115 -0.16929 -0.22297 -0.282528 0.38462 0.220227 0.0698279 0.0606598 -0.406859 0.240645 -0.176289 -0.654187 0.224381 -0.0738412 -0.220319 0.305771 -0.104157 -0.295591 0.6211 0.992967 0.0321547 -0.877064 -0.472787 0.260646 -0.166611 -0.661813 -0.320956 0.0232358 0.13987 -0.0427364 0.113893 -0.200388 0.00624032 0.611956 -0.380126 0.211159 -0.483866 -0.158713 0.29206 0.110576 0.514386 0.305176 0.408556 0.0915306 -0.0397426 -0.291664 -0.617826 0.209426 -0.181153 0.160804 -0.768477 0.0742461 0.285521 -0.0881244 -0.253393 0.0808825 0.160774 -0.168717 -0.289819 -0.0318095 -0.165622 0.163455 0.228804 -0.399698 -0.106601 0.0662048
66 0.0198736 0.0126252 0.0298403 0.172755 0.111992 0.117917 -0.2153 -0.244539 -0.307538 -0.042143 0.0743517 -0.11702 0.0663982 0.132478 -0.121109 0.0109885 -0.0628383 0.00826528 0.04313 0.0741916 -0.175928 -0.130511 0.217176 0.269081 0.0227841 0.047153 0.0899029 -0.0432336 -0.218342 0.140688 0.025644 -0.135149 0.0544218 -0.175544 -0.275723 0.183459 0.574684 -0.281689 -0.0225751 0.39656 0.12157 -0.268625 -0.0535008 0.0605005 -0.203839 0.199919 -0.886115 -0.0972192 -0.0426724 -0.067477 0.259379 -0.0689171 -0.204654 -0.0330033 0.241676 -0.119276 0.763869 -0.372707 0.121393 0.0269946 0.114051 0.0375772 0.00314835 -0.180082 -0.254468 -0.311 0.279338 0.215221 0.106809 -0.00807485 -0.286172 0.250316 -0.193406 -0.64108 0.229478 -0.0666479 -0.263652 0.326245 -0.0744149 -0.24874 0.637095 1.06145 0.0406039 -0.739603 -0.437064 0.138397 -0.160036 -0.741503 -0.398878 0.0700665 0.199723 -0.0203275 0.097963 -0.211898 0.0341398 0.652379 -0.396582 0.234046 -0.422567 -0.155993 0.138379 0.111748 0.402733 0.255508 0.44597 0.0376137 0.0286164 -0.2371 -0.564591 0.160803 -0.134402 0.177646 -0.646382 0.124754 0.256544 -0.123201 -0.235732 0.0605252 0.191324 -0.190063 -0.376312 -0.0343239 -0.1764 0.160848 0.247311 -0.436145 -0.160154 0.0780579
17 0.0208261 0.122957 0.204732 0.106531 0.0479156 0.121459 -0.057477 -0.114103 -0.108306 -0.000283221 0.124757 -0.209943 0.103098 -0.224692 -0.271132 0.18258 -0.0187088 -0.0241972 0.0540273 0.173015 -0.205192 0.041438 0.182169 0.0916624 0.175883 0.0544274 0.0920164 0.00656123 -0.142067 0.129798 0.113957 -0.102343 0.170813 -0.254006 -0.323647 0.143918 0.664333 -0.261392 0.0551295 0.374028 0.0839699 -0.191882 0.103595 -0.0341199 -0.244755 0.133116 -0.803096 0.00464284 -0.203914 0.0166456 0.410838 -0.0582423 -0.252687 -0.124734 0.137079 -0.1488 0.540204 -0.484742 0.120939 0.0293341 0.0494458 0.0184457 0.112394 -0.169248 -0.275906 -0.306092 0.333398 0.412642 0.127158 -0.0364928 -0.259738 0.232264 -0.295695 -0.46446 0.116083 -0.0746304 -0.177502 0.247742 0.0281914 -0.180662 0.627454 0.854437 -0.0464466 -0.70136 -0.40555 0.102663 -0.20337 -0.32814 -0.233196 0.0238331 0.106108 -0.0598574 0.113327 -0.037945 0.00788112 0.269253 -0.265425 0.172993 -0.391103 -0.0969645 0.191429 0.165142 0.303967 0.145781 0.128183 0.0485844 -0.0348158 -0.229658 -0.4976 0.148629 -0.125042 0.130923 -0.71425 0.0189678 0.272508 -0.0511491 -0.364259 0.225061 0.0768924 -0.167003 -0.342986 -0.0337342 -0.183522 0.134087 0.331892 -0.261868 -0.164716 -0.00381562
71 0.0139473 0.140102 0.242501 0.11225 0.0644962 0.265712 -0.115053 -0.032721 -0.0461846 0.0157555 0.0544445 -0.032191 0.0290607 -0.208525 -0.208458 0.145473 0.0260029 0.104104 -0.0943516 0.224979 -0.0546901 0.161089 0.0563748 -0.111475 0.153583 0.0118146 0.0734295 0.048355 -0.00249179 0.0635934 0.112761 -0.0467268 0.155785 -0.138445 -0.249032 0.15364 0.532455 -0.102949 0.0404379 0.191658 0.0433134 -0.14222 0.169942 -0.0531875 -0.221802 0.0906991 -0.844937 -0.00425052 -0.247515 -0.0361894 0.320223 0.0352006 -0.288657 -0.215674 0.0481163 -0.206134 0.579095 -0.507936 0.125847 0.119522 -0.188449 0.00284269 0.0439856 -0.363938 -0.239781 -0.241617 0.320457 0.336711 0.0877401 -0.0464606 -0.285844 0.249569 -0.281523 -0.389044 -0.0734438 -0.0888876 -0.210385 0.217952 0.0301469 -0.110143 0.541437 0.671756 -0.133497 -0.681565 -0.37284 0.276283 -0.197717 -0.441642 -0.197798 0.0273544 0.073485 -0.0749677 0.0839442 -0.188626 0.037395 0.407162 -0.315266 0.19038 -0.354138 -0.0489046 0.191124 0.10568 0.285916 0.141655 0.124722 0.0762719 -0.0622247 -0.188552 -0.385267 0.158083 -0.137919 0.11297 -0.699221 -0.000299268 0.18003 0.0555933 -0.346776 0.199595 0.138702 -0.0669399 -0.29786 -0.0582636 -0.171708 0.108028 0.287348 -0.201885 -0.212109 -0.0852156
81 -0.0324071 0.0916716 0.107054 0.0386367 0.0451375 0.256255 -0.0398497 0.0279193 -0.0545362 -0.0255953 0.0771167 -0.111047 0.123988 -0.0184853 -0.230078 -0.0214507 -0.00791097 -0.0363239 -0.0236211 0.0980763 -0.162238 0.174055 0.0773388 -0.0181007 0.12576 0.0205229 0.0485255 0.0578287 -0.000928051 0.204355 0.0955875 -0.0327033 0.15341 -0.165284 -0.252187 0.0366375 0.486894 -0.117047 0.0762537 0.238023 0.0268082 -0.118111 0.13948 -0.0607804 -0.23375 0.0915626 -0.662166 0.0251681 -0.259065 -0.0345594 0.317272 -0.0012531 -0.268688 -0.219963 0.0237537 -0.149932 0.499828 -0.505197 0.13798 0.108844 -0.164626 -0.0512557 0.100884 -0.346916 -0.176701 -0.179035 0.227946 0.304271 0.0951709 -0.0812747 -0.225161 0.188125 -0.26933 -0.440536 -0.130508 -0.123239 -0.302056 0.395058 0.0782514 -0.0919758 0.478226 0.717771 -0.174347 -0.980015 -0.493932 0.419883 -0.259343 -0.489782 -0.226086 0.0488272 0.00185627 -0.0613464 0.0144486 -0.146771 0.0567899 0.266278 -0.196532 0.169143 -0.286101 -0.0836255 0.202259 0.136794 0.310276 0.093329 0.142215 0.0736007 -0.0418043 -0.171511 -0.317139 0.157397 -0.0660774 0.0780127 -0.484172 -0.0127745 0.15339 0.0555668 -0.306112 0.18076 0.0789893 -0.0447564 -0.233677 -0.022775 -0.124886 0.044139 0.20233 -0.0484809 -0.0906126 -0.0197856
32 -0.00634311 0.0785314 0.220257 0.0569763 0.0532736 0.155481 0.0330759 -0.011368 -0.133371 0.0383928 0.0991283 -0.0729283 0.147073 -0.112421 -0.145561 0.0485192 0.0456585 0.118515 -0.00158332 0.284257 -0.171006 0.00468194 0.182597 -0.0294469 0.187796 0.120461 0.0582287 0.0106822 -0.0432832 -0.0141913 0.138168 -0.0828042 0.166182 -0.333933 -0.376661 0.0880469 0.566964 -0.138713 0.0830747 0.272273 0.0217961 -0.145904 0.153982 -0.0747872 -0.23691 0.129172 -0.838681 -0.0197945 -0.206772 0.0210741 0.338361 0.0403043 -0.283677 -0.217221 0.050261 -0.226669 0.592228 -0.502988 0.131978 0.0773549 -0.0893839 -0.013036 0.0711821 -0.339102 -0.279206 -0.285108 0.343974 0.41279 0.0811819 -0.0472192 -0.308488 0.273054 -0.27822 -0.445166 -0.0177185 -0.195918 -0.319926 0.442857 0.044255 -0.148545 0.488513 0.79136 -0.105014 -0.743795 -0.400939 0.213868 -0.264779 -0.410647 -0.247542 0.0542851 0.0907453 -0.0831972 0.0411466 -0.154223 0.112633 0.331657 -0.27118 0.200418 -0.321523 -0.0505318 0.239375 0.158647 0.364392 0.168291 0.183518 0.0885057 -0.0758176 -0.218708 -0.341607 0.138689 -0.144489 0.146386 -0.537408 -0.000380994 0.165049 -0.0108393 -0.308516 0.201149 0.107486 -0.0922835 -0.344733 -0.0857738 -0.186674 0.124087 0.330374 -0.265524 -0.163008 -0.0659668
85 -0.0419598 -0.0294404 -0.0839255 0.145811 0.0232488 -0.202708 0.0196139 -0.0924613 -0.223774 0.0612553 0.0753818 0.0317864 0.0743409 0.206085 -0.00885334 -0.132399 -0.108753 -0.0813137 -0.0124539 -0.0276419 -0.0626203 -0.156728 0.247625 0.108403 0.148899 0.0684938 0.177943 -0.0205806 -0.158994 0.120055 0.0693655 -0.120171 0.0290681 -0.0505441 -0.125557 0.142147 0.458482 -0.235717 -0.0892899 0.209277 0.163668 -0.348031 -0.0758968 0.0616482 -0.141644 0.163706 -0.975822 -0.179822 -0.0011238 -0.0672098 0.266658 -0.052345 -0.260479 -0.110201 0.246475 -0.171882 0.824732 -0.408628 0.101687 0.0555185 0.0116351 0.0344408 -0.0611705 -0.268765 -0.124977 -0.223621 0.231331 0.134646 0.0700633 0.013908 -0.311371 0.190866 -0.183359 -0.535755 0.0998656 -0.0422549 -0.328723 0.309183 -0.157849 -0.216334 0.425187 0.729512 0.0618833 -0.912122 -0.565074 0.34875 -0.17865 -0.872936 -0.470293 0.0647203 0.198712 -0.0684041 0.0539236 -0.236488 0.0499766 0.731789 -0.320414 0.148801 -0.373235 -0.121191 0.325847 0.101431 0.488386 0.277583 0.359489 0.0919513 -0.0508648 -0.315617 -0.625603 0.203768 -0.162991 0.235476 -0.711771 0.0893434 0.293184 -0.123044 -0.209634 0.0530251 0.128748 -0.191909 -0.327598 0.0202733 -0.107351 0.106951 0.173124 -0.249149 -0.107595 0.105415
95 -0.0633157 0.121854 -0.00708067 0.066007 -0.0368371 0.0290204 -0.0380445 -0.0571723 -0.117741 -0.0270847 -0.000817297 -0.0896533 0.0515186 0.0955219 -0.184521 -0.00299827 -0.0401875 0.0273807 -0.0285983 -0.0646294 -0.079083 -0.119402 0.141632 0.146459 0.0394864 -0.00897765 0.0247625 -0.00938737 -0.0848807 0.0791854 0.0220844 -0.0682781 0.0419454 -0.136014 -0.243785 0.156101 0.358681 -0.128886 -0.0486688 0.221012 0.0716665 -0.105996 -0.0369909 0.0717359 -0.147173 0.130554 -0.599365 -0.133414 -0.0520579 -0.191862 0.0524919 -0.00826426 -0.0233402 -0.134843 0.124714 -0.242203 0.605419 -0.394379 0.0560943 0.171391 -0.218938 -0.0181819 -0.120774 -0.223969 -0.315423 -0.196367 0.356642 0.235284 0.0412676 0.0636434 -0.403385 0.31442 -0.176564 -0.722624 -0.0286648 -0.188651 -0.328386 0.451962 -0.144084 -0.112938 0.479327 0.502557 -0.0914129 -0.755508 -0.297772 0.21911 0.00618903 -0.387622 -0.21822 0.0496464 -0.0102031 0.0837697 -0.00947927 -0.237987 -0.0131241 0.675108 -0.440254 0.237794 -0.253171 -0.0505518 0.0146728 0.00203773 0.315544 0.0602811 0.284728 0.000390016 0.0971853 -0.182355 -0.4453 0.243374 -0.0554723 0.105833 -0.755684 0.103631 0.184839 0.00231943 -0.124103 0.0197218 0.0470896 -0.0135724 -0.278146 0.0153455 -0.176917 -0.0532838 0.10772 -0.375432 -0.0753858 -0.0184947
52 -0.048351 0.0541788 0.139244 0.0924157 0.0117909 0.0328274 0.0816109 0.0826877 -0.156462 0.0725145 0.0430343 0.0644584 0.0885993 -0.0436438 0.0426519 -0.0145861 0.0918932 0.0801364 -0.0738739 0.109309 0.00939288 -0.0324118 0.141095 -0.0186622 -0.0621421 0.0716438 0.115489 -0.0124123 0.0455927 -0.0136899 0.0224975 -0.0392098 0.0862778 -0.156992 -0.0661132 0.0623651 0.141302 0.0196366 -0.0641621 0.0550144 0.0277251 -0.141206 -0.0296399 0.0245611 -0.0851225 0.103496 -0.523886 -0.125536 -0.0245452 -0.165993 0.0443435 0.0772179 -0.135067 -0.144443 0.0747102 -0.256209 0.804234 -0.514896 0.0409475 0.235746 -0.325588 -0.0461098 -0.19714 -0.430405 -0.20541 -0.180481 0.297778 0.100511 -0.0152767 0.0668928 -0.314486 0.325434 -0.102278 -0.591308 -0.129078 -0.236012 -0.412303 0.524359 -0.185566 -0.153749 0.40223 0.392018 -0.0788962 -0.784165 -0.413406 0.451173 -0.142081 -0.888966 -0.270965 0.0217903 0.014543 -0.0289357 -0.0651552 -0.314257 0.0556464 0.645451 -0.40833 0.230909 -0.238431 -0.0305386 0.21215 0.0329283 0.370632 0.229016 0.373559 0.100448 -0.0194315 -0.249856 -0.536901 0.270321 -0.112484 0.166366 -0.681346 0.0768098 0.084662 0.011346 0.0155161 -0.0612008 0.133795 -0.0280807 -0.094139 -0.0147358 -0.0452922 0.0388137 0.0625801 -0.201063 -0.0677261 -0.0308486
92 0.0172757 0.00992187 0.037944 -0.0154624 0.0524224 0.101585 -0.12343 0.0107875 -0.0121844 -0.0616219 -0.175133 0.0274814 -0.072754 0.13437 -0.0427681 -0.0808064 -0.0292436 0.0327567 -0.0746489 -0.00627167 0.0360612 0.0700879 -0.0376822 -0.0396941 0.20352 -0.0479261 -0.120273 0.016645 -0.0395535 -0.11556 0.0490318 -0.052971 0.00125664 -0.073177 -0.150566 0.0663254 0.13167 -0.0384811 -0.0392618 0.083113 0.0335159 -0.0287804 0.0839384 0.0112822 -0.220095 0.125813 -0.809751 -0.174231 -0.157454 -0.210632 0.0362356 0.0745552 -0.0146238 -0.191942 0.0509182 -0.322641 0.747608 -0.342058 0.162893 0.260711 -0.37882 -0.0183035 -0.132173 -0.438376 -0.276927 -0.133348 0.316554 0.23407 0.0168171 0.0239829 -0.431776 0.215023 -0.176643 -0.736278 -0.00295192 -0.0834359 -0.185002 0.211252 -0.0427104 0.0142999 0.270524 0.445664 -0.105503 -0.846909 -0.330285 0.36643 -0.106376 -0.569247 -0.321553 0.095957 0.00711038 0.0630572 -0.0212317 -0.118815 0.0241904 0.52639 -0.287919 0.188363 -0.305006 -0.0892348 0.0612847 -0.000751573 0.361905 0.0212585 0.342373 -0.0151099 0.0580385 -0.135362 -0.234844 0.0941857 -0.00209747 0.142348 -0.649146 0.118338 0.21798 0.0229409 -0.268661 0.0587614 0.138568 -0.0752735 -0.474025 -0.0182416 -0.222545 -0.0350008 0.268497 -0.512946 -0.138794 -0.0707097
60 0.00578753 0.0332142 0.00281875 0.0480437 0.0452942 -0.057491 0.0790677 -0.0172062 0.0154986 0.011527 0.0137791 0.0316416 0.00690751 -0.0551498 0.0251415 0.00589999 0.0325702 0.0403448 -0.000431026 0.0125973 0.0273325 -0.0642908 0.0603081 0.0256887 0.0603533 0.0122067 -0.0617474 0.00763169 0.0242076 -0.132718 -0.072473 0.0287528 0.00570533 -0.112922 -0.215238 0.14969 0.365112 -0.0429957 -0.100068 0.11554 0.0666639 -0.0553839 0.050976 0.00107164 -0.0784918 0.0367115 -0.503103 -0.0997022 -0.0707482 -0.170973 0.0678951 0.077253 -0.154159 -0.2366 0.0563987 -0.338911 0.802445 -0.515818 0.122344 0.225276 -0.389075 -0.0331968 -0.170908 -0.513817 -0.240151 -0.18727 0.323477 0.233569 0.0290491 0.0235634 -0.468548 0.259156 -0.244381 -0.688017 -0.138502 -0.154341 -0.409895 0.391606 -0.128057 -0.0791639 0.307558 0.47275 -0.119659 -0.729569 -0.282721 0.372228 -0.058826 -0.578041 -0.250551 0.0807743 0.0173059 0.0107222 -0.0929502 -0.157281 0.0207955 0.450923 -0.286562 0.150523 -0.235678 -0.041753 0.105793 0.0132696 0.313595 0.11366 0.281812 0.0704111 0.0445037 -0.206458 -0.401497 0.21145 -0.0227337 0.218078 -0.750061 0.0928606 0.187067 0.0359956 -0.166297 -0.00729124 0.157379 -0.0353499 -0.296771 0.000338414 -0.160889 -0.0591331 0.171678 -0.325927 -0.165258 -0.0778139
53 0.000234495 0.0558728 -0.0584628 0.0567984 0.0511817 0.0429857 -0.0876658 -0.0636529 0.0345735 0.0180952 -0.0566533 0.00148122 -0.0709703 0.0518533 0.0351975 -0.0117121 -0.0622417 0.024041 0.0381262 -0.0821001 0.00249393 -0.0587194 -0.0931173 0.0405687 -0.0692243 -0.0632683 -0.136507 -0.0185213 -0.018413 -0.0941619 -0.135473 0.057684 0.0177811 -0.166342 -0.271169 0.069608 0.242449 -0.0336871 -0.0384151 -0.0478445 0.0693614 -0.0452804 0.0505348 0.0140511 -0.063445 0.0750968 -0.601726 -0.0936525 -0.0401273 -0.0955499 0.0296912 0.00212357 -0.0629354 -0.107303 0.0530412 -0.136707 0.689752 -0.52533 0.0969214 0.212305 -0.329234 -0.00916761 -0.0811754 -0.391005 -0.226407 -0.181725 0.296603 0.227338 0.0561539 0.0646096 -0.431802 0.224197 -0.198048 -0.546723 -0.0689228 -0.166635 -0.402324 0.360101 -0.0937358 -0.0888751 0.380312 0.465395 -0.0925016 -0.84395 -0.27504 0.34172 -0.0553235 -0.797557 -0.252334 0.100325 0.0472292 0.0549929 -0.0441204 -0.222332 0.0106152 0.592348 -0.373144 0.123009 -0.27247 -0.0379222 0.0447975 0.034961 0.24802 0.066834 0.30853 0.0565879 0.0396277 -0.228989 -0.504484 0.266123 -0.102548 0.186844 -0.569593 0.0349795 0.0680604 0.00783769 -0.0844568 0.0343008 0.0876676 -0.0285788 -0.194985 -0.03159 -0.141577 -0.0154632 0.104621 -0.182839 -0.161469 -0.0634524
99 0.0395303 0.0916835 0.111749 0.0785076 -0.0293463 -0.0350519 -0.122601 -0.0052209 -0.0511211 -0.00744254 -0.00869904 0.0724112 -0.0256822 -0.0396932 0.0245678 0.0205554 -0.00498627 -0.0130507 -0.0844505 0.0210178 -0.000121535 0.0376706 0.019133 0.00450778 -0.0268256 -0.0169601 0.0970194 0.0175498 -0.0149582 0.0776386 0.0261467 -0.00449654 0.119869 -0.284824 -0.277991 0.240948 0.416809 -0.0964452 -0.134451 0.195812 0.0895026 -0.0819201 0.00760847 0.0388178 -0.156579 0.0828888 -0.609057 -0.114209 -0.183777 -0.333559 0.04107 0.0526766 -0.109741 -0.0752858 0.0636492 -0.169089 0.629848 -0.284618 0.102525 0.238823 -0.335574 -0.0206587 -0.197384 -0.366089 -0.220381 -0.180179 0.302829 0.141132 0.014627 0.0645504 -0.323385 0.251328 -0.176389 -0.68603 -0.070584 -0.10271 -0.295068 0.274732 -0.156979 -0.130205 0.52345 0.509869 -0.144024 -0.749633 -0.325535 0.354897 -0.0570071 -0.712353 -0.273005 0.0136255 0.0395015 -0.0102037 0.0219514 -0.201169 -0.0308085 0.493966 -0.420315 0.277904 -0.300988 -0.0814919 0.0463115 0.0123677 0.298968 0.150317 0.331381 0.0193202 0.0892979 -0.135818 -0.369514 0.148332 -0.00626861 0.0534456 -0.635538 0.117833 0.166856 0.00549867 -0.122183 -0.0416334 0.128874 -0.00872252 -0.225669 0.0120404 -0.115001 0.0182772 0.135819 -0.288098 -0.118699 -0.0727498
100 0.0308868 0.100198 0.190845 -0.0185192 -0.120312 -0.0846433 -0.0911836 0.025741 -0.0701605 0.0160154 -0.109657 0.0531664 -0.0728008 0.0187227 0.009219 0.00308847 -0.0280581 -0.0366912 -0.00235857 0.0390315 0.0828229 0.0357088 0.0317654 0.0811357 0.0430302 0.0352648 0.0632789 -0.0446232 0.0497761 -0.0529065 0.0883713 -0.0706879 0.085765 -0.258671 -0.294153 0.122947 0.273635 0.000384494 -0.0308435 0.0637932 0.027174 -0.142391 -0.0185612 0.0276529 -0.115166 0.0925736 -0.477407 -0.110657 -0.171276 -0.21246 0.137394 0.0918256 -0.108758 -0.0748461 0.0870958 -0.120352 0.736691 -0.536176 0.047958 0.284854 -0.315488 -0.0013121 -0.0705652 -0.300266 -0.262019 -0.217852 0.352684 0.226743 0.0450163 -0.0273538 -0.13971 0.232437 -0.100246 -0.452772 -0.0913487 -0.231004 -0.346891 0.392707 -0.0932826 -0.0440179 0.641273 0.48127 -0.0953405 -0.568006 -0.281202 0.188469 -0.128194 -0.478073 -0.27863 0.0575255 0.0383179 0.085262 -0.0410183 -0.248412 0.103967 0.627763 -0.532772 0.302929 -0.208453 -0.0677973 0.0850908 -0.00361175 0.336338 0.0798292 0.292926 -0.0630791 -0.0247032 -0.187859 -0.262572 0.146448 -0.0321162 0.160853 -0.530781 0.077315 0.137657 -0.0580461 -0.105871 0.0850005 0.0446637 0.0460069 -0.339046 -0.101725 -0.190262 0.0395572 0.186861 -0.274315 -0.0802256 -0.10405
6 -0.00341278 -0.0996337 -0.0958582 -0.0591732 0.0805992 0.132781 -0.063555 0.0291804 0.0110041 -0.118649 -0.0469486 -0.15706 0.0183615 0.26294 -0.170517 -0.224999 -0.0773052 -0.0827891 0.0503535 -0.157116 -0.115983 0.111312 -0.0460768 0.101875 0.0536126 -0.0588302 -0.0747907 0.0413063 0.027531 0.15877 0.0404083 -0.0593973 0.0451897 -0.0643925 -0.183835 -0.0282618 0.402336 -0.0823731 -0.00828004 0.217246 0.00771271 -0.139909 0.0700249 -0.0358835 -0.220263 0.0590178 -0.614896 -0.0817309 -0.284011 -0.240567 0.187847 -0.0589615 -0.147817 -0.174276 0.00629664 -0.0791003 0.587094 -0.406595 0.188762 0.254275 -0.300168 -0.0406178 0.0476729 -0.502817 -0.256577 -0.232973 0.260636 0.305088 0.1331 -0.196905 -0.362536 0.103951 -0.174088 -0.573154 -0.196617 0.0630467 -0.350039 0.351087 0.00235639 0.0861268 0.339611 0.527877 -0.105516 -0.830933 -0.390689 0.536005 -0.156376 -0.546329 -0.507725 0.10177 -0.00850887 0.0442918 -0.144808 -0.153796 0.13477 0.457167 -0.27251 0.291662 -0.204603 -0.244642 0.151072 0.0301713 0.38024 -0.0348642 0.444608 -0.0523788 0.0596279 -0.203266 -0.26123 0.128018 0.158998 0.20478 -0.501864 0.0360258 0.330381 0.0524243 -0.255911 0.144014 -0.092075 -0.0978869 -0.405102 0.0654988 -0.143005 -0.187429 0.323391 -0.200088 0.00347553 -0.0925516
82 0.103576 -0.169978 -0.0728339 -0.0349564 0.0946391 0.0628288 -0.00930283 -0.0668392 0.0995985 -0.070975 0.0646805 -0.163995 0.0336934 0.251737 -0.0287377 -0.219495 -0.140592 -0.350751 0.219259 -0.197892 -0.08975 0.0854493 -0.0985858 0.148305 0.0736413 -0.00171925 -0.0232571 0.0318967 -0.0625679 0.118236 0.0171663 -0.0485825 0.0104502 -0.173365 -0.0767171 0.0114319 0.333334 -0.170592 0.0322314 0.280334 0.0330818 -0.0677768 0.0817465 -0.0688825 -0.172851 0.0825985 -0.56041 0.0192618 -0.367914 -0.191499 0.272309 -0.0948985 -0.233168 -0.12704 0.0565735 -0.183118 0.646829 -0.382508 0.306872 0.337257 -0.433856 -0.0312344 0.0015185 -0.581228 -0.29366 -0.344513 0.277979 0.316686 0.160109 -0.19663 -0.228118 0.067999 -0.295051 -0.56064 -0.142156 0.0582472 -0.357028 0.302819 0.0106911 -0.066421 0.521299 0.777883 -0.0515663 -0.623172 -0.276928 0.34061 -0.165696 -0.659242 -0.57246 0.113911 0.0205095 0.0294037 -0.0915192 -0.170788 0.153005 0.592218 -0.245457 0.307384 -0.312413 -0.251311 0.0996026 0.146002 0.295051 0.0739093 0.545155 0.0403649 0.0579161 -0.193556 -0.399194 0.155132 0.144586 0.241377 -0.29816 0.0125931 0.229124 0.0465509 -0.149588 0.0636988 -0.115592 -0.189681 -0.159638 0.0847087 0.00348971 -0.0530461 0.264895 -0.0457409 -0.0183247 -0.0675446
73 0.170852 -0.206881 0.161703 -0.033538 0.25615 0.233531 0.00553705 -0.0174439 0.0776951 -0.123657 0.0332955 -0.231458 0.00730996 0.241102 0.0167735 -0.20081 -0.0571567 -0.104657 0.196344 -0.08506 -0.146714 0.229355 -0.117528 0.295249 0.133403 0.0076429 -0.156949 0.00968802 -0.0208209 -0.146275 -0.0577255 -0.0653246 0.0421867 -0.253474 -0.0746198 -0.0915533 0.383322 -0.100333 0.019992 0.231507 0.0316008 -0.0865329 0.0865986 -0.063253 -0.147344 0.0485987 -0.578225 -0.0474 -0.350552 -0.213914 0.211225 -0.0891861 -0.127451 -0.0181789 0.0147557 -0.0428871 0.639382 -0.444976 0.22031 0.208588 -0.219901 -0.0428948 0.0214964 -0.403459 -0.295102 -0.321675 0.370045 0.305855 0.0972352 -0.158265 -0.227948 0.0639444 -0.248382 -0.606823 -0.128516 0.0931128 -0.24614 0.216116 -0.0147752 -0.0465425 0.572675 0.805415 -0.126331 -0.660388 -0.259537 0.373229 -0.190911 -0.69026 -0.590017 0.0851806 0.0202031 -0.003252 -0.135679 -0.139501 0.100708 0.543876 -0.295257 0.311168 -0.354536 -0.173346 0.220557 0.136745 0.323222 0.155716 0.545055 0.09161 0.0030071 -0.112388 -0.301123 0.0955634 0.116506 0.242797 -0.620861 0.0800589 0.164175 0.075162 -0.118504 0.0162373 0.0687313 -0.272639 -0.265166 0.0440764 0.00207898 -0.0046053 0.376714 -0.308168 -0.103711 -0.142936
42 0.0513722 -0.218216 -0.0828979 -0.0608953 0.165228 0.26898 -0.0713132 -0.0379831 0.0118675 -0.148953 -0.0196745 -0.212665 0.0247927 0.228807 -0.147603 -0.155985 -0.0555795 -0.220046 0.0968608 -0.200672 -0.0946855 0.0985684 -0.0603397 0.182408 0.0747532 -0.021202 -0.0908159 0.0282321 -0.0396454 0.095647 -0.0068587 -0.0807669 -0.00152426 -0.110481 -0.0445635 -0.0627948 0.256065 -0.112752 0.00357224 0.288459 0.00955293 -0.0973994 0.0305012 -0.0204973 -0.237121 0.102834 -0.539637 -0.0691903 -0.319442 -0.25844 0.175483 -0.0737913 -0.103487 -0.115667 0.0393328 -0.126945 0.776693 -0.429833 0.215135 0.304115 -0.330041 -0.0609578 0.00799633 -0.526911 -0.301229 -0.26923 0.258043 0.21574 0.0968016 -0.191474 -0.253933 0.0754619 -0.135135 -0.592886 -0.142257 0.0712659 -0.229184 0.274005 0.0329755 0.0577562 0.448355 0.726133 -0.115192 -0.759094 -0.318862 0.496949 -0.205009 -0.782878 -0.550018 0.102827 -0.0535404 0.0474673 -0.174137 -0.148099 0.152883 0.484438 -0.270443 0.357157 -0.293353 -0.235242 0.102242 0.068048 0.315208 0.0307609 0.606642 0.0181443 0.031646 -0.146295 -0.270527 0.10766 0.193848 0.236926 -0.428945 0.0802272 0.253498 0.0624711 -0.0916954 0.046908 -0.0713506 -0.167869 -0.248245 0.0686052 -0.028323 -0.0980047 0.284691 -0.162003 0.0273195 -0.0847098
28 0.0216605 -0.187853 -0.0794237 0.00188167 0.115984 0.122829 -0.0394556 -0.0716331 -0.0976604 -0.0937153 0.0179309 -0.231055 0.0772433 0.347474 -0.178728 -0.258403 -0.118802 -0.324834 0.151696 -0.19865 -0.131827 -0.0349895 0.134442 0.236637 0.188972 0.0302923 0.0136319 0.00192051 -0.121286 0.123384 0.101985 -0.181268 0.0130967 -0.0574704 -0.0754233 -0.0346682 0.307248 -0.175835 0.00491478 0.31923 0.0380641 -0.279604 0.0105483 0.00209929 -0.277034 0.149849 -0.842359 -0.112861 -0.261282 -0.209576 0.317193 -0.104982 -0.155733 -0.0960977 0.105924 -0.119849 0.712509 -0.382192 0.208499 0.237619 -0.195643 -0.0299938 0.0290208 -0.41409 -0.354168 -0.350529 0.360227 0.278761 0.131554 -0.163834 -0.281538 0.109498 -0.141396 -0.606904 -0.0637994 0.0134563 -0.327361 0.380549 -0.056425 0.00151046 0.557377 0.814252 -0.00381067 -0.727489 -0.413338 0.387671 -0.18235 -0.60009 -0.564555 0.0948779 0.0461591 0.0426053 -0.106944 -0.180437 0.154133 0.549793 -0.392543 0.380872 -0.323218 -0.247496 0.163541 0.0455221 0.325313 0.0393851 0.536771 -0.0118573 0.0120169 -0.239171 -0.380275 0.113776 0.111284 0.236095 -0.643559 0.0855788 0.400128 -0.0296886 -0.17031 0.116871 -0.119833 -0.211848 -0.387984 0.0785692 -0.0911571 -0.0985996 0.316312 -0.204996 0.0374043 -0.010374
96 0.106923 -0.147981 0.161403 -0.0364449 0.164459 0.239267 -0.00379209 -0.0297717 0.0713619 -0.0701676 0.0603294 -0.158984 0.0511001 0.134032 -0.00713968 -0.167026 -0.0288818 -0.0689941 0.141453 -0.0233263 -0.134324 0.0666389 -0.0765166 0.0454516 0.10356 0.0351687 -0.0661814 0.00848538 0.00108224 -0.0313264 0.0535866 -0.0750485 0.057937 -0.214086 -0.052292 -0.106028 0.250729 -0.0724134 0.0157976 0.212643 0.00104798 -0.106077 0.124991 -0.0724069 -0.264302 0.0898612 -0.810791 -0.0967529 -0.34799 -0.247042 0.204862 -0.108515 -0.147834 -0.0429845 -0.00990936 -0.0569957 0.616282 -0.356615 0.239273 0.211145 -0.190522 -0.0302077 0.0370645 -0.400582 -0.342231 -0.377136 0.376847 0.393561 0.130302 -0.195043 -0.332172 0.0656501 -0.212344 -0.672111 -0.0819376 0.153882 -0.278494 0.302114 -0.0490985 -0.0428149 0.484544 0.708877 -0.0367226 -0.556968 -0.24306 0.34141 -0.181281 -0.442497 -0.61754 0.0523018 0.0623013 -0.0244301 -0.14213 -0.0414638 0.171006 0.379643 -0.192391 0.352264 -0.344122 -0.242813 0.218509 0.160956 0.34134 0.0865505 0.549539 0.0464926 -0.0250378 -0.176892 -0.298805 0.068918 0.147966 0.280961 -0.523797 0.0380593 0.350923 0.0212628 -0.152755 0.0881716 -0.112384 -0.322668 -0.298217 0.0977518 0.0291462 -0.0691755 0.427351 -0.267298 -0.00489205 -0.127545
3 0.160613 -0.110643 0.132842 -0.0691877 0.110579 0.254894 -0.0783583 0.0713252 0.149753 -0.112531 -0.0708167 -0.0319191 -0.056204 0.0578789 -0.000178133 -0.0438525 -0.000322043 0.0683323 -0.0710673 -0.203644 0.0672872 0.179026 -0.252231 0.0386015 0.00148918 -0.0649962 -0.0212242 0.038981 0.137379 0.0297284 -0.00692301 0.00902721 0.0654114 -0.358296 -0.151402 0.0550399 0.571223 -0.0417158 -0.155846 0.330077 0.0418948 -0.0164372 0.0665566 -0.017396 -0.254907 0.107167 -0.76404 -0.160124 -0.35765 -0.453932 0.000622536 -0.0996519 -0.0353405 -0.0183683 0.020277 -0.0338236 0.561089 -0.329758 0.136672 0.246652 -0.315431 -0.0394069 -0.110661 -0.36239 -0.205847 -0.214937 0.243449 0.249908 0.0887331 -0.106028 -0.288253 0.177406 -0.269978 -0.969596 -0.227544 0.10819 -0.300467 0.308872 -0.105723 -0.108478 0.595194 0.520613 -0.151735 -0.724946 -0.221141 0.553618 -0.110434 -0.59733 -0.562592 0.0179784 -0.0688584 0.0229358 -0.154476 -0.124827 0.148882 0.699424 -0.293747 0.408446 -0.34178 -0.177797 0.146101 0.118825 0.166635 0.102296 0.451552 0.0620074 -0.0486619 0.0249782 -0.0627958 0.0255387 0.194604 0.167315 -0.43983 -0.0113833 0.177481 0.130297 -0.0683757 -0.0653166 -0.0147837 -0.167574 -0.106481 0.0826278 0.0910009 -0.141684 0.277103 -0.257495 0.0194702 -0.194391
40 -0.115709 0.032779 -0.0790344 -0.0370219 -0.0356492 -0.00580005 0.0263037 -0.0190391 -0.096186 -0.0142926 -0.0269002 0.0512254 -0.0158959 0.0479926 0.0137951 0.0549204 0.0145024 0.137564 -0.0935153 0.0370061 0.0115382 -0.0762371 0.11777 0.0777592 0.155291 0.058563 -0.0183664 -0.0186522 -0.0180806 -0.0897095 0.0236749 -0.00277721 0.0722629 -0.22698 -0.259695 0.109899 0.276236 -0.0722168 -0.0619298 0.109993 0.0491799 -0.016811 0.00444559 0.0249461 -0.123436 0.10741 -0.520379 -0.169469 -0.0758494 -0.172275 0.00748873 0.050855 -0.00762479 -0.164765 0.0651779 -0.234401 0.515226 -0.33065 0.0646107 0.245032 -0.264983 -0.0044734 -0.106757 -0.301598 -0.267405 -0.16843 0.335548 0.318367 -0.032402 0.0500906 -0.498901 0.29323 -0.205928 -0.747478 -0.0804635 -0.222619 -0.383008 0.536172 -0.156515 -0.112623 0.40765 0.484081 -0.127507 -0.952003 -0.331745 0.322848 -0.100456 -0.440269 -0.291154 0.0102858 -0.0141703 0.0680749 -0.0189562 -0.262648 0.0466458 0.677763 -0.339832 0.188055 -0.218472 -0.0448771 0.0799199 0.0252202 0.365749 0.0730217 0.236522 -0.0119794 0.0121021 -0.100527 -0.239 0.163017 -0.0631318 0.0859318 -0.570974 0.0824581 0.128905 -0.00537176 -0.20573 0.0714825 0.117346 0.0118176 -0.344764 -0.0760028 -0.197233 0.0453855 0.178152 -0.4191 -0.0880562 -0.0941672
90 -0.0234123 -0.0250122 -0.135233 0.0354946 0.0342573 0.0547771 -0.0928624 -0.127077 0.0038164 0.00738639 0.0392131 -0.0179161 -0.0852529 -0.0414694 0.0566188 0.139813 -0.0579505 0.00525449 0.0144813 -0.149578 0.0265056 -0.0831247 -0.118021 0.0982183 0.0557058 -0.0340353 -0.0359917 -0.0207689 -0.09768 -0.00596895 -0.0658498 0.0170078 0.0583423 -0.272806 -0.273075 0.144085 0.5803 -0.148201 -0.114312 0.177542 0.115084 -0.0740273 -0.0178807 0.0384748 -0.137734 0.147239 -0.687425 -0.133873 -0.0752026 -0.221567 -0.0110438 -0.127253 -0.0486723 0.00520377 0.174636 0.00613224 0.581795 -0.316539 0.103253 0.259154 -0.207035 0.0212744 -0.114307 -0.261166 -0.234174 -0.243818 0.322713 0.336213 0.0755976 0.070393 -0.51881 0.264667 -0.242821 -0.701354 0.00611733 -0.048579 -0.344155 0.331455 -0.157069 -0.188288 0.546028 0.459872 -0.0663437 -0.733259 -0.232118 0.269461 -0.0579407 -0.503803 -0.319128 -0.0218849 0.0612197 0.0296337 0.0676304 -0.198774 0.0328851 0.719903 -0.478395 0.259383 -0.324648 -0.148276 0.0802869 0.0564659 0.142797 0.0947942 0.332096 0.0105886 -0.0156153 -0.205134 -0.557379 0.215539 -0.0631676 0.154893 -0.538928 -0.00103996 0.175122 -0.0133749 -0.203271 0.0600678 0.0361938 -0.0917783 -0.313047 -0.030203 -0.192919 -0.0438936 0.251566 -0.378859 -0.108746 -0.105219
54 0.0407262 0.0831146 0.0409822 0.0503336 -0.00761731 0.0669718 -0.194138 0.00727933 -0.0292126 -0.0410464 -0.101807 -0.0363819 -0.00753863 0.159063 -0.15288 -0.130193 -0.0831523 -0.0393756 -0.0474969 -0.0664693 -0.0645748 0.125196 -0.0894331 -0.0127541 -0.0285476 -0.0759997 0.0186518 0.0282534 -0.00221674 0.140507 0.0404225 -0.0438935 0.0444688 -0.08796 -0.167917 0.0753583 0.143828 -0.0627059 -0.0369194 0.0837256 0.0285925 -0.08154 0.0299429 0.0207375 -0.142257 0.0706855 -0.555864 -0.0806738 -0.183826 -0.244817 0.0789367 0.0141874 -0.0913172 -0.117642 0.0369129 -0.169784 0.713862 -0.431541 0.161116 0.302579 -0.454052 -0.0312174 -0.117714 -0.46828 -0.264265 -0.194953 0.301217 0.164128 0.083208 -0.0248554 -0.297324 0.207087 -0.157902 -0.66844 -0.135219 -0.128055 -0.435204 0.428709 -0.102284 -0.03151 0.443153 0.449446 -0.0736126 -0.736409 -0.319653 0.369677 -0.0372285 -0.711102 -0.324826 0.103277 0.00570542 0.0840312 -0.0585605 -0.237617 0.0349449 0.589368 -0.374759 0.239101 -0.221366 -0.125796 0.0160849 0.00123718 0.364731 0.0206332 0.408342 -0.0348615 0.142262 -0.25315 -0.487633 0.259783 0.0304026 0.143318 -0.572569 0.0917712 0.18688 0.00637311 -0.101933 0.0114086 -0.0104888 0.00733927 -0.230455 0.0515029 -0.112388 -0.0974559 0.0913847 -0.163922 -0.0452145 -0.0365876
35 0.039829 -0.0452827 -0.0463558 0.0304161 0.0167464 -0.117309 -0.0458319 -0.0137744 0.00125004 -0.00598083 -0.0626743 0.0316045 -0.0501305 0.0122052 0.00258725 -0.00938164 -0.0279052 0.0164376 -0.0731663 -0.0336971 0.0515512 0.0470762 -0.0438855 -0.0181603 0.138828 -0.0106268 0.000272943 0.014706 -0.0247828 -0.0940506 0.0090851 -0.0245604 0.0127965 -0.136073 -0.169564 0.135932 0.40959 -0.118396 -0.120315 0.149095 0.0825371 -0.0928435 0.0196919 0.00471753 -0.119759 0.066916 -0.582096 -0.106349 -0.132817 -0.177515 0.110262 0.025906 -0.157377 -0.158208 0.0922229 -0.207684 0.768095 -0.372522 0.171557 0.316554 -0.440499 -0.00565561 -0.152521 -0.512337 -0.203547 -0.211652 0.295018 0.268052 0.0742617 -0.033448 -0.387256 0.201216 -0.217697 -0.630788 -0.153148 -0.135771 -0.503565 0.429925 -0.150139 -0.0703751 0.383472 0.485525 -0.0651845 -0.684501 -0.311571 0.363566 -0.100167 -0.609587 -0.357809 0.0873865 0.0455271 0.0517388 -0.0506162 -0.218742 0.0754432 0.583074 -0.304121 0.181203 -0.225937 -0.0961 0.100481 0.00370754 0.254637 0.0696423 0.268125 0.00261392 0.0508603 -0.242711 -0.438122 0.180221 0.0229378 0.199315 -0.563152 0.0611338 0.205152 0.00543111 -0.191653 0.0341355 0.0761722 -0.0613691 -0.322808 0.00598417 -0.160981 -0.0587234 0.224211 -0.282035 -0.111113 -0.0779377
46 0.0771876 0.171608 0.240111 0.129483 -0.0321553 0.0549156 -0.237666 -0.0381925 -0.0655517 0.045961 -0.0729946 0.119458 -0.0618033 -0.0555791 0.0237095 0.08272 -0.0146033 0.145661 -0.128649 0.0633018 0.0581026 0.0130469 0.0230486 -0.0194433 0.0626896 -0.0262177 0.0532283 0.000467607 -0.0175103 -0.0395707 0.0138417 -0.00241973 0.101153 -0.201237 -0.32205 0.265113 0.526358 -0.099946 -0.144201 0.120845 0.103718 -0.132914 0.0568498 0.0270028 -0.186752 0.0965396 -0.794047 -0.129323 -0.134905 -0.242513 0.113491 0.0228711 -0.170717 -0.102917 0.0870707 -0.0954391 0.536485 -0.279534 0.0352471 0.106113 -0.121189 0.0339004 -0.0824744 -0.191775 -0.142237 -0.176014 0.245806 0.284566 0.0925642 0.0289547 -0.387854 0.292817 -0.260323 -0.804175 -0.0965446 -0.162765 -0.448017 0.410213 -0.14854 -0.158587 0.559598 0.511548 -0.0799227 -0.808212 -0.420125 0.404164 -0.125301 -0.662028 -0.280155 0.0325092 0.0676101 0.0124163 0.0402099 -0.154205 0.0149647 0.495588 -0.362426 0.211613 -0.279857 -0.0755256 0.0782447 0.0319814 0.214204 0.0962133 0.178926 -0.0201343 0.00988962 -0.117223 -0.222271 0.0790496 -0.0313818 0.0896886 -0.513172 0.0297508 0.182476 -0.0202327 -0.247794 0.0634275 0.113461 -0.0403996 -0.321356 -0.00826938 -0.149697 -0.0208988 0.184597 -0.265217 -0.110821 -0.0630227
94 -0.00245581 0.134364 0.286807 0.0932721 -0.021449 0.182694 0.00804688 -0.0106454 -0.0931909 0.089507 0.122992 0.0357201 0.113047 -0.106875 -0.0596201 0.0762576 0.0494323 0.0471231 0.00788493 0.235512 -0.0420883 -0.00211955 0.131376 -0.0745191 0.264832 0.153039 0.11811 -0.00160154 0.0129064 -0.0762056 0.11009 -0.0889068 0.120903 -0.245491 -0.265349 0.126751 0.450044 -0.0775004 0.0359124 0.157688 0.0219158 -0.165552 0.0838178 -0.0271858 -0.109519 0.0677086 -0.538235 -0.0206405 -0.198112 -0.0584444 0.297875 0.0432724 -0.311359 -0.155824 0.089832 -0.162476 0.642304 -0.535101 0.0815665 0.0473695 -0.0819012 -0.000592391 0.0590512 -0.306035 -0.211544 -0.225717 0.3006 0.309781 0.086013 -0.0576176 -0.225918 0.289109 -0.304751 -0.516989 -0.10682 -0.179963 -0.328566 0.399294 0.00279586 -0.185035 0.612108 0.674472 -0.133337 -0.669322 -0.388026 0.266882 -0.252807 -0.506535 -0.255579 0.0254736 0.083446 -0.0887701 0.0422377 -0.229457 0.120226 0.527157 -0.36558 0.247038 -0.348693 -0.00473766 0.331098 0.164601 0.391898 0.252749 0.193871 0.132941 -0.176807 -0.249892 -0.435104 0.207944 -0.202537 0.229686 -0.629682 -0.0361205 0.137447 0.0147471 -0.249772 0.159182 0.123618 -0.0607192 -0.257233 -0.107777 -0.130979 0.145716 0.236268 -0.164453 -0.15371 -0.0733279
91 -0.0651391 0.155238 0.178672 0.216008 0.0167608 0.31251 -0.0527355 -0.130449 -0.17343 0.102629 0.0986394 0.0362745 0.0915845 -0.040206 -0.102439 0.0927811 0.0287028 0.0053253 -0.0131027 0.129164 0.0298603 -0.0918284 0.140365 -0.0945461 -0.101517 0.0353579 0.126954 -0.0135403 -0.0380833 0.158038 -0.00628867 -0.0201879 0.0523969 -0.194016 -0.298059 0.183241 0.51139 -0.087409 0.0409808 0.173304 0.0242503 -0.11138 0.0680703 0.00729011 -0.109965 0.124256 -0.66751 -0.0308391 -0.185256 -0.0398711 0.279 0.103589 -0.263339 -0.208239 0.103896 -0.240218 0.606269 -0.433845 0.0711039 0.0521355 -0.192005 -0.0397185 -0.0377095 -0.312973 -0.243841 -0.236454 0.366453 0.288316 0.0502901 -0.0243524 -0.290259 0.319286 -0.260088 -0.311432 -0.157162 -0.177494 -0.208093 0.236525 0.00236398 -0.129157 0.697693 0.76365 -0.235185 -0.901358 -0.433132 0.398063 -0.217271 -0.675304 -0.187482 0.069672 -0.00263852 -0.0446822 -0.00590823 -0.205102 0.0887799 0.535495 -0.486921 0.291066 -0.420816 0.035948 0.274008 0.0721793 0.294139 0.221673 0.197348 0.191431 -0.168077 -0.166659 -0.333355 0.164077 -0.189531 0.193508 -0.788551 -0.0619394 0.0525263 0.125977 -0.121918 0.110936 0.0794393 -0.0145881 -0.105076 -0.120153 -0.0736897 0.0742768 0.130424 -0.000762854 -0.133208 -0.0723131
67 -0.0529331 0.032205 0.107138 0.0776803 0.0569774 0.206398 0.0427915 -0.0294166 -0.20407 0.0496509 0.12143 -0.0183246 0.156345 -0.0114419 -0.08858 0.0214103 0.0360255 0.072134 0.00819577 0.173194 -0.102998 -0.102435 0.211736 0.0254207 0.136381 0.184846 0.135794 -0.023337 -0.060236 -0.00251631 0.168205 -0.106374 0.131898 -0.450796 -0.376353 0.0750809 0.541362 -0.130036 0.0792972 0.257382 0.00539537 -0.129887 0.0414212 -0.0498919 -0.168767 0.181187 -0.702686 -0.0267409 -0.102461 0.0587245 0.252171 0.0136477 -0.223041 -0.168709 0.0951523 -0.230576 0.65273 -0.514437 0.072689 0.0690518 -0.0367021 -0.0128564 0.0398046 -0.317306 -0.287639 -0.317166 0.389376 0.338151 0.0739281 -0.0162768 -0.279609 0.286629 -0.190919 -0.373267 0.14629 -0.118599 -0.12494 0.325327 0.0345128 -0.241485 0.530339 0.785378 -0.0232666 -0.769324 -0.477728 0.220908 -0.297171 -0.436793 -0.233107 0.0066726 0.129777 -0.133301 0.158018 -0.276339 0.143755 0.625331 -0.395527 0.262389 -0.370569 -0.0971085 0.309692 0.151079 0.463922 0.278754 0.330328 0.141024 -0.136046 -0.297248 -0.533367 0.234503 -0.277731 0.134308 -0.508403 -0.0591064 0.157543 -0.0385891 -0.261749 0.203038 0.0533242 -0.0704821 -0.23575 -0.107077 -0.189325 0.180137 0.290535 -0.239827 -0.130303 -0.0427362
56 -0.00958751 -0.00833138 -0.00472792 0.146822 0.0836074 0.0648013 -0.0830868 -0.22229 -0.251896 -0.0126875 0.0837382 -0.120463 0.0896154 0.0969739 -0.12436 0.0489307 -0.066931 -0.0420378 0.049188 -0.00953969 -0.113971 -0.202601 0.281603 0.230147 0.185696 0.0955553 0.105439 -0.0653976 -0.245876 0.11179 0.0390749 -0.166985 0.010344 -0.154425 -0.218526 0.169002 0.599977 -0.332335 -0.058005 0.379051 0.140366 -0.272254 -0.0714538 0.0531763 -0.211996 0.214461 -0.923362 -0.157565 -0.0607028 -0.0639823 0.304393 -0.0974082 -0.204442 -0.08063 0.296756 -0.156415 0.728991 -0.294401 0.0981508 -0.00734544 0.152017 0.0479556 0.0159224 -0.119632 -0.234112 -0.264364 0.243131 0.232229 0.0828886 0.014534 -0.284756 0.220533 -0.208733 -0.641416 0.208455 -0.0747336 -0.233812 0.310235 -0.086974 -0.213926 0.560771 0.914367 0.0350288 -0.829619 -0.451234 0.173856 -0.169361 -0.665739 -0.411173 0.0726541 0.142346 0.0068022 0.0505735 -0.0934018 0.0583177 0.616255 -0.323593 0.189693 -0.449449 -0.133678 0.21112 0.137776 0.391768 0.22209 0.343535 0.0397292 -0.0311003 -0.289155 -0.629345 0.19273 -0.136721 0.276907 -0.821786 0.0976656 0.31223 -0.119046 -0.269508 0.0870022 0.141986 -0.218779 -0.393035 -0.0293766 -0.170169 0.127146 0.25492 -0.435613 -0.111098 0.0893286
55 0.050153 0.102393 0.334619 0.130102 0.163256 0.42658 -0.0191666 -0.0145342 -0.0742676 0.037608 0.146978 0.0182281 0.160831 -0.0311974 0.0362554 -0.0142022 0.0177248 0.113262 -0.0546315 0.279049 -0.108311 0.143778 0.0801063 -0.215674 0.16653 0.105059 0.0261203 0.0336613 -0.0341917 -0.0498584 0.066396 0.0282535 0.171028 -0.385878 -0.221137 0.0787126 0.486604 -0.133616 0.0478852 0.133708 0.0586854 0.0286694 0.156265 -0.0973912 -0.233981 0.153072 -0.783976 0.0161721 -0.203716 0.0276745 0.222602 -0.0156749 -0.270797 -0.201047 0.0625299 -0.22581 0.610406 -0.443688 0.183219 0.156977 -0.223808 -0.0430486 -0.0434478 -0.347821 -0.238865 -0.284111 0.387085 0.411606 0.0518894 0.0519834 -0.314478 0.241142 -0.323892 -0.531604 0.0109875 -0.138902 -0.211275 0.340167 0.046785 -0.300049 0.511505 0.807004 -0.172586 -1.03972 -0.499644 0.345992 -0.324186 -0.38626 -0.162382 -0.0242296 0.0481982 -0.147871 0.154681 -0.107846 0.00777004 0.228679 -0.10601 0.111213 -0.424559 -0.0160291 0.231884 0.229696 0.232743 0.241127 0.097116 0.209556 -0.0774291 -0.145086 -0.428172 0.172676 -0.21894 0.0156108 -0.52124 -0.0541129 0.0208307 0.111791 -0.348487 0.110275 0.247415 -0.142598 -0.137535 -0.0579647 -0.0573353 0.20066 0.274521 -0.227907 -0.198412 -0.0529184
29 -0.0332299 0.132328 0.316066 0.152381 0.102174 0.396288 0.0694745 0.0525171 -0.147776 0.108621 0.158209 0.0952447 0.19959 0.0430993 0.0305196 -0.0917201 0.0250199 0.0482619 -0.0615241 0.192389 -0.0886032 -0.0163748 0.193889 -0.111095 0.215917 0.13565 0.110467 0.0512098 0.00788277 -0.0485891 0.103691 -0.00964942 0.194408 -0.387228 -0.255289 0.0433619 0.423359 -0.0721228 0.0768814 0.0826961 0.0353186 -0.0767659 0.148516 -0.0746511 -0.179485 0.129522 -0.880115 -0.0334657 -0.269529 -0.0345528 0.270288 0.0215673 -0.271838 -0.209457 0.0244485 -0.225008 0.596021 -0.526356 0.124524 0.0731844 -0.190386 -0.0604384 -0.011128 -0.326282 -0.243965 -0.265966 0.429467 0.296598 0.025544 0.00682885 -0.258856 0.217356 -0.279891 -0.449898 -0.117737 -0.112052 -0.228847 0.321659 0.0207381 -0.219058 0.580781 0.757989 -0.208866 -1.10528 -0.552352 0.473258 -0.331021 -0.673325 -0.297603 0.0217923 0.0350796 -0.149066 0.0407987 -0.22294 0.0644947 0.485971 -0.320044 0.247208 -0.484921 0.0015085 0.414508 0.23282 0.47613 0.307266 0.284393 0.269268 -0.14055 -0.168759 -0.42882 0.22233 -0.252676 0.109784 -0.669615 -0.0646451 -0.00309852 0.134838 -0.206321 0.0876818 0.166941 -0.11684 -0.111166 -0.0623764 -0.0140288 0.164557 0.203445 -0.0909878 -0.168916 -0.100297
74 -0.000508083 0.0282659 0.283497 0.0863726 0.135255 0.268235 0.134468 0.0599091 -0.118775 0.0675338 0.155128 -0.0105363 0.206969 0.0225323 -0.0287742 -0.122264 0.0202135 0.104891 -0.0263212 0.255194 -0.154816 0.0404288 0.139024 -0.161207 0.040883 0.0958533 0.116991 0.0463503 0.050493 0.0927359 0.145008 -0.00985037 0.209915 -0.379782 -0.244653 -0.0345382 0.411579 -0.0546952 0.105743 0.139817 0.0314544 -0.130037 0.16578 -0.120152 -0.216474 0.11828 -0.841157 -0.0317292 -0.297571 -0.0409428 0.326352 -0.00219613 -0.290559 -0.225521 -0.000789574 -0.214013 0.544149 -0.488324 0.139983 0.12609 -0.173657 -0.0505531 0.0152912 -0.358322 -0.283117 -0.356019 0.418398 0.403987 0.0690273 -0.0602888 -0.277519 0.168596 -0.241016 -0.408561 -0.0881615 -0.0566973 -0.257 0.336396 0.0227643 -0.154333 0.452958 0.753198 -0.115444 -0.898767 -0.491824 0.413214 -0.326515 -0.596641 -0.412583 0.036 0.0489463 -0.131146 -0.0266138 -0.0982582 0.105826 0.301025 -0.213854 0.244397 -0.352348 -0.0942355 0.295205 0.201005 0.334328 0.18144 0.30506 0.165193 -0.0434172 -0.0955444 -0.176598 0.0836044 -0.0656642 0.093865 -0.434991 -0.0234975 0.077248 0.0737069 -0.1908 0.0952737 0.0607581 -0.172898 -0.189659 -0.00671777 -0.0276446 0.0863887 0.32296 -0.146092 -0.136947 -0.126312
45 0.00706492 0.041221 0.209692 0.104235 0.101364 0.384224 0.0109136 0.0179457 0.00203701 0.0368951 0.106929 -0.015543 0.101146 -0.176029 -0.0677606 0.106504 0.0911442 0.0532319 -0.0270394 0.110381 0.0428094 0.00903107 0.0143861 -0.130233 0.166482 0.0846499 0.0588161 0.0544993 0.0630031 -0.0980549 0.0413957 -0.0359236 0.0851807 -0.198667 -0.104647 0.109307 0.55432 -0.0508067 -0.00324666 0.258834 0.0143053 -0.0798072 0.138303 -0.0450738 -0.200478 0.104895 -0.801798 -0.019431 -0.236338 -0.0616346 0.213953 0.0241089 -0.248183 -0.206474 0.0237824 -0.252045 0.651065 -0.517914 0.128183 0.132321 -0.278259 -0.0450583 -0.0254116 -0.425264 -0.22823 -0.235275 0.320827 0.310405 0.0742212 -0.0833156 -0.259735 0.266615 -0.308155 -0.507944 -0.196506 -0.0765103 -0.254382 0.295181 -0.0192928 -0.158189 0.539361 0.609248 -0.187721 -0.704294 -0.32962 0.411714 -0.224338 -0.505144 -0.240002 0.0136126 -0.0137536 -0.0809767 -0.0259351 -0.222577 0.109612 0.565488 -0.277855 0.247163 -0.379024 0.0193606 0.297971 0.146885 0.179277 0.225013 0.128367 0.210727 -0.15873 -0.140799 -0.349971 0.154214 -0.120786 0.166978 -0.622929 -0.0942765 0.0646917 0.169511 -0.161723 0.0847443 0.0894519 -0.0999902 -0.0379479 -0.0348988 -0.0146934 0.0542999 0.239639 -0.0994555 -0.142941 -0.127527
1 0.0196631 0.133266 0.247853 0.0979463 -0.0118418 0.105547 -0.00353862 0.0497424 -0.0174224 0.0561684 0.00451615 0.000830437 0.0925141 -0.0975843 -0.190287 0.00214287 0.0334697 0.0888476 -0.0654612 0.180277 -0.0326304 0.0290608 0.103378 -0.10833 0.133275 0.0177745 0.085785 0.0553444 0.0278082 -0.0240744 0.130155 -0.0444611 0.0681184 -0.155193 -0.216308 0.134883 0.342114 -0.0659761 0.00533793 0.116429 0.0265094 -0.121664 0.121665 -0.040609 -0.191261 0.0782035 -0.790343 -0.0488453 -0.243196 -0.1341 0.18494 0.0923504 -0.186094 -0.210535 0.0089868 -0.274629 0.45707 -0.245433 0.136688 0.203131 -0.395611 -0.0296936 -0.07352 -0.407767 -0.249255 -0.158543 0.31596 0.277692 0.0479886 -0.034809 -0.323398 0.215189 -0.259202 -0.617826 -0.251086 -0.253887 -0.555335 0.51572 -0.0963803 -0.0403113 0.435339 0.497114 -0.165091 -0.585335 -0.231847 0.256164 -0.0924498 -0.549182 -0.255871 0.114928 0.00254438 0.0538262 -0.0802161 -0.258134 0.0638913 0.5351 -0.371701 0.198263 -0.209385 0.00427445 0.0518051 -0.00640343 0.187633 0.0111614 0.144243 0.00189765 0.0906072 -0.231095 -0.372049 0.195844 -0.006845 0.147278 -0.594282 0.08428 0.11348 0.0419888 -0.140013 0.0392938 0.0706963 0.0236487 -0.292622 -0.0143787 -0.192624 -0.0574039 0.159001 -0.259308 -0.135119 -0.10141
8 -0.0349884 0.0911073 0.265949 0.115551 0.0107839 0.211446 0.096847 -0.0315344 -0.223812 0.10502 0.0853942 0.0799832 0.176799 0.168039 -0.0731214 -0.105231 0.0141508 0.111562 -0.00622766 0.217409 -0.0538053 -0.0848226 0.231373 -0.037006 0.103689 0.163984 0.203774 -0.0439832 0.0160851 0.047934 0.177455 -0.12211 0.0758401 -0.407589 -0.452566 0.103072 0.615787 -0.11533 0.0832519 0.201842 -0.00308317 -0.242524 0.0262068 -0.0322806 -0.100104 0.137503 -0.710064 -0.0872776 -0.198521 0.00278909 0.329896 0.110588 -0.288437 -0.166908 0.13036 -0.157837 0.541759 -0.40401 0.0424713 -0.0518946 -0.0282291 -0.00853377 0.0744673 -0.269523 -0.190412 -0.19973 0.291942 0.263876 0.0478082 -0.0691063 -0.193109 0.292465 -0.252548 -0.343113 -0.0983821 -0.220301 -0.30064 0.397732 0.0354922 -0.122368 0.612944 0.712687 -0.14803 -0.81168 -0.468426 0.322301 -0.303103 -0.625223 -0.326194 0.103763 0.108899 -0.0836561 0.00317331 -0.33034 0.229028 0.826524 -0.543558 0.328946 -0.366745 0.0222997 0.452878 0.117135 0.587173 0.293386 0.248314 0.158201 -0.231727 -0.335683 -0.448047 0.246131 -0.274222 0.301815 -0.779395 -0.0468173 0.128802 -0.0118997 -0.182262 0.197692 0.0542422 0.0174906 -0.304054 -0.171921 -0.190531 0.119674 0.230504 -0.164015 -0.120465 -0.0690324
26 -0.0361622 0.0453546 0.216079 0.103133 0.111536 0.411089 0.14736 -0.0689245 -0.015956 0.103066 0.252588 -0.0111839 0.240491 -0.122399 0.0111791 0.0166248 0.104648 -0.0656667 0.177523 0.303228 -0.127717 -0.152746 0.179886 -0.0689632 0.284323 0.235852 0.0166799 0.00561217 -0.0223774 -0.194758 0.0390762 -0.042023 0.0948828 -0.38488 -0.292283 0.0983969 0.395025 -0.0787917 0.112036 0.19449 -0.00874227 -0.0819429 0.221463 -0.0982121 -0.227378 0.122183 -0.926086 -0.00693278 -0.268079 -0.0106654 0.283167 0.108105 -0.288234 -0.242299 -0.0180898 -0.348677 0.507017 -0.317304 0.153166 0.0552797 -0.206584 -0.0536034 0.00817532 -0.408027 -0.256267 -0.185281 0.251754 0.270307 -0.000429092 -0.00403508 -0.306381 0.281784 -0.325285 -0.473114 -0.110206 -0.243416 -0.328343 0.42126 0.0206852 -0.157939 0.433161 0.704543 -0.20117 -0.833898 -0.343698 0.313185 -0.274157 -0.843828 -0.273199 0.0718647 0.0361704 -0.100972 -0.0347922 -0.235358 0.138165 0.503321 -0.341732 0.238586 -0.379938 0.0481544 0.230499 0.166834 0.316082 0.239604 0.281687 0.206861 -0.105443 -0.237023 -0.482957 0.230062 -0.202813 0.246731 -0.553987 0.0111087 0.0311047 0.0519226 -0.123621 0.0837489 0.129124 -0.0633472 -0.177338 -0.109722 -0.119335 0.155506 0.176684 -0.133676 -0.188056 -0.0903175
12 0.0300216 0.0773533 -0.0700277 0.06383 -0.0232678 -0.0727308 -0.200321 -0.0500784 0.0305981 0.016122 -0.146419 0.114125 -0.127837 0.046744 -0.0570036 0.025588 -0.110696 0.0748287 -0.136031 -0.12304 0.0942849 -0.0678529 -0.0927807 0.0389612 0.320919 -0.0323138 -0.0256409 0.0302348 -0.0466737 -0.115321 0.0342543 -0.0260902 0.0239242 -0.153851 -0.302538 0.193137 0.404617 -0.11691 -0.104901 0.0562647 0.115241 -0.0773939 0.0535027 0.025941 -0.0876966 0.0639242 -0.670395 -0.126128 -0.121262 -0.167692 0.0806144 -0.0185781 -0.110431 -0.138075 0.094137 -0.191155 0.698221 -0.435613 0.112502 0.161909 -0.251009 0.035812 -0.071362 -0.346078 -0.188616 -0.181684 0.290645 0.290711 0.111745 0.0289179 -0.443402 0.228524 -0.333032 -0.834235 -0.0399076 -0.0938414 -0.417639 0.30226 -0.117808 -0.137629 0.455113 0.507525 -0.0384409 -0.802647 -0.34374 0.337305 -0.0672894 -0.637121 -0.372975 0.0945439 0.0936669 0.051258 0.0571199 -0.204085 0.0228211 0.767203 -0.363463 0.15444 -0.27656 -0.0808949 0.068997 0.0369394 0.29244 0.0539907 0.254059 0.00289034 0.05642 -0.175753 -0.340074 0.152813 -0.0833234 0.144786 -0.442771 0.000389369 0.137586 -0.0301073 -0.251961 0.0800845 0.0531459 -0.0357705 -0.365935 -0.0104253 -0.220947 -0.0431543 0.197545 -0.292949 -0.171524 -0.0828748
83 0.0724705 0.0922406 0.14787 0.0948277 0.00957939 -0.0202159 -0.0875725 0.000405633 0.0270752 0.0524046 0.0191135 0.104265 -0.0379421 -0.0715527 0.0705342 -0.0168032 -0.0449568 -0.078323 -0.0273223 0.00228836 0.0428329 -0.015596 0.0579508 0.0612399 0.216644 0.0131494 0.0046029 0.0416783 -0.0268166 -0.117742 0.0300991 0.00399527 0.0981981 -0.170442 -0.23254 0.19952 0.313902 -0.0395592 -0.104866 -0.0166045 0.111266 -0.100396 0.0638277 -0.00584552 -0.111655 0.0276318 -0.512672 -0.0548032 -0.168819 -0.286499 0.0851488 0.00425856 -0.177047 -0.125028 0.048638 -0.169805 0.670423 -0.354844 0.115757 0.267282 -0.336893 -0.0126175 -0.161192 -0.387927 -0.236009 -0.231717 0.379925 0.260683 0.0880681 0.043154 -0.451586 0.202349 -0.230014 -0.688402 -0.102843 -0.0951189 -0.414844 0.276002 -0.130746 -0.0930364 0.481866 0.49031 -0.108732 -0.723805 -0.365839 0.376944 -0.0988241 -0.715403 -0.314354 0.0437101 0.0673714 -0.0253084 0.0289895 -0.146259 -0.0361986 0.371201 -0.407153 0.231779 -0.276364 -0.155124 0.0319284 0.010539 0.234428 0.0712405 0.393608 -0.00745289 0.131667 -0.21557 -0.471536 0.187278 0.0207956 0.131649 -0.565082 0.11262 0.212641 -0.0126823 -0.250004 0.0029214 0.136818 -0.0791118 -0.431312 0.029024 -0.230746 -0.0551115 0.258683 -0.367618 -0.202695 -0.115705
59 0.0301604 0.0398552 -0.046063 -0.0429136 -0.00246842 0.0953997 -0.125461 0.0324538 0.0834179 -0.0602842 -0.136363 0.0370734 -0.0891271 0.0513337 -0.0688262 0.00504509 -0.0491791 0.0847407 -0.118075 -0.154255 0.0578383 0.0177563 -0.139744 0.0185512 0.212016 -0.0522077 -0.0598986 0.0449841 0.0409549 -0.0638038 0.0335959 -0.00414343 0.0576387 -0.243105 -0.28662 0.101833 0.391078 -0.0743572 -0.0663091 0.167771 0.0534065 0.00614294 0.0755325 0.0113153 -0.177931 0.0881028 -0.650776 -0.127077 -0.192995 -0.235517 0.00965047 -0.0539043 0.0182178 -0.0884692 0.034465 -0.125438 0.52549 -0.38019 0.126069 0.202384 -0.3004 -0.00714247 -0.0836918 -0.30272 -0.216615 -0.152451 0.252039 0.26197 0.0788492 -0.00623756 -0.37091 0.207332 -0.279447 -0.86817 -0.0893758 -0.037644 -0.308597 0.325913 -0.0795236 -0.0985213 0.441021 0.452 -0.102841 -0.878011 -0.287086 0.417607 -0.0635438 -0.5218 -0.404946 0.0592118 -0.0251297 0.0768274 -0.0294217 -0.186898 0.0619574 0.768328 -0.311909 0.257065 -0.309189 -0.103432 0.0672865 0.0788211 0.319703 0.0416507 0.329396 0.0220109 0.0283183 -0.112716 -0.304179 0.165465 0.0136045 0.147995 -0.5144 -0.00146913 0.154139 0.0638039 -0.233384 0.0468223 0.0387098 -0.0665817 -0.286359 0.0207876 -0.111652 -0.086581 0.221004 -0.308761 -0.0847963 -0.129193
47 -0.0209779 -0.00947311 0.0781778 -0.0429124 -0.0334959 0.0463418 0.0162656 0.0608636 -0.0600227 -0.0427585 0.0177088 -0.00910989 0.0283006 -0.0584328 0.0635133 0.0516116 0.092787 0.0789811 -0.0308954 0.0116983 0.0414641 0.00320106 0.0826954 0.0367612 -0.056914 0.0765676 0.0370958 -0.0343907 0.073879 -0.0268223 -0.0160081 -0.0138447 0.0705429 -0.240706 -0.105872 0.108608 0.237048 0.00407973 -0.145013 0.188579 0.0160615 -0.0433411 -0.0211594 0.0245482 -0.204182 0.121821 -0.540037 -0.185482 -0.14687 -0.364013 -0.0407413 0.0349409 -0.0459177 -0.103894 0.0372616 -0.150617 0.557428 -0.276556 0.0429892 0.280699 -0.279904 -0.0296691 -0.161431 -0.326375 -0.240378 -0.170276 0.246044 0.19921 -0.0181228 -0.00443532 -0.354558 0.299913 -0.125197 -0.848365 -0.138334 -0.151716 -0.374419 0.563453 -0.201711 -0.121189 0.459116 0.400501 -0.134736 -0.825915 -0.316082 0.462348 -0.115686 -0.583266 -0.333954 -0.0378493 -0.0602537 0.0347778 -0.116887 -0.201922 0.0949159 0.566507 -0.31158 0.308677 -0.265719 -0.102629 0.0928121 0.0564419 0.307818 0.142277 0.347724 -0.00591221 -0.0193055 -0.115546 -0.289945 0.159875 0.056949 0.149797 -0.622005 0.0913581 0.216906 0.0272564 -0.0980626 -0.0454267 0.108904 -0.0437925 -0.182122 -0.00864917 -0.0374491 0.00380554 0.162129 -0.356957 0.0136115 -0.0836336
2 -0.00488692 0.112685 0.0749766 0.0186912 -0.081867 -0.166285 -0.123427 -0.00760067 -0.0638333 0.0179944 -0.050945 0.0549821 -0.066823 -0.0227448 -0.0202528 0.0464572 -0.0285811 0.151611 -0.118198 0.167777 -0.0273905 0.126212 -0.0142394 -0.056276 0.0705335 -0.0109347 0.00266727 -0.0118812 -0.00199748 0.0441079 0.0104732 -0.00620048 0.109954 -0.123944 -0.340348 0.221999 0.507802 -0.101305 -0.0798737 0.0896856 0.106118 -0.154436 0.0309369 0.0128496 -0.119416 0.0394554 -0.414236 -0.0795845 -0.0677515 -0.0948249 0.185736 0.0641492 -0.254419 -0.186557 0.0895301 -0.125942 0.715694 -0.534013 0.065098 0.19315 -0.18014 0.0252802 -0.025322 -0.350206 -0.120401 -0.188104 0.200873 0.354749 0.104688 -0.0214218 -0.393002 0.305121 -0.228237 -0.499224 -0.0811638 -0.198655 -0.400537 0.418487 -0.0411672 -0.0960845 0.36742 0.481651 -0.0840036 -0.873142 -0.509016 0.412515 -0.214938 -0.613824 -0.253869 0.0323378 0.0926785 -0.0116985 0.0734448 -0.148711 0.0119419 0.318484 -0.229157 0.105604 -0.123118 -0.0769731 0.0641178 0.0266239 0.292926 0.06974 0.127095 -0.0435639 0.017161 -0.159887 -0.209483 0.100506 -0.0360292 0.0931678 -0.393694 0.0371096 0.177543 -0.055989 -0.367354 0.177676 0.135915 0.00940567 -0.45512 -0.0561605 -0.243861 0.0303921 0.253676 -0.238019 -0.156438 -0.0296643
10 -0.0937138 0.11872 0.146107 0.073688 -0.00380217 0.10539 0.0696217 0.0342194 -0.169801 0.0690236 0.0558155 0.0276039 0.128977 -0.0109427 -0.110347 -0.00561671 0.0406309 0.0998206 -0.0767881 0.183324 -0.0980787 -0.0813746 0.237352 0.000663787 0.143637 0.080867 0.102755 0.0326936 0.000413989 0.0218527 0.135081 -0.0529449 0.170429 -0.25514 -0.333658 0.0984236 0.42557 -0.0716187 0.0448479 0.170921 0.0237502 -0.16807 0.115498 -0.0329979 -0.199833 0.115046 -0.835702 -0.087563 -0.180993 -0.0599031 0.249962 0.0739546 -0.202093 -0.229274 0.0318991 -0.257194 0.515108 -0.444752 0.0889341 0.119827 -0.198821 -0.0355807 -0.0319388 -0.338027 -0.258239 -0.213783 0.353012 0.306098 0.0155982 -0.00454388 -0.379174 0.301006 -0.222236 -0.517394 -0.136323 -0.22683 -0.387706 0.498239 -0.0501316 -0.102362 0.444082 0.5999 -0.146274 -0.885669 -0.435359 0.374889 -0.210873 -0.648854 -0.285065 0.0533436 0.0242633 -0.0452144 -0.0217097 -0.262013 0.0754471 0.521842 -0.373735 0.226361 -0.282724 -0.020556 0.228582 0.0774522 0.418992 0.150057 0.246591 0.0861025 -0.0239448 -0.191818 -0.344468 0.187997 -0.129554 0.114147 -0.616419 0.040023 0.0945261 0.0212978 -0.189022 0.109645 0.102115 -0.0181319 -0.289692 -0.0619104 -0.168417 0.0645165 0.192571 -0.225611 -0.13467 -0.0835544
70 0.0824335 -0.0607768 0.163244 -0.0232624 0.122186 0.146253 -0.0210546 -0.0664339 0.0305562 -0.0283217 -0.0214613 0.132669 -0.0966702 -0.0273434 0.351437 0.0576145 0.120166 0.00600789 -5.09729e-05 -0.00657896 0.159146 -0.0118586 0.0688388 0.161797 -0.0707143 0.0664573 -0.00949285 -0.0414443 0.0666655 -0.12834 -0.0545857 0.0258303 0.0349612 -0.164692 -0.0508929 0.0900748 0.325637 -0.0551502 -0.127671 0.141148 0.0777093 -0.0633373 -0.00424613 -0.00348173 -0.162566 0.111478 -0.509061 -0.0911372 -0.074936 -0.120252 0.0824395 0.0680452 -0.14252 -0.0883473 0.0793329 -0.169595 0.561423 -0.235449 0.121887 0.310803 -0.300786 -0.0104936 -0.177302 -0.373925 -0.144827 -0.173107 0.238551 0.212047 -0.0309278 0.0205908 -0.286502 0.213297 -0.163313 -0.672976 -0.148419 -0.283253 -0.499073 0.599793 -0.185549 -0.18939 0.484805 0.704621 -0.0914689 -0.764382 -0.319685 0.38682 -0.185385 -0.683204 -0.309492 0.00236925 -0.00645031 0.031306 -0.0821453 -0.23359 0.0847074 0.450662 -0.245743 0.186098 -0.213342 -0.0636879 0.0591652 0.0220734 0.0957017 0.151443 0.242943 0.030633 -0.0362562 -0.157494 -0.407669 0.156231 0.0273081 0.215351 -0.661772 0.127144 0.118597 0.00691455 -0.2128 -0.0226124 0.311026 -0.117175 -0.302944 -0.0763799 -0.0963352 0.106374 0.259405 -0.417165 -0.144186 -0.0842744
49 0.0948352 0.136237 0.10552 0.0878521 -0.0272998 0.0918089 -0.212876 -0.109543 0.0747235 0.0187179 0.0153564 0.0739536 0.017553 0.0760521 0.137088 -0.0917823 -0.108416 -0.239106 0.134624 -0.0699406 -0.0124851 -0.134083 0.00366066 0.049004 0.388337 0.0982283 -0.0846969 0.0136184 -0.128073 -0.293306 -0.0355746 -0.0206984 -0.0108098 -0.200572 -0.164612 0.190455 0.0399912 -0.115121 -0.0555722 0.0230834 0.063856 0.0485974 0.130572 -0.0071488 -0.17815 0.0641666 -0.737779 -0.0511155 -0.23874 -0.259203 0.0617648 0.00294019 -0.114342 -0.066003 0.0110917 -0.210614 0.511018 -0.11931 0.207302 0.162062 -0.310033 0.0085989 -0.100801 -0.250023 -0.259015 -0.15861 0.265178 0.146909 0.0621983 0.0452631 -0.264899 0.139116 -0.32538 -0.896999 0.0154946 -0.108983 -0.379883 0.315611 -0.103221 -0.193923 0.531769 0.694887 -0.10244 -0.842003 -0.292264 0.229008 -0.0668121 -0.725435 -0.316828 0.0911421 0.0672413 0.0241154 0.0243195 -0.150176 0.00597386 0.525436 -0.299654 0.230554 -0.462418 -0.0748812 0.0116377 0.159762 0.389962 0.149028 0.402928 0.0526277 0.106663 -0.246495 -0.61099 0.265269 -0.084274 0.193194 -0.541509 0.089272 0.179313 -0.00587866 -0.214455 -0.0209656 0.139309 -0.100711 -0.26902 0.018226 -0.104845 0.0772069 0.113018 -0.303747 -0.163884 -0.0160931
93 0.210927 -0.0722576 0.221976 0.0850808 0.251439 0.277532 -0.0643118 -0.207401 0.121283 -0.0440027 0.0849231 -0.082591 -0.0219459 0.0402039 0.050915 0.0065612 -0.00141777 -0.0817446 0.115575 -0.010933 -0.0693103 0.145173 -0.00974432 0.297497 0.203502 0.106724 -0.149603 -0.0307141 -0.137316 -0.270319 -0.134348 0.000264441 -0.0603458 -0.34804 -0.0913457 0.072501 0.219067 -0.209269 -0.0562835 0.0846413 0.103662 0.136088 0.0860215 -0.0570188 -0.0801505 0.0805367 -0.522931 -0.0200799 -0.273116 -0.166709 0.131004 0.0482177 -0.157042 -0.0806914 0.0579901 -0.354169 0.535063 -0.0565141 0.227972 0.217157 -0.31976 -0.0444504 -0.138606 -0.367171 -0.264725 -0.196042 0.374976 0.157456 -0.0355404 0.0770372 -0.270986 0.0484314 -0.246611 -0.627045 -0.055089 -0.214445 -0.415665 0.416947 -0.120615 -0.221333 0.596284 1.06977 -0.123916 -0.714145 -0.182171 0.112924 -0.0983795 -0.736626 -0.317953 0.104074 0.0267113 0.0451164 -0.0531742 -0.177693 0.000328909 0.348815 -0.204082 0.100934 -0.323937 -0.0468996 0.00275873 0.0993156 0.171483 0.166135 0.435019 0.125094 0.0846339 -0.188899 -0.549251 0.229805 -0.0310685 0.207423 -0.616844 0.179113 0.0384934 0.00673771 -0.0760459 -0.0980556 0.238388 -0.175191 -0.117894 -0.0153775 -0.00949888 0.15876 0.0858568 -0.297662 -0.164851 -0.0256833
62 0.10281 0.031139 0.260556 0.0892884 0.165184 0.284552 -0.0103 -0.0891268 0.00704936 0.0304914 0.127232 -0.00345545 0.109347 0.0556308 0.181546 -0.0754112 0.0160979 -0.193427 0.216514 0.158065 -0.0844644 -0.0563487 0.16135 0.0702896 0.240841 0.149255 -0.0706777 -0.00473256 -0.109661 -0.216674 -0.0280254 -0.0226853 0.0140607 -0.274053 -0.115896 0.0832876 0.147183 -0.124971 0.055117 0.106248 0.0289702 0.0516619 0.140203 -0.067979 -0.154026 0.103768 -0.614894 0.0128017 -0.237612 -0.0658244 0.175203 0.087071 -0.19809 -0.149657 0.0339084 -0.354799 0.655136 -0.251061 0.237165 0.183018 -0.322003 -0.0347436 -0.0841104 -0.432575 -0.268229 -0.175357 0.298135 0.186931 -0.0234308 0.0650136 -0.231985 0.151265 -0.28545 -0.608241 0.0331694 -0.189309 -0.189505 0.259593 0.0124428 -0.205849 0.453317 0.85678 -0.182845 -0.858389 -0.272418 0.19521 -0.197717 -0.718011 -0.244801 0.0733937 0.0471411 -0.0547568 0.0264767 -0.102962 0.00832137 0.285476 -0.19633 0.12351 -0.453909 0.0308099 0.101759 0.154237 0.278594 0.238487 0.30487 0.158255 -0.0308733 -0.168547 -0.492778 0.196049 -0.172776 0.191969 -0.69741 0.112338 0.0539606 0.0528726 -0.214315 -0.0126971 0.328259 -0.144002 -0.223064 -0.0876725 -0.0820266 0.244484 0.17508 -0.356361 -0.237842 -0.02731
97 0.158725 0.0314229 0.323052 0.0766284 0.302746 0.336633 -0.0794521 -0.088361 -0.0064283 -0.0382007 -0.0163024 -0.0284256 -0.0123461 0.107518 0.100467 -0.0880457 0.0560534 0.0797929 0.0505519 0.125382 -0.124114 0.177263 0.0800308 0.32073 0.117322 0.0106402 -0.192069 -0.0134894 -0.0915029 -0.267791 -0.0819678 -0.000771158 0.00936516 -0.175161 -0.0539101 -0.0639822 0.05788 -0.0978428 0.029728 0.0232698 0.0464917 0.030634 0.113559 -0.0520327 -0.145852 0.0911565 -0.728644 -0.063735 -0.204344 -0.127061 0.105196 0.0483062 -0.0779173 -0.0546157 0.0391542 -0.270595 0.612108 -0.233765 0.233533 0.168662 -0.244187 -0.0353479 -0.0887076 -0.382264 -0.249864 -0.13113 0.346318 0.156399 -0.0425314 0.0864598 -0.333647 0.0602107 -0.218611 -0.755699 0.00392279 -0.174912 -0.341595 0.379412 -0.066015 -0.133199 0.389533 0.827442 -0.0915594 -0.708883 -0.184312 0.118323 -0.0828303 -0.726572 -0.322185 0.1283 0.0625845 0.0221164 -0.0823435 -0.140295 -0.0565709 0.313946 -0.197115 0.0597392 -0.322699 -0.0403226 0.0669376 0.0725755 0.318143 0.151893 0.436442 0.0738979 0.0779265 -0.124714 -0.415103 0.169569 -0.058756 0.196756 -0.744508 0.238158 0.0522012 -0.00176102 -0.104063 -0.0972558 0.363984 -0.208983 -0.32812 -0.0259185 -0.0733318 0.153144 0.15448 -0.513356 -0.208493 -0.0306683
15 0.09357 -0.0870793 0.0860684 -0.119712 0.101982 0.234395 0.0339941 -0.0615164 0.138784 -0.112865 0.0300175 -0.0825667 0.0129546 0.264338 0.193979 -0.236706 -0.0354666 -0.249178 0.254644 -0.0951921 -0.0576858 0.238543 -0.106553 0.197248 -0.0364415 0.0678281 -0.166624 -0.0576127 0.0408577 -0.13254 -0.114159 0.0307907 0.0114028 -0.347838 -0.146813 -0.0382984 0.243269 -0.0517585 0.012706 0.166655 0.0118476 0.043854 0.14531 -0.0845862 -0.311007 0.1673 -1.04054 -0.0857145 -0.357455 -0.261834 0.138995 0.0756851 -0.138363 -0.0867329 -0.00705811 -0.144234 0.463969 -0.201995 0.258062 0.35386 -0.50967 -0.0708687 -0.0990677 -0.422765 -0.247506 -0.118271 0.255738 0.131777 -0.0517309 -0.0267639 -0.0955145 0.102295 -0.208297 -0.591896 -0.19324 -0.246628 -0.425775 0.547437 -0.0548213 -0.106657 0.614053 0.805414 -0.247527 -1.01564 -0.286106 0.357704 -0.195251 -0.654487 -0.301832 0.0674212 -0.0561483 0.047665 -0.165709 -0.256574 0.140262 0.495828 -0.309452 0.269448 -0.378121 -0.0626899 0.0807224 0.136691 0.304127 0.136286 0.342127 0.0666691 -0.0286207 -0.18831 -0.486563 0.272989 -0.011221 0.222957 -0.639269 0.131571 0.0724861 0.058249 -0.129223 -0.0255896 0.244218 -0.0338419 -0.167943 -0.104363 -0.0233229 0.149159 0.0949603 -0.239869 -0.0875298 -0.0527953
58 0.168927 -0.0615063 0.120621 0.104644 0.217199 0.283047 -0.0964277 -0.152735 0.0794338 -0.0286349 0.0035508 -0.0848196 0.0073471 -0.0613647 0.0165687 0.0777484 0.0127308 0.0349677 0.132978 -0.111895 0.0786109 -0.154135 -0.0105597 0.0438362 0.164762 0.100358 -0.185708 -0.058096 -0.102608 -0.364972 -0.166213 -0.00763961 -0.155315 -0.298653 -0.118228 0.122501 0.300271 -0.123955 -0.108594 0.125292 0.0348347 0.162373 0.0976008 -0.0520133 -0.109337 0.140588 -0.699208 -0.0817034 -0.161913 -0.147284 0.0207491 0.0152795 -0.0991537 -0.16809 0.0826691 -0.390041 0.701639 -0.196672 0.161959 0.119276 -0.280436 -0.0112447 -0.117176 -0.443301 -0.28098 -0.16372 0.252216 0.218182 0.0304544 0.0798925 -0.381106 0.19712 -0.321363 -0.820913 0.0493003 -0.132175 -0.292008 0.31683 -0.048056 -0.23153 0.365516 0.723364 -0.0894313 -0.708327 -0.119201 0.21376 -0.0873371 -0.608268 -0.260514 0.11479 0.0375191 0.0319222 -0.0572508 -0.09187 0.110166 0.604555 -0.139986 0.0762198 -0.481994 -0.01166 0.0963793 0.174269 0.170668 0.194966 0.309719 0.160134 -0.0603669 -0.269031 -0.593203 0.267168 -0.144662 0.349078 -0.674815 0.0108334 0.154067 0.0595459 -0.158095 -0.054918 0.230458 -0.189793 -0.0999258 -0.0440817 -0.0484861 0.0838506 0.179355 -0.45096 -0.163537 -0.0350215
64 0.043783 -0.0347795 0.0065129 0.164364 0.141675 0.0883247 -0.179278 -0.261994 -0.262194 -0.0188766 0.0525491 0.02074 0.0156646 0.242296 0.144765 -0.0543943 -0.0636717 -0.071331 0.0773458 -0.061638 -0.0882557 -0.142264 0.133646 0.244963 -0.0773185 0.0312326 0.0360626 -0.0678801 -0.204194 0.043072 -0.0592979 -0.0491412 0.0394004 -0.260631 -0.319463 0.181356 0.631078 -0.273938 -0.0856258 0.337546 0.107261 -0.145985 -0.0776906 0.0601143 -0.0982374 0.17701 -0.701245 -0.108241 -0.00654537 -0.0604887 0.194827 -0.0165794 -0.202602 -0.0608177 0.236451 -0.145137 0.632838 -0.257101 0.117493 0.0583633 0.0499811 0.0209489 -0.0657391 -0.217574 -0.151225 -0.246474 0.287497 0.2335 0.0786678 0.00703867 -0.404273 0.237461 -0.189924 -0.5495 0.191794 -0.0553462 -0.282636 0.339374 -0.0971521 -0.28289 0.565565 0.963334 0.0400336 -0.895182 -0.514006 0.28032 -0.203821 -0.759636 -0.35073 0.0365649 0.19573 -0.066787 0.121587 -0.26491 0.0572568 0.665075 -0.349974 0.184376 -0.436107 -0.187012 0.302223 0.114812 0.562883 0.333284 0.449628 0.0918517 -0.0257238 -0.32057 -0.678753 0.20783 -0.177564 0.186041 -0.5926 0.0742875 0.256926 -0.121061 -0.255138 0.0825281 0.18545 -0.168777 -0.312559 -0.0562416 -0.170236 0.173714 0.229875 -0.39465 -0.119189 0.0690134
31 0.0873486 0.0415549 0.124652 0.0120985 0.094376 0.0250025 0.085401 -0.0992452 0.140989 -0.0112958 0.10747 -0.01197 0.011076 0.0158609 0.229806 -0.0961318 -0.0279157 -0.206255 0.210562 -0.0195185 -0.0562764 -0.023624 0.068138 0.24023 0.0975188 0.0766523 -0.235848 -0.0200983 -0.0750249 -0.390784 -0.206912 0.0845804 0.00350216 -0.246042 -0.157898 0.118667 0.112033 -0.0375836 -0.0379542 -0.0239261 0.100566 0.0347307 0.0905235 -0.0122376 -0.155515 0.0633852 -0.654223 -0.0539111 -0.135384 -0.241764 0.0258846 0.0540813 -0.105498 -0.134971 0.00407972 -0.296721 0.720565 -0.378952 0.170474 0.247734 -0.389208 -0.0651039 -0.177933 -0.360618 -0.322269 -0.207683 0.398085 0.158683 -0.00833192 0.0703685 -0.353349 0.123026 -0.172952 -0.562903 -0.0227281 -0.123165 -0.270407 0.236418 -0.0881025 -0.0956408 0.449007 0.747915 -0.184927 -0.794666 -0.254407 0.241175 -0.0782739 -0.736557 -0.21954 0.079734 0.0123863 -0.0121464 -0.0846871 -0.12149 -0.060494 0.245863 -0.312453 0.206918 -0.416332 -0.0716984 -0.0209419 0.103533 0.340388 0.151522 0.517523 0.108151 0.132101 -0.176155 -0.537537 0.250262 -0.00308586 0.18544 -0.686802 0.207549 0.139608 0.0335138 -0.11578 -0.0970624 0.264726 -0.139967 -0.266303 0.0127243 -0.10076 0.0810356 0.133254 -0.376546 -0.226904 -0.0449822
63 0.0629717 0.0502951 0.0921903 0.0534337 0.219265 0.355639 -0.0725941 -0.196561 0.14817 0.00915134 0.0227704 0.0291625 -0.077244 -0.0319836 0.159275 0.104045 0.0216283 0.0648264 0.112992 -0.0135264 -0.0277631 -0.094077 -0.0778292 0.186909 -0.129206 -0.000681416 -0.249333 -0.0636733 -0.0326455 -0.202048 -0.252624 0.132249 -0.0156061 -0.350341 -0.301825 0.051891 0.144584 -0.0382635 -0.0117736 -0.109027 0.0714099 0.115763 0.0764137 -0.0112124 -0.0268567 0.0895929 -0.495098 -0.0805561 -0.0683561 -0.11126 -0.0363351 0.0606064 -0.0258792 -0.132231 0.0201944 -0.294698 0.664485 -0.399349 0.0663691 0.146353 -0.233977 -0.0261778 -0.0777646 -0.365367 -0.27189 -0.158532 0.320864 0.178102 -0.0232134 0.150294 -0.46415 0.195502 -0.192132 -0.609574 0.0369661 -0.198975 -0.255108 0.301393 -0.0528666 -0.141599 0.400596 0.692095 -0.113524 -0.868139 -0.16695 0.244417 -0.0643635 -1.02094 -0.275586 0.112404 0.0340922 0.0543462 -0.0660305 -0.189763 -0.0106325 0.577036 -0.373818 0.110808 -0.286088 -0.0376943 -0.0564806 0.0525174 0.244224 0.0944206 0.510731 0.098577 0.0441933 -0.172001 -0.474763 0.274778 -0.120574 0.238141 -0.577716 0.125663 0.000768327 -0.0143069 -0.034782 -0.0143436 0.166525 -0.0612623 -0.178177 -0.071116 -0.12481 0.0813761 0.0691724 -0.278492 -0.197134 -0.080339
75 0.0904506 0.0233943 0.290043 0.103743 0.186881 0.387368 0.0142129 0.0358121 -0.0523496 0.0174329 0.113622 0.0363068 0.166958 -0.0187944 -0.030654 -0.0676486 0.0457716 0.0508857 -0.0903102 0.27838 -0.172909 0.146629 0.0370037 -0.142837 0.296064 0.0933778 0.117426 0.0889717 0.0174766 -0.0239718 0.180841 -0.0597407 0.229446 -0.366157 -0.233165 0.0451282 0.434801 -0.115194 0.0799983 0.317894 0.00283061 -0.0756627 0.203921 -0.0936275 -0.20767 0.0722618 -0.71742 0.0129057 -0.290822 -0.0273832 0.298512 -0.0243701 -0.213775 -0.114532 -0.0200711 -0.200836 0.571446 -0.47474 0.240418 0.096105 -0.225308 -0.0375611 -0.0579582 -0.435141 -0.220956 -0.281373 0.258142 0.220739 0.0475632 -0.038485 -0.22547 0.25581 -0.321396 -0.609655 -0.0603603 0.00038113 -0.163689 0.250643 0.0130169 -0.201778 0.436287 0.730795 -0.0551838 -0.701109 -0.380602 0.390489 -0.225645 -0.723487 -0.416466 0.0267365 0.043228 -0.144662 0.0535775 -0.151681 0.074039 0.449398 -0.186619 0.267393 -0.385279 -0.0816172 0.296192 0.213767 0.439864 0.29641 0.422711 0.224067 -0.0593437 -0.132861 -0.408632 0.147424 -0.0924903 0.12922 -0.605325 0.000351328 0.116126 0.0736055 -0.188905 0.0554997 0.0884189 -0.197076 -0.116978 0.0478397 0.0638107 0.0918527 0.255797 -0.111557 -0.110917 -0.072412
89 0.155036 -0.182355 0.0121723 0.12514 0.267149 0.309542 -0.226378 -0.271723 -0.00449344 -0.139204 0.0380743 -0.210367 0.0299539 0.315957 -0.221349 -0.170548 -0.156048 -0.0598173 0.108315 -0.0879342 -0.17646 0.054061 -0.204609 -0.0128259 0.14451 -0.055532 -0.00893709 -0.00815323 -0.102586 0.169186 -0.0118701 -0.0999169 -0.0746936 -0.165598 -0.190348 0.0261591 0.544106 -0.248136 -0.0352895 0.286978 0.0914615 -0.201317 -0.0201837 0.0220264 -0.107353 0.0457066 -0.636557 -0.0974253 -0.318302 -0.225994 0.23303 -0.0784089 -0.200042 -0.0136253 0.165572 -0.0127254 0.831437 -0.313054 0.253177 0.0755228 -0.123992 -0.00735908 0.0703582 -0.443689 -0.206893 -0.217061 0.239879 0.258618 0.135721 -0.165822 -0.243814 0.0358672 -0.330229 -0.6214 -0.062942 0.110961 -0.382209 0.172961 0.00961106 -0.0170787 0.542013 0.874044 -0.134757 -0.620233 -0.224388 0.2555 -0.142936 -0.646654 -0.603103 0.169918 0.173446 0.0095783 -0.105045 -0.131421 0.140231 0.621754 -0.301682 0.240315 -0.353941 -0.0960244 0.263003 0.0972829 0.29381 0.108821 0.301599 0.0528673 -0.0167057 -0.25442 -0.363523 0.0581009 0.0382702 0.301032 -0.533978 0.0667269 0.249915 -0.0342265 -0.108495 0.0776505 -0.0207227 -0.176443 -0.371651 -0.000898571 -0.131215 -0.0610598 0.325925 -0.264423 -0.105254 -0.0652651
33 0.0833453 -0.10723 0.000947889 0.0348779 0.124516 0.1288 -0.0548391 -0.0910328 -0.0168069 -0.0847226 0.0862999 -0.207273 0.0711212 0.32955 -0.107521 -0.246211 -0.118375 -0.154881 0.156723 -0.1277 -0.190843 0.187751 -0.0505919 0.204324 0.0693393 -0.0235043 -0.0334505 0.00753294 -0.086267 0.122635 -0.00878206 -0.083508 0.0248868 -0.134335 -0.160752 0.0282519 0.650037 -0.233594 -0.0224483 0.382706 0.0433873 -0.147455 0.0825918 -0.0436991 -0.200085 0.0807311 -0.79047 -0.0492135 -0.299426 -0.172159 0.313484 -0.106026 -0.267469 -0.0819155 0.0941095 -0.024609 0.488219 -0.314202 0.252509 0.104497 -0.131048 -0.0110286 0.0890982 -0.37306 -0.1689 -0.269576 0.209549 0.359664 0.184252 -0.221676 -0.321179 0.133701 -0.333784 -0.641354 -0.151648 0.0943226 -0.401019 0.383883 -0.0403156 -0.106302 0.554038 0.764466 -0.0545236 -0.864762 -0.464238 0.479496 -0.193024 -0.561717 -0.545272 0.0803695 0.0743524 -0.0221126 -0.0675524 -0.154654 0.133251 0.572014 -0.201143 0.258064 -0.323341 -0.233825 0.30839 0.153262 0.429183 0.152805 0.383787 0.0683946 -0.0456442 -0.219391 -0.408602 0.132046 0.0769728 0.255238 -0.55785 -0.0160797 0.335002 0.0332452 -0.249525 0.136472 -0.055499 -0.223066 -0.231666 0.0838778 0.00690959 -0.080343 0.274117 -0.0800149 0.0178463 -0.00207027
87 0.0480347 0.092723 0.00522799 0.224878 0.0121671 -0.0775852 -0.265314 -0.179417 -0.274633 0.0165603 -0.0452677 0.0305949 -0.00333242 0.267352 -0.0561082 -0.165154 -0.182051 -0.165065 -0.0231651 -0.108701 -0.0556214 -0.0673578 0.250016 0.265149 0.212262 0.02041 0.190822 -0.00793439 -0.225313 0.0895039 0.149077 -0.155896 0.061819 -0.0550299 -0.211083 0.180719 0.347753 -0.239595 -0.0864708 0.230962 0.123834 -0.26034 -0.0267832 0.0515028 -0.131989 0.120672 -0.849249 -0.108524 -0.0344801 -0.0895213 0.281673 -0.0924637 -0.159288 -0.0055508 0.178843 -0.0856664 0.595404 -0.292338 0.141804 0.0543508 0.0368607 0.0775716 -0.0521753 -0.114334 -0.200918 -0.301401 0.312282 0.2401 0.157728 -0.0155216 -0.346602 0.212234 -0.253192 -0.840896 0.157372 -0.00945059 -0.393374 0.372679 -0.215128 -0.271047 0.694813 0.90862 0.187345 -0.899073 -0.641289 0.260335 -0.117881 -0.637677 -0.452625 0.065078 0.217387 -0.0235289 0.127945 -0.165798 0.0285083 0.661976 -0.348062 0.20328 -0.424159 -0.240368 0.253323 0.104497 0.519934 0.208483 0.389421 0.00624226 0.0261583 -0.227648 -0.494394 0.102197 -0.101953 0.135991 -0.562652 0.0431649 0.404079 -0.179121 -0.25155 0.0931077 -0.00037566 -0.24399 -0.318565 0.0889895 -0.0700255 0.0504441 0.161414 -0.199447 -0.0365288 0.12922
41 0.0688652 -0.0373671 -0.00831744 0.111616 0.104804 0.0165204 -0.165451 -0.205566 -0.155156 -0.0643363 0.0168401 -0.100833 0.0327235 0.288243 -0.056854 -0.14761 -0.145891 -0.160017 0.114435 -0.126262 -0.129503 -0.0863476 0.135355 0.211038 0.0714686 0.0130785 0.0760088 -0.0372607 -0.173369 0.168724 0.0372509 -0.116699 0.0347414 -0.18535 -0.329185 0.153232 0.649749 -0.312887 -0.0838143 0.364123 0.128282 -0.286914 -0.0635257 0.0490195 -0.167033 0.14426 -0.796595 -0.124876 -0.12963 -0.127495 0.335019 -0.0841163 -0.243286 -0.0761263 0.239948 -0.0902491 0.732619 -0.363231 0.140136 0.0441846 0.0519661 0.0389056 0.0417304 -0.254878 -0.187466 -0.273208 0.251269 0.250498 0.145182 -0.0684118 -0.308711 0.175998 -0.222753 -0.630319 0.139002 0.0136178 -0.318432 0.311516 -0.0628036 -0.161684 0.59394 0.950634 0.0522682 -0.89512 -0.530835 0.299966 -0.187489 -0.700331 -0.485206 0.0926551 0.203897 -0.0212529 0.0521229 -0.152315 0.0832385 0.604487 -0.349307 0.218874 -0.422809 -0.216311 0.290105 0.107263 0.526102 0.205152 0.384154 0.0064039 -0.0169686 -0.34452 -0.608091 0.172421 -0.0842914 0.246336 -0.729105 0.0664708 0.410197 -0.146123 -0.319455 0.154672 0.0539755 -0.181659 -0.438522 0.00247103 -0.194999 0.0552589 0.294889 -0.318063 -0.0776387 0.0770389
77 0.063664 -0.0765639 -0.0612254 0.203076 0.20918 0.0975175 -0.253732 -0.325074 -0.286303 -0.110497 -0.000251275 -0.171059 0.00757078 0.232394 -0.163588 -0.0774719 -0.105946 -0.0526751 0.0475831 -0.0167785 -0.181265 0.0692081 0.128237 0.283715 0.0115272 -0.026498 0.091299 -0.0569345 -0.261523 0.152571 0.0185746 -0.143166 0.00291157 -0.0875857 -0.228136 0.128427 0.590737 -0.315185 -0.0724802 0.412515 0.110029 -0.26608 -0.0851779 0.0559399 -0.130609 0.128104 -0.74899 -0.113283 -0.0230729 -0.0455394 0.317767 -0.0199269 -0.20441 -0.041106 0.262754 -0.0953474 0.889323 -0.325371 0.189284 0.0881841 0.013485 0.047893 -0.0396263 -0.321826 -0.166314 -0.231685 0.216058 0.2354 0.105374 -0.0567321 -0.346855 0.208457 -0.204492 -0.600503 0.156927 -0.0503215 -0.367308 0.351622 -0.124281 -0.152886 0.587217 0.981109 0.0748701 -0.912158 -0.588029 0.250353 -0.18771 -0.806987 -0.413387 0.109937 0.211275 -0.0173695 0.038591 -0.163211 0.0581541 0.563185 -0.327741 0.143163 -0.396971 -0.194734 0.294101 0.0637016 0.527356 0.228652 0.342303 0.00491867 0.0182521 -0.32877 -0.647756 0.116563 -0.0773447 0.238381 -0.701487 0.124725 0.39278 -0.200997 -0.216797 0.108381 0.102261 -0.210717 -0.402353 -0.0143684 -0.177274 0.0813539 0.229135 -0.317735 -0.0787228 0.137987
37 -0.11022 0.158714 0.0738946 0.0620754 0.0302316 0.301391 -0.0300647 -0.0460075 -0.148167 0.0747686 0.0465443 0.0370505 0.0675421 -0.0205572 -0.146037 0.08205 -0.029137 0.143237 -0.0800589 0.203263 -0.134062 -0.0611317 0.0722584 -0.0353258 0.191351 0.0458492 0.0226511 0.00576025 -0.0386975 0.0906297 0.114735 -0.0140381 0.186295 -0.341826 -0.453856 0.0333743 0.354146 -0.0602427 0.156432 0.0463241 0.0525296 -0.0829694 0.105287 -0.0253729 -0.122587 0.150216 -0.650744 -0.0523041 -0.0917616 0.0712399 0.184083 0.00439051 -0.118784 -0.166045 0.0940042 -0.193924 0.625015 -0.674597 0.0555051 0.0729396 -0.0766899 -0.0160851 0.0596306 -0.235314 -0.259449 -0.204382 0.339429 0.362702 0.0381548 0.104596 -0.372642 0.320306 -0.290566 -0.455084 0.0717868 -0.238631 -0.182446 0.322394 0.086365 -0.170862 0.447888 0.605965 -0.123341 -0.965177 -0.384179 0.206235 -0.232111 -0.584368 -0.216215 0.0438622 0.0640057 -0.0376708 0.126593 -0.205052 0.0292489 0.611913 -0.392207 0.132737 -0.261941 0.00182505 0.148056 0.128599 0.342903 0.116896 0.231862 0.0974732 -0.0762761 -0.13944 -0.315941 0.1965 -0.281367 0.0702886 -0.385899 -0.0158218 -0.0653581 -0.0286459 -0.23254 0.190673 0.120998 0.0145698 -0.319395 -0.159095 -0.24965 0.148887 0.183796 -0.23433 -0.210343 -0.082427
78 0.127606 -0.0670589 0.347755 0.0298416 0.160527 0.401973 -0.0802586 0.0043645 -0.0516694 -0.0850251 0.104329 -0.0988049 0.0649095 0.178446 0.0126574 -0.200712 -0.0526856 -0.0602937 0.0870954 -0.121895 -0.0166388 0.0669333 -0.00790501 0.0863714 -0.149354 0.012163 0.0621977 0.00120647 0.127862 0.24837 0.02559 -0.0345616 0.0561814 -0.108563 0.17639 -0.104533 0.146932 0.0621296 0.00877656 0.115783 0.021967 -0.0146007 0.105393 -0.0878537 -0.238864 0.157866 -0.894317 -0.102847 -0.48462 -0.406545 0.141275 -0.0792204 -0.219373 -0.124491 0.0220972 -0.1964 0.57352 -0.430983 0.147228 0.237304 -0.227089 -0.0668983 0.00250459 -0.407116 -0.260042 -0.293605 0.330259 0.321557 0.0939006 -0.167976 -0.179372 0.09334 -0.322138 -0.780584 -0.165331 0.156713 -0.220216 0.252026 0.0212964 -0.175733 0.591711 0.686715 -0.182916 -0.663708 -0.216838 0.452089 -0.242359 -0.551551 -0.608045 0.00613151 -0.0149876 -0.0342545 -0.18671 -0.121187 0.1654 0.680831 -0.116026 0.294399 -0.361731 -0.206701 0.249816 0.263677 0.255554 0.198525 0.500608 0.129766 -0.0672929 -0.0509621 -0.175351 0.110472 0.0851578 0.23667 -0.366356 -0.000833188 0.0706956 0.164905 -0.129471 -0.0619963 0.151621 -0.273922 -0.0511908 0.0171708 0.136574 0.0810199 0.352837 -0.323961 -0.0853133 -0.199542
11 0.0361675 0.00590993 0.00143528 0.222758 0.140036 0.169445 -0.202733 -0.287306 -0.287669 -0.023775 0.0740597 -0.0337066 0.0746501 0.295371 0.0191979 -0.110398 -0.110941 -0.131746 0.0896152 -0.0734164 -0.119017 -0.196495 0.225143 0.216768 0.0507513 0.0608723 0.093142 -0.0537501 -0.231186 0.0826988 0.00337385 -0.106504 0.0317908 -0.222983 -0.344602 0.199894 0.651864 -0.307309 -0.0761563 0.367913 0.106111 -0.209993 -0.0715821 0.056739 -0.111659 0.157752 -0.725619 -0.102056 -0.0342686 -0.037966 0.297145 -0.0393943 -0.251437 -0.095637 0.257291 -0.150149 0.747134 -0.352705 0.152632 0.0601802 -0.00127547 0.0278721 -0.0363926 -0.272329 -0.22007 -0.299646 0.325311 0.294489 0.118457 -0.0240993 -0.421216 0.278622 -0.251482 -0.621687 0.125119 -0.0903569 -0.393583 0.440548 -0.112377 -0.261869 0.647753 1.02167 0.0252934 -1.01404 -0.590278 0.309743 -0.209898 -0.740141 -0.396287 0.0669754 0.185436 -0.0440919 0.0834215 -0.253042 0.0819481 0.697199 -0.397632 0.226038 -0.490878 -0.171053 0.334479 0.128456 0.588429 0.303015 0.401497 0.0948696 -0.044867 -0.375797 -0.755216 0.250221 -0.186867 0.243979 -0.790849 0.0413264 0.34744 -0.106483 -0.28176 0.129428 0.102541 -0.174592 -0.337128 -0.0315857 -0.167271 0.106728 0.240978 -0.308856 -0.0947235 0.0852328
4 0.136584 -0.218836 0.0460154 -0.0469547 0.231161 0.350318 -0.0810416 -0.00268842 0.0864102 -0.149079 -0.0144942 -0.208811 0.00318746 0.187319 -0.0692862 -0.178168 -0.03169 -0.150412 0.0768448 -0.128323 -0.10976 0.306333 -0.219179 0.130605 0.175479 -0.034494 -0.135864 0.0428227 -0.0255851 -0.0373287 0.000813102 -0.0777902 0.0608407 -0.206329 -0.00127701 -0.0868537 0.357322 -0.103568 -0.00186736 0.336778 0.0131308 -0.0627467 0.114543 -0.0540165 -0.296156 0.104494 -0.79209 -0.0739022 -0.401947 -0.285805 0.191378 -0.122802 -0.112038 -0.0456795 0.00725034 -0.0897805 0.826275 -0.498985 0.305819 0.336501 -0.401779 -0.0684158 -0.0539335 -0.553127 -0.326828 -0.331567 0.358237 0.293884 0.111339 -0.165858 -0.251893 0.0990865 -0.226444 -0.723907 -0.149884 0.132612 -0.19269 0.217474 -0.00896936 -0.0315892 0.555569 0.73871 -0.111381 -0.782648 -0.3512 0.525638 -0.202922 -0.682473 -0.590366 0.0608175 -0.0474549 -0.00436586 -0.126561 -0.118775 0.111562 0.504101 -0.253631 0.38623 -0.353955 -0.227641 0.175694 0.126855 0.27532 0.101262 0.595369 0.0883745 0.00981416 -0.0806758 -0.267653 0.0635911 0.188927 0.192221 -0.512544 0.0426487 0.224258 0.121477 -0.116629 0.0168131 -0.040918 -0.270428 -0.206297 0.109822 0.0665614 -0.097032 0.352831 -0.18899 -0.00172038 -0.122584
76 0.111404 -0.0435 0.170017 0.132603 0.2205 0.173933 0.0457296 -0.129945 0.035777 0.0310946 0.228925 -0.176244 0.105955 -0.0516636 0.0547664 -0.0396618 -0.0374754 -0.152397 0.270929 0.0911015 -0.194254 -0.0981719 0.0978419 0.196666 0.241089 0.087123 -0.192702 0.0140339 -0.161123 -0.334136 -0.151188 0.0229005 -0.0135444 -0.224053 -0.050131 0.0290453 0.15417 -0.134194 0.0517293 0.0368325 0.0821188 0.0617551 0.176936 -0.057897 -0.138777 0.0885989 -0.791704 0.00908825 -0.201225 -0.072887 0.102958 -0.0119986 -0.162067 -0.0868854 0.0239817 -0.297516 0.538122 -0.238193 0.224746 0.0947603 -0.17788 -0.0438198 -0.0268227 -0.31857 -0.243542 -0.1891 0.316943 0.302007 0.0277683 0.0491383 -0.411142 0.0951411 -0.384649 -0.725107 0.0346135 -0.100654 -0.340723 0.289486 -0.0304463 -0.257109 0.415586 0.853264 -0.16843 -0.854105 -0.22916 0.182609 -0.167796 -0.759422 -0.331333 0.0832494 0.102312 -0.0577 -0.0163876 -0.115644 -0.0430523 0.371475 -0.115625 0.0494833 -0.445545 0.00406895 0.0841363 0.192754 0.182598 0.203706 0.32369 0.180312 0.0528528 -0.163437 -0.537716 0.181012 -0.105013 0.196774 -0.471128 0.107124 0.0264587 0.0443962 -0.160821 -0.0630881 0.325457 -0.271659 -0.205229 -0.0156471 -0.0588014 0.185434 0.213896 -0.389034 -0.283887 -0.0659192
72 0.213799 -0.105453 0.219473 -0.00131253 0.223161 0.299942 -0.0155716 -0.121762 0.174589 -0.056523 0.0134218 0.0286201 -0.00182306 0.152004 0.363842 -0.0986576 0.0135035 -0.173345 0.208103 0.0338617 0.00540329 0.150799 -0.15326 -0.0176283 0.106561 0.0954778 -0.143032 -0.0490634 -0.0721689 -0.334281 -0.114134 0.0294862 0.00186367 -0.4434 -0.138273 0.0776214 0.245524 -0.135255 -0.0571454 0.1956 0.0330462 0.0748768 0.0853974 -0.0387112 -0.198485 0.112227 -0.657782 -0.063224 -0.193289 -0.150689 0.0700102 0.0278201 -0.0337395 0.0223346 0.0395243 -0.135849 0.584358 -0.097539 0.255333 0.24057 -0.379778 -0.0134524 -0.212961 -0.312854 -0.241966 -0.185232 0.2583 0.113151 -0.0488958 0.0652459 -0.135637 0.124733 -0.169335 -0.598405 0.00975482 -0.13372 -0.183097 0.257697 -0.119368 -0.18154 0.550446 0.808683 -0.114522 -0.912096 -0.284042 0.302169 -0.145629 -0.745726 -0.341516 0.0472066 0.00755075 -0.00123608 -0.0276187 -0.12167 0.076792 0.430487 -0.276718 0.281779 -0.496222 -0.0343146 0.0965682 0.143258 0.252801 0.244098 0.383281 0.143215 -0.0592418 -0.107736 -0.43331 0.118522 -0.0237858 0.180095 -0.727799 0.107202 0.15441 0.0362373 -0.098753 -0.0676751 0.183522 -0.199754 -0.133473 -0.0150993 0.0609617 0.134615 0.174074 -0.295377 -0.0884825 -0.013708
22 0.199308 -0.0345464 0.113905 0.127837 0.229648 -0.107405 0.0055523 -0.229491 0.149754 0.00262691 0.143697 -0.169623 0.0233397 0.254815 0.0615397 -0.269485 -0.214109 -0.087945 0.318212 0.113884 -0.293013 0.134242 -0.0787252 0.170132 0.137531 -0.0275444 -0.265154 -0.0260872 -0.175043 -0.310784 -0.209555 0.102159 -0.0795166 -0.349611 -0.283534 0.030857 0.307245 -0.265674 -0.000320988 -0.0587367 0.142498 0.0407909 0.192615 -0.0811875 -0.0900329 0.0275031 -1.09806 -0.0664751 -0.346069 -0.200425 0.159309 0.0154886 -0.240787 -0.0600334 0.0742705 -0.213189 0.709611 -0.263263 0.428104 0.213572 -0.470484 -0.0163521 -0.0386311 -0.563259 -0.320691 -0.242713 0.483354 0.41437 0.0525643 0.0249781 -0.563958 -0.00385302 -0.542784 -0.923852 -0.0514073 -0.0961948 -0.733895 0.439427 -0.113903 -0.202928 0.611879 1.14486 -0.223908 -0.978985 -0.130724 -0.0171373 -0.0313846 -0.59522 -0.473286 0.215434 0.27959 -0.0043922 -0.0767977 -0.0668532 -0.0528791 0.304424 -0.193693 -0.0158518 -0.530416 0.0179596 0.154523 0.174885 0.353179 0.139279 0.210044 0.104383 0.115931 -0.244469 -0.526845 0.175031 -0.105906 0.269577 -0.802769 0.209892 0.177288 -0.0525927 -0.15517 -0.0365155 0.307214 -0.245938 -0.42073 -0.0259833 -0.127232 0.14134 0.205504 -0.48039 -0.343565 -0.058804
80 0.231631 -0.0457164 0.139519 0.166611 0.344792 0.192873 -0.0722393 -0.334508 0.104153 -0.03049 0.140556 -0.127372 0.060186 0.356567 0.0848905 -0.297475 -0.179138 -0.0763619 0.294333 0.112109 -0.218937 0.169678 -0.115384 0.0900686 0.0759379 -0.00302424 -0.186401 -0.0551529 -0.13914 -0.161904 -0.180407 0.0729431 -0.105751 -0.347154 -0.284875 -0.00488967 0.392554 -0.263371 0.00753266 0.0775248 0.122048 -0.0245061 0.145961 -0.0954583 -0.0896919 0.0325652 -1.06814 -0.070419 -0.449157 -0.255665 0.284554 -0.0139414 -0.325941 -0.101667 0.121988 -0.218438 0.948831 -0.390345 0.459144 0.210245 -0.453865 0.0086457 0.0211482 -0.715326 -0.342644 -0.301719 0.471588 0.428888 0.0955371 -0.0625445 -0.495759 -0.0034103 -0.595779 -0.984609 -0.06607 -0.0240122 -0.686246 0.405237 -0.0499386 -0.174432 0.691548 1.29053 -0.173997 -0.955734 -0.173172 0.0334577 -0.0735291 -0.635916 -0.599618 0.253655 0.285149 -0.0213233 -0.127117 -0.0657122 0.0605095 0.469546 -0.221144 0.0581941 -0.593474 -0.0548654 0.283807 0.223629 0.455982 0.185845 0.29728 0.115026 0.0160981 -0.258049 -0.434263 0.152574 -0.100436 0.382521 -0.831215 0.164089 0.275724 -0.0729051 -0.129699 0.00679124 0.185091 -0.249307 -0.392144 -0.02389 -0.0861452 0.132505 0.240948 -0.372623 -0.262021 -0.0426737
7 0.202417 -0.0558441 0.114861 0.146075 0.279277 -0.00288277 0.0371271 -0.277253 0.153174 0.0272889 0.174654 -0.153446 0.073186 0.324456 0.0894269 -0.322528 -0.201773 -0.0899508 0.383747 0.158864 -0.279775 0.0864227 -0.0902257 0.0783865 0.153091 0.00712289 -0.248911 -0.0385622 -0.144028 -0.2971 -0.200396 0.0889536 -0.112194 -0.360928 -0.329441 0.00260662 0.351128 -0.255532 0.0280924 -0.0323974 0.125421 -0.00910651 0.199608 -0.109593 -0.0653001 0.00469908 -1.11775 -0.0670591 -0.415507 -0.213953 0.246942 0.0187339 -0.317336 -0.105075 0.0877342 -0.229055 0.87771 -0.368807 0.466538 0.19352 -0.487677 -0.002386 0.0210395 -0.705574 -0.347102 -0.282896 0.488912 0.478752 0.090461 -0.0447476 -0.599946 0.0104681 -0.63545 -1.00438 -0.104283 -0.0750405 -0.804171 0.473586 -0.0818887 -0.166149 0.633989 1.21018 -0.22258 -0.997239 -0.14484 0.0189452 -0.0610225 -0.645767 -0.594167 0.27299 0.311059 -0.016944 -0.133694 -0.0656875 0.0463694 0.422906 -0.22726 0.0219971 -0.56089 0.00665958 0.269696 0.203463 0.433579 0.153196 0.22926 0.122127 0.0415288 -0.279864 -0.458586 0.156396 -0.119743 0.385085 -0.823935 0.16632 0.238305 -0.0699688 -0.133936 0.0192326 0.201733 -0.238596 -0.460864 -0.0397543 -0.141787 0.107695 0.261572 -0.411179 -0.322953 -0.0854731
39 0.242475 -0.0678813 0.19295 0.152843 0.313957 0.159241 -0.0359144 -0.271892 0.143215 -0.00824109 0.137972 -0.14536 0.0670406 0.323395 0.0499419 -0.280332 -0.169453 -0.0520349 0.302398 0.152245 -0.252483 0.17474 -0.105274 0.0880144 0.154905 0.010607 -0.198704 -0.0337883 -0.134975 -0.223298 -0.142006 0.0468217 -0.0951749 -0.380092 -0.286283 0.00869136 0.426947 -0.281059 0.0069771 0.0753894 0.107459 -0.000725838 0.18124 -0.110573 -0.0906455 0.0267807 -1.03121 -0.0654669 -0.437215 -0.222283 0.267853 -0.00824064 -0.316545 -0.104714 0.100778 -0.249678 0.948627 -0.372672 0.457301 0.177575 -0.425357 0.000914005 0.0241549 -0.705351 -0.356263 -0.329292 0.480166 0.472476 0.11756 -0.0850609 -0.531675 0.02192 -0.596637 -1.02388 -0.0639971 0.0135102 -0.618343 0.36196 -0.0358475 -0.165708 0.667791 1.21635 -0.165506 -0.874322 -0.169343 0.0605613 -0.0937882 -0.596711 -0.610517 0.236574 0.27256 -0.0319048 -0.0904056 -0.0092418 0.0602192 0.396265 -0.200211 0.0794008 -0.541445 -0.0551908 0.274015 0.208537 0.412639 0.162542 0.304063 0.12301 -0.00141423 -0.210689 -0.341048 0.0840375 -0.0777461 0.350645 -0.764194 0.126952 0.257941 -0.0512197 -0.140691 0.0318859 0.131015 -0.272212 -0.380343 -0.00380734 -0.0612018 0.0846801 0.26641 -0.346866 -0.240958 -0.0594612
36 0.130666 -0.211438 0.0490081 0.00216936 0.249823 0.199469 -0.0194244 -0.0894174 0.00416688 -0.0834394 0.0246523 -0.19721 0.0427516 0.248081 -0.102418 -0.191066 -0.0366031 -0.0481345 0.118789 0.0194541 -0.180035 0.240003 -0.0339789 0.265012 0.119765 -0.0115555 -0.122487 0.00434712 -0.0976853 -0.0606955 0.00431374 -0.084315 -0.0448497 -0.115901 -0.0223087 -0.137022 0.31433 -0.19881 0.0423354 0.271995 0.00775926 -0.112545 0.0770005 -0.0823147 -0.178513 0.0609351 -0.670232 -0.0453631 -0.360771 -0.177724 0.264358 -0.0768623 -0.216952 -0.0623183 0.0775527 -0.104789 0.830639 -0.377401 0.373003 0.271587 -0.330958 -0.0284872 0.0635588 -0.654551 -0.293453 -0.3175 0.336122 0.378369 0.142322 -0.242056 -0.388868 0.0142308 -0.290648 -0.721489 -0.124423 0.106181 -0.432254 0.355845 -0.00425911 0.00831042 0.474498 0.890161 -0.0377086 -0.533474 -0.229561 0.245987 -0.177736 -0.594297 -0.626599 0.167033 0.0992523 0.0078748 -0.155934 -0.0893228 0.142282 0.363666 -0.159154 0.22213 -0.305174 -0.237502 0.248492 0.113004 0.406623 0.0913999 0.546835 0.0343366 0.00288167 -0.195346 -0.317721 0.0681265 0.146069 0.331139 -0.480942 0.108848 0.295623 -0.00574699 -0.0814921 0.0577713 -0.0450694 -0.289124 -0.307187 0.0648843 0.000631533 -0.0400001 0.324024 -0.211065 -0.0112429 -0.0527646
21 0.202266 -0.110147 0.219053 0.00612298 0.164288 0.247474 -0.0624573 -0.0629647 0.0858039 -0.0830718 0.026128 -0.0947806 0.0319262 0.305823 0.0159887 -0.253433 -0.0993597 -0.0648142 0.109474 -0.0881246 -0.0715648 0.193302 -0.183124 0.0440797 0.0342861 0.000908501 -0.0205078 -0.00662787 0.0298882 0.066977 0.0096777 -0.0515333 0.00299603 -0.299198 -0.126941 -0.0229281 0.463244 -0.127768 -0.0118825 0.279133 0.0298532 -0.0550409 0.106119 -0.0752648 -0.199403 0.0876446 -0.812944 -0.0842791 -0.459735 -0.302245 0.251467 -0.0962383 -0.207659 -0.0338113 0.0425952 -0.0582345 0.554444 -0.334588 0.277753 0.154018 -0.254915 -0.0229925 0.0239925 -0.411539 -0.232445 -0.300222 0.266328 0.307916 0.145668 -0.207813 -0.16281 0.0499905 -0.353405 -0.705389 -0.1604 0.168031 -0.290277 0.224103 -0.00995557 -0.120537 0.606795 0.795649 -0.096778 -0.686532 -0.259741 0.393273 -0.170236 -0.520348 -0.658397 0.0975218 0.0568181 -0.00845092 -0.142124 -0.0955759 0.195917 0.663388 -0.201641 0.346429 -0.407303 -0.180577 0.290967 0.223955 0.388624 0.18001 0.47133 0.121267 -0.0854814 -0.115223 -0.21048 0.0722652 0.105656 0.303602 -0.520258 -0.0253734 0.24842 0.0850225 -0.152145 0.0350472 -0.0385731 -0.272358 -0.171545 0.0687949 0.118438 -0.0351393 0.337967 -0.167953 -0.0169865 -0.117185
30 0.176319 -0.0599254 0.25228 0.0944584 0.149486 0.244802 -0.0465953 -0.0861258 0.0464945 -0.00772788 0.123197 -0.0802927 0.0644595 0.241312 0.00480492 -0.163294 -0.0514623 -0.0347266 0.0796375 0.0776306 -0.121172 0.250825 -0.176391 0.0163206 0.176359 0.00644373 0.0167575 0.0304693 -0.057854 0.0135952 0.027569 -0.0960042 0.0297646 -0.0623257 0.0502471 0.0576408 0.458939 -0.168264 0.0104229 0.357435 0.0528114 -0.128577 0.138632 -0.038535 -0.172146 0.0615539 -0.799921 -0.0411875 -0.342776 -0.167753 0.303745 -0.118256 -0.27394 -0.0135819 0.0607325 -0.102518 0.45115 -0.30626 0.244067 -0.0280162 -0.0125528 0.0071869 0.0666075 -0.277589 -0.133795 -0.29306 0.178359 0.335444 0.181769 -0.215048 -0.25056 0.171355 -0.450264 -0.733264 -0.130511 0.21422 -0.196285 0.123174 -0.0338636 -0.212112 0.58124 0.755774 -0.0174021 -0.5536 -0.345759 0.419841 -0.173881 -0.642883 -0.632301 0.0506019 0.0892965 -0.0944466 0.00563193 -0.149002 0.110727 0.757654 -0.142289 0.295212 -0.364503 -0.163667 0.344563 0.231471 0.361658 0.286373 0.436942 0.201477 -0.121405 -0.0536797 -0.221026 0.0164318 0.0697552 0.253187 -0.50211 -0.0552786 0.226415 0.101139 -0.186149 0.0652283 -0.0477789 -0.352506 -0.0880638 0.130897 0.189469 7.12846e-05 0.314586 -0.0520195 -0.0372783 -0.0465608
61 0.122605 0.0698658 0.408836 0.0548592 0.0665596 0.148697 0.0512091 -0.0846262 0.00166301 0.0524531 0.0178573 0.0228843 0.0856157 0.225921 -0.0440444 -0.167062 -0.01947 0.156469 0.118977 0.227165 -0.0667191 0.0481316 0.0951276 0.00985445 0.0684637 0.105968 0.00822013 -0.0720916 0.0635563 -0.0708603 0.0486954 -0.0547648 -0.0436791 -0.370668 -0.486946 0.0788629 0.499772 -0.113568 0.0509916 0.0696139 -0.00477126 -0.154999 0.127053 -0.0873727 -0.0654105 0.0276841 -0.674138 -0.101828 -0.414026 -0.165998 0.37105 0.172121 -0.314279 -0.204015 0.0422306 -0.164988 0.312382 -0.13842 0.112442 -0.0595227 -0.0937217 0.0174352 0.152703 -0.324845 -0.22037 -0.160376 0.267731 0.334332 0.0605013 -0.15691 -0.252054 0.145826 -0.366348 -0.571741 -0.259918 -0.216268 -0.56721 0.498162 0.0204215 0.00839246 0.599701 0.869812 -0.21781 -0.792826 -0.288613 0.276254 -0.222163 -0.631608 -0.518017 0.220567 0.117338 0.0306284 -0.180262 -0.202658 0.262443 0.684824 -0.438323 0.274956 -0.334491 0.0154582 0.336179 0.0951258 0.536431 0.141022 0.221144 0.0481039 -0.146759 -0.266278 -0.156533 0.136913 -0.0858934 0.421568 -0.840331 0.0594256 0.217724 -0.0248839 -0.222793 0.171132 0.093718 -0.0172904 -0.51433 -0.161343 -0.219122 0.0537702 0.293982 -0.324699 -0.156751 -0.128196
68 0.122673 0.0353824 0.396905 0.0130257 0.0439473 0.0599428 0.159184 -0.0660856 0.0298339 0.076618 0.0338332 0.0521545 0.100231 0.347091 0.129593 -0.283613 -0.044142 0.0728099 0.242691 0.230619 -0.0335579 -0.0260243 0.141017 0.0670344 0.0269564 0.165856 -0.00930347 -0.113887 0.101763 -0.190383 0.0406403 -0.0429144 -0.0643441 -0.495502 -0.510829 0.0472311 0.344502 -0.0436827 0.0598076 -0.0194382 -0.0152969 -0.116047 0.08544 -0.0955771 -0.0384106 0.0483363 -0.584621 -0.120312 -0.372104 -0.197783 0.276714 0.166147 -0.225362 -0.13383 0.0331025 -0.173261 0.352155 -0.159388 0.106246 9.13509e-05 -0.157407 0.00982624 0.10036 -0.346264 -0.266036 -0.196241 0.294947 0.314173 0.031539 -0.129316 -0.255535 0.166277 -0.377976 -0.715913 -0.172294 -0.204023 -0.475497 0.438051 0.0125447 -0.0141414 0.617481 0.831592 -0.21408 -0.820875 -0.247978 0.271768 -0.207905 -0.675436 -0.565328 0.222311 0.114204 0.0246857 -0.183869 -0.17948 0.256868 0.802503 -0.503484 0.318665 -0.374436 0.000704148 0.309327 0.107029 0.586984 0.182955 0.357989 0.0643314 -0.148037 -0.332256 -0.300595 0.220531 -0.106142 0.519661 -1.02883 0.0953174 0.224952 -0.0423071 -0.194155 0.126686 0.129232 -0.046416 -0.564252 -0.18426 -0.230414 0.0789842 0.349545 -0.445904 -0.190269 -0.165991
