100 16
1 0.24805859 0.39466524 0.1817184 1.5553313 0.29747126 -0.591661 0.014146608 1.1807288 0.19867292 -0.74694777 -0.5290214 -0.17253654 -0.22660269 -0.076717146 -0.31835917 0.09389071
2 0.2270397 0.93430203 0.89248985 0.8001275 -0.2868384 -0.63260376 -0.033152595 0.5226946 0.17049377 -0.26290292 1.0309693 0.70549154 0.35681602 0.07281201 -0.41157782 -0.07423606
3 -0.7058279 0.94468504 -0.057243273 0.34642226 0.5997272 -0.40959978 0.0063151787 0.28567335 0.39016512 -0.59780204 9.270258e-05 0.5479806 0.3730368 -0.48608565 0.405185 -1.3244491
4 -1.0986706 1.2538188 -0.7459043 0.36095002 0.54169154 -0.104872294 0.06242982 -0.14217316 0.04786358 0.15378936 -0.20429757 0.30530187 -0.21814881 0.7843314 0.74180555 -0.17366502
5 0.85495293 -0.22709294 -0.43563345 0.1412535 -0.9939207 0.36840263 0.29944006 0.5714945 -0.25916559 -0.5064103 0.14582433 0.75453955 -0.19674307 1.2775242 0.8862541 -0.5022474
6 -0.9476503 0.34296137 -0.3425811 0.3780807 0.704268 0.1433356 0.002116454 0.8988076 1.1588837 -0.04089063 0.7679092 0.38241854 0.08280072 0.85474676 0.019583656 -0.24336912
7 0.01634131 -0.56989366 -0.614283 0.3170138 -0.700083 -0.07569274 0.35633636 0.60529524 -0.036377463 -0.9387683 0.1091348 -0.22833394 -0.08955139 1.1505457 0.59029776 -1.2707437
8 0.98032665 1.2990974 -0.078204274 0.9091711 -0.7851626 0.07537964 -0.96362084 -0.26244026 0.1192528 0.14290091 -0.46209916 -0.031538185 -0.41161215 -0.35444456 0.0033284735 0.010694776
9 0.8632803 0.91602325 0.52482754 0.49821985 0.28084952 0.63235986 0.24664932 -0.012641341 0.6820829 0.8226016 -0.8448391 0.14117393 -0.6172997 -0.5231473 -0.5285497 -0.71409106
10 0.35227895 0.7045109 -1.0057122 0.86233824 -0.5066388 0.19554108 -0.5762352 0.68586963 0.096468076 0.0068146256 0.72202706 -0.049067542 -0.4277011 -0.92076206 -0.79872555 -0.16705957
11 -0.9179165 -0.29753813 0.046126958 1.2618955 -0.7051711 -0.51565176 -0.24019748 -0.37962824 1.1905155 -0.026106643 0.55862147 -0.1949193 -0.28965473 -0.1998257 0.2833538 0.020765575
12 -0.051417068 0.8077331 -0.19126585 0.9390336 0.65724826 -1.0500693 0.45898458 0.2667235 0.10021248 0.62101424 0.04322595 0.8468862 0.21956174 -0.8110032 0.03603201 0.21727523
13 0.2541434 0.9048986 -0.20916599 0.43221366 0.35816607 0.80731934 0.35399312 -0.07613532 1.1333609 0.3926827 -0.010142157 0.16967224 0.5787519 0.6515619 0.66312826 -0.5821479
14 0.6247171 -0.058259554 -1.0099442 -0.10220983 -0.79949856 -0.4882901 0.60563356 0.33553666 -0.06934282 0.16485174 -0.40301767 0.053721122 -0.19067436 0.62269014 1.2549099 -1.1261965
15 -0.75518376 0.4572083 0.14131056 0.6801467 0.05087766 0.7900375 1.2358096 0.13675536 0.13985884 -0.70341307 -0.0819152 0.60683495 -0.74960315 0.28295574 0.33051208 -0.4409753
16 -0.0179199 -0.044448685 -0.26544663 0.8210009 -0.49092683 -0.1549822 -0.73169345 -0.2530931 0.94714147 0.52909327 0.7185938 0.955549 -0.21939841 -0.23214164 0.9282899 0.7258081
17 -0.29087558 0.48157653 0.60510105 1.1777015 -0.3163277 1.0108693 -0.8391311 0.64496064 0.48187274 -0.53932387 0.41334766 0.6924192 0.26714152 -0.4246346 0.0996694 0.24714758
18 0.026381785 0.14702126 -0.1465917 1.360661 0.22531608 0.4530477 0.73902327 -0.58762836 -0.6380925 -0.3127425 0.79887134 0.47811213 -0.7631121 0.7677041 -0.00876125 0.21949974
19 0.8304566 0.3232449 0.19763596 0.73072195 0.56403583 0.83717376 -0.5855117 -0.28972578 0.5118362 0.005264162 -0.2959519 -0.10276359 -0.3231885 0.3434566 -0.72987616 -1.0123804
20 0.5781647 -0.36543557 -0.5189715 1.2239264 0.5775484 0.021406025 0.6697723 0.591544 -0.1957166 -0.09863212 0.5349428 0.2825859 -0.678816 -0.31918138 0.9814635 -0.45441237
21 -0.618236 1.018479 -0.13511838 0.08856994 0.07093495 0.61840206 -0.44389713 -0.40159565 0.36445743 -0.09145947 0.23478518 0.90326357 0.40059176 0.86078864 0.6049432 -1.2003975
22 0.35260618 -0.20212547 0.15335305 0.42187512 -0.68262804 -0.15661001 0.42537197 0.44029474 -0.41521165 -0.7656738 0.26025912 0.10236434 -0.24774401 1.365308 0.84323716 -1.0544096
23 0.4995893 0.4716809 0.17716464 0.8450235 0.22293976 0.7167831 -0.36708856 -0.25687766 0.19773167 0.25517124 -0.7023709 -0.0998393 -0.24721861 0.7270681 -1.0708724 -1.1476842
24 1.2799301 0.5684455 0.5435504 0.63778484 0.5718327 0.86316967 -0.36853948 -0.16166759 0.6080883 0.14058146 0.14876056 -0.39736468 -0.6178941 0.28718367 -0.55171806 -0.9660543
25 0.1719645 0.95233977 -0.5674272 -0.07009202 -0.09377787 0.01541808 0.36867896 0.05982323 1.1416941 -0.78772575 0.65234715 -0.12913717 -0.27392638 0.70707685 0.9942706 -0.5048913
26 -0.2482517 0.305206 -0.087655164 0.7454502 -0.6169152 0.47975853 -0.16784716 1.0950134 0.16713257 -0.25788784 -0.39516985 0.3428742 -1.2523054 -0.8224396 0.33930755 -0.41331032
27 1.1065756 0.89855397 -0.13016422 0.3595293 0.30415165 0.88156044 0.18557072 0.0076232823 0.86198795 0.81516874 -0.44041124 0.36688453 -0.3267649 -0.02895157 -0.8758928 -0.4255014
28 -0.56567734 0.4639624 -0.25882372 0.6914473 0.3122883 -0.17664574 -0.4395178 0.074711196 1.1325382 -0.0027101152 -0.6779991 0.73723066 -0.42117384 0.87624454 1.1748228 0.014934542
29 -0.2255674 1.0293624 0.008097236 1.147916 -0.35467333 0.276758 -0.6216675 1.0210685 -0.59095407 0.8060492 0.4320758 -0.6512038 0.06540242 -0.38608602 0.31171465 -0.38071612
30 -0.96326244 0.7923298 -0.5079647 -0.2504739 -0.38136855 0.523663 -0.36075374 0.42418453 1.1586219 0.7034853 0.7589717 0.5550177 -0.24556503 0.08812927 0.35186496 -0.9259094
31 -0.5895203 -0.4149683 0.45241153 1.2635211 0.080555364 0.23178966 0.62001467 0.5734942 -0.6318053 0.35582247 0.16818564 1.2240969 -0.57314324 0.6393982 0.03307368 -0.47674534
32 0.17733988 1.3796784 -0.46556145 0.6699645 -0.7412577 0.44865745 -0.3347473 0.5611587 0.45603418 -0.51361233 0.7779627 -0.35529846 -0.17112164 -0.48558587 -0.38170934 0.5774296
33 -1.1456554 0.12803824 -0.031590585 0.4652037 0.122797795 -0.022694698 -0.24354438 0.5974502 1.4872408 0.32865345 0.82217526 -0.026788438 -0.24894154 0.52436817 0.48419085 -0.7129475
34 0.736525 1.1272691 -0.03308266 0.815061 0.35476714 0.7590629 0.42127013 0.09825844 0.9446625 0.8608401 -0.60415655 0.064662695 0.19485675 0.50606346 -0.15664043 -0.45178124
35 0.32714736 1.0329078 0.25170118 1.0094413 1.1788981 -0.86246234 -0.3254538 0.21260864 -0.40971497 -0.34377667 0.4394056 0.60278946 -0.009942341 0.40390736 0.32251903 -0.06354521
36 -0.2408307 0.08239422 -1.5833908 0.62006885 0.29690036 0.32742587 -0.1340091 0.2909995 0.7657864 -0.76129085 -0.17640941 0.33568165 0.24933629 0.7839744 0.706412 -0.66279006
37 -0.54640144 1.3445309 -0.19605762 1.1066598 -1.0527606 0.026035622 -0.23826502 0.371858 0.09919809 0.1829494 -0.5719397 0.47477946 -0.020139528 -0.45342767 -0.60060245 0.096464865
38 0.36081988 0.9442261 -0.3041316 0.69311583 0.14002039 0.35380957 -0.0071672825 -0.3888437 0.8087413 0.571409 -0.4074335 -0.0665226 0.10496774 0.75055414 -0.7606234 -1.2199869
39 0.05400756 -0.22296697 -1.3468767 0.42282978 -0.8552502 0.12324096 0.477512 0.5748421 0.093789645 -0.58410513 0.03991643 0.27798194 0.19360866 1.0617182 0.55876416 -1.0426264
40 0.044964362 0.6881648 -0.7958149 0.9957593 0.4882161 -0.28744426 -0.3030175 0.42828023 -0.0469968 -0.31364477 0.8543988 0.52977765 -0.42977703 -0.7268064 -0.65838915 -0.11461932
41 -1.1535976 -0.23843804 0.25677744 1.072367 -0.40522146 0.1073212 -0.24401863 -0.21209238 1.5916226 0.24544458 0.4449215 0.1305842 -0.12660828 -0.10806611 0.44166487 0.0018956403
42 -0.5781647 1.0806036 -0.83929336 0.072837666 0.54685575 -0.28331614 -0.23459667 -0.03844697 0.8249712 0.12327554 -0.020624842 0.48631674 -0.69941545 1.0130123 0.6668507 0.15868457
43 0.17868717 0.055734355 -0.3544981 1.216252 0.020290075 0.56533617 0.6512954 -0.3855915 -0.03617339 0.4843339 -0.051961027 0.34114337 -1.3491426 0.3463871 -0.100235716 -0.78998756
44 0.68502754 0.28630152 -1.1342906 0.51486725 -0.9546331 -0.10872748 0.61306065 0.20752499 -0.3226306 -0.38200155 0.047531426 0.21072307 0.24065593 0.72825074 0.9995479 -0.91519034
45 -0.15539247 0.9777346 0.32952672 0.35541555 -0.16759026 0.19236672 -0.58638567 1.3182118 0.10635713 -0.1956973 -0.09329423 0.53627163 -0.7363181 -0.78921247 0.56994194 -0.2863379
46 0.42514503 1.2058504 0.68774617 0.55452555 -0.2767851 -0.9730782 0.21594068 0.63349104 0.5702412 -0.365815 0.70396197 0.41690436 0.09230131 -0.6307513 0.15298532 -0.47156483
47 -0.35555333 1.0105014 0.075290814 0.7136245 0.6241903 -1.1279815 0.18732448 0.10338771 0.20290978 -0.6330214 0.49164036 0.044017468 -0.9701367 -0.01798154 -0.39876634 -0.2994495
48 -0.31197718 1.0944933 0.015948392 0.9132932 -0.6081538 0.28006 -0.21746075 0.8648037 -0.4782316 0.85094637 0.7628813 -0.3434867 -0.728626 -0.15886644 0.4134091 -0.22482142
49 -0.17020491 0.21206848 0.2231466 0.9140481 -0.24904914 -0.18867064 1.5081704 0.32441005 0.15327248 0.40849385 0.68170685 0.41325656 -1.059876 0.18306257 0.6088637 -0.0036393537
50 0.4152413 0.06906302 -0.98421824 -0.0035532059 -0.8706089 0.017517192 0.6604802 0.35460618 0.3456896 0.22560287 -0.026442735 0.4265294 0.24060233 0.75571144 0.6348841 -1.3404729
51 -0.11370862 0.02295924 -0.112893455 1.5175155 -0.28823438 -0.76459503 -0.78091836 -0.7291924 0.68684745 0.29883987 0.635315 0.721627 0.29845846 0.11347469 0.39416805 0.1457244
52 -0.16476154 0.35571775 0.063902125 0.76143986 -0.05688244 -1.3485389 -0.7820419 0.5975112 -0.009372003 -0.0720162 0.08873205 0.48954886 -1.1093241 -0.04492502 -0.19498864 -0.56304854
53 0.028353509 0.2647975 0.03568189 1.1372021 0.24916586 -0.6245082 0.0022012105 0.8806903 0.022814663 -0.101682864 -0.08621421 1.5747004 -0.06844676 0.19500528 -0.32601103 -0.28467995
54 0.34235543 1.1754088 -0.1464402 0.51919985 0.56691396 -1.0824857 -0.18047537 0.35284558 0.34361205 -0.46887985 0.14954323 0.784422 -1.01246 0.5489961 -0.20343764 0.40106353
55 -0.12511599 1.2727246 -0.028798224 1.0845479 -0.9332495 0.46647176 -0.15176854 0.66211593 -0.59535265 0.058183003 0.5818304 -0.28571138 -0.06742089 -0.29284388 0.5852003 -0.11813511
56 -0.45098796 0.44162387 -0.038719293 1.4931773 -0.70522994 -0.09982438 -0.30656528 -0.67466855 0.9122297 -0.5224128 0.18827935 -0.0864344 -0.27962655 -0.47833535 0.5758239 0.2421372
57 0.6963251 0.20838791 -0.43472406 0.9856774 1.0325699 -0.5955719 0.0025717842 0.9966873 0.095979586 0.021216469 0.96278244 0.6495035 -0.27645096 -0.57626164 0.1512013 -0.19135655
58 0.19471085 0.35602832 0.018535823 0.816879 0.15983544 0.0953582 0.21351784 -0.09656843 -0.8463873 -0.5477506 0.3999256 0.8041587 -0.91000843 -0.036241975 0.74557185 -0.8788966
59 -0.23682824 1.1323162 0.025051681 0.45236468 0.2518737 -0.8513448 0.4478008 0.3017227 0.5023445 -0.5050432 0.31822744 0.8531568 -0.39014214 -0.89427954 -0.29736155 -0.8575537
60 0.35139018 0.488402 0.11505139 0.48218024 0.049035296 -0.7264085 -0.44515976 0.6024527 0.20827363 -0.36504158 0.19297259 1.4539251 -0.9594643 0.26208937 -0.46167928 -0.24119559
61 1.0539103 1.0760998 0.23487532 0.7638475 0.13588794 0.9619515 0.12827371 0.28814557 0.91926146 0.4889265 -0.46058097 -0.23147216 -0.47229815 0.017110098 -0.5073722 -0.5086453
62 0.0073556146 0.3328665 -0.04340616 1.0059614 -0.38733396 0.22330347 0.6419537 0.36835992 -0.5807316 0.8362412 0.91681856 0.21541685 -1.0742508 0.37371206 0.62533176 -0.08650337
63 0.19325754 0.33104122 -0.4733259 0.75379825 -0.2397766 -0.094642036 0.43493947 -0.25041795 -0.38032606 -0.36082432 0.44629556 1.644796 -1.0404451 -0.20247303 0.09622269 -0.31101063
64 -0.72248006 -0.13268946 -0.2037769 1.6298015 -0.46563098 -0.22652362 -0.19813046 -0.57239217 0.9278951 0.31490752 0.6755045 0.18091299 -0.029193163 -0.20706993 0.43117845 -0.013171145
65 0.41968453 -0.32691607 -0.6575443 0.08470982 -1.0643955 -0.035093375 0.69585216 0.61326003 0.19145514 -0.29820982 -0.05401879 0.44671738 -0.37823448 0.8080712 0.7062082 -1.3068215
66 -0.43175 0.1214343 0.49203628 1.3554583 -0.35055572 0.3084457 -0.7421384 -0.14333971 1.1571022 -0.43328202 0.28212807 0.5592943 0.06601772 -0.5457853 0.67431384 0.22928229
67 -0.22587621 1.5588108 -0.20508271 1.1001368 -1.1738526 0.14923933 -0.4925751 -0.2152421 0.24272116 -0.40106952 -0.17145549 -0.30239666 -0.43844962 -0.48177838 -0.11318118 0.2629213
68 0.96211916 0.5228664 0.35016483 0.92902434 0.16619761 0.9041248 0.08238642 -0.30011228 0.5323008 0.38351682 -0.4096858 -0.26888534 -0.6166312 0.2338955 -0.7005821 -1.19531
69 -0.14086823 -0.21306393 0.2807857 1.4305359 -0.5000756 -0.12618619 -0.6501969 -0.7038294 0.84392595 0.14766511 0.5203195 0.60103536 -0.24017675 -0.124580905 0.9233708 0.09177238
70 -0.18202837 0.46353096 -0.5043776 1.2479875 0.51709265 -0.667273 0.3724828 0.12463632 0.091717415 -0.5774078 1.0603826 0.24533407 -0.53923154 0.0924269 -0.61274725 -0.68499106
71 -0.17630897 1.3802698 0.6197101 0.82168216 -1.0459937 0.4866884 -0.30438542 0.87936544 0.099923454 -0.28719828 0.64567184 0.4863441 0.26143423 -0.12720679 -0.3616694 0.12482034
72 -0.6929462 0.24851182 -0.15128188 0.75195575 -0.027328772 0.20809528 0.6067414 -0.38619292 -0.62299806 -0.1339341 0.6725481 0.5874942 -0.6766637 -0.0931916 0.6365118 -1.277139
73 -0.12850435 0.90597105 -1.1330621 0.16994274 0.5442564 0.3741869 -0.15895927 -0.26868278 0.6749168 -0.3836997 0.47401112 0.3622622 -0.7190213 0.4739321 0.9599792 -0.63746566
74 -0.23122035 1.3680904 0.18688726 0.3913336 -0.78044164 0.45266643 -0.68333954 0.85009706 0.30548206 0.41311824 0.6955214 0.48033318 -0.6099488 -0.16096914 0.1517565 -0.128066
75 -0.46323302 1.4166144 0.274309 0.6248901 -0.21814087 0.19968826 -0.82909214 0.62688744 -0.36115107 0.12039913 0.5644375 -0.15992248 -0.5621897 -0.2654098 0.67174643 -0.63856715
76 0.36772132 0.5500492 -0.42428082 1.3466816 -0.31452522 0.27444172 0.68361366 0.24905445 -0.78220874 0.13620669 0.5083273 0.40816844 -0.1285377 0.032356925 0.97682655 -0.6120349
77 -0.49956846 0.016507706 -0.0009200925 1.4641693 -0.36800477 -0.24122544 -0.7573487 -0.42414686 0.99610907 0.29240733 0.16344042 0.70271075 -0.07717763 0.027234683 0.7948953 0.23593369
78 -0.68450755 1.2939053 -0.4778866 0.1431295 0.1451221 0.41908213 -0.42875594 -0.06804271 0.049598802 0.11810588 0.6102089 0.30634984 -0.15913276 0.17905807 0.6881693 -1.3946741
79 -0.0904105 0.96744704 -0.6066651 0.32893622 -0.04379524 0.4609056 -0.15545082 -0.07104968 0.73324513 0.424811 0.039086424 0.6392745 0.15399092 0.8047719 0.4635996 -1.2544186
80 0.4468154 -0.0008957533 -0.66154724 0.26728964 -0.849801 -0.09844765 0.38805917 0.43368852 0.065190874 -0.62555206 0.33978578 0.009874582 -0.17903511 1.1387402 0.91854984 -1.1266911
81 -0.14362657 1.4509357 0.18268444 0.96651834 -0.29614627 0.67481273 -0.6368868 0.72178686 0.4129927 -0.6091622 0.44159693 0.3380741 -0.3152892 -0.020313442 0.004189287 0.17264809
82 -0.5932933 0.6482039 -1.0806906 0.81218696 0.6457928 0.18699174 -0.16403115 0.5274485 0.66769654 0.18225634 0.028178832 0.46059602 -0.3215618 0.9662678 0.78084874 -0.29828614
83 -0.1706514 0.98413485 -0.41865212 1.0147904 -0.09139759 -0.6281316 0.41693196 0.48294795 0.13978422 0.062652454 0.049334005 1.5104607 -0.039035622 -0.40545478 -0.39301124 -0.046432775
84 -0.12756255 0.174732 -0.25191882 1.1062442 0.080512 0.028897392 0.54957557 -0.1677278 -0.45785564 0.2814178 0.8235677 0.5090041 -1.3928723 0.30243415 -0.13300493 -0.7432567
85 -0.34217528 0.010660113 -0.15334065 1.3843791 -0.5161785 -0.418867 -1.0734464 -0.20571807 0.9133497 0.4417158 0.6042262 0.48352784 -0.40351486 -0.13927205 0.49203768 -0.009900294
86 -0.50730366 0.22907764 -0.19589415 1.1404955 0.0008669875 0.29065326 1.0426741 -0.11988501 -0.18757783 -0.2917217 0.60448104 0.92485815 -1.0585994 0.38282305 -0.15686639 -0.7046878
87 -0.14460625 0.17275256 -0.26151267 1.1919945 -0.5354257 -0.26392204 -0.29479733 -0.44303602 1.4494652 0.057125658 0.6893137 0.5585085 0.058232594 -0.45275745 0.6816528 0.05561511
88 1.1390748 0.9720875 0.041286916 0.78910017 0.16704811 0.5891693 -0.3275177 -0.20946507 0.82821727 0.48267803 -0.3833183 0.17781141 -0.42321986 -0.00012598526 -0.8155681 -0.95360327
89 -0.30472523 0.7876418 -0.37200558 0.42049405 -0.101780154 0.3038426 -0.24129948 0.04228028 1.4433103 0.08352537 0.31611526 0.6338695 0.0057160016 0.8268702 0.77605844 -0.7242571
90 0.16590169 1.0300864 -0.052275416 1.140849 0.09100585 -1.0894258 0.87685084 0.43607658 0.8632895 0.0035612762 0.5188586 0.774128 -0.40437046 -0.3543074 0.29883805 0.10215077
91 -0.038120743 1.0591023 -0.44141933 1.1184653 -0.8165709 -0.19470574 -1.0372827 0.5609334 0.09073721 0.39138544 0.18444774 0.03610317 -0.9086431 -0.5178975 -0.08606511 -0.5233143
92 0.03915429 0.70052195 -0.26181567 1.4782083 0.3828377 -0.83416927 0.13172397 0.7551864 0.039593235 -0.16702263 0.07981438 0.58494645 -0.51898724 0.30148336 0.16287126 -0.22016823
93 -0.07138972 0.3836241 0.09295817 1.3126559 -0.28258514 0.12262341 0.86944324 0.12762806 -0.29732716 -0.11191545 0.34175375 0.51548564 -0.9495086 0.73523664 0.6565836 -0.6738446
94 0.20770541 1.3980091 -0.0547779 1.3626409 -0.7512103 0.34463203 -0.58312976 0.98220795 0.40166998 -0.082586765 -0.0077750604 0.09716054 -0.2234839 -0.6465997 0.0394803 -0.32605612
95 0.32697326 0.5831587 0.29792726 1.5320772 0.13762565 -1.1093801 -0.18530074 0.38006377 0.2491943 -0.1580229 0.71218896 0.99305964 -0.0041890214 -0.019371249 -0.039892446 -0.30048692
96 -0.7449648 1.180234 -0.54539967 0.8432873 0.3440245 0.40896866 0.083507724 0.26811117 0.930339 -0.3464166 0.023525594 0.5191594 0.043516684 0.8550677 0.7413464 -0.8325094
97 -0.14587058 0.17121547 -0.43366656 1.2201006 -0.2898808 0.23331586 0.86142033 0.5258489 -0.07756383 -0.122202106 0.0947706 0.6787158 -1.224555 0.20992632 0.5040345 -0.7210038
98 -0.1397368 -0.033435635 -0.25484493 1.6713701 -0.11827292 0.2512808 0.5066338 -0.16726075 0.06281556 0.11722652 0.7899647 0.60164803 -0.79466724 0.070610374 0.7037109 -0.58563656
99 -0.035089005 0.8291111 0.04044737 1.2714489 0.56744444 -0.6596895 -0.07184029 0.73472214 0.14953421 -0.37099025 0.4740001 0.88579667 -0.51851714 -0.44899082 0.22340123 -0.6555139
100 0.17550538 1.1535314 0.086352035 1.2373832 0.64395636 -0.48232037 0.027147206 0.84520274 0.57793206 -0.33995214 0.43978545 0.77898777 -0.42198923 0.2637849 -0.5073736 -0.49670148
