100 64
1 0.390786 0.055219 0.099115 0.063423 -0.266742 0.756503 0.565637 0.031014 -0.239542 -0.274578 -1.186032 0.369278 -0.546455 -0.213906 0.093190 0.249573 0.908990 0.284588 -1.140538 -1.098918 -0.233798 -0.605308 0.112710 -0.094981 0.893381 0.570957 0.031721 -0.568722 -0.052931 0.375168 0.504175 0.141954 0.329206 0.722009 0.039785 1.388994 0.284506 -0.335480 0.743559 0.234799 0.118588 -0.148138 -0.047313 0.330882 -0.209658 0.168609 0.020434 -0.694662 -0.839862 -0.497560 0.185463 1.039626 -0.157556 1.255928 -0.517176 0.213240 -0.540308 0.735631 -0.774407 -0.242072 0.011071 -0.153986 -0.208498 0.003025 
92 0.337625 -0.130108 0.299321 0.384902 0.026911 0.359559 0.920660 -0.545834 0.369488 -0.097925 0.379452 0.022339 0.054739 0.875572 0.085882 -0.716576 0.865146 -0.825143 -0.273753 0.187418 -0.460050 -0.784706 0.416853 0.656360 -0.218119 -0.109382 0.304985 0.049272 0.511419 -0.997182 -0.951158 -0.204061 0.002250 -0.119001 0.289835 0.884760 -0.116782 -1.565178 -0.090052 0.149227 -0.318719 -0.332868 -0.430459 -0.005790 -1.082435 -0.303841 -0.230053 -0.721761 -0.738208 -0.111736 -0.789725 0.714285 -1.076665 -0.471734 -0.689201 0.260888 -0.040977 0.246573 1.314907 -0.461921 -0.007903 -0.376064 0.239959 0.191652 
94 0.118536 1.328305 1.443989 0.791186 0.374514 0.283391 -1.005888 -0.521792 0.681178 0.214484 0.572702 -0.690050 0.537400 -0.389293 -0.014501 -0.147476 0.038371 -0.571718 0.040132 0.453794 -0.698384 -0.208306 0.668661 -0.339350 -0.250025 -0.534497 -0.243022 -0.490567 -0.115074 0.086198 -0.005636 1.283135 0.494986 -0.738410 -0.485213 1.330692 -0.491435 -0.055148 0.563853 -0.077355 -0.004412 -0.008744 -0.464510 -0.121763 -0.001599 0.408676 0.423202 0.089392 -0.988901 0.898714 0.296267 0.096719 0.414862 -0.585286 0.680678 -0.246203 0.529986 0.173238 -0.593213 -0.150429 0.270936 0.929440 0.687395 0.374734 
99 0.267941 0.814730 0.795917 1.161935 -0.074061 -0.197272 0.559775 -0.691877 -0.341145 -0.585724 -0.315021 0.919803 0.392210 0.696536 -0.200454 -0.102607 -0.217713 -0.667666 -0.293380 -0.718346 -0.787336 -0.485320 0.218488 -0.205463 -0.880296 -0.432849 -0.801157 -0.804427 0.586804 0.435049 -0.297734 0.313918 0.252052 0.363037 0.687694 0.995247 -0.793447 -0.544608 0.032368 -0.423953 -0.289069 0.523014 0.180168 -0.232156 -0.284831 -0.591053 -0.606576 -0.885339 -0.257320 0.065458 -0.230500 0.209350 -1.042347 -0.114530 -0.629950 -0.103774 -0.455449 0.566642 1.101608 0.281052 1.036942 0.411853 -0.239281 -0.256353 
100 0.488912 -0.306487 0.380003 0.267252 0.236310 -0.238301 0.514953 0.223483 -0.391319 0.033218 -0.417666 0.045798 0.240018 0.913737 -0.494969 -0.052701 -0.327931 -0.687117 -0.679511 -0.013713 -0.542805 -0.520963 0.152869 -0.377745 0.165585 -0.129109 -0.385279 -0.226293 -0.097668 0.377725 -0.531472 -0.253292 -0.010675 0.298238 -0.069386 0.494690 -1.297004 -1.168438 0.068745 -0.167498 -0.325703 -0.548232 0.016137 0.132312 -1.162396 -0.752187 -0.494318 -0.762603 -0.448910 0.161872 -0.192020 0.999443 -0.490263 0.017165 -0.068958 0.590059 -1.137412 1.189236 1.135205 -0.675727 0.314901 0.072063 0.920520 -0.124448 
2 -0.343069 1.343766 1.216064 0.883585 -0.244261 0.690129 -0.000632 -0.945123 0.388915 -0.823801 -0.748729 0.490344 0.139404 0.278890 0.716182 -0.565443 0.930654 -0.569337 -0.019722 -1.190812 0.070305 -0.551379 1.746907 0.459993 -0.097454 -0.827536 -0.143038 -0.693626 0.538290 0.209320 -0.188191 0.733030 0.374434 -0.281953 0.257043 1.010277 -0.240274 -0.694940 0.729124 -0.668568 -0.076474 -0.190219 -0.499187 0.289239 0.000093 0.049733 -0.304738 -0.231705 -0.493820 0.164959 -0.528609 0.503459 0.014273 0.307759 -0.423696 0.046796 0.384406 0.195497 -0.418488 -0.846749 -0.415449 0.272516 0.287379 -0.511041 
46 0.361637 -0.180768 0.093588 -0.436902 0.010656 0.470429 0.023761 -0.523365 -1.094326 -0.476847 -1.069024 -0.578351 -0.322973 0.252081 -0.173019 0.436378 0.852670 -1.003779 -1.038557 -0.446887 0.860926 0.087378 0.102973 -0.386412 0.436362 -0.088656 -0.253686 -0.811067 0.106736 0.497768 -0.140523 -0.052774 0.059296 -0.280685 0.343495 1.198108 -0.165172 -0.819679 0.137272 -0.294828 -0.657728 -0.632795 0.090380 -0.362005 -0.562632 0.097867 -0.016121 -1.882094 -0.572153 1.000246 0.076667 0.403509 -0.296384 0.247440 -0.660126 1.128182 -0.839244 1.098230 0.708472 -0.582923 -0.813878 -0.285950 0.075768 -0.065591 
71 0.342291 -0.009056 0.978319 -0.497170 0.651551 0.314061 -1.164501 -0.579457 -0.422594 0.037571 -0.960338 -0.884449 0.273328 -0.157235 0.014997 1.224534 0.245184 -0.377330 -1.115030 0.713541 -0.651930 -0.413161 0.030771 -0.856041 0.757774 0.259613 -0.017881 -0.564166 -0.775153 0.046238 0.305490 0.978786 0.165431 -0.542073 -0.363885 1.391162 -0.380197 0.322433 0.372504 -0.013737 -0.405230 0.156766 0.065766 -0.230831 -0.373403 0.589809 0.959398 -0.793430 -1.019768 0.551842 1.218729 -0.021549 0.452847 -0.045929 0.555671 0.691577 0.044714 0.837515 0.033001 0.122384 -0.309972 0.308820 0.529560 0.522484 
95 0.014212 0.135071 0.422683 0.891254 -0.082061 0.465681 0.192965 -0.569110 -0.706397 -0.107901 -0.014047 0.443375 -0.043184 0.344148 0.230627 0.397595 0.225208 -0.118012 -1.314004 -0.537512 -1.167299 -0.537791 -0.653371 0.388734 -0.362366 0.116555 0.229783 -0.567482 0.342789 -0.061846 0.212123 0.055848 0.014550 1.045539 -0.095164 0.431437 -1.009579 -0.736681 0.385749 0.367059 -0.366726 0.567703 -0.700396 -0.252636 -1.120973 0.313195 -0.736486 -0.877288 -0.171920 -0.693095 -0.218916 0.422901 -1.408026 0.059593 -0.471827 0.935139 0.445209 0.842178 0.820305 -0.652750 -0.420457 0.462444 -0.215981 -0.128040 
3 1.556257 0.542452 -0.275857 -0.637045 -0.609026 0.947903 0.636732 -0.747483 -0.001860 0.631999 0.014979 -0.414389 -0.466710 0.323803 -0.374806 -0.199084 0.136794 -0.546290 -0.791227 -0.241416 0.767378 -0.911541 -0.522343 -1.078566 0.518254 0.400468 -0.027430 -0.102572 -0.291803 0.735653 0.028651 -0.361416 -0.377747 -0.051373 0.421415 -0.055796 0.231960 -0.575611 0.047548 0.152815 -0.861300 -0.482120 -0.040938 0.410186 0.056486 0.085002 0.707908 -1.602064 -1.158256 0.699869 -0.076210 0.635123 -0.207907 0.157897 -0.632829 0.758109 -0.617804 0.002785 0.315858 0.098431 0.166038 0.109913 -0.207748 -0.546918 
59 0.370162 1.446584 0.449653 0.760584 -0.162476 0.103309 0.066259 -0.585454 -0.513288 -0.128901 -0.126448 -0.146467 0.785858 -0.180980 0.047815 -0.448498 0.459661 -0.540718 -0.252258 -1.533720 -0.433558 -0.219535 0.610094 0.239589 -0.269618 0.048238 0.592985 -0.291316 -0.609099 0.439399 0.743170 -0.731282 -0.119405 0.794284 0.087149 0.719811 -0.399958 -0.404536 0.562335 -0.032692 -0.245814 -1.381495 -0.656024 0.385231 -0.150451 0.236944 -0.151953 -1.603803 -1.125025 -0.396488 -0.482781 1.037212 -0.959351 0.253018 -0.293966 -0.284447 0.741914 0.248955 0.499983 0.034147 -0.366470 0.264312 0.192510 -0.492789 
78 1.074900 -0.287971 -0.494716 0.088086 -0.275503 0.360489 -0.172683 -0.288847 1.296066 -1.044426 0.457800 0.319436 0.377095 -0.487487 -0.459080 0.046604 -0.627773 0.496233 0.177004 -0.833322 -0.310393 -0.918913 -0.153896 -0.561687 0.007139 -0.139370 0.830698 0.139834 -1.275914 0.702375 0.538866 0.229160 -0.949299 -0.128263 -0.434917 0.075470 0.240826 0.862101 -0.425726 -0.577688 -0.344829 -0.506548 -0.020011 1.090286 0.782955 0.136310 0.911264 -1.086487 -0.812269 -0.608416 0.024726 0.282310 0.529221 0.783382 -1.062984 -0.718244 0.304251 -0.358094 0.402084 0.888753 0.289000 -0.252390 -0.815937 0.353475 
96 0.836819 -0.297711 0.178879 -0.303868 0.119111 0.144922 -0.941691 0.704557 0.943469 0.350752 -0.224970 -0.247875 0.269620 0.383077 0.571702 0.642104 -0.289805 0.155347 0.510328 -1.107663 -0.498430 -0.446111 -0.090169 -0.552183 -0.200092 0.590167 0.132373 0.868237 -1.066120 0.372566 -0.501735 -0.411720 -0.888236 -0.736286 -0.434095 -0.232911 -0.684205 0.805466 -0.728554 0.041000 -0.061605 -0.547117 0.595368 1.330430 0.322118 -0.264866 -0.062694 -0.343628 -1.284508 -0.051985 -0.645245 0.013816 0.153785 0.324571 0.270974 -0.532018 0.278468 -0.089905 1.261207 -0.060866 0.653392 0.292208 0.080798 -0.961569 
4 1.220279 0.134497 0.522067 -0.492088 -0.279948 0.790729 0.335155 -0.217401 0.693958 1.016438 0.549681 -0.072945 0.003377 0.601744 0.275872 -0.270536 -0.019980 -0.399007 -0.068525 -0.234178 -0.049952 -1.053913 0.203512 -0.721376 0.116380 0.629442 -0.338720 0.653525 0.073077 -0.132213 -0.597306 -0.063611 -0.507439 -0.632353 0.916341 -0.451202 -0.474468 -0.365568 -0.140094 0.651778 -0.859466 -0.512246 0.624083 0.968680 0.280135 0.517616 0.347130 -0.604368 -1.458168 -0.141291 -0.963009 0.161826 -0.166406 -0.220996 -0.609673 -0.083357 0.278585 -0.369490 0.574167 0.507363 0.994570 0.062529 -0.703339 -1.068730 
42 1.453812 -1.050377 0.276567 -0.367029 -0.552438 0.712328 0.500584 -0.109172 1.382119 -0.351218 -0.110506 0.504911 -0.154307 1.010796 0.693383 -0.478928 -0.291466 0.218794 -0.251960 -0.319700 0.158555 -1.228866 0.141644 0.298281 0.112598 0.743418 0.987962 0.324430 -0.497135 0.281998 -1.229679 0.175107 -0.448016 -0.662854 0.011341 0.014380 -0.161691 0.352451 -0.847134 -0.527268 -0.549336 -0.608655 -0.066058 1.522488 -0.272765 0.159289 0.475865 -0.180955 -0.798399 -0.737039 -0.472225 0.668518 -0.224709 0.533332 -0.670779 0.190716 0.524592 -0.342358 0.533010 -0.167408 0.208702 0.000130 -0.235082 0.575478 
82 0.837512 -0.767277 0.257764 -0.359194 -0.170806 0.810533 -0.157261 0.887826 0.112808 -0.008058 -0.271015 0.613708 0.002446 0.657005 0.190017 0.201351 -0.496954 0.601516 -0.886221 -0.676187 -0.166295 -0.244213 0.223863 -0.027215 0.642145 1.392339 -0.180720 0.103514 -0.704923 0.755580 -0.803331 0.260106 -0.073405 0.442527 -0.068973 -0.751617 -0.474437 1.016803 -0.678869 -0.283649 -0.528397 -0.471780 0.598975 1.157288 0.502281 0.510890 0.552322 -0.207906 -0.813349 -1.245342 -0.338672 0.348630 -0.800174 1.204394 0.262670 0.224407 -0.152142 0.189135 0.153578 -0.277400 0.812351 -0.263818 -0.235923 -0.542219 
5 0.091826 0.033248 -0.030316 0.584582 -1.031885 1.061947 -0.340405 0.203015 -0.713324 -0.172478 -0.861696 -0.325095 1.117256 -1.020570 -0.731167 0.428515 0.621994 1.426836 0.468559 -0.096192 -1.447122 -0.467245 0.095417 -0.563923 -0.576752 0.338244 -0.942759 -1.071079 -0.683403 -0.515748 0.257243 0.353552 0.223996 -0.374575 -0.016997 -0.104226 -0.057627 -0.284228 -0.177697 -0.323165 -0.145662 0.347958 0.284637 0.131170 0.163130 -0.307314 -0.230111 0.291430 -0.238498 -0.468630 0.534738 0.630666 0.065790 0.174668 -0.054298 0.050740 -0.174533 -0.532402 0.178305 -0.001127 -0.689483 0.053352 0.715924 -0.011495 
22 0.797873 -0.012632 -0.233718 0.077876 -0.764457 1.587727 0.503155 0.081781 -0.649368 0.351417 0.139815 -0.035454 0.362976 -0.112185 -0.993065 0.140139 0.733935 -0.066897 0.712046 0.539564 -0.079460 -0.542564 0.722414 0.970535 -0.312696 0.997916 -0.113504 -0.386866 -0.134769 -1.069374 -0.625786 0.073218 0.746475 -0.850683 0.238478 0.029395 0.331608 -0.782219 0.690328 -0.553245 -0.612423 -0.253427 -0.239003 -0.054660 -1.041511 0.351804 0.667871 0.241388 -0.748743 -0.081633 1.307562 -0.002569 -0.693107 -0.453948 0.287076 0.466764 -0.092328 -0.195972 0.551844 0.205204 -0.802877 -0.686211 0.027794 0.175197 
44 0.256503 0.131981 -0.482208 0.154914 -0.603557 1.421704 0.075043 0.152719 -0.243137 -0.314259 -0.054007 -0.239793 0.260642 -0.650094 -0.849295 0.996472 0.840497 0.429788 0.192138 0.300011 0.054803 -0.689856 -0.356056 -0.303012 -0.082740 0.779324 -0.311967 -0.211866 0.050721 0.279469 -0.226378 -0.143612 0.381821 -1.433865 -0.879040 -0.082409 0.734755 -0.324388 1.124949 -1.011813 -0.762175 -0.266376 0.080702 -0.153478 -0.353751 -0.949391 0.977619 0.167020 -0.229897 -0.039350 1.545548 -0.342614 -0.264261 0.761278 -0.006669 0.279794 -0.179693 -0.420563 -0.381034 0.186179 -0.771488 -0.159331 -0.590363 -1.132174 
65 0.028490 0.269814 0.190540 0.383360 -0.661914 1.382762 0.148492 0.590814 -0.705253 -0.124362 0.392414 0.213434 0.376276 -0.684495 -0.916752 0.552779 -0.351500 0.215282 0.238939 0.300797 0.000683 -0.453151 -0.072910 0.332224 0.020030 1.627928 -0.083933 -0.417597 -0.379976 0.160068 -0.684292 -0.022504 0.615460 -0.964749 -0.712571 -0.222243 0.218576 0.270671 0.507609 -0.871646 -0.378768 -0.072624 0.077970 -0.060305 -0.365610 -0.331571 0.934346 -0.390305 -0.491413 -0.521343 1.416796 0.184077 -1.093895 0.814731 0.707612 0.471303 -0.439955 -0.381029 -0.150698 0.175848 -0.537822 -0.638266 0.113786 -0.817092 
80 -0.173306 0.322187 -0.346787 0.418573 -0.652909 1.081549 -0.091700 0.533792 -0.452049 0.449046 0.039136 -0.815587 0.594252 -1.076803 -0.109839 1.049877 -0.340845 0.391320 1.386318 -0.388323 -0.364610 -0.752184 0.451656 -0.384737 -1.007908 1.095380 -0.541515 -0.513835 -0.101148 -0.586337 -0.379298 -0.257762 0.204569 -1.717533 -0.871273 0.198077 -0.495147 -0.570595 0.571062 -0.424819 -0.379181 -0.135077 0.272197 0.247577 0.149846 -1.104698 -0.506682 -0.588945 0.059525 0.090963 1.044612 0.342272 -0.459873 0.370406 0.488835 0.170324 0.092672 -0.608055 0.060953 0.330461 -0.645973 -0.241972 0.762864 -0.488079 
6 0.402830 0.424130 0.324813 -0.201202 -0.511206 0.815008 0.508828 -0.937838 0.549605 0.455679 -0.534142 0.474047 0.350930 0.509601 0.912877 -0.292938 0.445604 -0.381422 -0.002851 -0.589170 -0.052566 -1.434760 0.986221 0.010278 0.226425 0.346881 0.323288 0.064724 -0.151537 -0.529964 0.050828 0.056144 -0.610245 -0.873205 0.602148 0.072726 0.690857 -0.257590 0.023560 0.026804 0.161581 -0.190662 -0.485079 1.336726 0.304951 0.902034 0.311883 -0.264535 -1.173571 0.210745 -0.629612 0.360322 0.507353 0.710644 -1.187246 0.171754 0.916421 -0.260887 0.339937 0.002936 0.461467 0.048159 -0.029239 -0.616608 
33 -0.041209 -0.428797 0.297570 -0.434388 0.367959 1.313968 -0.904085 -0.259756 -0.057204 -0.266476 0.598852 0.380583 0.798318 0.494974 -0.425722 0.328613 -0.861726 -0.482991 -1.227445 -0.162132 0.016902 -0.901642 -0.052308 0.074926 0.357884 0.464110 0.099102 0.143646 -1.079921 1.212760 -0.283199 0.536069 -0.916351 -0.201477 0.193777 -1.020453 -0.406772 0.159131 -0.498928 -0.804626 -1.017254 -0.316327 -0.069512 0.855648 0.504949 0.718518 0.734037 -0.549360 -0.355407 0.531516 -0.502518 0.207412 0.226146 0.702618 -0.598617 0.443877 -0.563591 0.837861 0.100416 -0.720406 -0.352177 0.116996 -0.745344 -0.597521 
7 -0.029292 -0.211014 0.452779 0.518993 -1.403148 0.986515 -0.027691 0.362565 -0.387013 0.018302 -1.204732 0.343319 0.998651 -0.797219 -0.384258 0.458420 0.389639 1.077312 0.005187 -0.244629 -0.671879 -1.179655 -0.367133 0.054439 -0.510400 0.481615 -0.748036 -1.007214 -0.154123 -0.353931 0.063952 0.141077 0.256733 -1.118550 -0.392323 -0.367805 0.183977 -0.277082 0.133634 -0.675937 -0.201242 0.146479 0.407130 0.330388 -0.082822 -0.944669 -0.173958 0.536855 -0.387215 -0.277247 0.469061 0.559487 0.195745 0.694132 -0.463176 0.394635 0.229971 -0.773254 0.152964 0.009917 -0.771619 0.581619 0.546023 -0.496403 
39 0.544069 0.798973 -0.551093 -0.003440 -0.700637 1.448158 0.039190 0.299800 -0.955285 0.273316 -0.568347 -0.522295 0.925712 -0.501613 -0.403078 0.650990 0.493139 1.255245 0.771406 -0.244354 -0.457954 0.201120 0.578886 -0.303378 -0.351758 1.397055 -0.320377 -0.057421 -0.730887 -0.385952 -0.246132 -0.645913 0.430222 -0.675318 -0.055067 -0.179415 -0.478996 -0.241931 -0.707684 -0.452582 -0.632818 -0.132853 0.122024 1.209296 -0.222756 0.324549 0.012905 -0.044589 -0.918323 -0.578022 0.421754 0.281547 -0.506987 0.071626 -0.040544 -0.203489 -0.174812 -0.551563 0.389489 -0.020152 -0.616576 -0.914355 0.471827 0.036161 
8 0.134195 -0.481498 0.326390 -0.022025 -0.064735 0.183272 -0.821513 0.142270 -0.164561 -1.066342 0.499015 -0.607579 -0.142850 -0.587412 -0.941215 0.553122 -0.324088 -0.152255 0.234955 0.377076 -0.565889 0.349843 0.496579 -0.357192 0.819081 0.041478 -0.132040 -0.750205 -0.034117 0.919962 -0.124526 1.106274 0.602886 -0.794687 0.642934 1.360860 -0.158185 -0.924765 0.615523 -0.224205 0.590697 -0.688928 -0.506069 0.382617 -0.228605 0.623888 -0.728713 -0.327867 0.185592 0.501567 0.467588 0.306372 0.274054 1.017065 -0.640203 0.299637 -1.165286 0.170414 -0.182486 -0.550466 -0.316781 -0.553868 -0.242250 0.167835 
67 -0.608476 0.296841 1.211099 -0.353019 0.685637 0.734402 -1.245520 0.419888 -0.506170 0.469627 0.166775 -0.869080 0.204994 -0.308159 0.671510 0.402262 -0.143417 -0.086880 0.333999 -0.008371 -1.047395 0.021412 0.663439 -0.205566 -0.914314 -0.235482 -0.680336 -0.367607 -1.188445 0.196145 -0.247338 1.765965 -0.659565 -0.734728 -0.353745 1.257246 0.025230 0.681089 0.466481 0.167423 -0.073748 0.135364 -0.041453 -0.003968 -0.356757 0.854926 0.408614 -0.266327 -0.474900 0.811262 0.439326 0.169808 0.805375 -0.078830 1.563158 0.122637 0.098462 0.865510 -0.050787 -0.400159 -0.319979 0.579214 0.790843 0.607813 
88 -0.749824 0.334879 -0.473448 0.222605 -0.151455 1.047285 0.049762 -0.399437 0.232863 0.783577 0.218049 0.500802 -0.004642 -0.805741 0.475274 -0.705669 0.726056 0.866597 0.725058 -0.294663 -0.295717 -0.512609 1.085367 -0.114590 0.096408 0.440559 0.382798 -0.210285 -0.561081 -0.369912 -0.517948 0.618198 0.168892 -0.112515 0.292283 0.733625 -0.011237 0.325884 1.003537 -0.097012 1.089697 0.795051 -0.517152 -0.662199 -0.262782 1.305943 0.739263 0.398167 -0.458757 0.686903 -0.731735 1.038601 0.317095 1.005434 -0.620579 -0.095313 -0.046987 0.050887 0.108345 0.068358 -0.791005 0.713997 -0.349617 -0.177459 
91 0.538104 0.120011 0.248189 -0.042237 0.011996 0.850233 -1.330618 -0.135263 0.125367 -0.214599 0.236687 -0.389186 -0.262979 -0.701662 -0.207248 1.152724 0.676281 0.544866 -0.824693 0.057708 -0.112362 0.278161 -0.352589 0.256020 -0.474001 0.436768 -0.287174 -0.109389 0.514892 -0.220822 0.535803 1.085176 0.312674 -0.515515 0.315647 1.678460 0.224328 -1.065547 0.865391 0.349823 -0.073751 0.975629 -0.693616 -0.340445 -0.253068 0.512561 -0.018185 -0.172436 -0.617914 1.418396 -0.178810 -0.345595 0.440400 0.030590 -0.535630 -0.583097 0.582643 0.043755 -0.464329 0.124248 -0.216991 0.430765 -1.027427 1.060528 
9 -0.020865 0.092032 -0.279910 0.381232 0.041509 0.201831 -0.210695 -0.003056 0.178044 0.453662 0.750730 -0.464672 0.233665 -0.527771 -0.119770 -0.070056 0.363158 0.331181 0.796467 -0.019379 -0.348909 -0.047029 0.852261 -0.619428 0.614605 0.196936 0.043020 -0.531568 -1.029519 0.275762 -0.897319 0.106939 0.141181 -0.951935 0.250292 0.822901 -1.400481 -0.500622 0.626394 -0.283863 0.576927 0.022695 -1.045217 -0.155637 -0.460545 0.962929 -0.016766 0.600157 -0.595357 0.631655 0.077536 0.840704 0.202273 0.547586 0.223670 0.282340 -1.354950 0.799459 -0.255269 0.081715 -1.225079 0.632169 -0.398219 0.001236 
27 -0.248507 -0.882568 0.392914 0.785444 0.031830 0.279978 -0.558753 -0.052269 0.710509 -0.165902 0.356486 -0.089118 0.696677 -1.178425 -0.279608 -0.420392 0.050842 0.568192 0.238187 0.424662 -0.668588 -0.355040 0.482519 -1.177507 0.589438 -0.076255 -0.132904 -0.885975 -0.481045 0.394711 -0.110806 0.434533 -0.008525 -0.946407 0.272501 0.541855 -0.940086 0.384928 0.759501 -0.688930 1.143826 -0.119208 -0.162832 0.219133 0.012688 0.753755 0.461808 0.648240 -0.515938 1.089154 -0.314817 0.884376 0.710819 0.430502 -1.322398 0.235509 -0.821618 0.205188 -0.030889 -0.562398 -0.475317 0.662912 0.075572 -0.241337 
61 -0.025323 -1.002213 -0.324250 -0.120488 0.297305 0.687007 0.136438 0.155642 -0.181646 -0.550452 0.080812 0.291797 -0.245470 -0.949558 -0.115346 -0.102311 1.017406 0.655704 0.331617 -0.277101 -0.149347 -0.301702 0.607557 -0.518109 0.867645 0.225607 0.286144 -0.501404 -0.777805 0.200986 -0.556219 0.195832 -0.008699 -0.526450 0.505871 1.212037 -0.258432 0.094099 0.627588 -0.188479 1.164474 0.054712 -0.086459 -0.240318 -0.011619 0.742912 0.549822 0.427497 -0.175894 0.552793 0.213472 1.166488 0.523368 0.847138 -0.675236 0.078669 -1.554825 0.537947 -0.289933 0.114490 -1.174214 -0.281633 -0.871912 -0.138439 
68 -0.626891 -0.472495 -0.739840 0.699128 -0.198937 0.033896 0.140653 0.123700 0.772430 -0.061483 0.176738 0.600070 0.447603 -1.376400 -0.481211 -0.645700 0.256431 1.209818 1.261826 -0.315069 -0.316650 0.108137 0.584547 -0.314905 -0.313665 0.031925 0.257904 -0.074003 -0.216541 0.352432 -0.379658 1.161436 0.185215 -0.993965 -0.181435 0.456481 -0.328431 -0.151591 0.766857 -0.458115 0.856287 0.588414 0.022148 -0.473277 -0.846256 0.007230 0.499051 0.524410 0.096678 0.494652 -0.568706 0.759368 0.625407 1.317362 -1.398082 0.108655 -0.417696 -0.165388 1.123144 -0.058409 -0.467072 1.190255 0.232271 -0.424834 
10 0.088544 0.057772 1.171667 -0.050170 0.515464 0.058570 0.371197 0.046486 -0.849657 -0.470266 -0.659305 -0.461337 0.525705 -0.337883 -0.141284 0.247580 0.186184 -0.300302 0.074324 -0.283621 -0.626008 -0.055119 0.814250 -0.159720 0.543798 0.089375 -0.954872 -0.998215 -0.818408 0.690729 0.152760 1.291630 -0.063551 -0.421849 0.936659 1.760603 0.313057 0.465428 0.821507 0.061457 0.333622 -0.728883 0.129165 0.232489 -0.087843 0.803769 0.028866 -0.711695 0.004157 0.360048 1.044966 0.631269 0.662556 0.566045 -0.018137 0.110486 -0.995771 0.872337 -0.290633 0.216586 0.181911 -0.311738 0.268192 0.452367 
32 0.073026 -0.048290 1.026079 0.284639 0.251359 0.604523 -1.695055 0.255826 0.219016 -0.887164 0.042402 -0.105210 -0.017315 0.022718 -0.404084 0.985545 0.684905 -0.281826 -0.767740 0.283670 -0.732262 -0.119994 0.242388 -0.092321 0.487393 0.199070 0.557794 0.175938 -0.040105 -0.372533 -0.046214 0.804388 0.131534 -0.483989 -0.461312 1.624763 -0.185958 -1.415612 0.459818 -0.358947 0.014104 -0.848658 -0.816751 0.541333 -0.162933 0.261523 -0.075677 0.344643 -1.270089 1.267928 0.086820 0.316861 0.188740 0.697499 0.249276 -0.387730 -0.332554 0.089421 -0.749423 -0.513247 -0.603566 -0.437216 0.156158 -0.077056 
40 0.381668 0.752889 0.153937 0.703838 -0.330932 0.637058 0.271503 -0.384862 0.524136 -0.270262 0.728332 0.171415 -0.192704 0.113769 -0.432257 -0.393427 0.731299 0.169826 -1.256734 0.186233 -1.324369 -0.912542 -0.457743 0.043943 0.460805 0.027859 0.625429 -0.491638 0.283939 -0.707143 0.295940 0.062842 -0.141304 0.644951 -0.475168 1.193156 0.312769 -1.610891 0.508373 0.272780 -0.208169 -0.129031 -1.289843 -0.179975 -0.688398 -0.507545 0.006187 -0.319413 -1.190040 -0.052300 -0.448554 1.588624 -0.976432 0.436436 0.151707 0.240012 -0.264004 -0.270037 -0.069452 -0.290023 -0.235947 0.078173 0.447693 -0.274672 
11 -0.485395 -0.617216 -0.061726 -0.278656 -0.006857 1.115844 -1.369550 0.123860 -0.647712 -0.455874 0.363792 -0.440768 0.901267 -0.425238 -0.236218 0.256333 0.443497 0.374570 -0.352171 -0.372019 -0.073358 0.367709 -0.225763 0.380074 -0.657600 -0.538212 -1.027837 -0.525651 -0.571477 0.193705 0.156783 1.235717 -0.916065 -0.678313 0.091894 -0.620540 0.168156 0.054783 0.571993 -0.154421 -0.981454 0.982889 -0.186326 -0.191593 -0.428086 0.298891 0.709313 0.429295 0.471175 0.631258 -0.397125 -0.149510 0.493938 0.441664 -0.351329 0.593307 0.830298 0.961903 0.416470 -0.464125 -1.155403 0.487836 -0.290133 -0.377286 
41 0.488306 -0.561025 0.074294 -0.480773 -0.183034 0.384243 -0.648190 0.251070 -0.534986 -0.216509 -0.444534 -0.210082 0.100703 -0.305831 0.309462 1.006486 0.448073 -0.267529 0.717684 -0.562477 0.108721 0.313575 1.123616 -0.308175 0.202109 -0.519795 -0.598172 -0.612964 -0.026961 -0.091681 -0.603897 0.634661 -0.788639 -1.565134 0.091062 -0.557279 0.514565 -0.580295 -0.063105 0.157939 0.180906 -0.321153 -0.545537 1.046198 0.548894 0.893236 -0.321632 0.428658 0.086265 0.315541 -0.188414 -0.859287 1.180025 0.510571 -0.559632 1.173780 0.684393 0.037647 0.840521 -0.803674 -0.437258 -0.393617 0.388049 -1.180825 
56 0.545070 -0.974294 0.113579 -0.458741 -0.481783 0.270880 -0.860358 0.092282 -0.494123 -1.172875 -0.047239 -0.205527 -0.218264 -0.299659 -0.169844 0.781470 0.261526 0.258293 0.418143 0.232140 0.011658 0.547806 0.942166 0.213932 0.464616 -0.360686 -0.257856 -0.687500 0.455038 0.106272 -0.599811 1.088893 -0.175039 -1.283962 0.325971 -0.367524 0.688155 -0.710569 0.338495 -0.385118 -0.216581 -0.787361 -0.728228 0.910235 0.418936 0.729220 -0.311648 0.627338 0.589724 -0.001366 -0.010722 -0.512127 0.439535 0.984521 -0.871255 1.170761 0.568282 -0.555664 0.335609 -0.522168 -0.749199 -0.726001 -0.242336 -0.548591 
64 0.170831 -0.107091 -0.399048 -0.359787 0.181375 0.804788 -0.170850 -0.188735 -0.599661 -0.285038 0.740192 -0.363609 0.015088 -0.559848 -0.041553 0.904167 -0.380155 0.327836 -0.047629 -0.544331 -0.890872 -0.184350 -0.028074 0.372175 -0.512660 0.199266 -0.241640 -0.448893 -0.406753 -0.013407 -0.174830 0.908852 -1.200541 -0.374944 0.284869 -1.033963 -0.055834 -0.537206 0.099236 0.964836 -1.160000 1.170246 -1.266383 0.276988 0.068112 1.042864 0.211629 0.387141 0.694008 -0.127718 0.193170 -0.259766 0.316767 0.062706 0.352072 1.518607 0.224747 0.284295 -0.228484 -0.741435 -1.320578 0.244147 -0.403011 -0.283892 
85 -0.018951 -0.483181 0.584681 -0.097769 -0.069908 0.411541 0.041385 0.284268 -0.555697 -0.511748 0.079773 -0.411459 -0.514587 -0.089102 0.381762 0.194124 0.131470 -0.165159 0.693140 -0.212823 -0.013538 0.413470 1.277797 0.538734 -0.075612 -0.579861 -0.859237 -1.137848 0.334991 0.661547 -1.047884 1.008831 -0.227428 -0.860786 0.692900 -0.247363 0.328588 -0.127009 0.012123 -0.101809 -0.292309 -0.402301 -0.362928 0.579857 -0.036755 0.769079 -0.994031 -0.408323 0.842824 -0.440794 -0.025151 -0.484729 0.145693 -0.092672 -0.198749 1.260271 -0.006506 0.159427 0.649372 -1.416145 -0.463329 -0.282660 0.026597 -0.333570 
12 0.368777 0.044629 0.212720 -0.158031 -0.137179 0.296964 0.215390 0.003299 -0.787738 -0.533445 -0.017139 -0.857570 -0.049765 0.196090 0.040237 -0.541830 1.034297 -0.616704 -0.650197 -0.584660 0.337552 0.332812 1.001044 0.466085 0.074931 -0.510171 -0.452448 -0.360270 -0.007366 0.039337 -0.370935 -0.072026 -0.047059 0.204623 0.203196 0.382331 -0.162358 -1.353150 0.453880 0.198389 -0.794217 -1.243764 -0.496464 -0.119942 -0.752584 -0.160068 -0.293958 -1.387811 -0.336824 0.011862 -0.572770 0.995950 -1.002567 0.008048 -0.184318 0.755615 0.037806 0.689608 0.711418 -0.760382 -0.675031 -0.365625 0.619502 -0.424082 
83 -0.145401 0.076937 0.717032 -0.043565 -0.349729 -0.204025 0.904477 -0.375290 -0.627799 -0.147814 -1.375606 0.732452 -0.541619 0.511123 0.680664 -0.245006 0.287402 0.287837 -1.021399 -0.708215 0.475315 0.115348 0.813644 -0.185886 -0.821565 0.122145 -1.153165 -0.736334 0.634401 0.064141 0.191487 1.075363 -0.108714 0.087260 0.616811 0.768862 -0.166574 0.056653 0.384200 -0.330558 -0.658958 0.649269 0.007382 -0.566131 -1.048490 0.208130 0.490106 -1.214285 -0.219107 0.521047 -0.074895 0.804386 -0.503003 0.726778 -0.008334 0.506237 -0.302668 0.521923 1.191390 0.526899 0.727360 0.793640 0.669751 -0.035891 
90 1.113724 0.937414 -0.002441 0.023178 -0.799130 0.304120 0.709197 -1.070891 -0.185706 -0.626250 -0.685305 0.385995 -0.938809 0.768610 0.752294 -0.308772 0.104154 0.047475 -0.805039 -1.075938 -0.326909 -0.575389 0.315344 -0.275832 0.017007 -0.535408 0.089184 -0.907768 0.641166 0.575726 -0.185022 0.160635 -0.050051 0.210773 -0.255215 0.669623 -0.358293 -1.011932 0.062039 -0.160341 -0.108181 -0.034826 -0.849527 0.474421 -0.002727 -0.841308 -0.304702 -0.533555 0.197672 -0.245774 0.016120 1.147529 -0.403435 0.564710 0.482539 1.483507 -0.295406 -0.412919 0.010972 -0.534468 -0.396452 0.593159 0.613583 -0.211909 
13 0.112102 -0.831433 0.030929 -0.395350 -0.134686 0.945806 -0.846981 -0.115193 0.299876 0.181258 0.171518 0.157703 0.421486 -0.351485 -0.156944 -0.017616 0.043843 0.467625 -0.311047 0.069773 -0.349641 -1.267817 0.349582 -0.855671 0.967745 0.700617 -0.044162 -0.301454 -0.888198 -0.132744 0.046758 0.229328 -0.621164 -0.273825 0.840436 -0.773749 -0.162904 0.860595 0.229046 -0.330413 0.422079 -0.137867 0.274534 0.720446 0.780039 1.180991 0.974806 -0.200405 -0.741584 0.519057 -0.392954 0.288743 0.415322 0.718296 -1.168407 0.006311 -0.025571 -0.403649 0.142172 -0.165090 -0.337574 -0.097364 -0.930230 -0.945882 
34 -0.233544 0.099145 -0.417674 0.148192 -0.214339 0.225060 -0.298961 -0.402748 0.444789 0.542859 0.323979 -0.121936 0.398969 -0.545018 0.569250 0.174076 0.087257 0.112841 1.126078 -0.307687 0.047910 -0.159547 0.337655 -0.853760 -0.017411 0.551284 0.438758 -0.033840 -1.203945 1.113834 -0.791864 -0.138012 -0.027162 -1.474970 -0.214483 0.671913 -0.827671 -0.159091 0.115365 -0.908313 0.431882 -0.607449 -0.931246 0.296828 -0.556201 0.609638 -0.279516 0.354058 -0.975219 1.106333 -0.686225 0.436941 0.183356 1.198941 -0.645523 0.392233 -1.232121 0.767260 0.455696 -0.111822 -0.796885 0.977175 -0.019388 -0.230317 
79 0.519642 0.358323 -0.507604 -0.515850 -0.460809 1.219243 -0.273231 -0.231619 0.303558 0.240917 0.859130 -0.190862 0.474302 -0.223025 -0.007876 0.335109 -0.001300 0.100542 0.501108 0.198619 0.900994 -0.172228 -0.282023 -0.726890 -0.047379 0.583734 0.489706 0.772122 -1.398077 1.436828 -0.566722 -0.040377 -0.184350 -1.229296 -0.604394 -0.638370 0.484002 0.474235 -0.336765 -1.098507 -0.698264 -0.804725 -0.080259 0.582111 0.203245 0.366257 0.854081 -0.462617 -1.053718 0.642539 -0.451684 -0.372112 -0.003766 0.806821 -0.792086 -0.247777 -0.346390 0.110939 0.696135 0.450202 -0.176007 -0.004729 -0.589712 -0.755385 
89 0.804852 0.324399 -0.545236 -0.729295 -0.189949 0.654640 -0.335233 -0.474110 0.468325 -0.062785 0.094500 -0.243425 0.104034 0.245224 0.950887 0.704191 -0.593408 -0.010842 0.961461 -1.053293 0.041145 -1.070718 0.822885 -0.116565 -0.113525 0.624360 0.755769 0.616344 -0.913334 -0.055003 -0.229522 -0.227813 -1.078578 -1.372324 0.067002 -0.549414 -0.331583 0.010268 -0.562951 0.070314 -0.187077 -0.210961 -0.660334 2.015891 0.906839 0.423111 -0.097713 -0.537596 -0.558967 0.175319 -0.259318 -0.029983 0.608571 0.761799 -0.337995 0.436309 0.115874 -0.720441 0.171941 0.230273 -0.490161 -0.250907 -0.527437 0.125185 
14 0.232046 0.630082 -0.464653 0.221430 -0.726857 1.372425 -0.168969 -0.234380 -0.692510 -0.055338 -0.279867 -0.714307 1.211435 -0.968255 -0.679677 0.464312 0.833636 1.321400 0.690124 0.391302 -0.581391 0.033554 -0.049651 -0.975039 -0.549979 0.634291 -0.438309 -0.173732 -0.801065 -0.132570 0.022329 -0.261078 0.197515 -1.079218 -0.241554 -0.015225 0.017666 -0.241442 -0.387991 -0.706164 -0.589273 0.005057 0.139645 0.415500 -0.293848 -0.038949 0.329318 -0.011881 -0.600699 -0.002281 0.379897 0.295086 0.044248 0.011902 -0.620245 -0.453609 -0.096258 -0.436104 0.394902 0.280130 -0.862769 -0.441386 0.337969 -0.036756 
50 0.238438 0.047437 -0.017892 0.459511 -0.705621 1.028039 -0.766370 -0.177355 -0.026463 -0.215199 -0.489777 -0.285942 1.033159 -0.984753 -0.990130 0.573461 0.086304 0.594394 0.676430 0.133030 -1.123588 -1.599869 0.013819 -0.722584 -0.162814 0.703477 -0.378723 -0.441302 -0.449057 -0.914417 0.338191 -0.349592 -0.423771 -1.240035 0.080365 -0.178353 0.090698 0.428678 0.457534 -0.435618 0.311493 0.327470 0.538024 0.628617 0.031692 -0.397324 0.513929 -0.508798 -0.270328 -0.062803 1.359390 0.194801 0.563690 0.371732 -0.517875 -0.229715 0.341134 -1.125128 0.060515 0.097045 -0.792446 -0.496694 -0.114961 -0.465664 
15 1.286065 -0.411122 0.167059 -0.219869 -0.163889 0.693064 0.804738 0.132831 -0.126366 -0.068824 1.337380 0.306548 0.244027 0.244181 -0.794153 -0.927944 0.037062 -0.157575 -0.243487 0.485891 0.432612 -0.155418 0.690310 0.458616 0.531935 0.725197 -0.073262 0.038801 -0.541225 -0.065230 -0.701466 0.711876 -0.041603 0.064639 0.473415 -0.784242 0.430091 -0.146181 0.400834 0.170410 -0.717471 -0.321965 -0.177701 0.181155 0.016405 0.808188 1.347871 -0.343275 -0.675547 -0.566168 0.225334 0.327775 -0.737264 0.422658 -0.356947 0.030585 -0.193199 0.015137 0.262440 0.934923 0.119626 -0.635501 -0.848844 0.013877 
86 0.689524 -0.028623 0.336806 -0.018058 -0.360384 -0.161608 0.636688 1.239500 0.967452 -0.814926 1.003390 0.386577 -0.776094 -0.639334 -0.170838 -0.643185 0.160916 1.504855 0.366963 -0.608657 -0.428978 0.412082 -0.939565 0.370410 -0.031052 -0.233587 -0.103726 -0.091646 -0.415884 0.104555 0.136366 0.880103 -1.209476 0.087515 -0.245493 -0.272261 0.073091 -0.124780 0.031896 0.704287 -0.287757 1.193298 -0.317763 0.068293 -0.312910 -0.829777 0.671658 0.209337 -0.484049 -1.165383 -0.787121 0.998032 -0.179792 -0.012377 0.578083 0.422547 -0.822137 -0.280288 0.947482 0.658395 0.002872 0.597892 0.189365 -0.690350 
93 0.750333 -0.636611 -0.258611 0.284550 -0.367067 -0.294818 0.350428 1.222773 0.462801 -0.518219 0.225616 0.136134 -0.185034 -0.836208 -0.125420 -0.135667 0.333285 1.555176 -0.037445 -0.886533 -0.867785 0.339442 -0.220303 -0.332668 -0.202996 -0.312428 -1.074327 -0.644844 -0.160381 0.353995 0.053683 1.110286 -0.289000 0.164455 -0.666541 -0.398724 0.031115 -0.085215 0.320971 0.630602 -0.605059 0.374687 0.429584 -0.229149 0.785616 -0.991093 0.389762 0.476862 0.038696 -1.383777 0.016628 0.257971 -0.219372 0.714414 0.558315 0.227913 -0.279821 -0.217144 -0.112749 0.767138 0.606946 0.730665 -0.270545 -0.880271 
97 1.302412 -0.353083 -0.051056 0.008089 -0.335055 -0.397899 0.808566 0.629482 0.644397 -0.132416 0.215631 -0.332416 0.188269 -0.618477 0.099127 -0.811172 0.964329 1.133428 0.428047 -0.252023 -0.009476 0.114144 0.286214 -0.002610 -0.700486 -0.777980 -0.917845 0.314375 0.237190 -0.699001 0.095594 0.514185 -0.721118 -0.722049 -0.289979 -0.457952 0.079264 -0.619480 0.494083 1.041801 -0.884379 0.242368 0.331425 0.361666 -0.522576 -0.950679 0.587129 0.549826 -0.262383 -0.830837 -0.009961 0.429387 0.415964 -0.484511 -0.458759 -0.500845 0.829366 -0.415401 0.394520 1.283542 0.228306 0.617411 -0.101109 -0.022551 
16 0.715005 -0.280806 0.313522 -0.549256 -0.533142 0.583187 -1.321519 -0.662368 -0.209424 -0.248718 -0.413211 -0.224755 -0.586320 -0.019424 0.709051 0.669166 0.067528 0.402621 -0.178017 -0.249832 0.368967 -0.030867 0.246646 0.533747 -0.000371 -0.172241 -0.243186 -0.460860 0.591574 0.341939 -0.398853 0.870522 -0.090939 -1.168289 0.660184 -0.436437 -0.096431 -0.442825 0.476309 -0.040856 -0.785405 0.235425 -0.488021 0.248991 -0.313779 0.036713 -0.351508 0.163896 0.390756 -0.235450 -0.794712 0.056892 -0.229653 0.300183 -0.542583 1.403118 1.455011 -0.758170 0.682264 -0.409222 -1.137297 0.404528 -0.690032 -0.045151 
69 0.002383 -0.343027 0.672190 -0.404006 0.330940 0.261605 -1.083371 0.299893 -0.640354 0.327513 0.012136 -0.209540 -0.453834 -0.421790 0.917191 1.089879 0.658314 0.435450 -0.084895 -0.540129 -0.249062 0.363092 0.598289 0.110427 -0.332303 0.273785 -0.383036 -0.320838 0.126877 -0.407359 -0.814498 0.955356 -0.706323 -0.926396 0.660516 -0.449263 -0.411001 -0.486010 0.018606 1.049022 -0.885148 0.458326 -0.665636 0.003120 -0.127159 0.992658 -0.345080 -0.077762 0.044995 -0.019258 -0.318451 -0.737042 -0.309736 -0.480847 0.837101 1.107068 0.557365 -0.487115 0.464748 -0.530165 -1.294661 0.425106 -0.541029 -0.733510 
77 -0.040845 -0.919528 0.334162 -0.113905 0.176599 0.438335 -1.247237 0.262630 -0.367424 -0.732272 -0.151511 -0.107101 -0.072258 0.317059 0.947897 0.818653 0.342715 0.733080 -0.003890 -0.845322 -0.450039 0.162203 0.414152 1.001504 -0.625690 0.424962 0.347314 -0.153442 -0.399550 0.448313 -0.794657 0.807987 -0.712687 -0.603693 0.273686 -0.286639 -0.602664 0.562788 -0.050436 -0.240103 -0.904494 0.091080 -0.563150 0.858733 -0.359696 0.758858 -0.604525 0.120521 0.529185 -0.128490 -0.033617 -0.343838 -0.372523 0.311582 0.477391 0.898757 0.576271 0.088023 0.164239 -0.904646 -1.430918 0.479077 -0.884575 0.185666 
87 -0.803742 -0.923354 0.734672 -0.037477 0.207977 0.491707 -1.257452 0.263627 -0.914596 -0.186049 0.097643 -0.122245 0.477732 -0.003450 0.264294 0.319449 0.657329 0.168560 -0.521264 -0.014957 -0.032654 0.419578 0.271815 0.582334 -0.317604 0.077941 -0.581120 -0.503192 -0.099993 0.221630 -0.545582 0.819466 -0.483738 -0.437382 0.760770 -0.692443 -0.108764 0.514910 0.089160 -0.468150 -0.823448 -0.393781 0.135898 0.017818 -0.352734 1.046124 -0.098359 -0.273037 0.309691 0.198881 -0.576232 -0.531795 -0.621562 0.049940 -0.413635 0.673855 0.761792 0.285563 0.975027 -0.945939 -0.965199 0.301291 -0.706247 -0.865458 
17 0.044684 -0.557638 1.024057 0.214098 0.663114 0.287813 -1.096981 0.649701 -0.237728 -0.950461 -0.605588 0.008912 0.124943 -0.035875 0.071712 1.093374 1.297011 -0.352676 -0.299869 -0.720759 -0.268400 0.083716 0.872949 -0.171742 0.376186 -0.074747 0.259873 0.000666 -0.433354 0.047926 -0.609542 0.542669 -0.265618 -0.607733 -0.598072 0.958749 -0.422367 -0.402742 0.097528 -0.301006 -0.079551 -1.018610 0.101072 0.722674 0.273239 0.510773 -0.126799 0.027540 -0.921670 0.528664 0.577596 -0.432767 0.444661 0.170831 0.385834 -0.096761 -0.467175 0.523566 -0.426737 -0.620689 -0.943439 -0.546840 -0.166733 -0.712577 
66 0.052038 0.045619 0.706661 -0.689420 0.090052 0.541726 -1.703344 -1.071806 -0.179123 -0.207281 -0.307895 -0.431713 0.151853 -0.088822 0.617356 0.406304 -0.153431 0.125405 -0.294835 0.049597 0.089137 -0.346496 0.281239 0.316259 0.115677 -0.221332 0.012271 -0.522542 -0.200904 0.449507 -0.255467 1.327928 -0.335141 -1.261835 0.459468 -0.592725 -0.132506 0.503898 0.287918 -0.237381 -1.291006 0.283940 -0.319328 0.177384 -0.035726 0.389104 0.686201 0.463673 0.315109 0.033655 -0.273548 0.142563 0.168681 0.246842 0.036052 1.538957 1.325482 -0.486009 0.102634 -0.318904 -1.417281 0.861117 -0.426372 -0.074876 
81 0.292591 0.548375 1.356764 0.015095 0.155443 0.394101 -0.487592 -1.206105 0.502466 -0.508899 -0.353412 0.217263 0.406582 0.143684 -0.214446 0.181429 0.444427 -0.623272 -1.074198 0.256469 -0.262143 -0.886488 0.636140 0.005112 1.043844 0.259428 0.267318 -0.454078 0.027194 0.179546 0.588841 1.172435 0.539895 -0.254601 0.736431 1.209695 0.777023 0.045954 0.375662 -0.187458 -0.460413 -0.435011 -0.242111 0.524185 0.609112 1.146763 0.768862 -0.489931 -1.100897 0.198102 0.355974 -0.003449 0.297810 0.556006 -0.847381 -0.191327 0.489976 -0.076934 -1.043355 0.367185 0.397451 -0.206020 -0.574612 0.002817 
18 1.396273 0.201246 -0.140149 -0.463840 -0.012475 0.243064 0.809391 0.677678 -0.222826 0.384475 0.934312 -0.211805 -0.038140 -0.158841 -0.364625 -0.434099 0.945150 0.498929 0.727850 -0.398310 -0.017157 0.334433 0.805358 0.444655 -0.125192 -0.026181 -0.797687 0.155395 -0.357608 -0.723427 -0.354736 0.548432 -0.573690 -0.280481 0.932414 -0.709595 0.055855 -1.019688 1.008641 1.398433 -0.653297 0.527319 -0.333704 0.010661 -0.127659 0.199569 0.522519 0.359941 -0.222713 -0.442032 -0.093247 0.098514 0.123732 -0.494718 0.248047 0.150629 -0.177116 -0.046640 0.641710 0.875671 -0.511852 0.073833 -0.745790 -0.262038 
84 0.688872 -1.160352 -0.023509 0.385715 0.006108 -0.605834 0.799090 0.697450 0.555908 -0.337975 1.367264 0.282824 -0.013998 -0.834601 -1.044726 -1.026427 -0.210061 0.967414 0.128635 0.372753 -0.409987 0.455980 -0.482027 0.370937 -0.445638 0.014100 0.002557 -0.503510 -0.293144 -0.369658 -0.035458 1.439967 -0.819571 -0.124178 -0.125540 -0.561523 0.561633 -0.226240 0.014006 0.668870 -1.110050 0.272403 -0.576547 -0.750834 -0.597276 0.451739 0.930924 -0.194721 -0.521103 -0.589650 -0.333446 0.472930 -0.307510 0.067629 -0.213136 0.219679 -0.127875 -0.214891 1.210013 0.939873 0.112040 0.100798 -0.157803 -0.017157 
98 1.226784 -0.744595 -0.025325 -0.033061 -0.556658 0.038643 0.335445 0.778525 0.290510 -1.106589 0.736210 -0.050624 -0.159109 -0.027626 -0.388957 -0.998321 0.825640 0.981259 0.432356 0.233689 0.435088 0.851961 -0.011463 0.474757 -0.203258 -0.920928 -0.809530 -0.184771 -0.055543 0.506597 -0.254580 1.048070 -0.324297 -0.119237 -0.302758 -0.602050 0.773845 0.401690 0.845108 -0.371335 -0.615993 -0.109404 0.411842 0.038830 -0.347022 -0.848531 0.869039 0.502204 0.379472 -1.063418 0.152975 0.197658 -0.269380 0.468888 -0.396177 -0.013652 0.535338 -0.014577 0.772124 0.952516 0.308218 0.061684 -0.499297 -0.179358 
19 -0.165414 -0.695726 -0.901516 -0.189022 0.072240 0.256155 -0.066334 0.414780 -0.123870 -0.565223 0.023617 0.409819 -0.224531 -0.444251 -0.858954 -0.098089 0.247797 0.849989 1.111045 -0.651394 -0.638482 -0.440116 1.091948 -0.004331 0.535158 -0.012412 0.262550 -0.117120 -0.418216 -0.428375 -0.565864 0.789748 -0.009223 -0.393014 0.611202 0.543188 -0.864929 -0.738476 0.736307 0.003722 0.917566 0.765846 -0.015551 -0.118034 -0.794618 0.126589 0.123209 -0.074855 0.424987 0.033942 0.258661 1.237026 0.404168 1.216472 -0.395715 0.110039 -0.955049 -0.018996 0.829042 -0.110810 -1.010873 -0.201482 -0.493046 -0.457562 
23 -0.099958 -0.007208 -1.187002 -0.183682 -0.563117 0.468393 0.037760 0.435965 -0.140946 0.429656 0.559013 -0.104417 0.292284 -0.243920 -0.825412 -0.192389 -0.309066 0.556606 0.672760 0.135649 0.377134 0.023573 0.563793 -0.253637 0.567121 0.646137 0.353336 0.481556 -0.955193 0.831013 -1.163521 0.870678 0.239422 -0.484949 -0.201377 0.085157 -0.644767 -0.467559 0.638568 -0.160031 0.266629 0.515507 -0.265649 -0.496666 -1.259610 0.780668 0.193990 -0.220786 -0.186003 0.303080 -0.402243 0.503574 -0.085605 1.294822 -0.596199 0.245732 -1.155892 0.320845 1.260624 0.251297 -1.069191 0.459165 -0.080290 -0.313489 
24 -0.159671 0.252930 -0.426320 0.657298 -0.231855 0.107646 -0.297563 0.550146 0.194537 0.558519 0.697639 -0.590788 0.645549 -0.562235 -0.857646 -0.353325 -0.254242 0.568538 0.607913 0.305300 -0.359004 0.232350 0.946345 -0.301892 0.555750 0.209576 -0.045954 -0.250172 -0.654035 0.267404 -0.976316 0.977145 0.369054 -0.623432 -0.089302 0.454502 -1.468980 -0.543498 0.959686 0.014948 0.491663 0.658301 -0.590109 -0.496093 -1.016073 0.850716 0.127923 0.288640 -0.230704 0.325687 0.023847 0.719176 0.142047 0.490074 0.057784 0.300503 -0.848904 0.325930 0.512066 -0.054810 -1.062648 0.925202 0.328504 0.123305 
20 0.778928 -0.174139 0.178842 0.354129 0.403470 0.300867 0.246828 0.396863 0.159648 -0.777372 0.924504 -0.102333 -0.376974 -0.101429 -0.493333 0.896830 0.565148 0.330487 -0.822743 0.025662 -0.974732 -0.152281 -0.327115 -0.541577 -0.011561 0.452067 -0.455072 -0.389053 0.641738 -0.272252 -0.839222 0.780905 -0.393279 -0.124718 -0.631137 0.032200 0.041931 -1.071177 0.013800 0.795018 -1.158660 0.556000 -0.380247 -0.216123 0.175110 -0.798842 0.725042 -0.264630 -0.146880 -0.830739 0.778250 -0.124185 -1.313773 0.355786 1.013050 0.548095 -0.682884 -0.638544 -0.057379 0.222356 -0.105921 -0.150217 -0.534877 -0.964584 
57 0.173049 -0.123320 -0.088837 0.183388 -0.241617 0.369289 1.096454 0.005900 -0.558577 0.171127 -1.432300 -0.393375 0.338378 -0.004996 0.327070 -0.712037 1.181234 0.283365 -0.539446 -0.784075 0.106357 -0.090642 0.985186 -0.011529 0.031026 -0.174952 -1.364795 -0.398020 0.070679 -0.196904 -0.004262 0.154934 -0.077385 0.410571 0.386821 1.000178 0.312860 -0.012647 0.756340 -0.001705 -0.367941 -0.689828 0.679928 0.064572 -0.679838 -0.068883 0.056646 -1.148681 -0.308465 -0.430397 -0.091042 1.349123 -0.426918 0.586501 -0.791752 0.171150 0.336606 1.084929 0.202560 -0.292839 0.607330 -0.166351 0.606975 0.206340 
76 0.958481 -0.367736 -0.202727 0.204719 -0.035805 0.628098 -0.029685 0.237586 0.027656 -0.486653 0.955054 -0.834937 0.483274 -0.974223 -0.508854 -0.394191 0.194290 0.683491 0.479282 0.558437 -1.160393 0.205617 0.361164 -0.606951 -0.726850 -0.354017 -0.838324 -0.111474 -0.705653 -0.787042 -0.598383 0.980338 -0.671449 0.087121 -0.187683 0.001406 0.127616 0.271467 -0.159905 0.630602 -0.942146 0.245189 0.601981 -0.223213 0.186755 0.042479 1.067602 -0.680427 -0.214085 -1.333767 0.799597 0.271781 -0.789671 -0.748500 0.412850 -0.097088 0.683342 -0.136916 0.422797 0.905572 0.545812 -0.700945 0.259907 0.456619 
21 0.676288 -0.162314 -0.157610 -0.555721 -0.226348 0.931011 -0.785201 -0.130155 0.383144 0.591161 0.371055 -0.310964 0.338904 -0.162084 -0.510710 0.242941 0.089773 0.150687 -0.167505 -0.017232 -0.065392 -1.108306 -0.146135 -1.092663 0.605113 0.796731 -0.231814 0.166649 -0.987085 0.193765 0.030646 0.043951 -0.666824 -0.349926 0.769561 -1.072086 0.064208 0.588665 0.080789 -0.010392 -0.247180 -0.072144 0.454315 0.631537 0.634476 0.679077 0.985866 -0.760713 -0.936124 0.618998 -0.102013 -0.223043 0.279847 0.352952 -0.722872 -0.140391 -0.068978 -0.456956 0.520916 0.082915 -0.007702 0.069274 -0.849119 -1.244128 
38 0.083105 -0.809496 -0.776578 -0.418654 -0.028293 0.266502 -0.777944 0.309741 0.301357 -0.016634 0.310371 -0.153725 0.030683 -0.280771 -0.712876 -0.040353 -0.356727 0.662849 0.878133 -0.271089 -0.798428 -0.987369 0.922868 -0.834780 1.052466 0.187725 -0.003015 -0.132442 -0.869850 -0.478344 -0.193134 0.394937 -0.493445 -0.223329 0.815243 -0.346763 -1.147256 0.091885 0.716491 0.135776 1.100214 0.617706 0.158303 0.479138 -0.017406 0.801856 0.271371 -0.198897 -0.097762 0.417886 -0.011403 0.784251 0.772133 0.865211 -0.619305 -0.054679 -0.676191 -0.293711 0.594427 -0.137443 -0.766709 -0.201349 -0.725398 -0.668501 
25 0.662591 -0.528416 0.112788 -0.199944 -0.979053 1.404108 -0.218178 -0.133622 -0.056288 -0.159379 -0.372462 0.494164 0.854267 0.108981 -0.592866 -0.175977 0.371038 0.700590 -0.522440 0.493355 -0.087394 -0.761372 -0.289089 -0.060153 0.337609 0.785190 0.035266 -0.187187 -0.959802 0.427690 -0.155810 0.112473 0.114255 -0.226607 0.270715 -0.912542 0.599902 0.842812 -0.470927 -1.235215 -0.582286 -0.622641 0.375555 0.628405 -0.109202 0.645992 1.086040 0.177242 -1.044544 -0.402066 -0.050508 0.107577 -0.300029 0.493521 -0.973532 0.004296 0.260627 -0.223989 0.597888 -0.001423 -0.079135 -0.168272 -0.350916 -0.455472 
73 0.865445 0.204781 -0.162214 -0.644777 -0.042885 0.674754 0.109935 0.082305 0.386871 0.934410 0.465829 -0.400451 0.001299 -0.055447 0.169176 0.474320 -0.407392 0.189589 0.331814 -0.709621 -0.516216 -1.181580 0.394357 -0.788560 -0.012436 1.245017 -0.197407 0.486648 -0.227006 -0.825558 -0.275438 -0.223238 -0.890827 -0.582986 0.725445 -0.922707 -0.749353 -0.352172 -0.277165 1.149410 -0.884063 0.065786 0.244671 1.158167 0.927305 0.504420 0.326549 -0.740367 -1.002650 -0.298443 -0.250078 0.037624 -0.169219 -0.119991 0.152577 0.123462 0.086228 -1.011229 0.105564 0.539208 0.173847 -0.206366 -0.625171 -0.911858 
26 0.692564 0.050487 1.255681 0.362686 0.406122 0.448519 0.103718 0.400118 -0.233885 -1.061409 1.004427 0.001101 -0.255408 -0.332156 -0.914139 -0.077665 0.047769 -0.716324 -0.101305 -0.154512 -0.339173 0.332492 0.383809 -0.013659 0.662589 0.470494 -0.248037 -0.757315 -0.490032 0.985656 -0.603070 1.171984 0.482808 0.061328 0.405109 1.191178 0.315851 0.256649 -0.031921 0.113452 0.166973 -0.289151 0.213910 0.144488 0.521946 0.718889 0.424618 -0.938289 -0.571687 -0.400876 0.917441 0.307070 -0.582541 0.494640 0.372423 -0.096226 -1.339042 0.453834 -0.405177 0.272416 0.337644 -0.870255 -0.569470 -0.165400 
45 1.202891 -0.078809 0.044049 -0.031086 0.275549 0.456761 -0.631811 0.248242 0.667543 0.275322 -0.720069 -0.911756 -0.081257 -0.754496 -0.427225 0.774522 0.842618 -0.053983 -0.993743 -0.494355 0.111414 -0.577518 -0.197409 -0.410782 0.560147 0.052945 0.198731 0.110895 -0.502914 0.383223 0.632358 0.102169 0.085922 -0.327894 -0.964310 1.627032 0.053456 -0.701069 0.370904 0.468484 -0.281256 -0.437206 0.104514 0.549917 -0.357758 -0.190409 0.282485 -1.053436 -1.803037 0.534408 0.312921 0.370531 0.957709 -0.175190 -0.521724 -0.545656 0.070425 0.852892 -0.726143 -0.312872 -0.067807 0.171586 0.090411 0.748583 
28 0.317970 -0.676581 0.885209 -0.511827 -0.346119 0.848059 -0.461607 -0.008484 0.164668 0.640801 0.086577 0.419309 0.221536 0.256168 0.449230 -0.022191 -0.200023 -0.126814 -0.490131 0.189301 0.160780 -0.767137 0.445131 -0.159709 0.420385 0.469194 -0.515026 -0.020908 0.320657 -0.244909 -0.779316 0.476791 -0.400673 -0.939027 0.944606 -1.073275 -0.162081 -0.055623 -0.340181 0.036671 -0.671935 -0.625490 0.534060 0.756643 0.318215 0.847408 0.285210 0.080560 -0.771925 -0.434804 -1.360389 -0.143036 -0.159358 0.102840 -1.059540 0.508617 0.967082 -0.610830 0.850497 -0.274250 0.348971 -0.023805 -0.492343 -1.228765 
29 1.117190 -0.224984 0.036093 -0.743457 0.178689 1.140999 -0.501958 0.112062 0.174353 -0.730775 0.891818 -1.039355 -0.295563 -0.739482 -0.469525 0.745882 0.169671 0.206817 -0.009130 0.217310 -0.611557 0.221046 0.048688 -0.307546 0.071794 -0.335294 -0.426946 -0.571588 -0.764138 0.683456 0.052515 1.360355 -0.321770 -0.589074 0.040192 1.533336 0.618248 -0.048603 0.419232 0.277620 0.087082 0.153739 0.401485 0.273949 0.516644 0.337858 0.350133 -0.854022 -0.211737 -0.255191 1.303080 -0.180769 1.134835 -0.398978 0.176317 -0.111346 -0.419412 0.383953 -0.440735 0.119042 -0.148343 -0.545021 -0.708635 1.192497 
48 0.848698 -0.375650 0.079032 0.123818 -0.109018 0.321944 -1.049954 0.341212 0.956923 0.127765 0.837963 -1.339330 0.365431 -1.303604 -0.828542 0.145416 -0.271477 0.413598 -0.156891 0.524030 -0.572886 0.324062 0.239485 -0.290786 -0.064007 -0.252909 -0.780899 -0.951234 -0.319291 0.843684 0.500013 1.592045 0.419302 -0.917784 -0.226917 0.705002 0.694503 0.296754 0.395176 0.298335 -0.504650 -0.371985 0.011150 -0.264005 0.480364 0.795215 0.084077 -0.842896 -0.664612 0.072194 0.505503 -0.504067 0.944273 -0.133097 -0.246153 -0.465855 0.813138 -0.050480 -0.270810 -0.291439 1.023481 0.136400 -0.297606 0.356312 
55 0.648259 0.024576 0.115856 0.091474 0.101053 0.678615 -0.732144 0.259254 0.806783 -1.242255 0.677479 -0.414830 -0.124315 -0.582740 -0.678744 0.869416 1.331498 0.334985 -0.209184 -0.244251 -0.123689 0.293715 0.292545 -0.184792 0.110961 -0.138556 -0.321478 0.011329 0.520896 0.249011 0.196380 0.993166 0.275230 -0.731651 -0.126071 1.148242 0.536585 -1.044232 1.053536 -0.042012 -0.362794 -0.249425 -0.139488 0.134741 0.904520 0.046810 0.260016 0.192062 -0.456608 0.378551 0.807778 -0.574284 0.597629 0.483391 -0.344586 -0.812073 -0.088886 -0.421270 -1.218107 0.112717 -0.184722 -0.475961 -1.507007 -0.447924 
75 1.115234 0.760540 1.124150 -0.054795 0.361625 0.785679 -1.270459 0.254563 0.640697 0.522027 1.166296 -1.204997 -0.102532 -0.045393 -0.574204 0.703600 0.091341 -0.707410 0.241603 0.364552 -0.577059 0.196813 -0.078087 -0.843065 -0.225098 -0.004853 -0.820606 -0.002783 -0.295596 0.859782 -0.320025 1.011321 0.195441 -0.872735 0.135661 0.898347 -0.008796 -0.226156 0.150522 0.280709 -0.081365 0.178588 0.366171 0.368254 0.648666 0.447196 -0.008211 -0.704060 -1.108913 0.843614 0.678792 -0.670849 0.611743 -0.818542 0.939331 -0.540190 -0.237443 0.239573 -0.028238 -0.427775 0.859316 0.185496 -0.388823 -0.509052 
30 0.671241 0.104253 0.057066 -0.290935 -0.034380 0.732964 -1.523316 -0.038083 0.536686 1.009951 -0.549688 -0.794837 0.366690 -0.456815 -0.076585 0.959918 0.553242 0.023388 -0.023807 -0.330314 -0.308974 -0.719020 0.026092 -1.127098 0.431542 0.538371 -0.490212 -0.119434 -0.806615 0.259901 0.358017 0.085530 -0.329735 -0.796472 0.464832 -0.221494 0.275183 0.624315 0.143983 0.277906 0.410125 0.264400 0.290185 0.650458 0.392601 0.732800 0.279168 -0.758927 -1.198023 1.065099 -0.142931 -0.697103 0.944843 0.176871 -0.610029 -0.202154 0.696679 0.006972 0.842127 -0.687508 0.547857 0.523774 -0.081502 -1.321740 
74 0.706303 0.259834 0.961085 0.073733 0.542814 0.971320 -0.635468 0.178001 0.641087 -0.987851 0.944902 -0.080701 -0.046450 0.170839 -0.456503 0.533205 0.127235 -0.860541 -0.029601 -0.550541 -0.112743 -0.255740 0.403866 0.042663 -0.076177 -0.480611 0.114385 0.149730 -0.629187 0.999284 -0.183456 0.909291 -0.335574 -0.555547 -0.336815 1.224631 0.128353 -0.479431 -0.176834 -0.318514 0.002121 -0.480098 0.207414 1.055597 0.861820 0.160791 -0.079953 -0.736060 -0.758989 0.401932 0.580733 -0.166100 1.039366 -0.097486 0.161236 -0.706161 -0.946895 0.613109 -0.785217 -0.227656 -0.118615 -0.621519 -0.797811 0.322746 
31 1.166881 -0.385865 0.459077 0.028272 0.393782 0.247393 0.950234 0.237501 -0.308064 0.302558 1.068723 0.319070 -0.155411 0.164026 -0.442421 -0.185995 -0.140978 -0.181714 -0.194726 0.191633 -0.029057 0.167197 0.756757 0.367777 -0.272810 0.792239 -0.451589 0.115256 -0.271207 -0.341794 -1.006073 1.130209 -0.172334 0.131320 0.511691 -0.536930 -0.286608 -0.717130 0.358378 1.166979 -1.002974 0.888415 -0.498981 -0.352743 -0.809917 0.714229 0.916877 -0.541862 -0.342536 -0.504369 0.470044 0.110161 -0.962821 -0.236895 0.361019 0.231794 -0.423731 0.351031 0.974919 0.805087 0.062486 -0.164709 -0.393666 0.262590 
53 0.103871 0.078666 0.048015 0.125447 -0.985591 0.790331 0.429700 0.258599 0.061474 -0.631861 -0.245685 -0.099252 -0.547426 -0.253415 0.245613 -0.859233 0.519145 0.245150 -0.447604 -0.630007 -0.399765 -0.692501 0.967982 0.238860 0.630177 -0.885869 -0.571152 -0.604605 0.132884 0.382198 0.192309 -0.042939 0.502996 0.755909 0.070315 -0.040820 -0.065488 -1.023220 0.910080 0.346197 -0.303619 -0.115625 -0.367495 0.169982 -0.660561 -0.587257 -0.897026 -0.155302 -0.296946 -1.296121 -0.876346 1.327788 -0.621790 0.512602 -0.772452 0.501114 0.104339 0.766316 -0.323097 -0.806173 0.369364 -0.213123 0.565660 -0.796469 
35 0.458982 -0.051519 -0.037254 0.002056 -0.632908 0.862814 1.102274 -0.066512 0.367157 0.146257 -1.330869 0.357989 -0.734575 0.376908 0.545713 -0.430242 0.401536 0.152372 -0.391974 -0.919569 0.295102 -0.885159 0.728068 0.191249 0.481143 0.232561 -0.167828 -0.581448 0.252230 0.544036 -0.519468 0.024365 0.318899 0.128483 0.096653 0.633930 0.086881 -0.620390 0.297692 -0.248916 -0.177069 -0.036260 -0.198639 0.561908 -0.735910 -0.410553 -0.294904 -0.576766 -0.453754 -0.652408 -0.560647 1.141776 -0.175459 0.929984 -0.634753 0.651262 -0.338207 0.595239 0.071202 -1.135886 0.184774 0.120812 0.610237 0.110090 
54 -0.299989 0.198812 0.774785 0.809429 -0.253089 0.456601 0.212313 0.295240 -0.817988 0.592876 -0.534129 0.891764 0.568079 0.513013 -0.007134 -0.172370 0.271245 -0.260050 -0.380662 -0.930084 -1.074876 -0.656990 0.813270 -0.090245 -0.083945 0.762781 -0.566778 -0.326375 0.283424 -0.194500 0.015460 -0.312167 0.399679 0.818075 0.961601 0.100259 -1.302336 -0.342457 0.652241 0.229083 -0.283404 -0.487431 0.445846 0.272382 -0.530788 0.785743 -0.754103 -0.506308 -1.113925 -0.834096 -1.168788 0.570185 -1.109442 0.738822 -0.622200 -0.030431 0.202894 0.881216 0.697411 -0.111427 0.873774 0.047910 -0.329691 -1.287950 
36 0.182250 -0.829050 0.512999 -0.080264 -0.820569 1.049144 -0.048700 0.070384 0.632888 0.207918 0.050766 0.505564 0.817131 0.133335 0.307516 -0.211006 -0.245643 0.063125 -0.401248 0.449614 0.208862 -1.601325 -0.302031 0.076944 -0.115068 0.709480 0.103281 0.133982 -0.227566 -0.164323 -0.817707 0.083138 -0.489273 -1.459230 -0.340097 -0.789602 0.355133 0.563397 -0.128500 -0.946542 -0.519264 -0.631924 0.638367 0.797272 -0.030323 -0.309153 0.824801 -0.054580 -0.859693 -0.130061 -0.275145 0.181722 -0.339697 0.684208 -1.131176 0.106784 0.945636 -0.638846 0.651258 0.118687 0.190807 0.174497 -0.218790 -0.884294 
37 0.262369 0.144119 1.002473 0.100222 -0.004310 0.533044 -0.764373 -0.099258 -0.172561 -1.662920 0.779306 -0.578846 -0.127174 -0.279174 -0.394040 0.004854 0.525453 -0.431197 -0.366376 -0.085520 -0.831583 0.179950 1.020678 0.243557 0.733582 -0.548640 0.153411 -0.590416 -0.228555 0.504048 0.027123 0.883361 0.450535 0.020868 0.159143 1.168212 0.061394 -1.075816 0.741014 0.104103 0.212738 -1.418043 -0.859251 0.436501 0.296589 0.480350 -0.572486 -0.219880 -0.012375 -0.129734 0.524736 0.671561 -0.107275 0.574659 0.134651 0.182284 -0.406380 -0.004151 -0.951368 -0.557089 -0.661199 -1.008446 0.012181 -0.338755 
70 1.092838 0.853998 0.089043 0.025224 -0.203379 0.020422 1.724680 0.487850 -0.464955 0.725638 -0.805617 0.278965 0.049037 0.116918 -0.140780 -0.719167 0.525511 0.037719 0.125093 -1.351001 0.606595 -0.060794 1.232718 0.285262 0.531981 0.180485 -1.099892 -0.487474 -0.188025 0.613350 0.247407 0.022338 0.156605 0.465760 0.893072 0.175209 0.194885 -0.641683 1.408686 0.700330 -0.144229 -0.185877 -0.067370 0.294628 -0.265888 -0.125976 -0.051086 -0.543520 -0.455891 -0.470774 -0.193414 0.942331 0.301422 0.663145 -0.405360 -0.037155 -0.614408 0.854052 -0.067863 0.214734 0.432746 0.294030 -0.067844 -0.075482 
43 1.041506 -0.072623 -0.264730 -0.362505 0.084189 0.354538 0.538789 0.880988 -0.267660 0.110197 1.237272 -0.079564 -0.169597 -0.133763 -0.657222 -0.479768 0.573644 0.508521 0.517021 -0.096024 0.008162 0.377910 0.819410 0.326806 0.556970 0.356581 -0.379508 0.120323 -0.720047 -0.376889 -0.852604 0.668420 -0.231976 0.042305 0.579711 -0.400056 -0.261719 -0.474505 0.822810 0.951967 -0.136386 0.567362 -0.291786 -0.228647 -0.135981 0.542599 0.834379 0.229522 -0.276235 -0.577545 0.202400 0.502526 -0.290590 0.157896 0.636909 0.072567 -0.807840 0.135130 0.304424 0.844407 -0.645496 -0.264641 -0.814944 -0.268949 
47 0.946923 0.392506 0.060391 0.452247 -0.768930 0.721665 0.773196 -0.890790 0.644933 0.051470 -0.589638 0.600294 -0.517210 0.304315 -0.422823 -0.545152 0.288829 0.038212 -0.520148 -0.364728 -0.104771 -1.062148 -1.212690 -0.067755 -0.120642 0.485003 0.926049 -0.465869 0.175557 0.354858 0.079468 -0.242908 -0.114363 -0.006646 0.278200 1.555052 0.223051 -1.079835 -0.110998 -0.421319 -0.200300 0.292546 -0.594517 0.075008 -0.951528 -0.275370 -0.210433 -1.037774 -1.214944 0.688160 -0.756967 1.198655 -0.167828 0.291968 -1.212477 0.429435 -0.570018 -0.050388 0.876123 -0.397354 0.033564 0.417457 -0.008494 0.313536 
52 0.662239 0.686973 0.183455 0.304108 -0.316017 0.864507 0.341819 0.676646 -0.342420 0.394019 -0.164753 -0.558551 -0.461968 -0.397651 -0.290997 0.036462 -0.269939 -0.575444 0.230559 -1.001693 -0.059608 -0.203858 0.709054 -0.229113 0.220940 -0.314200 -0.923456 -1.003671 -0.012477 1.538012 0.006080 0.044529 0.579560 0.425698 0.203536 0.275833 -0.315805 -0.577244 0.743820 0.398721 -0.314092 -0.456272 0.116468 0.538423 -0.220933 -0.175697 -1.087069 -1.158064 -0.504239 -0.970181 -0.212864 0.357114 -0.048261 0.260245 -0.167586 0.468946 -0.416463 1.232140 -0.267911 -1.308104 0.770439 0.024576 0.330780 -0.232081 
62 1.597836 0.130147 0.101944 -0.548074 -0.114315 0.912798 0.435193 0.703717 0.347601 -0.627382 1.316067 -0.114541 -0.916242 0.134281 -0.172360 0.029866 1.202181 0.735006 0.261916 -0.191943 -0.063827 0.476941 -0.022319 0.412860 -0.066688 0.014132 -0.500848 0.139461 0.237152 -0.335059 -0.669660 1.000104 -0.376444 -0.351956 -0.017336 0.052632 0.400706 -0.947778 0.546997 0.598487 -0.305663 0.774306 0.091261 0.317749 0.613317 -0.673500 0.984626 0.433490 -0.112265 -0.746884 0.608613 -0.032810 -0.046225 -0.264074 1.149123 0.281320 -0.642280 -0.555726 -0.095318 0.604240 -0.395652 -0.127418 -0.934366 -0.211816 
49 0.559401 -0.990342 0.126398 0.089017 0.328415 -0.329973 0.156001 0.944731 -0.590926 0.104674 1.005203 -0.508558 0.561560 -0.568638 -0.769847 -0.568474 0.530548 0.185342 -0.361683 0.042592 -0.123420 1.023465 0.603351 0.426471 -0.471298 0.482618 -0.770446 -0.329774 -0.300054 -0.655366 -0.402558 1.088494 -0.179107 -0.078569 0.105757 -0.358717 0.108766 -0.362728 0.140066 0.885621 -1.322156 -0.591256 0.004484 -0.871126 -0.113317 0.950991 0.892515 -0.910631 -0.707670 -0.313655 -0.033159 -0.014702 -0.941912 -0.001256 0.451199 -0.069019 0.271512 0.261731 0.853069 0.801349 0.148960 -0.311301 -0.360754 -0.319313 
51 0.361111 -0.262482 0.072385 -0.515155 -0.535574 0.748657 -0.887085 -0.401208 -0.422202 -0.537978 -0.620255 -0.433110 -0.337193 0.053014 0.499008 0.237294 0.338418 -0.009758 -0.025770 -0.550028 0.836463 0.265733 0.744291 0.609275 -0.076969 -0.829527 -1.009237 -0.738797 0.547720 0.520220 -0.394066 0.835560 -0.052074 -1.046857 0.625577 -0.283670 0.121580 -0.759660 0.664174 -0.211924 -0.688658 0.434817 -0.380387 0.053873 -0.502099 -0.367738 -0.428412 -0.025766 0.656241 0.194657 -0.929035 0.119134 0.164370 0.379883 -0.801451 1.207012 0.954643 0.249488 0.693918 -0.835228 -0.930356 0.180298 -0.086182 -0.038034 
60 0.511084 0.107337 0.430606 0.076560 -0.176807 0.798507 1.301084 -0.425136 0.668454 0.003973 -0.584784 0.222709 -1.122629 0.037450 0.446113 -0.314598 0.623190 -0.048309 -0.121074 -0.387309 0.824038 -0.505134 0.386354 0.771612 -0.279973 0.278900 0.185177 -0.156486 0.577291 0.179282 -0.376389 0.599925 -0.062011 0.014624 0.488494 0.921218 0.495073 -0.953179 0.433693 0.219123 -0.521647 1.010665 -0.797913 0.052460 -1.711812 -0.035084 0.134103 -1.170865 -0.391533 -0.245557 -0.348684 0.741189 -0.320149 0.024264 -1.009823 0.269459 0.022923 0.409073 0.781778 -0.654201 0.005112 0.180996 0.364378 0.904899 
58 1.137217 -0.425911 -0.624927 -0.242539 0.071866 0.644321 1.067077 0.469149 0.638320 -0.362791 0.581672 -0.602768 -0.973993 -0.873780 -0.479055 0.024588 1.039292 0.543390 -0.193156 -0.120237 0.421251 0.067538 -0.444683 -0.117712 -0.056321 0.199655 0.114109 0.135871 0.038022 -0.353507 -0.237616 0.572103 -0.834676 0.127786 -0.724211 0.027979 1.076649 -0.631619 0.288439 0.895829 -1.419892 0.318199 -0.413193 -0.289356 -0.614862 -0.354641 1.514332 -1.050312 -0.577770 -1.036514 0.650315 0.372758 -0.656088 0.064661 0.251990 0.431843 -0.112356 -0.185692 0.207052 0.376081 -0.176235 -0.366312 0.068625 0.111053 
63 1.200202 0.475870 0.496361 0.150854 -0.195502 0.049900 -0.015348 0.610581 -0.753930 -0.672334 1.498570 -0.109477 0.227485 -0.184484 -0.638903 -0.567477 -0.065785 0.183876 -0.195635 -0.302992 -1.009215 0.297971 0.722609 -0.029739 0.091129 -0.387101 -0.867459 -0.101430 -0.724909 0.321737 -0.279607 0.510648 -0.071489 1.029251 0.589810 -0.959203 -0.769813 -0.834408 0.977264 1.434291 -0.700514 0.141409 -0.468967 -0.128346 0.156726 -0.143131 -0.100188 0.006430 0.026063 -1.277408 0.053067 0.633798 -1.117553 -0.085865 0.507072 0.113897 -0.020321 0.194681 -0.099977 0.860272 0.065162 -0.186107 -0.510248 -1.020118 
72 1.619786 0.218901 -0.059422 -0.121298 0.021542 0.275208 0.482017 0.595410 -0.135132 0.052069 1.095441 -0.340665 0.050881 0.044077 -0.804208 -0.202909 0.939154 0.047487 0.288903 0.034091 -0.069847 0.192864 0.164561 -0.529344 -0.008762 0.041784 -1.073637 0.302039 -0.351726 0.098372 -0.732796 0.239004 -0.155525 0.087810 0.407576 -0.786351 0.165464 -0.491207 0.901379 0.968048 -0.855235 0.214691 0.424751 -0.234372 0.087230 -0.603606 0.905720 -0.047720 -0.327456 -0.507811 0.602703 -0.205950 -0.795795 -0.164106 0.230320 -0.262981 -0.365044 -0.068871 0.478338 1.191101 0.393260 -0.051655 -0.973437 -1.117246 
