100 16
90 0.555495 0.487834 -0.0620486 0.0683163 0.356638 0.165417 0.759365 -1.24236 -2.44839 -2.53134 -1.79102 1.4186 0.94319 1.97197 -3.30856 4.06605
83 0.590723 0.311765 -0.354133 0.0852567 0.286223 0.469658 0.36103 -1.06638 -2.43839 -2.16333 -1.48603 1.09921 1.2436 2.01505 -3.51544 3.82206
40 0.383373 0.475341 -0.0922694 0.27236 0.415443 0.15477 0.633851 -1.07396 -2.51871 -2.23654 -1.64589 1.25643 1.07957 1.74113 -3.38095 3.41261
57 0.587002 0.485589 -0.215906 0.0877297 0.45371 0.229451 0.271565 -1.14796 -2.40517 -2.1443 -1.60561 1.18453 1.09836 1.7826 -3.58636 3.55635
100 0.229559 0.50119 -0.471522 0.37122 0.521993 0.56102 0.555888 -1.39952 -2.50937 -2.20332 -1.85487 0.903587 1.15736 2.2896 -3.77536 3.85125
60 0.592957 0.386641 -0.39932 0.0700309 0.408312 0.241642 0.458366 -1.08597 -2.532 -2.2351 -1.72465 1.32307 0.994971 1.60583 -3.48323 3.77886
54 0.596213 0.477091 -0.432542 0.0181623 0.447974 0.40552 0.406981 -1.10915 -2.47731 -2.14986 -1.64982 1.12341 1.04846 1.91109 -3.69602 3.56885
42 0.452977 0.46854 -0.31344 -0.235653 0.495803 0.436917 0.572627 -1.12277 -2.65647 -2.26752 -1.77226 1.24495 1.02286 1.87951 -3.69022 3.57568
73 0.218467 0.410211 -0.132194 0.181807 0.540855 0.273778 0.3528 -1.01732 -2.74906 -2.18201 -1.92638 1.3679 1.12644 1.8847 -3.64199 3.69376
25 0.484851 0.576044 -0.153976 -0.0133441 0.544191 0.17478 0.591171 -0.953466 -2.53324 -2.07448 -1.83282 1.1075 1.11866 2.02466 -3.19631 3.65087
78 0.491367 0.400608 -0.162139 -0.238586 0.262823 0.164869 0.402629 -0.936802 -2.56784 -2.06989 -1.77561 1.26097 0.841374 2.07092 -3.62027 3.56767
3 0.168485 0.714675 0.0869388 0.10369 0.385857 0.334434 0.772108 -0.832205 -2.28784 -2.02059 -1.44547 1.27875 1.01944 1.56242 -3.09217 3.34463
96 0.248017 0.434418 -0.0529207 0.0931163 0.474963 0.503041 0.481935 -1.22888 -2.68016 -2.27168 -1.64092 1.27514 1.23867 2.7094 -3.83918 3.89077
59 0.398085 0.653511 -0.160393 0.091088 0.502548 0.117089 0.524808 -1.09945 -2.4058 -2.31001 -1.62221 1.1202 1.12805 1.81734 -3.82153 3.35328
99 0.579095 0.203371 -0.364754 0.296 0.322114 0.383731 0.315877 -1.16735 -2.63422 -2.41095 -1.62733 1.14399 1.26393 2.50942 -3.73716 4.03982
47 0.355351 0.510629 -0.127415 0.267716 0.363903 0.33001 0.530062 -1.11669 -2.39386 -2.26405 -1.64584 1.23876 1.07391 1.94397 -3.3235 3.7027
49 0.548555 0.395545 -0.108903 0.0808726 0.350483 0.203743 0.608716 -0.977316 -2.35623 -2.29525 -1.51859 0.825194 1.33666 1.83 -3.5809 3.23041
97 0.61912 0.286282 -0.151803 0.0580159 0.410703 0.276022 0.35536 -1.04605 -2.69267 -2.26286 -1.75291 1.4229 1.4692 1.98221 -3.91255 3.95372
43 0.464306 0.469357 -0.0862224 0.0127129 0.119619 0.468635 0.598833 -1.13976 -2.39481 -2.14615 -1.79484 1.17912 1.26445 1.67144 -3.31778 3.48184
98 0.624571 0.406254 -0.229502 -0.0239557 0.19379 0.576781 0.208403 -1.29725 -2.48113 -2.24241 -1.41094 1.22074 1.24619 2.51363 -3.61339 3.90324
82 0.533517 0.545331 -0.420045 -0.093965 0.31566 0.36938 0.288844 -1.04826 -2.5262 -2.28021 -1.86708 0.968431 0.826998 2.40648 -3.57176 3.66008
33 0.514295 0.446319 -0.177056 -0.126758 0.396127 0.136602 0.452061 -0.906588 -2.56926 -2.25102 -1.68314 1.36534 1.06401 2.06386 -3.45426 3.42217
6 0.652302 0.414417 -0.139295 -0.157025 0.371825 0.142109 0.439764 -0.930342 -2.40897 -2.25914 -1.55098 1.3619 0.916848 1.60967 -3.22837 3.23805
88 0.87924 0.477247 -0.422582 0.153975 0.288725 0.491495 0.098494 -1.33381 -2.88885 -2.42237 -2.30552 1.59694 1.297 2.30947 -3.99404 4.15054
92 0.681007 0.393707 -0.0802169 0.121381 0.59024 0.0629292 0.667005 -1.12666 -2.47289 -2.47184 -1.74802 1.23812 1.30001 1.97471 -3.9857 3.6045
70 0.560475 0.406131 -0.239889 0.0119814 0.191173 0.414944 0.466557 -0.968409 -2.28187 -2.10348 -1.7303 1.21049 1.06052 1.75555 -3.28128 3.62685
46 0.534928 0.330747 -0.186745 0.187636 0.421848 0.366689 0.665835 -1.07389 -2.34605 -2.02844 -1.30178 1.18277 1.38584 1.78824 -3.38785 3.55424
45 0.321204 0.612109 -0.103772 0.0694634 0.220803 0.123542 0.686915 -1.05011 -2.47354 -2.05636 -1.65191 1.20833 0.984121 1.99923 -3.43559 3.49181
81 0.795997 0.507006 -0.437413 -0.269355 0.15631 0.102069 0.210581 -1.15712 -2.74898 -2.15753 -1.7824 1.42522 0.935932 2.02233 -3.68953 3.60519
75 0.0714448 0.714614 -0.214399 0.2193 0.0644873 0.237176 0.254942 -0.883053 -2.64023 -2.12154 -1.70397 1.27628 1.18036 2.27875 -3.5902 3.62803
91 0.590985 0.358327 -0.340669 -0.00963183 0.268381 0.162928 0.445079 -1.36336 -2.51928 -2.23316 -1.66181 1.23838 1.26203 2.34079 -3.60008 3.87728
8 0.493317 0.777013 -0.322898 -0.065588 0.244003 0.145841 0.664067 -1.30954 -2.48758 -2.04968 -1.87388 1.24248 1.09297 1.69484 -3.4246 3.37685
67 0.401175 0.731014 -0.252426 0.0315726 0.22297 0.149699 0.304787 -1.23281 -2.55267 -2.20379 -1.71404 1.29501 1.27699 2.00452 -3.62102 3.75753
55 0.434543 0.532659 -0.149765 -0.156418 0.213717 0.201364 0.328642 -1.4346 -2.69974 -2.09193 -1.48395 1.37361 1.10671 1.83911 -3.6489 3.49654
48 0.481622 0.534572 -0.136626 -0.0278031 0.0594389 -0.0444851 0.253612 -0.893772 -2.55858 -2.16286 -1.64864 1.30472 1.05615 1.93497 -3.56405 3.4177
94 0.343559 0.795394 -0.62708 0.151908 -0.00707253 0.357978 0.151972 -1.07866 -2.76798 -2.16757 -1.83659 1.02 1.18665 2.36739 -3.73285 3.90111
17 0.319756 0.707001 -0.265042 -0.127753 0.240824 0.354738 0.726717 -1.1774 -2.46384 -2.01564 -1.45624 1.3709 1.3423 1.65563 -3.23496 3.45384
29 0.437317 0.540269 -0.0966218 0.0106457 0.159931 -0.17401 0.258996 -1.04355 -2.52406 -2.12276 -1.7574 1.3408 1.04229 1.8596 -3.34748 3.39835
37 0.531088 0.729569 -0.29231 -0.00888706 0.27313 -0.0280191 0.699053 -1.19636 -2.54312 -2.13712 -1.63348 1.06512 1.25012 1.60032 -3.61113 3.28193
32 0.408406 0.723019 -0.337075 -0.0912093 0.250609 0.2387 0.694257 -1.23925 -2.55722 -1.93848 -1.53677 1.22498 1.3122 1.725 -3.54838 3.50091
71 0.512804 0.542496 -0.300442 0.10809 0.149942 0.0392402 0.578997 -1.11737 -2.62733 -2.0427 -1.65506 1.29116 1.23264 2.05786 -3.6278 3.66969
2 0.668882 0.518086 -0.335354 0.0380636 0.256326 0.247534 0.534313 -0.986207 -2.35451 -2.05074 -1.4053 1.31596 1.21364 1.52101 -3.2615 3.42394
95 0.487719 0.615614 -0.151329 0.250554 0.458374 0.356732 0.199292 -1.407 -2.47239 -2.47875 -1.67696 1.31396 1.06532 2.33918 -3.79482 3.84321
74 0.238706 0.832558 -0.232521 -0.0766922 0.221454 0.174394 0.4676 -1.3328 -2.72919 -2.16593 -1.7354 1.39278 1.06622 1.89447 -3.72018 3.6571
30 0.306473 0.52829 -0.0399474 0.0432779 0.299225 0.150943 0.432236 -0.793249 -2.44583 -2.08841 -1.68349 1.28717 1.03465 2.11722 -3.45153 3.44667
4 0.331752 0.425328 -0.183394 -0.106429 0.314357 0.436032 0.580062 -0.99148 -2.67772 -2.26463 -1.63742 1.24989 1.07529 1.75388 -3.37605 3.37355
79 0.544452 0.47113 -0.274287 0.137625 0.373587 0.346608 0.725697 -0.931809 -2.77894 -2.32719 -2.04352 1.18665 1.23114 2.5528 -3.60426 3.96465
89 0.39632 0.49303 -0.319938 -0.166313 0.611909 0.467592 0.363112 -1.31164 -2.79554 -2.22214 -1.87765 1.61479 1.17099 2.03228 -3.57879 4.08473
21 0.393556 0.478404 -0.0949882 0.030479 0.34232 0.254622 0.348395 -0.811298 -2.34659 -2.03439 -1.59057 1.28772 1.11237 1.96209 -3.3841 3.32886
80 0.66386 0.659476 -0.231329 -0.0143849 0.604609 0.197912 0.361942 -1.10266 -3.00319 -2.39369 -2.12884 1.36363 1.52541 2.44811 -4.03176 4.21037
39 0.600832 0.487089 -0.103381 0.0369196 0.553735 0.172662 0.288978 -1.19968 -2.86518 -2.30681 -1.93697 1.3254 1.33597 2.26397 -3.76805 3.88824
50 0.570282 0.638322 -0.0746836 -0.0118844 0.623699 0.254011 0.153478 -1.26443 -2.76363 -2.12267 -1.96166 1.44884 1.3331 2.42136 -3.77749 3.96712
14 0.547708 0.656184 -0.0499415 0.0725807 0.577952 0.216123 0.466843 -1.14712 -2.73089 -2.15743 -1.82595 1.26492 1.39672 2.03347 -3.50787 3.80522
65 0.694278 0.485344 -0.132848 -0.0427262 0.543849 0.329097 0.442867 -1.28671 -2.77481 -2.35067 -2.01691 1.27015 1.19366 2.58569 -3.72512 4.1667
7 0.705803 0.646472 -0.067337 -0.02923 0.503369 0.175046 0.569653 -1.12856 -2.7094 -2.25147 -1.80754 1.17944 1.42231 2.00713 -3.41029 3.74574
44 0.680819 0.519219 0.0202494 0.0143791 0.618939 0.112197 0.153287 -1.28469 -2.83314 -2.26934 -1.93342 1.47105 1.30552 2.22375 -3.83045 3.90479
5 0.794406 0.629764 -0.0465947 -0.0906624 0.544565 0.151631 0.57847 -1.02023 -2.66252 -2.10392 -1.81196 1.25058 1.35245 1.93633 -3.31996 3.72101
22 0.724606 0.725061 0.020317 -0.241383 0.461088 0.150155 0.693158 -1.09854 -2.46513 -2.05254 -1.75678 1.12197 1.31369 1.76213 -3.30067 3.67227
93 0.390646 0.288275 -0.259927 0.268333 0.254619 0.538859 0.0747723 -1.26444 -2.5476 -2.20478 -1.84354 1.16331 1.06795 2.19217 -3.50921 3.97997
15 0.64399 0.360166 -0.157637 -0.275577 0.202887 0.309012 0.759117 -0.939638 -2.33937 -2.15275 -1.6459 1.12362 1.0036 1.46585 -3.13786 3.36513
86 0.557086 0.407114 -0.17531 0.0607574 0.244018 0.379353 0.261983 -1.15472 -2.45962 -2.27823 -1.73928 1.08351 1.16252 2.11555 -3.79675 3.55911
68 0.643221 0.547593 -0.175838 0.166635 0.321236 0.462347 0.418092 -1.53267 -2.58663 -2.34934 -2.33664 1.40502 1.17977 2.43966 -3.94815 3.84582
61 0.871107 0.474829 -0.22351 0.0283935 0.355525 0.50672 0.539794 -1.44096 -2.64696 -2.38468 -2.16027 1.53411 1.21622 2.25603 -3.82474 3.89546
27 0.697749 0.476859 -0.205557 0.150081 0.355734 0.460171 0.484165 -1.28636 -2.58528 -2.27489 -2.08774 1.36629 1.21607 1.95428 -3.60946 3.49933
34 0.737256 0.470914 -0.249048 0.0771854 0.359975 0.47329 0.452989 -1.22622 -2.57073 -2.25634 -1.99017 1.42906 1.24843 2.03822 -3.59916 3.59233
38 0.63813 0.581797 -0.147388 0.0798055 0.329115 0.536838 0.55567 -1.27 -2.47487 -2.06687 -1.93986 1.47713 1.26519 1.9462 -3.65309 3.57319
13 0.644374 0.506742 -0.175468 -0.0596884 0.443852 0.29299 0.439505 -1.00144 -2.35652 -2.02877 -1.9121 1.34047 1.09673 1.80956 -3.31076 3.26718
69 0.346913 0.339019 -0.485509 0.124598 0.48142 0.0524462 0.494198 -1.31858 -2.42449 -2.38143 -2.04948 1.28037 1.35782 2.04143 -3.59971 3.74338
31 0.55872 0.52775 -0.107246 -0.0794053 0.241935 0.294924 0.66843 -1.05413 -2.33015 -2.15417 -1.60765 1.20695 1.09192 1.58984 -3.38637 3.41289
62 0.415603 0.489058 -0.03072 -0.0271029 0.214875 0.244848 0.234165 -1.07294 -2.49203 -2.16237 -1.6758 1.15492 1.09479 1.8273 -3.58268 3.43882
26 0.480598 0.43062 -0.0468017 -0.0971677 0.0655302 0.0865035 0.583366 -1.17102 -2.40736 -2.05388 -1.54958 1.05358 0.896306 1.63802 -3.01622 3.16432
36 0.510296 0.393934 -0.187841 -0.214956 0.545466 0.158302 0.636037 -1.03487 -2.6857 -2.16307 -1.87133 1.17322 1.13359 1.95795 -3.5633 3.65509
23 0.660533 0.619737 -0.183945 0.0333325 0.268796 0.466136 0.539666 -1.24961 -2.46763 -2.19186 -2.01518 1.40371 1.19081 1.73999 -3.57235 3.48725
19 0.639551 0.644108 -0.185033 0.0111222 0.227584 0.463016 0.564222 -1.20887 -2.49592 -2.20641 -2.03957 1.4026 1.20034 1.76181 -3.57537 3.58747
24 0.669729 0.567154 -0.285524 0.0657727 0.267585 0.474828 0.514994 -1.27233 -2.59569 -2.18031 -2.0878 1.33704 1.19898 1.87806 -3.62598 3.67887
10 0.495138 0.489325 -0.176314 0.100123 0.257581 0.113327 0.610232 -1.0667 -2.41435 -2.11052 -1.54416 1.15691 0.999411 1.72022 -3.2325 3.17852
85 0.344301 0.586175 -0.494313 0.190442 0.237766 0.0300717 0.49636 -1.20306 -2.40426 -2.45595 -2.02182 1.10958 1.341 2.35658 -3.54447 3.74991
51 0.5037 0.423658 -0.456755 0.0752477 0.396756 0.18988 0.488624 -1.19267 -2.32198 -2.32937 -1.76309 1.23063 1.39922 1.9492 -3.482 3.60489
87 0.458244 0.443421 -0.433123 0.140014 0.553086 0.190903 0.15307 -1.27176 -2.34239 -2.32387 -1.82269 1.00647 1.49069 2.51171 -3.88678 3.50058
64 0.486017 0.412106 -0.383531 0.0427695 0.334249 0.0902647 0.499163 -1.08482 -2.49291 -2.40944 -1.8436 1.25601 1.43443 1.82497 -3.51694 3.51781
56 0.551605 0.663164 -0.474988 -0.200343 0.333082 0.0822703 0.671041 -1.20212 -2.39188 -2.38337 -1.79061 1.2445 1.41131 2.03936 -3.62702 3.72989
11 0.623419 0.492106 -0.361216 -0.0900926 0.288842 0.121843 0.643125 -1.10661 -2.41887 -2.35003 -1.59403 1.27955 1.33557 1.80212 -3.37613 3.43565
77 0.787265 0.267416 -0.650989 -0.0359097 0.251131 0.155434 0.336437 -0.957665 -2.53391 -2.49072 -1.76986 1.469 1.59448 2.31102 -3.64851 3.94381
58 0.345866 0.570813 0.0938049 -0.0438299 0.282928 0.227649 0.200445 -1.21868 -2.39899 -2.21739 -1.65462 1.38273 1.01672 1.60542 -3.50698 3.54969
28 0.457684 0.39556 -0.236531 -0.204311 0.590338 0.248038 0.632004 -1.19815 -2.39673 -2.33385 -1.75603 1.2244 1.11081 1.93451 -3.49446 3.31562
16 0.439412 0.634534 -0.308744 -0.112537 0.326992 0.183447 0.635265 -0.991165 -2.17434 -2.33682 -1.53738 1.33624 1.35182 1.66598 -3.14349 3.29163
35 0.532236 0.527853 -0.377429 -0.0102087 0.375873 0.331373 0.541432 -1.05483 -2.36334 -2.0849 -1.66144 1.19932 0.960775 1.57971 -3.34462 3.55951
66 0.441775 0.468291 -0.393902 -0.101401 0.266866 0.260587 0.48228 -1.21475 -2.38888 -2.29826 -1.69535 1.38039 1.42099 2.2633 -3.54098 3.67614
41 0.482659 0.582383 -0.413435 -0.0745723 0.330786 0.238501 0.475399 -1.17324 -2.46143 -2.46532 -1.76733 1.42392 1.32968 2.09781 -3.60206 3.68308
53 0.639294 0.464958 -0.263057 0.0165431 0.340805 0.123622 0.564923 -1.09865 -2.49907 -2.31023 -1.81149 1.16129 1.01337 1.68517 -3.59038 3.62292
76 0.464042 0.522252 -0.0627715 -0.0393927 0.289556 0.0921111 0.24849 -1.03246 -2.46617 -2.19399 -2.01547 1.11831 1.03365 1.97673 -3.54289 3.68681
20 0.339221 0.47283 -0.0648849 -0.0257053 0.308112 0.209233 0.153849 -1.16399 -2.31521 -2.12711 -1.64499 1.16889 0.952484 1.59198 -3.22763 3.31591
84 0.554883 0.39784 -0.0104679 0.0201141 0.290742 0.31808 0.406142 -1.27316 -2.50549 -2.28988 -1.81188 1.23196 1.16727 2.01727 -3.72085 3.59071
63 0.368172 0.450134 0.0412398 0.150237 0.244276 0.11443 0.635524 -1.17396 -2.39828 -2.29032 -1.79438 1.22027 1.05054 1.76152 -3.30191 3.47596
72 0.377564 0.634691 0.0420656 -0.0405999 0.161793 0.375473 0.441323 -1.01339 -2.471 -2.25981 -1.57462 1.37734 1.18268 1.8122 -3.53329 3.57069
12 0.427224 0.534849 -0.186886 0.0725003 0.437049 0.234077 0.779025 -0.970616 -2.17839 -2.01762 -1.49927 0.922171 1.17911 1.52595 -3.46148 3.17168
18 0.517645 0.456136 -0.0544829 -0.0446802 0.181522 0.273727 0.705062 -0.935802 -2.32197 -2.09022 -1.7167 1.18624 1.23079 1.50837 -3.40508 3.36349
52 0.335917 0.509957 -0.390668 0.172873 0.266334 0.183944 0.481961 -1.17347 -2.48277 -2.2258 -1.89269 1.07391 0.863175 1.71224 -3.27974 3.59208
1 0.631797 0.517688 -0.176595 0.0210992 0.324537 0.135908 0.516528 -1.13819 -2.32061 -2.06844 -1.52946 1.25313 0.85946 1.58612 -3.33161 3.33818
9 0.687274 0.530329 -0.25255 0.157488 0.309833 0.430592 0.345172 -1.1707 -2.63052 -2.23155 -2.05333 1.47962 1.24315 1.92877 -3.54308 3.60154
