100 32
1 -0.17778115 0.55623156 -0.32821772 0.0613733 -0.27747807 0.071545586 -0.023142347 0.5149254 -0.37577677 -0.49033737 -0.24303852 0.11599682 0.7630651 -0.78158593 0.7159737 -0.65354013 -0.11949138 -0.27245685 0.59980446 -0.510452 0.8656698 -0.19177704 0.4121585 0.6656963 -0.4608507 -0.091227986 -0.042240486 0.1107577 0.36900347 0.041829657 -0.021632044 0.4087055
2 0.2819351 0.38180557 0.010946718 -0.66660416 -0.20376873 -0.015489324 0.10387644 0.90199953 0.84660447 0.14900723 -0.15789501 0.28877464 -0.06040111 -0.8807832 0.5094884 -0.75994885 -0.41246274 0.33433586 0.40231624 -0.3982463 0.22834766 0.27393135 -0.37463036 0.41770887 -0.005733889 0.1278212 0.58937824 -0.094860435 0.42857528 0.19653416 0.48614213 0.62121624
3 0.157529 0.08334151 -0.28306362 0.08364722 0.06008064 0.31956875 0.11588685 0.6736413 -0.5037876 0.5136322 0.0670413 0.17057434 0.9522574 -0.49404195 0.06869431 -0.86092645 -0.06859508 0.20996118 0.32399872 -0.49437967 -0.2462607 0.7601663 -0.25028777 -0.33845326 -0.5386672 0.84479403 -0.49319264 -0.2746935 -0.3712167 -0.44287488 -0.10635977 0.33218518
4 -0.25136033 -0.71706665 0.72943294 -0.18961513 0.48034632 -0.033286527 -0.16126539 0.251332 -0.25646713 0.52075833 0.13969126 0.3363529 0.80048573 0.0934812 0.36005563 -0.66893667 -0.44917443 0.25914636 -0.0012688847 0.5045965 -0.018184545 0.6434938 -0.76475185 -0.04878539 0.011316083 0.33014613 -0.32104668 -0.27102923 0.5001651 -0.5200498 -0.37981516 0.25143182
5 -0.32059276 0.12773328 -0.7033983 0.8151245 0.5541009 -0.2743122 -0.37696362 0.16090688 -0.39290968 0.8293555 0.36033317 0.5296164 0.01297517 0.7216571 -0.015230114 -0.37936342 0.3926619 -0.11608771 0.15062125 0.4041465 -0.37950858 0.31014395 0.15917818 0.83785117 -0.34366482 -0.04322646 0.48860434 -0.19925076 0.58211434 -0.045101617 0.030565057 -0.1750729
6 -0.45534697 -0.4442824 0.18780094 -0.10644066 -0.0038730528 0.12316738 0.8341295 0.08883777 0.43060648 0.56761914 -0.16322923 -0.19594792 0.72486013 0.11257782 0.6314402 -0.7923819 -0.46755868 -0.31385097 0.44456494 -0.5736231 -0.011170023 0.11584038 0.14556102 0.3688417 -0.18720357 0.5783195 -0.28707767 -0.48794064 0.62226737 -0.5725805 -0.27280524 0.1766365
7 -0.18815014 0.42377537 -0.5724675 0.23486711 0.11603713 -0.31106848 -0.0554234 0.34297758 0.03251179 0.48296818 -0.013928286 0.4107193 0.62223226 1.1290226 0.3662511 -0.19456947 0.7942403 -0.41491124 -0.29928434 0.55235624 -0.614334 0.428601 -0.2662068 0.41946223 -0.52288705 0.26452768 0.60210913 -0.4071915 0.65233666 0.10248367 -0.052577417 0.03905557
8 -0.056924947 0.23191592 -0.051863 -0.05474745 -0.67237586 0.26561958 -0.63276285 0.3421046 -0.2854162 -0.0862482 0.5934775 -0.51487774 0.6314985 -0.083688155 0.5780987 -0.6820581 0.18156473 0.32737762 1.0033904 0.47470486 0.3845894 -0.3976514 -0.5412402 0.24061354 0.5830433 0.28007925 0.07847456 -0.35079983 -0.014136943 -0.18734466 0.68607277 -0.34828156
9 -0.07850838 0.78997433 -0.13992116 0.40600452 -0.6905487 -0.39957553 -0.33189476 -0.7327439 0.13349216 0.17710423 0.3918524 -0.35565487 0.2521227 -0.52602625 0.31084916 -0.7730987 -0.7732269 0.0357651 0.48054 0.22248326 -0.017885191 -0.3963729 -0.3097195 0.23722623 0.31619158 -0.20163834 -0.121632926 -0.85126615 0.1095381 -0.03819647 0.14266509 -0.6405836
10 0.3751335 0.11138014 -0.16863203 -0.71776664 -0.028702531 -0.050579686 -0.80356574 0.30251294 0.06812889 0.40775973 0.84314 0.103285424 0.19733088 -0.2916599 0.50140214 -0.9539841 -0.0342943 0.11289766 0.13445792 -0.08412107 1.0159363 -0.04770173 0.38688922 0.60192597 0.6779407 -0.1507409 -0.4005425 0.5056352 -0.21408609 -0.5778531 0.17296678 -0.03900775
11 -0.58738023 -0.06559274 -0.038736805 -0.5138502 -0.19250417 0.51618123 -0.62571156 0.2518367 0.3663946 0.48002028 0.23906274 -0.15071511 0.20309062 0.28440174 0.0519704 1.013004 -0.1695674 -0.0039232383 1.1619663 -0.69722515 0.1651626 0.32257777 -0.41140962 0.27494946 0.07485079 0.4149209 -0.6539247 0.29967144 0.15655765 -0.42782578 0.4164214 0.24806151
12 -0.41832066 0.96034956 0.013477068 -0.427341 -0.05468848 0.052791808 0.07003745 0.47028714 -0.25607464 0.62658614 0.17988448 -0.30560464 -0.18885213 -0.918544 0.35887855 -0.4161206 -0.030840354 -0.19135886 0.8502089 -0.3134757 0.20629591 0.6012858 0.034593247 -0.62459105 -0.23354577 -0.40892413 -0.16064957 0.55040014 0.7690352 -0.38475564 -0.3668056 0.4095528
13 -0.24586439 0.28160855 0.11418498 -0.12172008 -0.13971113 -0.8780377 0.11539577 -0.19483882 -0.6122495 1.171819 0.14414403 -0.014873765 0.5430761 0.29685977 -0.26711753 -0.45088056 -0.24909751 0.048842076 0.59123117 0.45111185 0.118925855 -0.43701658 -0.34226277 0.045122635 -0.2382985 0.6383966 -0.5049476 -0.7785157 -0.13302019 -0.39401013 -0.2456496 0.24532555
14 -0.58447677 0.5776018 -0.60183114 0.26094022 0.7707012 -0.05726937 0.046254385 -0.46144578 -0.40349296 0.7762326 0.16812526 0.5060291 0.41006342 0.8748044 -0.0035230082 -0.5989971 0.7624125 0.09237407 -0.561657 -0.035888042 -0.12767808 0.3645461 -0.08951442 0.561901 -0.26566228 -0.057052147 0.087614015 0.20209108 0.6206001 -0.04055035 0.08817084 0.2468554
15 -0.6412399 -0.06754973 -0.30746028 0.3696262 0.38715088 -0.66696113 -0.44137728 0.4646067 0.32185355 1.1045152 0.29674897 -0.21530229 1.2262131 -0.2870353 0.25600362 -0.19153325 -0.59116983 -0.2148971 -0.40411 0.005596184 -0.23877475 -0.2936429 0.29202256 -0.20690335 -0.4564712 0.19792093 -0.04084555 0.06613381 0.3956005 -0.09351121 -0.3592687 0.08464527
16 -0.90891 -0.47768128 -0.10112862 -0.39538696 -0.19666234 -0.007318511 -0.63557875 0.19419919 0.46267483 0.3590108 0.22559138 -0.44670245 0.18305698 -0.77315754 -0.26737913 0.7136652 0.40776083 -0.0032713057 0.58629847 -0.48295212 0.021488724 0.18093352 -0.07428015 1.1032575 -0.0049940576 -0.20813122 -0.49382332 -0.4402882 0.3926894 -0.43767524 0.07515746 0.4102366
17 -0.10213227 0.4213732 0.3011672 -1.2111118 -0.40685222 -0.39372867 -0.49749276 0.84832287 -0.23853703 0.22571987 -0.26490176 -0.39565837 0.811345 -0.19966449 0.7620989 0.01998282 0.19453135 -0.050156772 0.1336578 -0.20653816 0.4107024 -0.095718235 -0.24348164 0.68205065 0.10526898 -0.20156989 -0.16146007 -0.24678347 -0.47332263 0.11205385 0.5022748 0.107976705
18 -0.4843981 0.6653992 -0.04098091 -0.0015828417 -0.1896047 -0.18451549 -0.45560578 -0.022033973 0.3069248 -0.10636219 0.9479445 0.047633134 0.80102235 -0.3126403 0.0609586 0.5258289 -0.50895345 0.15144168 -0.5140395 0.37569046 0.1409079 0.10332568 0.22307773 0.57780904 -0.8390755 0.4710813 -0.29474816 0.7520784 0.7212937 -0.34031639 -0.10634257 -0.13213702
19 -0.35886672 0.8103371 -0.41578454 0.18881068 -0.6130523 -0.12322519 0.36291152 -0.8958202 -0.19521034 0.14734866 0.63349205 -0.55447096 0.069923796 0.1277525 0.64631766 -0.37722978 -0.9587499 -0.0064641144 0.17163812 0.22480398 0.25601047 -0.14748338 -0.8456422 0.14988074 0.62456715 0.25418916 -0.060481958 -0.3106913 -0.44781107 0.3785452 0.012532156 0.16656354
20 -0.21586928 0.94998217 -0.684436 0.065160826 0.6405018 -0.15896444 -0.07831691 0.67538047 0.6405761 0.014354159 0.07632984 -0.19991805 0.4991844 0.37386224 0.102374956 0.2220448 -0.5798769 0.91635543 0.16410784 -0.012290015 0.62503135 0.6772207 0.21084161 0.24877134 0.13324527 0.2298467 -0.48039797 -0.11306921 0.53855026 -0.060451515 -0.6013724 0.038159315
21 -0.18491045 0.46140522 0.5233058 0.16973138 0.26853088 0.26869985 -0.20866333 0.21838605 -0.34104922 0.76041013 0.27000928 -0.24489169 0.79137 0.01672681 -0.05135641 -0.33661118 -0.21384656 -0.4673793 -0.43397027 0.025764138 -0.31365195 -0.24017201 -0.74377096 0.36373436 -0.41891083 0.4836108 -0.5624595 -0.75213253 0.086976625 -0.7097012 -0.4350327 0.6750402
22 -0.6068004 0.20363079 -0.35636052 0.49572986 0.16442625 -0.70959914 -0.47495276 0.253382 -0.017372577 0.506353 0.46535045 0.35908753 0.28821677 0.7262127 0.55612695 -0.16707787 0.42985094 -0.48702234 0.11592253 0.4156939 -0.53793067 0.6310715 -0.036129933 0.5728901 -0.70138514 0.26352873 0.44377887 -0.03436429 0.5658587 0.2729756 -0.015357295 -0.35724452
23 0.11171118 0.7775924 -0.49010658 0.30602095 -0.49619758 -0.35979754 0.6591219 -0.75820017 0.26752216 -0.129128 0.5193358 -0.5652188 0.45059255 -0.24248385 0.65172565 -0.4197462 -0.28291523 -0.05965099 0.3352964 -0.15548334 -0.1143253 -0.3933625 -1.2375232 0.509874 0.13771114 0.20655435 -0.4710633 -0.19648689 -0.3066367 0.029237395 0.050133977 -0.13329433
24 -0.58697766 0.99809766 0.1407235 -0.065948375 -0.5971764 -0.2985234 0.13955298 -0.74218327 0.11276875 0.47975144 0.47491184 -0.1593553 -0.008391562 -0.024483344 0.4871682 -0.7486844 -0.7271222 0.0712859 0.38899413 0.26636416 0.37905023 -0.43554989 -0.87188005 -0.04183556 0.276713 0.21061884 -0.33322048 0.14047974 -0.47326198 0.2554807 0.2603361 -0.46456054
25 -0.27386892 -0.035471875 -0.55045706 0.009018217 0.12598833 0.0742204 -0.22586633 0.012903244 -0.32535183 0.9941229 0.09965886 1.1433678 0.54335845 0.83064735 0.49057305 -0.03574616 -0.36703625 -0.048928704 -0.1705625 -0.029326344 -0.20017351 0.097324856 -0.2160664 0.4907155 -0.267489 0.21653469 -0.2677654 -0.8949705 -0.03252392 -0.0065671355 -0.51921046 0.42351294
26 -0.43220943 0.33165416 -0.48380798 -0.3924821 -0.5904678 -0.13187335 -0.44591475 1.1891956 -0.10958175 -0.11128779 0.44030422 -0.26579145 0.6920829 0.30762976 0.18085408 -0.79325986 -0.25343594 0.01455535 0.17337942 -0.1490711 -0.122708134 -0.5597754 0.10058513 0.339411 0.3745562 -0.33750558 -0.69182146 0.24774015 0.65979934 0.3947016 -0.06350432 -0.13592736
27 -0.12526685 0.67636603 -0.39189386 0.22195493 -0.9824943 -0.4371749 -0.14044255 -0.5123895 -0.14647259 0.33844486 0.14115454 -0.27644762 -0.052298307 -0.38783824 0.6598297 -0.7590692 -0.60213876 0.073435634 0.28284657 0.7196132 0.20665927 -0.5632101 -0.35396925 -0.058262236 -0.18869944 0.102483906 -0.48401934 -0.4609843 -0.21389562 -0.34629953 0.2460267 -0.5519608
28 -0.41091976 -0.4527492 0.43715072 -0.29325512 -0.033154402 -0.17043187 -0.36092046 -0.2247709 -0.10411618 0.60492307 -0.33809215 0.8005322 1.0697031 -0.49632013 -0.23223092 -0.11335286 0.102477595 0.2507785 0.1821715 -0.2714916 -0.13338977 -0.1166857 -0.63644487 0.5032169 0.11924996 0.18115096 -0.7631764 -0.43856102 0.7347383 -0.3177146 -0.55297863 0.36705342
29 -0.7578307 0.3199594 0.064513355 -0.14613922 0.186825 -0.077750914 -0.6713377 0.9623626 -0.75772065 -0.07638951 0.40799403 -0.23341528 -0.12283478 -0.068635754 0.53404367 -0.7274322 -0.64533114 0.13361587 0.38128644 -0.63673747 0.18594995 -0.2146069 -0.019939762 0.64816153 0.31886226 0.33603805 0.17721304 -0.20804706 -0.35137135 -0.43318757 -0.0063426965 -0.2144989
30 0.4057899 -0.20612574 0.24468684 -0.5376463 0.27635583 0.14378229 0.09141902 0.036751606 -0.4187564 0.79869646 0.4303045 -0.19817847 0.8076605 0.47350666 0.018352795 -0.5699228 -0.23379833 0.441075 0.54799414 -0.3122823 -0.07473014 -0.51956755 -0.77423114 0.554308 -0.8298818 0.23384416 -0.23857614 -0.073251426 0.1409417 -0.42489967 -0.3659845 0.30640534
31 -0.42340916 0.32041365 -0.40575364 0.28101972 0.3416381 -0.9999606 -0.009515099 0.6810276 0.17068326 0.273391 0.45893794 0.17268677 0.21464653 -0.21173145 0.68813235 0.32618275 -0.2571618 0.5142576 -0.30891994 0.0042062635 0.2709264 -0.03318195 -0.13711324 0.06337431 -0.14091711 0.80898845 -0.48524898 0.42991704 0.8789455 -0.025159936 0.28661245 0.48795527
32 0.096994996 0.61522454 -0.15462717 -0.5073933 -0.023407137 0.24383596 -0.24435158 0.70444024 0.07390377 0.42650452 0.22981483 0.09780396 0.80939823 -0.3540915 0.47496548 -0.33965978 -0.3175179 0.00227913 0.12411539 0.08223772 0.5709953 -0.4017907 0.34992218 0.68872553 0.84580636 -0.12303463 -0.13771771 0.22996587 -0.42302874 -0.6636276 0.40053195 0.29432437
33 -0.3425111 -0.31261364 0.23903495 -0.5380875 -0.030949775 0.3884056 0.07535051 -0.28426543 0.29051718 1.0309118 -0.15572019 -0.25476348 0.7073579 0.5115407 0.50179094 -0.39161938 -0.21708131 0.16422796 0.5148629 -0.8162234 0.14905448 -0.2350601 -0.08765695 0.41957435 -0.8042703 0.6554716 -0.30353895 -0.38266674 0.45629856 -0.40709764 -0.09444788 0.25073645
34 0.07179799 0.36431217 -0.4103653 0.091171496 -0.7094262 -0.84068775 0.03867149 -0.6379925 -0.40173522 0.6150177 0.09747883 -0.20786676 0.2397957 -0.21557795 0.10990598 -0.82297397 -0.6260325 0.12262689 0.22140373 0.52098733 0.4134276 -0.72620165 -0.6952014 -0.10949167 -0.09884708 0.58337903 -0.31410503 -0.58056515 -0.11429249 -0.22094268 0.14045525 0.17476451
35 -0.011676463 0.4019584 0.55461746 0.6038721 -0.739357 0.2238928 0.06393749 0.8580064 0.59366536 0.1755995 0.18257703 0.49718022 0.31952906 -0.33885044 0.5987655 -0.3304872 -0.365138 -0.07246741 0.7543276 0.018436989 0.571897 0.51910967 -0.19150564 0.33947837 -0.3460275 0.024509529 -0.21785575 0.25147358 0.647387 0.10546967 -0.19016302 0.40525842
36 -0.4599875 0.03277992 -0.22079064 -0.31917813 0.3588405 -0.65297365 -0.062487256 -0.054929137 -0.036237918 0.6175643 -0.36712825 0.5176517 0.7468138 0.4145418 0.090232454 -0.50324 0.08646626 -0.71213144 0.132404 0.008879214 -0.10976518 0.40891692 -0.6921287 0.41369095 -0.65493476 -0.060361214 -0.42659667 -0.18520647 0.17465141 -1.0591202 -0.39131096 0.1791263
37 -0.015583991 0.6031888 -0.3958343 -0.97617495 -0.25756004 0.01694055 -0.24534547 0.9344996 -0.1929614 -0.091332026 0.76585907 0.3235609 0.3822364 -0.44059435 0.75954443 -0.22518305 0.19939078 -0.26009354 0.36321315 -0.3578634 0.28855217 -0.42003518 -0.63079447 0.0487083 0.40059724 0.28186673 0.0660554 -0.4184886 0.20040944 -0.7103204 0.023017231 -0.013257218
38 0.02243499 0.3054915 -0.4775363 0.36820132 -0.20802782 -0.32513276 0.30024135 -0.9152906 0.16201815 0.54939115 0.5840756 -0.46838808 0.6956934 -0.33911636 0.14198676 -0.66130567 -0.14664993 0.24753192 0.16323283 0.4246571 0.3902034 -0.44933388 -1.2363433 0.40120968 -0.052230503 -0.0005981938 -0.14359267 -0.43428776 -0.44580504 -0.20409827 0.17075355 0.11725163
39 -0.26157925 0.59584737 -0.5118313 0.04475006 0.32069793 -0.30480608 -0.2985243 -0.03735993 0.08110048 0.60115725 -0.33106983 0.7923074 0.5558165 1.177325 0.09040626 -0.48966354 0.5495004 -0.42211542 -0.020073276 0.21672016 -0.031480853 0.38769647 -0.44963512 0.45357677 -0.5339265 0.16592278 0.19361946 -0.09404963 0.73884916 -0.48851645 0.14343703 -0.11950234
40 0.54445606 0.3732979 -0.2236723 -0.2385603 -0.1189104 -0.17850631 -0.1989423 0.07302543 0.5914306 0.36687398 0.84840786 0.064732835 0.14490207 -0.6492169 0.74473625 -0.7307648 0.029557316 0.17955954 0.2972403 -0.19486009 0.77327573 0.84002787 0.59532464 0.42294374 0.21850488 0.31562722 -0.25974435 0.34940124 0.28308055 -0.6430422 -0.2773108 0.29500493
41 -0.85803694 -0.33089554 0.052227747 -0.7294211 -0.35664758 0.5490611 -0.5813808 -0.036979448 0.25413927 0.5544124 -0.19806834 -0.54895675 0.49407753 0.34912166 0.41674608 0.46730924 0.1992722 0.31138483 0.42966095 -0.6586547 0.45272294 -0.07134917 -0.23345083 0.29783708 -0.3874752 0.55723816 -0.5734189 -0.22812301 0.3267877 -0.54308105 0.20640676 0.39017445
42 -0.38052845 -0.63052833 0.40463504 0.102641106 0.22645713 -0.25467095 0.29671288 0.24784002 -0.23599084 0.71053547 -0.2423997 0.7808158 0.9685044 -0.17816283 -0.15212679 -0.3388673 -0.36481586 0.21712813 0.003345972 0.0038904643 0.61768574 0.4224018 -0.6018093 0.3540868 0.19842255 -0.05265974 -0.60546404 -0.52668905 0.72749156 -0.3930608 -0.43075424 0.099366315
43 -0.14374846 0.49128494 -0.714014 0.6341293 -0.16292523 -0.8282696 -0.38768032 -0.23714769 0.056331035 0.38445935 0.54585004 -0.11865036 0.9796723 -0.07140594 0.63127124 0.16224071 -0.89175016 0.48788837 -0.01242282 -0.31282187 -0.2117621 0.39976034 -0.57885563 0.31478536 -0.033612255 -0.15741102 -0.03877649 0.52813816 0.40790132 0.12175288 0.08869496 -0.31033462
44 -0.2112585 0.6569533 -0.63104093 0.524229 0.83228135 -0.41375205 -0.2566505 -0.19331895 -0.24487272 0.57952696 0.049321346 0.6612521 0.44007468 0.5728555 -0.23707898 -0.60173494 0.616901 0.2544618 -0.2498417 0.035600036 0.029042318 0.37343818 0.009218531 0.8493247 -0.41769943 0.073466435 0.1838286 -0.18536907 0.624826 -0.17128015 0.16773948 -0.2857035
45 0.25058827 0.59536415 0.15500835 -0.3329511 -0.7279389 0.010888297 0.06288876 1.0520033 -0.44235355 0.054675553 0.21661413 -0.046917614 0.4756453 -0.1265621 0.3545649 -0.77630967 0.084333844 0.51574945 0.50013614 -0.27355075 -0.48016816 -0.17520845 0.125053 0.78388745 0.29877242 -0.12151965 -0.91682005 0.5413179 0.18951778 -0.1674834 -0.17661247 0.017275726
46 -0.38654965 0.3374413 -0.128526 -0.83236825 -0.62268645 0.26211184 0.19625321 0.88443416 -0.02389055 0.37547615 0.2781853 0.24296622 0.04445616 -0.89874595 -0.014411042 -0.7433959 -0.4675542 0.07078776 0.40922534 0.29834127 0.03738692 0.608787 -0.098072805 0.6252228 -0.23933814 0.4374819 0.19515015 -0.0810909 0.32919416 0.43229082 0.431387 0.6181259
47 -0.14341274 0.52041143 0.21908738 0.118806526 -0.9270787 -0.6002607 0.2640731 0.5777694 -0.0887821 0.25368017 0.52466965 0.13172644 0.47438657 -0.23241906 -0.24360394 -0.50664365 -0.095815904 -0.44553795 0.003986207 -0.595548 0.7607701 0.9905306 0.051040858 -0.09164081 0.08395715 0.6345323 -0.16850348 0.23269767 0.20499972 -0.113952845 -0.051641077 0.57313645
48 -0.42614606 0.040428407 -0.072148725 -0.36147758 -0.4471482 -0.09166573 -0.54967296 0.9394736 -0.34098682 -0.14097041 0.4755048 -0.023191974 0.08794783 0.15783863 0.11743471 -0.5916616 -0.51552194 0.6844435 0.043012284 -0.40215775 0.21252036 -0.41777316 -0.3130222 0.8981535 0.09646613 0.38189378 0.38217422 0.3365343 -0.121876314 -0.79548955 -0.38963866 -0.5125547
49 -0.5466799 0.21155219 -0.68704385 0.21752591 0.08821247 -0.13973837 0.25958055 0.89977664 0.2884072 0.56496316 0.23250563 -0.41730395 0.26847103 -0.35829854 0.2521993 0.1525131 -0.30808818 0.03457956 -0.20158361 0.0040062936 0.2915516 0.15230887 -0.83353674 0.5489393 -0.1335717 0.32139832 -0.007493711 1.0022484 0.7493157 -0.28690603 -0.5505265 -0.3804127
50 -0.35422343 0.5039868 -0.35170153 0.18576829 0.25427023 -0.14776292 -0.117143326 -0.22759132 0.03241103 1.0630965 0.15987426 0.3015305 0.25565344 1.0310912 -0.13351227 -0.86583966 0.41124025 0.30390042 -0.5942579 0.3656042 -0.2083557 0.34612682 -0.4517661 0.6654829 -0.4942542 0.0365544 -0.0324848 -0.19900021 0.5122364 -0.1768666 0.36184505 0.15628582
51 -0.41327336 -0.07945252 -0.0061636376 -0.16642207 -0.93014294 -0.34762532 -1.1088762 0.5042179 0.4052487 0.5246161 -0.36651167 0.039711904 0.20645794 -0.2506684 0.029499162 0.52672356 0.032700483 0.6051147 0.586163 -0.48987386 0.16727279 0.5535687 -0.11243163 0.062183395 -0.5297867 0.026316455 -0.35670835 -0.4038001 0.18104117 -0.5741052 0.13026695 0.44517362
52 -0.4300854 0.28589812 0.08295812 0.39157143 -0.65055436 -0.4971786 0.019671746 0.90298235 0.15056568 -0.33009046 0.84535927 -0.34099653 0.45291162 -0.13608937 -0.13658564 -0.6138043 -0.01091857 -0.08197616 0.5606104 -0.52718306 0.50256544 0.43299282 -0.12882112 0.058800813 0.1872964 -0.10440454 0.35484025 -0.035295617 0.22196214 -0.5606745 0.03871896 0.97856885
53 -0.19103299 0.43958318 0.121398725 0.4425532 0.18006647 -0.6342875 0.35346082 0.61993235 -0.056305297 0.29904056 0.5359517 0.20038779 -0.09696351 -0.7050209 0.9427189 -0.2017096 -0.13550086 0.4696459 0.5704136 -0.39977166 0.46516556 0.18017425 0.056430846 0.011133469 -0.0295827 0.3020056 -0.31764948 0.054633003 0.7906318 -0.24410118 0.30363107 0.8947443
54 -0.049314223 0.056949437 0.37014484 0.34113398 -0.44910303 -0.24386264 0.2361248 0.77630293 -0.17879394 0.5495646 0.0735845 0.6537736 0.46605256 -0.3171663 0.24919413 -0.48697722 -0.3158783 -0.38622698 0.19525902 -0.20441824 1.341787 0.58315164 -0.50619423 0.14984775 0.16164136 -0.0050703776 -0.18455964 -0.1017388 0.6816982 0.1345936 -0.26232752 0.36147618
55 -0.38754827 1.0390446 0.17961767 -0.16722216 0.16588716 0.27527332 -0.62434435 0.9527806 -0.40895674 0.25582558 0.1409803 0.04042125 0.17504188 0.0041860063 0.1386514 -0.48963603 -0.40862542 0.4024147 0.075591624 -0.5112026 0.35939083 -0.62210006 -0.13383262 0.7867242 0.43892112 0.40345886 0.39761537 -0.19842881 0.3228689 -0.2041093 0.34099028 -0.43085197
56 -0.41614863 0.10668536 -0.18497576 -0.50362855 -0.5454293 0.28367704 -0.7933619 0.31324223 -0.26074114 0.9247182 -0.23925382 -0.34949046 0.2910242 -0.010223796 0.092474036 0.8868649 -0.024540786 0.2288611 0.82341945 -0.40519488 0.04279974 0.19485371 -0.4773611 0.5331457 0.5119455 0.096546344 -0.15991831 -0.21761166 0.3716843 -0.5885989 0.3844378 0.40044492
57 0.05226707 0.51448977 -0.4733187 -0.016775785 0.11747595 -0.4001391 -0.016987668 0.7388888 0.579005 0.13920832 0.34087738 -0.27053058 0.28340307 -0.3795363 0.6171139 -0.5438593 -0.2624079 0.29997137 0.76464456 0.33700934 0.9382741 0.90530646 0.35911763 0.30856708 -0.16958757 0.12584932 -0.19636105 -0.1841878 0.25849363 -0.13007806 -0.6215847 0.6741614
58 -0.23387712 0.6280903 -0.02502232 0.30193862 0.37058875 -0.2618446 0.08419299 0.76175916 0.19056396 0.5041315 0.80595446 -0.35729235 0.78407645 -0.039345 -0.050596982 -0.10374789 -0.39454222 -0.12261829 0.25816464 -0.34124318 0.016304469 0.59367883 0.1319134 0.2146674 -0.30779105 0.2225538 -0.32917854 0.13704067 0.93097264 -0.14586736 0.733436 -0.80659884
59 -0.4679022 0.4084664 -0.204593 -0.33838487 -0.51733804 0.25619775 0.45772132 0.63952976 -0.011775232 0.5358591 0.70196897 0.3502976 0.6788652 -0.9834998 0.116305396 -0.6347383 0.043188043 0.18830594 0.26633883 -0.47192895 0.34726053 0.84513044 0.05135747 -0.19320887 -0.07487063 0.8590496 -0.032664232 -0.15280844 -0.13863707 0.020791627 -0.17446217 0.26158473
60 -0.28888005 0.32439452 0.0008998403 0.53890455 -0.42726347 -0.07015866 0.48701477 0.91004497 -0.0777525 0.31305856 0.3203478 -0.2701088 0.45762667 -0.3757034 0.54242396 -0.62752736 -0.13126214 0.2415903 -0.33756587 -0.6355996 0.8834866 0.5233173 -0.16448583 -0.20053105 -0.24933232 -0.3832544 0.012913311 -0.09915003 0.54363334 -0.5301636 0.657635 0.5944722
61 -0.111946836 0.83823985 -0.29708698 -0.18378909 -0.78911614 -0.38483655 -0.06857012 -0.6286722 -0.31913114 0.43582702 0.15635976 -0.24356367 0.12842084 -0.2866851 0.2826112 -0.8099097 -1.083485 0.15854107 0.31471142 0.25041375 0.49930564 -0.5112874 -0.67346203 0.21188423 -0.0032859072 0.07808609 -0.29739395 -0.2095154 -0.099330105 -0.07865964 0.3068291 -0.24906613
62 -0.79408205 0.30916744 -0.3918888 0.0043516266 0.103088595 -0.47212824 0.14777982 0.572992 -0.3976303 0.13314125 0.32536605 -0.5934103 0.6590939 0.09088261 0.29813653 0.031482566 -0.2812785 0.68385583 -0.09213309 -0.049469836 0.33335358 0.31532985 -0.369847 0.7211005 -0.07145079 0.364731 0.47880986 0.75093377 0.5743018 -0.52513146 -0.37651825 -0.5914852
63 -0.005207982 0.6182357 -0.46117598 0.1422279 -0.15775919 -0.17978786 0.24324384 0.7330608 -0.1596908 0.4622574 0.8485399 -0.060194526 0.67979753 -0.2585776 0.47516575 0.32813668 -0.4858807 0.28701743 -0.43353057 -0.38288313 0.27662912 0.38178813 0.17332125 0.05969646 -0.53618795 -0.6108506 -0.17435846 -0.30094466 1.042354 -0.6185555 0.19837794 -0.18509014
64 -0.5129981 -0.20581456 -0.40088552 -0.36089802 -0.30625817 -0.03478293 -0.9459438 0.23158105 -0.033280864 0.6333794 0.08948554 -0.038292322 0.33012953 0.033887703 0.015345851 0.881997 -0.5400291 0.19240232 0.72217333 -0.6409058 0.5988842 0.28814793 -0.35071748 0.31955233 -0.4787035 0.19311522 -0.34039038 -0.1384852 0.2978183 -0.4666229 0.5019783 0.22467346
65 -0.4515633 0.3419571 -0.9737892 0.3528589 0.12580574 -0.039856777 -0.13179608 0.028935233 -0.1028006 0.7797614 0.2696402 0.3934385 0.33448273 1.0756832 0.16168892 -0.4805289 0.26691416 0.017764775 -0.43919846 0.34073472 -0.6159928 0.17547509 -0.17918646 0.4177242 -0.29719058 0.055145998 0.20294316 0.23908113 0.89756733 -0.38931397 0.14353223 0.34639022
66 -0.75407916 0.16864325 0.41307536 -0.9921475 -0.5903928 -0.010586284 -0.44376212 0.31854168 -0.07022852 0.43573397 -0.19462088 -0.5344823 0.36868188 -0.069191605 0.7289927 0.5759567 0.12654108 0.063932136 0.3767351 -0.44490272 0.17091025 0.5204789 -0.22730556 0.55534315 0.1826932 -0.072143145 -0.3639704 -0.58367366 0.28285766 -0.32692626 0.37933806 0.40037912
67 -0.22134182 0.41904104 -0.07475257 -0.15752274 -0.41443685 0.4771616 -0.54519033 0.87944853 -0.1735234 0.43491894 0.23026909 -0.089477964 0.62497264 -0.11805229 0.4780333 -0.0687125 0.08341268 0.13065374 0.65551645 -0.11623433 0.25071183 -0.60350215 -0.25658846 0.40993416 1.0756712 0.29753062 0.052066676 -0.17130864 0.023429496 -0.91237766 0.38715723 -0.21473025
68 -0.34910107 0.8223137 -0.48937556 0.29441753 -0.3794932 -0.5284973 0.037668005 -0.7727277 -0.001121492 0.3545151 0.7403427 -0.5638869 0.5890215 -0.17116015 0.5171697 -0.48820245 -0.8899069 0.31051934 0.34625742 0.15326597 0.0934649 -0.35872895 -0.8208204 0.26168817 0.17932242 -0.20929088 -0.09494169 -0.15079157 -0.29124713 0.07052293 0.18596277 -0.20553373
69 -0.461899 0.04711912 -0.23322073 -0.34135953 -0.4460397 -0.23981409 -0.6375768 0.44434234 0.3430414 0.30364382 0.010781063 -0.5141628 0.41552547 -0.31747314 0.1386377 0.93739796 0.43133795 0.3771941 0.5169011 -0.4062192 -0.0049101366 0.49895892 -0.41540354 0.73800516 -0.053027302 0.24389155 -0.6901748 -0.590724 0.36319357 -0.55197436 0.25833565 0.10293499
70 0.21889156 0.4299843 -0.06364472 0.27695945 -0.567606 -0.59542954 -0.40131852 0.08948364 0.24107502 0.18077275 0.3588325 -0.17414457 0.51480496 -0.6158419 0.4454095 -0.46355125 -0.6645146 -0.24739294 0.03973093 -0.47142857 0.28590834 0.8254004 0.2612706 0.36653084 0.17789787 0.46174023 0.17031772 0.43176785 0.6975424 -0.52317864 -0.2330009 0.72700036
71 0.21111538 0.6146716 0.2322593 -1.2006454 -0.025621694 -0.32304516 -0.30413193 0.97298324 0.07591858 0.53851545 0.26468456 0.0013734049 0.6226721 -0.28350225 0.5038269 -0.50485086 -0.04584794 -0.047768813 0.35434654 -0.43397018 -0.019946305 -0.42414886 -0.3390048 0.6775624 0.4472061 0.04067506 0.34835723 0.0787429 -0.090350375 0.013168809 0.20230012 -0.13601029
72 0.37198326 0.43038887 -0.39272964 0.036175337 0.54788876 -0.4349546 -0.5778585 0.534949 -0.3212855 0.21295527 0.6704665 -0.4247289 0.8647031 0.05990346 -0.0736635 -0.048203025 -0.62094307 0.12258538 -0.13751271 -0.20473313 0.29691505 0.48252794 -0.41750324 0.23211068 -0.56496036 0.56137705 -0.22642471 -0.0075557055 1.0835913 0.064431615 -0.049144182 -0.32549044
73 -0.5391709 -0.1378006 -0.045530416 0.051413093 0.30382192 -0.31304386 0.43852556 0.28838205 -0.33145064 0.5460376 0.18015014 0.71639526 0.83011955 0.24911013 0.10124222 0.019764407 -0.7189325 -0.0023208666 -0.13025674 0.29324782 0.057451915 0.42390105 -0.6310496 0.79398906 -0.530647 0.26208815 -0.70839345 -0.42888066 0.001304285 -0.74051046 -0.040998545 0.19282462
74 0.11145085 0.2608758 0.30979547 -0.6490627 -0.21748503 -0.10505629 -0.22854023 1.0383394 -0.33609453 0.42790732 0.7025476 -0.07909321 0.5641037 0.39218152 0.33484307 -0.61549336 -0.27413526 0.5725509 0.5503348 -0.2908605 0.07298283 -0.5770115 -0.1863238 0.9121194 -0.10505303 0.08704583 0.1234587 0.1345799 -0.22811785 -0.37934345 -0.369933 0.1415471
75 -0.12615421 0.37400848 0.41795608 -0.03288905 -0.10642156 0.29847685 -0.52089506 1.3030589 -0.44446453 0.09140082 0.4562118 -0.30782187 0.07675604 0.055265 0.51835895 -0.8476942 -0.29866022 0.5266583 -0.097229734 -0.32805288 -0.10882024 -0.115062244 -0.40530857 0.92957354 0.22534443 0.11074396 -0.44876477 -0.2300531 -0.22950818 -0.5849753 -0.21537629 -0.067819364
76 -0.36821193 1.0482774 -0.30594206 0.22878638 0.88189095 -0.17154594 -0.6237586 0.7205792 -0.063004225 0.305058 0.2453907 -0.2583696 0.8270239 0.33261597 -0.090323694 -0.07962989 -0.3850885 0.5722148 0.17526364 -0.15634571 0.4274094 0.46215767 -0.07897046 0.5601742 -0.13803193 0.21685314 0.3121374 -0.008289869 0.67192584 -0.13409114 0.039581895 -0.49067062
77 -0.72618777 -0.047463145 0.13906097 -0.69686127 -0.39325655 0.16520628 -0.8509148 -0.015147006 0.115974784 0.5088264 -0.24429265 0.06029128 0.5927528 -0.3446346 -0.03544247 0.52692693 0.40534928 0.56460136 0.36913848 -0.53923637 0.113016665 0.33479986 -0.52711993 0.6604694 0.08104719 0.017153211 -0.52268165 -0.37154138 0.7143473 -0.5422062 -0.017703202 0.42533293
78 0.19281797 0.032780528 0.29173738 -0.15230362 0.48939964 0.19312719 -0.2588478 0.47660384 -0.6061629 0.62059534 0.6094521 -0.020702578 0.7272994 0.1649222 0.16485158 -0.7242634 -0.43629816 0.25079143 0.064888954 0.12228527 -0.15464312 0.36784902 -0.8984272 0.21698157 -0.7541107 0.81502986 -0.67334557 -0.43356383 0.048945636 -0.6451373 -0.06630089 0.09758459
79 -0.14385587 0.318757 0.037294466 -0.025970353 0.06213785 -0.19582476 0.33816573 -0.24147023 -0.3276414 1.0701296 0.5451553 0.0864701 0.7251166 0.35433736 -0.22151469 -0.44613877 0.044919614 0.22180544 0.065668866 0.43756828 0.0033852735 -0.32496735 -0.9199786 0.7433211 -0.6431953 0.32874858 -0.40767956 -0.44433016 0.033209287 -0.6439388 -0.06015043 0.50952226
80 -0.2905744 0.3030798 -0.7367736 0.36346385 0.34709632 -0.20321384 -0.3210009 -0.18517984 -0.16853838 0.85926694 0.07624383 0.9096146 0.46121803 1.0672692 0.5228261 -0.36547944 0.49920958 -0.1276691 -0.2222592 0.12715138 -0.100829795 0.38751686 -0.1402786 0.7720395 -0.4791259 0.14048927 0.122175515 -0.38040102 0.6417295 0.092351936 -0.15680735 -0.0231961
81 0.09032722 0.53613114 0.32929555 -0.40872315 -0.3668536 -0.008163555 -0.18544562 0.9952197 -0.22987393 0.71182096 -0.1370247 -0.046384465 0.9388955 -0.09731173 1.0035858 -0.55838954 -0.114130855 0.10719661 0.29298392 -0.14318067 0.19392563 -0.21362683 -0.15866242 0.75605977 0.48213702 0.0028694929 -0.11863832 0.048333168 -0.3485829 -0.35766283 -0.016019791 0.20064081
82 -0.88175243 -0.18263234 0.12328718 -0.13855839 0.3848579 -0.43143973 0.094405115 0.036735073 -0.015373809 0.11865561 -0.018553756 0.44767824 1.0987947 0.13809603 0.20531787 -0.57571834 -0.468931 -0.11987701 0.6818856 0.12884873 -0.11858041 0.20598483 -0.4580836 0.43256482 -0.14497092 0.29817763 -0.5384471 -0.40598923 0.6875754 -0.8056516 -0.34869474 0.36510763
83 -0.36100146 0.6249646 -0.09800737 -0.2957352 -0.13546163 -0.10790735 0.103643894 0.695162 0.032037016 0.36879617 1.0422221 0.5911257 0.0717856 -0.95584655 0.8274737 -0.23616028 -0.037429523 0.024556655 0.43038636 -0.51243526 0.490469 0.43929526 -0.07778792 -0.34514734 -0.055515617 -0.036703523 0.10479015 -0.29951254 0.6894318 -0.58852714 -0.25328088 -0.015673017
84 -0.03737733 0.36442614 -0.3928265 0.20396733 -0.2684646 -0.37211123 -0.2562262 0.16030717 -0.35791472 0.2740847 0.72545123 -0.38453573 1.0505867 -0.29248178 0.41172922 0.25399002 -0.7836828 0.32317293 -0.23271869 -0.013331435 0.07085495 0.59896237 0.15752041 0.63938415 -0.27506995 0.23015183 0.25220028 0.46310428 1.0909563 -0.35332033 -0.16171497 -0.041511327
85 -0.9603706 -0.20888792 0.1687738 -0.522775 -0.45750743 0.05538818 -0.9917124 0.32615396 0.25695947 0.5906633 0.5422456 -0.114693195 0.18956588 -0.15370116 0.16285148 0.33798745 0.0048525166 0.24910721 0.71673805 -0.7948166 0.22083974 0.49427548 -0.48085594 0.4776023 -0.07603286 -0.16019265 -0.47756696 -0.42438537 0.2010833 -0.22052719 0.37417644 0.48418927
86 -0.416027 0.4324659 -0.733857 0.41052845 0.0028505477 -0.57418275 -0.35856643 0.33421442 0.1651993 0.4960081 0.47340614 -0.18524131 0.746148 -0.49635532 0.23495968 -0.09615121 -0.8351577 0.17684592 -0.79437727 -0.49078193 0.22169317 0.109209344 -0.189474 0.24517901 -0.2888542 0.46576697 -0.12900242 0.30341518 0.8929225 -0.19771157 -0.15717626 0.019794058
87 -0.62415916 -0.038548876 -0.17640376 -0.51112854 -0.6763679 -0.006074507 -0.5991443 0.4249757 0.116758235 0.9836306 -0.009918291 -0.4545865 0.38703102 -0.25685653 0.005606776 0.49776518 0.41371036 0.049099185 0.5440595 -0.28799248 0.3670438 0.11820564 -0.31172946 0.80959207 -0.18124424 0.28391972 -0.44109103 -0.40421414 0.5035656 -0.31127357 -0.053662777 0.5948047
88 -0.07727831 0.8529656 -0.31087717 0.33220166 -0.8956849 -0.301831 0.05410934 -0.5534666 -0.0023704674 0.29154986 0.5160727 -0.29018977 0.2673396 -0.18838963 0.6083595 -0.77435106 -0.47946236 0.08939321 0.56552285 0.3120386 0.42954922 -0.38952523 -0.9645383 0.30688122 0.3608561 0.24682803 -0.2667228 -0.49502844 -0.06030277 -0.050015662 0.2705712 -0.11649835
89 -0.25471348 0.20716156 -0.058724716 -0.3495035 -0.065922484 -0.28850567 -0.24445195 -0.123474404 -0.28730997 1.0728328 -0.020876806 0.23513997 0.64153457 0.25539708 -0.05219239 -0.41288465 -0.1881669 -0.27751285 0.4422932 -0.49950075 -0.16976747 -0.26589984 -0.7576432 0.57300216 -0.63157487 0.28570428 -0.57308245 -0.5378217 0.4840719 -0.5805834 -0.57852954 0.532139
90 -0.48857495 0.5074099 -0.29819316 -0.32756847 -0.50842017 0.23030677 0.006820264 0.8979223 0.12490848 0.70136184 0.4358488 -0.12803647 0.088552065 -0.83221275 0.11870679 -0.30648327 0.0923239 0.086285725 0.6126256 -0.070937276 0.6518437 0.6747815 -0.44542986 0.277442 -0.15986523 0.15471315 0.09585198 0.12488823 0.62652236 0.014771742 -0.56956834 0.50849426
91 -0.42081285 0.13485774 -0.05680298 -0.34262466 -0.50976783 -0.14190774 -0.8460951 1.012293 -0.053562365 0.07232804 0.99489105 -0.30722517 0.21570998 0.2525708 0.29398632 -0.73158395 -0.001425707 0.11813039 0.54737943 -0.45798916 0.45022038 -0.39926285 -0.35284767 0.49716967 0.54191947 0.1762889 -0.1374919 -0.20830497 0.058449622 -0.72478414 0.14654212 0.046452895
92 -0.46468297 0.58559155 0.21251178 0.35364732 -0.100062996 -0.4118007 -0.02871378 0.55461895 0.11959437 -0.19387892 0.4690266 0.46158263 0.78605807 -0.45201147 0.69983345 -0.30703723 -0.33308035 -0.21082589 0.7983588 -0.10719495 0.56853884 0.378005 -0.26416242 0.24617888 -0.40580758 -0.11451397 -0.06647542 0.06679882 0.6885902 -0.29477587 -0.30412757 0.8783669
93 -0.7271335 0.5782078 -0.04792134 0.55181223 0.19054723 -0.69765246 -0.41026253 0.46461385 0.006967155 0.5607477 0.7360316 -0.09617128 0.9312415 -0.03692416 0.56649673 0.16396552 -0.23181224 0.2396549 0.050320603 0.23465763 0.04439978 0.31635818 -0.22249448 0.55825746 -0.5089779 0.33797786 0.32205468 0.54844576 0.73143685 0.010144279 -0.16773349 -0.19280937
94 -0.2741171 0.65382624 -0.32942733 -0.96449953 -0.53628933 0.024408998 -0.5686193 0.73192656 -0.5910007 0.05151018 0.34992585 -0.09555707 0.68168527 -0.38892844 0.6387346 -1.0043113 -0.37962013 0.039751504 0.41452742 0.017751679 0.38505372 -0.42889285 -0.15001884 0.82909083 0.31276265 -0.0805747 -0.2389715 0.08004404 0.08344944 -0.08626333 0.35058752 -0.065641716
95 -0.24743788 0.62417775 0.022069996 -0.09545559 -0.49307093 -0.16848975 -0.30238375 0.72476107 0.56486666 0.23870759 0.34615463 0.21035627 0.12101486 -0.56325895 0.373838 -0.4684299 -0.46036467 0.40068874 0.66172266 -0.29895025 0.4824788 0.669871 -0.25324944 0.11802692 -0.3215591 -0.09400136 0.03632018 -0.11687616 0.67813206 -0.4705993 0.3246176 0.93292737
96 -0.53953505 -0.15574302 0.018999867 -0.14370064 0.13943158 -0.23318675 -0.10307082 0.17019191 -0.23315799 1.1603179 0.05786578 0.13059063 1.3466312 -0.00934604 0.43464395 -0.8314683 -0.3642696 -0.10962302 0.114828944 -0.12543583 -0.22512174 0.037124723 -0.5509988 0.4019401 -0.2796965 0.53880775 -0.5665379 -0.49476266 0.2060327 -0.57788944 -0.28144333 0.16996254
97 -0.7572679 0.53062963 -0.7495887 0.014742077 0.17019969 -0.5382485 -0.1763331 0.7940798 0.10377466 0.5606026 0.5916441 -0.18445176 1.0220432 0.29959714 0.3204511 -0.38433924 -0.4066316 0.26856065 -0.08861547 -0.10783994 -0.059653014 0.13635516 -0.106840946 0.24381857 -0.05026282 0.23421232 -0.42218482 0.25640947 1.1765716 -0.12710436 -0.15785755 -0.30515432
98 -0.6091864 0.64159656 -0.5037819 0.02918387 0.29440367 -0.4444563 -0.17197903 0.46930873 0.07951861 0.58716565 0.59497315 -0.13639165 0.6929393 -0.03509253 0.37733954 0.5800804 -0.5118655 0.48848915 -0.0140053565 0.005933443 0.3695002 0.46091622 -0.13505982 0.7441518 -0.29930264 0.4467977 -0.59913313 0.072487004 0.70824206 -0.582202 0.14156108 -0.12256865
99 -0.1395481 0.73115003 -0.25960138 0.17418075 -0.48187938 -0.21400212 0.10321984 0.81398165 -0.14155786 0.42853895 0.44445515 -0.09290292 0.49475506 -0.84611094 0.34448177 -0.85099405 -0.17476214 0.07204475 0.6812439 -0.48508596 0.3026882 0.8423391 0.1930875 0.27239606 -0.3095053 0.3071241 -0.5408954 0.4671809 0.4028323 -0.27214035 0.11268563 0.48720592
100 -0.12079594 0.6643789 0.07892614 0.08442687 -0.65782535 -0.22654825 0.25420713 0.4595558 0.5124643 0.41529313 0.11099961 0.08779202 0.5980486 -0.61882925 0.9425083 -0.81652236 -0.3158747 -0.093159586 0.56755644 -0.29800493 0.9630218 0.3130463 -0.12207027 0.48164752 -0.017272498 0.51014304 -0.08303898 -0.10204352 0.46203542 -0.40812868 -0.007965532 0.39161074
