100 16
1 0.265800 1.966039 0.615610 0.711094 1.027659 1.695177 0.600266 -0.497970 0.126192 -1.227029 -2.260745 1.837080 -1.155083 -0.955424 -0.643815 0.230072 
92 0.432748 0.064886 1.700996 1.208535 -0.235335 1.099187 2.816930 -1.784933 0.050475 -0.182212 1.036479 -0.241239 -1.009689 2.203694 0.850772 -1.913286 
94 -0.227229 2.219083 3.141286 1.923456 0.457881 -0.563306 -1.943851 -0.356925 0.672591 0.092948 0.751533 -2.133624 1.028743 -0.762219 0.914920 -0.755522 
99 1.790441 1.157126 3.119111 1.580456 -0.279474 -1.441325 1.400877 -0.712675 -0.661665 -0.344648 -0.370623 2.311847 0.404171 1.754133 0.014288 -0.353612 
100 0.684716 -0.454394 2.135387 2.548077 -0.026007 0.129753 1.662034 -0.357987 -0.805934 0.247588 -1.755078 -0.075031 -0.539677 2.796892 -1.387944 -0.216133 
2 0.066541 1.664810 2.566031 0.835747 -0.358965 0.855072 0.094134 -0.997592 0.507775 -2.429435 -1.489247 0.470408 0.572639 0.801836 2.493997 -0.895647 
46 1.019469 -0.147796 1.941979 -0.129217 1.212567 0.803251 0.352065 -2.872611 -1.878391 -1.089918 -2.493065 -0.470185 -1.183274 0.979058 -1.468437 -0.658425 
71 0.595831 0.763385 2.734645 0.700070 1.874512 -0.143088 -2.352085 -2.270283 -1.205024 0.810235 -1.330985 -2.063724 0.462627 -1.172768 -1.110412 0.703897 
95 0.088034 0.791858 1.551641 2.652077 0.587478 1.097117 0.710329 -1.229996 -2.633466 -0.235661 0.097976 2.421095 -1.898703 1.446651 0.607865 -0.539117 
3 2.512897 1.081925 -0.211645 -0.979307 -0.347664 1.720743 0.526784 -2.743034 0.223604 1.310179 -0.605080 -0.063539 -0.877800 1.462291 -1.409439 -0.010683 
59 0.972540 2.434954 0.402370 1.963677 1.308531 1.980421 1.298411 -1.609506 -1.360148 -0.042170 -0.953372 0.950708 2.048016 1.677461 0.438346 -1.072374 
78 2.381251 -0.949785 -1.850904 -0.282721 1.117594 0.486480 -0.242873 -1.632419 3.390271 -0.396827 0.575091 1.298760 1.846884 -0.462207 -0.906772 1.308529 
96 1.640740 -1.218658 -0.588681 0.587588 -0.050455 1.163438 -1.093456 1.102807 2.385219 2.445517 -0.513550 0.186615 1.991392 1.441182 0.676169 1.465182 
4 1.997318 0.188148 0.900881 -2.014762 -0.490754 1.808295 0.556604 -0.476925 1.124103 2.626073 0.974184 0.244711 0.483792 1.516711 0.784831 -0.052630 
42 1.695773 -2.206429 -0.440359 -1.050739 -0.685790 1.795073 1.153749 -0.621208 2.775869 -0.458190 -0.459649 1.202773 0.399671 2.346106 1.219290 0.191039 
82 1.553852 -1.176541 -0.420440 -1.643408 -0.158318 1.771381 -0.906031 1.548542 1.049538 0.349706 -0.941475 2.709969 -0.163696 2.441496 -1.159473 0.799754 
5 0.625020 -0.474869 -0.944451 1.204113 -2.168197 0.776128 -0.411650 0.713892 -1.764466 -0.712433 -1.564944 -0.360638 1.828065 -1.925146 -1.124440 0.451393 
22 0.365548 -0.596746 -1.298355 -0.757309 -2.530271 2.432849 1.582719 -0.612168 -2.073481 0.427105 0.947542 -0.778631 -0.928230 -0.909981 -1.794218 -0.661747 
44 0.314807 0.747120 -1.725102 -0.524273 -2.221772 2.136563 1.407467 0.593625 0.429109 -1.635647 0.263281 -0.867893 0.051738 -1.018716 -1.921017 2.415123 
65 0.244321 0.561278 -0.720290 -0.796070 -2.177131 1.693935 0.248550 0.836966 -0.933021 0.140997 0.978554 0.504575 -0.585597 -0.842083 -3.053855 2.090904 
80 0.292972 0.349465 -0.489683 1.024245 -2.253097 1.371262 0.489616 1.334346 -1.354338 1.175024 -0.231771 -1.532407 0.385603 -1.967460 -0.837886 3.171286 
6 0.703215 0.759919 0.570683 -1.560664 -1.020853 2.330295 0.365231 -1.743866 1.676535 0.789386 -0.820785 0.989328 1.428226 -0.265311 2.374645 -0.280314 
33 -0.342715 -1.275608 0.237397 -1.497988 1.221540 2.622401 -1.813436 -1.368973 0.120155 0.084387 0.799937 0.695472 1.780307 2.248277 -1.640456 1.371840 
7 0.390374 -0.510658 0.177456 0.411662 -3.249593 0.572265 0.842203 0.742869 -0.656116 -0.696231 -1.326342 0.550608 2.069885 -1.725733 -0.819748 1.009661 
39 1.086790 0.712091 -2.222182 -0.214990 -1.697597 2.806365 -0.313474 0.708220 -2.187212 1.174552 -0.900276 -0.094474 1.770376 -0.562375 -0.632040 1.033879 
8 -1.670911 -0.511500 1.741411 1.011436 -0.086359 0.611128 -0.732489 -0.407771 0.266720 -2.466340 -0.133031 -1.429208 -0.630732 -1.094364 -2.570915 0.799933 
67 -0.641705 0.560324 3.044582 0.098634 1.927648 1.010801 -2.048393 1.223307 -1.051429 1.455507 -0.162919 -2.651928 0.543587 -1.576539 0.929507 0.014641 
88 -2.076292 -0.064502 0.287840 1.037162 0.061545 2.792582 -0.198518 -0.993543 0.812300 0.989538 0.763175 1.103151 0.330333 -3.025389 0.701441 -1.466262 
91 0.635169 2.653062 1.007698 0.587930 0.842467 -0.080804 -2.376482 -1.468573 0.305111 -0.410735 1.637549 0.118820 -2.009398 -2.970681 -0.011530 1.008734 
9 -1.969860 -0.673033 0.984457 2.753037 0.441280 1.915438 0.269395 -0.442175 -0.010967 1.242234 0.891962 -1.250794 0.389399 -1.800750 -1.336625 -0.149513 
27 -1.441979 -2.330370 1.330975 1.580955 -0.533901 0.980690 -0.743576 -1.951261 1.283026 0.157799 -0.438461 -0.738879 0.678396 -2.318200 -0.236847 -1.033052 
61 -2.127059 -1.561899 0.421932 0.946058 1.784608 2.199994 0.346433 -1.259759 0.119019 -0.986590 0.096854 -0.051091 -0.103002 -2.823719 -1.337781 -0.289665 
68 -1.209697 -1.949965 -0.174370 2.057126 -0.993422 0.873966 -0.594668 0.366883 1.246243 -0.290846 1.014580 1.533307 1.664911 -2.975597 -0.168942 -1.824507 
10 -0.580425 0.512646 3.034501 -0.017498 1.480210 0.223480 1.126614 0.183135 -0.231085 -1.217335 -1.389994 -1.404017 1.300918 -2.157149 -1.224468 0.030285 
32 -0.920263 1.806963 1.462629 2.503108 1.363734 1.025810 -2.752370 -0.549800 0.875786 -1.741144 -0.450005 0.040525 -0.268603 0.061076 -1.036836 1.642533 
40 0.436971 2.604333 -0.021391 2.841085 -0.266285 1.550608 0.703234 -1.196364 0.865775 -1.386299 1.008587 0.927092 -1.301252 1.595163 -0.894358 -1.223031 
11 -0.508175 -0.565917 0.116130 -1.990878 0.254509 1.970468 -2.763365 0.768719 -2.449190 -1.589942 0.372495 -0.133221 1.125211 -1.073701 0.333652 -0.727885 
41 0.724201 -1.898022 0.876038 -2.248198 -0.758253 0.879809 -1.656324 -0.032692 -0.003803 -1.428666 -2.097018 -1.050606 0.755929 -1.308651 1.997713 2.148115 
56 0.381665 -2.224951 0.600221 -1.372949 -1.307403 0.176523 -2.091004 -0.747852 -0.455524 -3.184822 -0.735390 -0.944814 -0.114677 -0.641753 0.813826 1.827651 
64 0.653048 -1.261272 -0.266054 -1.529788 1.471136 1.559753 -0.521558 0.011824 -3.664817 -1.333895 1.170914 -0.412005 -0.184541 -0.674767 1.280899 1.770215 
85 -0.412799 -2.183263 1.969849 -0.985324 -0.630465 0.825458 -0.511726 0.661356 -1.316536 -2.250384 -0.781544 -1.672980 -1.482265 0.481622 1.664715 0.747206 
12 0.688578 0.462754 1.423165 0.257972 0.658143 1.744873 1.501854 -1.198106 -2.097120 -1.288055 -1.246580 -1.021276 -0.410608 2.092349 0.062602 -1.723081 
83 1.606854 -0.397911 2.782904 0.000444 -0.490105 -0.700305 1.708374 -1.177942 -1.451300 0.105119 -2.017617 2.340364 -0.928391 -1.340121 0.375484 -1.803772 
90 1.936731 0.906293 -0.163023 2.045500 -1.507133 0.655934 1.215351 -1.462093 -1.070836 -1.988826 -1.559668 1.059465 -1.526864 1.396507 1.702866 0.012280 
13 -0.049971 -2.026375 0.305841 -1.937500 0.073889 2.066183 -1.314842 -2.031188 1.447258 1.483784 -0.319473 0.335083 0.837650 -1.023143 -1.086511 -0.071976 
34 -1.751770 -1.685499 0.271774 2.934842 -0.803992 1.843600 -0.263521 -1.143162 0.712945 1.127964 1.722639 -0.351624 1.069786 -1.034315 0.005743 1.371385 
79 0.362101 -0.110565 -1.535000 -0.388391 -1.472099 2.247050 -1.758869 -1.268593 1.797765 0.989241 2.727354 0.249903 1.627298 0.881911 -0.596912 1.660865 
89 1.309181 -1.100160 -1.454236 -0.927999 0.435790 2.657857 -0.083085 -1.409938 1.180475 1.211080 -0.022115 0.346590 1.088091 0.072984 2.462088 2.910537 
14 0.313406 0.845121 -1.853962 0.541774 -1.761611 1.984937 -0.804727 -0.298963 -1.241768 -0.327270 -0.219528 -0.899636 2.465825 -1.326866 -0.868444 0.936584 
50 1.131792 -0.447413 -1.156195 -0.632967 -1.651244 1.073159 0.187105 -0.473197 0.312466 0.924456 -1.518173 -1.073950 1.757857 -2.891332 -2.144299 1.738837 
15 1.577795 -0.323699 -0.397255 -2.413850 0.136754 1.101069 0.889276 -0.510225 -0.003042 -0.460401 2.306496 0.801087 -0.126380 0.286793 -2.124361 -1.525373 
86 1.535337 -1.138655 -0.259080 0.469608 -0.241480 -0.282149 1.306150 3.170194 1.801971 -0.600530 2.090739 1.445655 -2.244463 -1.500596 -0.129519 -0.778137 
93 2.406442 -0.858589 -0.885062 0.830034 -0.063306 -1.042575 0.490649 4.200716 0.163368 -1.424734 0.253216 0.403293 -0.512615 -0.957020 -0.451236 -0.087165 
97 2.856950 -0.577571 -1.174847 -0.049018 -0.691523 -0.719186 2.141934 1.929988 0.533398 -0.276370 1.251633 -1.048252 0.663560 -1.716446 1.191010 -1.680860 
16 1.158261 -1.032065 0.408614 -1.049320 -1.555620 0.670573 -2.794131 -0.898902 -1.534440 -0.939604 0.482715 0.114090 -1.590595 -0.011460 1.688301 0.308908 
69 0.480854 -2.303779 1.236340 -1.176295 0.571691 0.538727 -1.662381 1.153509 -2.053757 -0.012958 1.003664 0.534738 -1.117406 -0.965075 2.073050 1.852316 
77 -0.155027 -2.514338 -0.206157 0.114084 0.826384 1.823084 -2.750024 0.848491 -1.563970 -1.376192 0.325037 0.763323 -0.478640 0.856050 2.154395 0.928079 
87 -1.063009 -2.927918 1.917253 -1.466875 -0.237403 1.106607 -2.367737 0.201708 -2.059718 -0.813355 0.235810 0.786332 0.324434 0.612130 0.600487 -0.466490 
17 -0.403340 -0.513980 1.809346 0.972494 2.557182 0.610271 -1.684989 0.412715 0.951738 -1.886358 -1.450519 -0.035221 0.589388 -0.298846 0.204257 1.849330 
66 0.883677 -1.212112 0.458552 -1.101195 0.086833 0.784042 -3.602674 -1.730578 -1.817688 -0.521996 1.103716 -0.835817 0.654045 -0.024211 2.033143 0.292524 
81 0.257489 2.482885 2.097900 -1.260898 0.704309 0.347836 -1.392010 -2.896620 1.710059 -1.499038 -0.312566 0.343203 1.751245 -1.154426 -0.588270 -0.160567 
18 1.566366 -0.039203 -0.325906 -1.243424 0.845298 1.153516 1.652748 1.837145 -1.234508 0.500314 2.180529 -0.345358 -0.140221 -1.044435 0.369127 -1.824196 
84 1.633176 -2.388407 0.207283 -0.123669 0.779474 -1.069072 1.392167 1.132775 0.871996 -0.956747 2.745815 0.531723 -0.602952 -1.045190 -1.122741 -2.170827 
98 2.389483 -1.067325 -1.562899 -1.222372 -0.919005 -0.510041 -0.185084 2.016619 0.737368 -2.419144 1.097660 -0.143098 -0.169593 -0.587894 -0.252607 -2.551409 
19 -1.155429 -1.392596 -0.405803 1.271040 0.769137 2.010050 -0.426362 0.691814 0.475343 -0.372632 -0.421219 1.782126 0.411026 -2.308376 -2.332505 -1.333103 
23 -1.652241 -1.080353 -0.826131 1.746742 -0.919708 2.651066 -0.386110 0.681726 0.677845 0.700290 2.133263 0.805356 0.809722 -0.671709 -1.858258 -1.072003 
24 -1.450471 -0.261866 0.819061 2.531340 -0.715236 1.640906 -0.422098 0.897204 0.363504 1.351742 0.741128 -0.741510 0.823529 -1.248771 -1.701703 -1.940175 
20 2.273018 -0.341435 -0.559464 0.481879 0.882086 0.024951 1.495644 1.582234 -0.416503 -1.480879 2.243760 -0.102088 -1.184440 1.109044 -1.281299 2.042715 
57 1.004971 0.346436 0.949206 0.781188 0.538813 1.297164 1.501479 -0.207194 -0.946937 -0.613740 -3.183540 0.561446 0.110397 -0.335756 0.414399 -3.047746 
76 2.897192 -1.569224 -1.801197 0.552400 0.411493 -0.855675 -0.648594 0.980929 -1.796550 -0.117699 1.366091 -1.821853 -0.649027 -1.538187 -2.189389 -1.172068 
21 1.252413 -0.865824 -0.473547 -1.989948 -0.282215 1.811553 -1.450649 -1.333650 1.277309 2.411768 0.437414 -0.272254 0.901512 -0.109784 -1.485715 0.398703 
38 -0.365641 -1.974334 -0.753623 0.431850 0.949869 2.271287 -0.720256 -0.447471 1.652130 1.587745 -0.980437 0.224604 0.270441 -2.000238 -2.192700 -0.829729 
25 0.666405 -0.923062 -0.893420 -1.599694 -2.267702 1.782303 -0.992702 -0.952856 0.706246 -0.386883 -0.183273 1.292607 1.666103 0.716621 -1.624812 -0.269044 
73 2.449516 -0.657643 -0.301927 -2.227757 0.750412 1.733124 1.093295 0.426595 0.289906 3.150813 0.650539 0.139003 0.593391 0.061087 0.534446 1.620867 
26 0.222621 0.903304 2.673646 -1.162376 1.610563 -0.067144 -0.203596 0.973193 0.414786 -1.631249 0.907973 -0.074157 -0.707191 -0.135217 -3.032409 0.487701 
45 1.933886 2.262548 0.557259 1.788755 2.175892 0.332370 -0.416832 -1.205965 1.516133 0.074047 -1.659915 -1.568221 -0.886273 -1.244511 -0.818452 1.089937 
28 0.765025 -1.766644 2.013441 -2.842511 -1.425607 1.215713 -0.647191 -0.367105 0.515363 1.639515 0.703803 0.714949 0.354179 0.874446 1.171293 0.146012 
29 0.267285 0.638326 0.732080 -0.661501 1.931990 0.787574 -0.772362 -0.577615 0.571756 -1.455948 1.041632 -3.718968 -1.181828 -1.961270 -1.173460 0.608072 
48 1.587050 0.115968 0.998751 -0.214908 -0.077256 -1.352303 -1.783803 0.531344 2.175139 -1.090858 0.727229 -3.532554 -0.061072 -2.015688 -1.564164 -0.327718 
55 0.850810 1.839407 -0.595126 -0.061608 1.205118 0.321886 -1.499714 0.569039 1.362536 -3.442270 1.178258 -1.304830 -0.014970 -1.728085 -0.333228 1.703431 
75 1.145771 1.669693 1.796305 -0.488721 0.869107 0.184974 -2.500937 0.883998 1.332259 0.735276 1.403749 -3.049591 -0.393476 0.455150 -0.815887 1.132183 
30 1.352495 0.109931 0.144555 -0.969756 -0.916259 1.464411 -3.121892 -0.743946 1.923056 2.613924 -1.194133 -1.187380 0.778424 -0.651103 -0.486253 0.408950 
74 -0.240107 0.716955 1.846281 -0.559154 2.728487 1.056996 -0.479452 -0.328822 2.469205 -1.294038 0.894852 -1.692767 0.029511 0.332403 -0.782047 1.840123 
31 1.448275 -0.669827 1.234426 -1.123470 0.664013 0.247876 2.600590 0.163521 -1.261116 0.690174 2.223833 0.601771 -0.864260 -0.353039 -2.050077 -1.021769 
53 0.235913 1.909030 0.938017 1.296002 -1.804374 1.865888 1.553231 1.343630 -0.948530 -1.376443 -1.500449 0.307425 -1.392212 1.285786 0.337001 -1.884860 
35 0.512117 0.453831 1.085271 0.705570 -0.755248 1.861383 1.587509 -0.359177 0.691127 -0.851487 -2.813680 0.899279 -1.546266 0.803797 0.698154 -0.488525 
54 -0.007220 0.943308 2.611959 0.578217 -0.555929 1.905411 0.621856 0.580169 -1.376534 1.493451 -1.136829 3.183008 0.845295 2.051399 0.171425 -1.290791 
36 0.573859 -1.536508 0.616443 -1.882340 -2.795620 1.174574 0.632002 -0.251863 1.998588 0.513040 0.649844 0.521105 2.054928 0.609742 -0.367432 0.648043 
37 -1.291453 1.306727 1.797486 0.946585 0.556828 0.927722 -0.326597 -0.326566 -0.439604 -3.897605 0.241296 -1.388640 0.207778 0.225344 -1.119773 0.281143 
70 1.817780 2.341706 1.291885 -1.015741 0.949372 0.968851 2.465274 1.563331 -0.298861 -0.378100 -1.755308 0.860302 0.318295 -0.321522 -0.256422 -1.985474 
43 0.636144 -0.255289 -0.534568 -0.927465 1.256313 1.612161 0.904712 2.057610 -0.692293 0.475956 2.181355 0.142348 -0.610249 -0.998917 -1.676172 -1.597001 
47 1.232405 1.034245 0.934634 1.708980 -0.778812 1.012540 1.042173 -2.902718 1.516144 0.452591 -0.459298 1.351722 -2.438996 0.651894 -0.795454 -0.877056 
52 0.658906 2.546807 2.366218 0.218779 -0.347535 1.315548 1.038458 1.833087 -1.068695 -0.095705 -2.238540 -1.002246 -1.271894 0.868890 -0.683861 0.200340 
62 2.105390 0.297138 -1.482174 -1.253006 0.191721 1.120455 0.560354 2.089868 0.020343 -1.057086 2.969176 -0.766659 -2.459995 -0.347731 0.467541 -0.244373 
49 1.799131 -2.593287 0.925468 -1.206690 1.552092 -0.361867 0.818590 0.996287 -1.654321 -0.065457 1.428181 -0.541321 0.054547 0.389588 -1.900951 -2.077573 
51 0.986981 -0.183443 1.209650 -1.949098 -1.587246 0.903722 -1.840657 -0.464857 -1.884210 -2.127007 -0.939671 -0.349723 -1.398691 0.271656 1.869033 -0.815804 
60 0.759918 0.371144 2.208550 0.086545 0.297986 1.070752 2.955407 -1.550655 0.874309 -0.444456 -0.754711 0.689601 -2.766769 -0.222312 1.008125 -0.509354 
58 2.686812 -0.778361 -1.668354 -0.610036 1.146547 0.860808 2.846913 0.833778 0.113426 -0.745857 0.531548 -0.531490 -2.509321 -0.965817 -1.244416 -0.479825 
63 1.646800 1.152118 0.457008 0.244847 0.552168 0.026947 0.985807 2.803894 -2.849822 -0.978140 2.410223 0.403371 0.411386 0.846238 -1.247916 -1.020577 
72 3.258598 0.911453 -1.312881 -1.326854 0.252362 0.290688 0.858495 1.977986 -0.495006 0.309556 2.478545 -0.980744 0.263550 0.355952 -1.112199 -0.727606 
